{"learner":{"attributes":{"best_iteration":"95","best_score":"1.7892052427648886"},"feature_names":["Price","High","Low","Vol.","barcos_panamá","barcos_suez","Change ","Price_Media_Mes_Pasado","Price_lag1","Price_lag2","Pendiente","Alto-Bajo","Bajo-Alto","Price_lag3","media_col1","desv_col1","skew_col1","kurt_col1","cambio_pct","evento_extremo","media_sp","desv_sp","skew_sp","kurt_sp","momentum_EP","momentum_sp","momentum_dolar","Vol_WTI_extrema","media_Dolar","desv_Dolar","skew_Dolar"],"feature_types":["float","float","float","float","int","int","float","float","float","float","float","float","float","float","float","float","float","float","float","int","float","float","float","float","float","float","float","int","float","float","float"],"gradient_booster":{"model":{"gbtree_model_param":{"num_parallel_tree":"1","num_trees":"146"},"iteration_indptr":[0,1,2,3,4,5,6,7,8,9,10,11,12,13,14,15,16,17,18,19,20,21,22,23,24,25,26,27,28,29,30,31,32,33,34,35,36,37,38,39,40,41,42,43,44,45,46,47,48,49,50,51,52,53,54,55,56,57,58,59,60,61,62,63,64,65,66,67,68,69,70,71,72,73,74,75,76,77,78,79,80,81,82,83,84,85,86,87,88,89,90,91,92,93,94,95,96,97,98,99,100,101,102,103,104,105,106,107,108,109,110,111,112,113,114,115,116,117,118,119,120,121,122,123,124,125,126,127,128,129,130,131,132,133,134,135,136,137,138,139,140,141,142,143,144,145,146],"tree_info":[0,0,0,0,0,0,0,0,0,0,0,0,0,0,0,0,0,0,0,0,0,0,0,0,0,0,0,0,0,0,0,0,0,0,0,0,0,0,0,0,0,0,0,0,0,0,0,0,0,0,0,0,0,0,0,0,0,0,0,0,0,0,0,0,0,0,0,0,0,0,0,0,0,0,0,0,0,0,0,0,0,0,0,0,0,0,0,0,0,0,0,0,0,0,0,0,0,0,0,0,0,0,0,0,0,0,0,0,0,0,0,0,0,0,0,0,0,0,0,0,0,0,0,0,0,0,0,0,0,0,0,0,0,0,0,0,0,0,0,0,0,0,0,0,0,0],"trees":[{"base_weights":[2.0568496E-1,-1.600447E1,2.3588682E1,-2.6434538E1,-7.1175804E0,1.5770094E1,3.4211475E1,-3.646534E1,-2.2724936E1,-1.1395779E1,-9.078598E-1,8.898928E0,2.0142252E1,3.0811338E1,5.5148674E1,-2.101823E0,-1.607459E0,-1.2759696E0,-9.9541247E-1,-6.9019896E-1,-4.3964148E-1,-1.5788743E-1,7.4026525E-2,3.0924502E-1,5.676301E-1,8.4093696E-1,1.1104835E0,1.3822718E0,1.7208388E0,2.1157684E0,2.948576E0],"categories":[],"categories_nodes":[],"categories_segments":[],"categories_sizes":[],"default_left":[0,0,0,0,0,0,0,0,0,0,0,0,0,0,0,0,0,0,0,0,0,0,0,0,0,0,0,0,0,0,0],"id":0,"left_children":[1,3,5,7,9,11,13,15,17,19,21,23,25,27,29,-1,-1,-1,-1,-1,-1,-1,-1,-1,-1,-1,-1,-1,-1,-1,-1],"loss_changes":[1.006355E6,1.451511E5,8.97415E4,2.5999938E4,2.251798E4,1.8687031E4,3.1047938E4,3.2894219E3,3.65575E3,3.025375E3,1.8693186E3,1.5679824E3,2.2580938E3,3.5915E3,5.953594E2,0E0,0E0,0E0,0E0,0E0,0E0,0E0,0E0,0E0,0E0,0E0,0E0,0E0,0E0,0E0,0E0],"parents":[2147483647,0,0,1,1,2,2,3,3,4,4,5,5,6,6,7,7,8,8,9,9,10,10,11,11,12,12,13,13,14,14],"right_children":[2,4,6,8,10,12,14,16,18,20,22,24,26,28,30,-1,-1,-1,-1,-1,-1,-1,-1,-1,-1,-1,-1,-1,-1,-1,-1],"split_conditions":[7.564E1,5.473E1,9.67E1,4.193E1,6.589E1,8.458E1,1.1236E2,3.7327274E1,4.881E1,6.02E1,7.105E1,8.044E1,9.112E1,1.0157E2,1.2545857E2,-2.101823E0,-1.607459E0,-1.2759696E0,-9.9541247E-1,-6.9019896E-1,-4.3964148E-1,-1.5788743E-1,7.4026525E-2,3.0924502E-1,5.676301E-1,8.4093696E-1,1.1104835E0,1.3822718E0,1.7208388E0,2.1157684E0,2.948576E0],"split_indices":[0,0,0,0,0,2,2,7,0,0,0,0,0,2,7,0,0,0,0,0,0,0,0,0,0,0,0,0,0,0,0],"split_type":[0,0,0,0,0,0,0,0,0,0,0,0,0,0,0,0,0,0,0,0,0,0,0,0,0,0,0,0,0,0,0],"sum_hessian":[2.653E3,1.567E3,1.086E3,7.2E2,8.47E2,6.27E2,4.59E2,1.92E2,5.28E2,5.01E2,3.46E2,2.45E2,3.82E2,3.97E2,6.2E1,8E1,1.12E2,2.61E2,2.67E2,2.58E2,2.43E2,1.78E2,1.68E2,1.18E2,1.27E2,1.5E2,2.32E2,2.16E2,1.81E2,1.7E1,4.5E1],"tree_param":{"num_deleted":"0","num_feature":"31","num_nodes":"31","size_leaf_vector":"1"}},{"base_weights":[-6.462581E-2,-1.5210507E1,2.2675793E1,-2.4443195E1,-6.424721E0,1.420358E1,3.1498117E1,-3.5309868E1,-2.1245792E1,-1.10274725E1,-1.4288414E0,8.922815E0,1.8793268E1,2.8317347E1,4.982348E1,-2.0544634E0,-1.5607347E0,-1.2100042E0,-9.1399413E-1,-6.599962E-1,-4.5910248E-1,-2.0588894E-1,3.3995684E-2,3.157291E-1,5.710293E-1,8.016264E-1,1.0168365E0,1.2587894E0,1.5631183E0,2.068438E0,2.8093567E0],"categories":[],"categories_nodes":[],"categories_segments":[],"categories_sizes":[],"default_left":[0,0,0,0,0,0,0,0,0,0,0,0,0,0,0,0,0,0,0,0,0,0,0,0,0,0,0,0,0,0,0],"id":1,"left_children":[1,3,5,7,9,11,13,15,17,19,21,23,25,27,29,-1,-1,-1,-1,-1,-1,-1,-1,-1,-1,-1,-1,-1,-1,-1,-1],"loss_changes":[9.089346E5,1.2833141E5,7.840819E4,2.6073062E4,1.8679012E4,1.292032E4,2.8666094E4,2.8355938E3,4.8061875E3,1.5746484E3,2.2198914E3,1.5761211E3,9.0114844E2,3.3023125E3,1.7108438E3,0E0,0E0,0E0,0E0,0E0,0E0,0E0,0E0,0E0,0E0,0E0,0E0,0E0,0E0,0E0,0E0],"parents":[2147483647,0,0,1,1,2,2,3,3,4,4,5,5,6,6,7,7,8,8,9,9,10,10,11,11,12,12,13,13,14,14],"right_children":[2,4,6,8,10,12,14,16,18,20,22,24,26,28,30,-1,-1,-1,-1,-1,-1,-1,-1,-1,-1,-1,-1,-1,-1,-1,-1],"split_conditions":[7.564E1,5.559E1,9.55E1,4.165E1,6.458E1,8.663E1,1.103E2,3.327E1,4.933E1,5.963E1,6.955E1,8.101E1,9.084E1,1.0107E2,1.223E2,-2.0544634E0,-1.5607347E0,-1.2100042E0,-9.1399413E-1,-6.599962E-1,-4.5910248E-1,-2.0588894E-1,3.3995684E-2,3.157291E-1,5.710293E-1,8.016264E-1,1.0168365E0,1.2587894E0,1.5631183E0,2.068438E0,2.8093567E0],"split_indices":[0,0,0,0,0,0,2,0,0,0,0,0,0,0,8,0,0,0,0,0,0,0,0,0,0,0,0,0,0,0,0],"split_type":[0,0,0,0,0,0,0,0,0,0,0,0,0,0,0,0,0,0,0,0,0,0,0,0,0,0,0,0,0,0,0],"sum_hessian":[2.637E3,1.583E3,1.054E3,7.71E2,8.12E2,5.39E2,5.15E2,1.73E2,5.98E2,4.22E2,3.9E2,2.52E2,2.87E2,4.41E2,7.4E1,6.8E1,1.05E2,2.96E2,3.02E2,1.91E2,2.31E2,1.71E2,2.19E2,1.25E2,1.27E2,1.07E2,1.8E2,2.18E2,2.23E2,3.5E1,3.9E1],"tree_param":{"num_deleted":"0","num_feature":"31","num_nodes":"31","size_leaf_vector":"1"}},{"base_weights":[3.5077915E-2,-1.4570315E1,2.1113592E1,-2.3437174E1,-6.4407945E0,1.3038856E1,3.01182E1,-3.2438007E1,-2.0095364E1,-1.0813981E1,-1.8188032E0,7.7450104E0,1.7388609E1,2.7042688E1,4.774866E1,-1.9567072E0,-1.4597269E0,-1.118038E0,-8.714886E-1,-6.2037283E-1,-4.29612E-1,-2.095489E-1,2.2273773E-2,2.4623556E-1,4.9373984E-1,7.2109294E-1,9.516101E-1,1.2216841E0,1.5101932E0,1.9443375E0,2.629776E0],"categories":[],"categories_nodes":[],"categories_segments":[],"categories_sizes":[],"default_left":[0,0,0,0,0,0,0,0,0,0,0,0,0,0,0,0,0,0,0,0,0,0,0,0,0,0,0,0,0,0,0],"id":2,"left_children":[1,3,5,7,9,11,13,15,17,19,21,23,25,27,29,-1,-1,-1,-1,-1,-1,-1,-1,-1,-1,-1,-1,-1,-1,-1,-1],"loss_changes":[8.078244E5,1.1157819E5,7.769766E4,2.163675E4,1.6352723E4,1.2944617E4,2.6199656E4,3.1795156E3,2.8892188E3,1.3661523E3,2.1235166E3,1.501082E3,1.242E3,2.8414375E3,1.1332188E3,0E0,0E0,0E0,0E0,0E0,0E0,0E0,0E0,0E0,0E0,0E0,0E0,0E0,0E0,0E0,0E0],"parents":[2147483647,0,0,1,1,2,2,3,3,4,4,5,5,6,6,7,7,8,8,9,9,10,10,11,11,12,12,13,13,14,14],"right_children":[2,4,6,8,10,12,14,16,18,20,22,24,26,28,30,-1,-1,-1,-1,-1,-1,-1,-1,-1,-1,-1,-1,-1,-1,-1,-1],"split_conditions":[7.388E1,5.413E1,9.653E1,4.381E1,6.34E1,8.458E1,1.103E2,3.44E1,5.056E1,5.943E1,6.855E1,8.052E1,9.132E1,1.03E2,1.2054E2,-1.9567072E0,-1.4597269E0,-1.118038E0,-8.714886E-1,-6.2037283E-1,-4.29612E-1,-2.095489E-1,2.2273773E-2,2.4623556E-1,4.9373984E-1,7.2109294E-1,9.516101E-1,1.2216841E0,1.5101932E0,1.9443375E0,2.629776E0],"split_indices":[2,2,1,1,2,2,2,1,1,2,2,1,1,1,2,0,0,0,0,0,0,0,0,0,0,0,0,0,0,0,0],"split_type":[0,0,0,0,0,0,0,0,0,0,0,0,0,0,0,0,0,0,0,0,0,0,0,0,0,0,0,0,0,0,0],"sum_hessian":[2.622E3,1.549E3,1.073E3,7.4E2,8.09E2,5.67E2,5.06E2,1.98E2,5.42E2,4.15E2,3.94E2,2.57E2,3.1E2,4.33E2,7.3E1,6.1E1,1.37E2,2.89E2,2.53E2,2.39E2,1.76E2,1.92E2,2.02E2,1.12E2,1.45E2,1.14E2,1.96E2,2.42E2,1.91E2,2.9E1,4.4E1],"tree_param":{"num_deleted":"0","num_feature":"31","num_nodes":"31","size_leaf_vector":"1"}},{"base_weights":[-4.4753513E-1,-1.408578E1,1.9673191E1,-2.2604155E1,-6.070919E0,1.2110377E1,2.832256E1,-3.149774E1,-1.952007E1,-9.984496E0,-1.2002518E0,6.926795E0,1.616943E1,2.5407345E1,4.5168583E1,-1.8577658E0,-1.4119682E0,-1.1025171E0,-8.5397685E-1,-6.1645687E-1,-4.146657E-1,-1.5506327E-1,4.84082E-2,2.119668E-1,4.3214494E-1,6.5618455E-1,8.8925946E-1,1.1370705E0,1.4212548E0,1.8319196E0,2.5431764E0],"categories":[],"categories_nodes":[],"categories_segments":[],"categories_sizes":[],"default_left":[0,0,0,0,0,0,0,0,0,0,0,0,0,0,0,0,0,0,0,0,0,0,0,0,0,0,0,0,0,0,0],"id":3,"left_children":[1,3,5,7,9,11,13,15,17,19,21,23,25,27,29,-1,-1,-1,-1,-1,-1,-1,-1,-1,-1,-1,-1,-1,-1,-1,-1],"loss_changes":[7.1457E5,1.0582334E5,6.847209E4,2.00115E4,1.5256465E4,1.1733766E4,2.2916219E4,2.4901875E3,3.0876719E3,1.6583047E3,1.478746E3,1.1117373E3,1.3167656E3,2.7325312E3,1.5855469E3,0E0,0E0,0E0,0E0,0E0,0E0,0E0,0E0,0E0,0E0,0E0,0E0,0E0,0E0,0E0,0E0],"parents":[2147483647,0,0,1,1,2,2,3,3,4,4,5,5,6,6,7,7,8,8,9,9,10,10,11,11,12,12,13,13,14,14],"right_children":[2,4,6,8,10,12,14,16,18,20,22,24,26,28,30,-1,-1,-1,-1,-1,-1,-1,-1,-1,-1,-1,-1,-1,-1,-1,-1],"split_conditions":[7.495E1,5.473E1,9.532E1,4.165E1,6.536E1,8.516E1,1.1229E2,3.327E1,4.881E1,5.914E1,7.047E1,7.877E1,8.905E1,1.0132E2,1.223E2,-1.8577658E0,-1.4119682E0,-1.1025171E0,-8.5397685E-1,-6.1645687E-1,-4.146657E-1,-1.5506327E-1,4.84082E-2,2.119668E-1,4.3214494E-1,6.5618455E-1,8.8925946E-1,1.1370705E0,1.4212548E0,1.8319196E0,2.5431764E0],"split_indices":[0,0,0,0,0,0,0,0,0,0,0,0,0,0,0,0,0,0,0,0,0,0,0,0,0,0,0,0,0,0,0],"split_type":[0,0,0,0,0,0,0,0,0,0,0,0,0,0,0,0,0,0,0,0,0,0,0,0,0,0,0,0,0,0,0],"sum_hessian":[2.602E3,1.551E3,1.051E3,7.51E2,8E2,5.62E2,4.89E2,1.91E2,5.6E2,4.43E2,3.57E2,2.48E2,3.14E2,4.19E2,7E1,6.6E1,1.25E2,2.71E2,2.89E2,1.83E2,2.6E2,1.9E2,1.67E2,9.8E1,1.5E2,1.12E2,2.02E2,2.27E2,1.92E2,3.1E1,3.9E1],"tree_param":{"num_deleted":"0","num_feature":"31","num_nodes":"31","size_leaf_vector":"1"}},{"base_weights":[-1.5613113E-1,-1.3737802E1,1.8356758E1,-2.1593594E1,-6.6924233E0,9.991186E0,2.5788511E1,-2.967346E1,-1.8672827E1,-1.0351901E1,-2.4701185E0,5.2583156E0,1.4181281E1,2.3509167E1,4.2757607E1,-1.7454538E0,-1.3054212E0,-1.0423871E0,-8.246607E-1,-6.287105E-1,-4.5564795E-1,-2.437777E-1,-3.230809E-2,1.697681E-1,3.640299E-1,6.173293E-1,8.0165577E-1,1.0255092E0,1.3375485E0,1.827143E0,2.4598444E0],"categories":[],"categories_nodes":[],"categories_segments":[],"categories_sizes":[],"default_left":[0,0,0,0,0,0,0,0,0,0,0,0,0,0,0,0,0,0,0,0,0,0,0,0,0,0,0,0,0,0,0],"id":4,"left_children":[1,3,5,7,9,11,13,15,17,19,21,23,25,27,29,-1,-1,-1,-1,-1,-1,-1,-1,-1,-1,-1,-1,-1,-1,-1,-1],"loss_changes":[6.6605456E5,8.442575E4,6.943591E4,1.6484688E4,1.2443734E4,1.0416125E4,2.1931125E4,2.6349531E3,2.1828281E3,1.0748438E3,1.6465161E3,9.1713525E2,7.533594E2,4.5554375E3,9.6347656E2,0E0,0E0,0E0,0E0,0E0,0E0,0E0,0E0,0E0,0E0,0E0,0E0,0E0,0E0,0E0,0E0],"parents":[2147483647,0,0,1,1,2,2,3,3,4,4,5,5,6,6,7,7,8,8,9,9,10,10,11,11,12,12,13,13,14,14],"right_children":[2,4,6,8,10,12,14,16,18,20,22,24,26,28,30,-1,-1,-1,-1,-1,-1,-1,-1,-1,-1,-1,-1,-1,-1,-1,-1],"split_conditions":[7.375E1,5.399E1,9.331E1,4.193E1,6.335E1,8.323E1,1.1229E2,3.7327274E1,4.86E1,5.781E1,6.798E1,7.938E1,8.905E1,1.0039E2,1.2629E2,-1.7454538E0,-1.3054212E0,-1.0423871E0,-8.246607E-1,-6.287105E-1,-4.5564795E-1,-2.437777E-1,-3.230809E-2,1.697681E-1,3.640299E-1,6.173293E-1,8.0165577E-1,1.0255092E0,1.3375485E0,1.827143E0,2.4598444E0],"split_indices":[0,0,0,0,0,0,0,7,0,0,0,1,0,0,0,0,0,0,0,0,0,0,0,0,0,0,0,0,0,0,0],"split_type":[0,0,0,0,0,0,0,0,0,0,0,0,0,0,0,0,0,0,0,0,0,0,0,0,0,0,0,0,0,0,0],"sum_hessian":[2.647E3,1.527E3,1.12E3,7.21E2,8.06E2,5.28E2,5.92E2,1.89E2,5.32E2,4.31E2,3.75E2,2.49E2,2.79E2,5.24E2,6.8E1,7.3E1,1.16E2,2.62E2,2.7E2,1.51E2,2.8E2,1.61E2,2.14E2,1.31E2,1.18E2,1.44E2,1.35E2,2.76E2,2.48E2,3.8E1,3E1],"tree_param":{"num_deleted":"0","num_feature":"31","num_nodes":"31","size_leaf_vector":"1"}},{"base_weights":[-1.5791726E-1,-1.280687E1,1.8038969E1,-2.0258944E1,-5.756963E0,1.1296581E1,2.5762274E1,-2.7872387E1,-1.753087E1,-9.2994995E0,-1.5114828E0,5.905358E0,1.4598962E1,2.336119E1,4.219904E1,-1.7310389E0,-1.26793E0,-9.546707E-1,-7.3973864E-1,-5.360026E-1,-3.5659888E-1,-2.0024042E-1,2.5387704E-3,1.8923853E-1,3.760328E-1,6.0617286E-1,8.158817E-1,1.0572022E0,1.3375634E0,1.7666348E0,2.368524E0],"categories":[],"categories_nodes":[],"categories_segments":[],"categories_sizes":[],"default_left":[0,0,0,0,0,0,0,0,0,0,0,0,0,0,0,0,0,0,0,0,0,0,0,0,0,0,0,0,0,0,0],"id":5,"left_children":[1,3,5,7,9,11,13,15,17,19,21,23,25,27,29,-1,-1,-1,-1,-1,-1,-1,-1,-1,-1,-1,-1,-1,-1,-1,-1],"loss_changes":[6.0788394E5,8.173514E4,5.6104594E4,1.5234281E4,1.2047838E4,1.0240023E4,1.8905031E4,2.4809375E3,2.1116719E3,1.2691016E3,1.4258533E3,7.319702E2,1.3295703E3,2.7565781E3,5.633281E2,0E0,0E0,0E0,0E0,0E0,0E0,0E0,0E0,0E0,0E0,0E0,0E0,0E0,0E0,0E0,0E0],"parents":[2147483647,0,0,1,1,2,2,3,3,4,4,5,5,6,6,7,7,8,8,9,9,10,10,11,11,12,12,13,13,14,14],"right_children":[2,4,6,8,10,12,14,16,18,20,22,24,26,28,30,-1,-1,-1,-1,-1,-1,-1,-1,-1,-1,-1,-1,-1,-1,-1,-1],"split_conditions":[7.388E1,5.365E1,9.55E1,4.275E1,6.34E1,8.445E1,1.1236E2,3.187E1,5.032E1,6.038E1,6.847E1,7.877E1,9.005E1,1.0293E2,1.2404E2,-1.7310389E0,-1.26793E0,-9.546707E-1,-7.3973864E-1,-5.360026E-1,-3.5659888E-1,-2.0024042E-1,2.5387704E-3,1.8923853E-1,3.760328E-1,6.0617286E-1,8.158817E-1,1.0572022E0,1.3375634E0,1.7666348E0,2.368524E0],"split_indices":[2,2,0,0,2,0,2,0,0,0,0,0,0,0,2,0,0,0,0,0,0,0,0,0,0,0,0,0,0,0,0],"split_type":[0,0,0,0,0,0,0,0,0,0,0,0,0,0,0,0,0,0,0,0,0,0,0,0,0,0,0,0,0,0,0],"sum_hessian":[2.639E3,1.557E3,1.082E3,7.56E2,8.01E2,5.79E2,5.03E2,1.97E2,5.59E2,4.36E2,3.65E2,2.21E2,3.58E2,4.41E2,6.2E1,5E1,1.47E2,3.52E2,2.07E2,2.61E2,1.75E2,1.4E2,2.25E2,9.7E1,1.24E2,1.5E2,2.08E2,2.71E2,1.7E2,3E1,3.2E1],"tree_param":{"num_deleted":"0","num_feature":"31","num_nodes":"31","size_leaf_vector":"1"}},{"base_weights":[-2.74613E-2,-1.1887889E1,1.71674E1,-1.912644E1,-5.253516E0,1.1725344E1,2.6113565E1,-2.7012714E1,-1.6590107E1,-8.430189E0,-9.534297E-1,6.840101E0,1.5291696E1,2.3180244E1,4.069562E1,-1.6339715E0,-1.2271923E0,-9.8581076E-1,-7.5246036E-1,-4.886224E-1,-2.992271E-1,-1.317491E-1,4.9841195E-2,2.1956411E-1,4.3809137E-1,6.5608776E-1,8.575571E-1,1.0619599E0,1.3234862E0,1.7951943E0,2.3558958E0],"categories":[],"categories_nodes":[],"categories_segments":[],"categories_sizes":[],"default_left":[0,0,0,0,0,0,0,0,0,0,0,0,0,0,0,0,0,0,0,0,0,0,0,0,0,0,0,0,0,0,0],"id":6,"left_children":[1,3,5,7,9,11,13,15,17,19,21,23,25,27,29,-1,-1,-1,-1,-1,-1,-1,-1,-1,-1,-1,-1,-1,-1,-1,-1],"loss_changes":[5.320755E5,7.404742E4,5.1543906E4,1.43135E4,1.1015559E4,1.1463953E4,1.625175E4,1.6882031E3,2.4056562E3,1.4646875E3,1.1307584E3,1.2886055E3,1.3203125E3,1.5895625E3,3.393672E2,0E0,0E0,0E0,0E0,0E0,0E0,0E0,0E0,0E0,0E0,0E0,0E0,0E0,0E0,0E0,0E0],"parents":[2147483647,0,0,1,1,2,2,3,3,4,4,5,5,6,6,7,7,8,8,9,9,10,10,11,11,12,12,13,13,14,14],"right_children":[2,4,6,8,10,12,14,16,18,20,22,24,26,28,30,-1,-1,-1,-1,-1,-1,-1,-1,-1,-1,-1,-1,-1,-1,-1,-1],"split_conditions":[7.495E1,5.473E1,9.751E1,4.261E1,6.536E1,8.663E1,1.1486E2,3.187E1,4.733E1,6.133E1,7.069E1,8.044E1,9.259E1,1.0437E2,1.3415E2,-1.6339715E0,-1.2271923E0,-9.8581076E-1,-7.5246036E-1,-4.886224E-1,-2.992271E-1,-1.317491E-1,4.9841195E-2,2.1956411E-1,4.3809137E-1,6.5608776E-1,8.575571E-1,1.0619599E0,1.3234862E0,1.7951943E0,2.3558958E0],"split_indices":[0,0,0,1,0,0,0,0,0,0,0,0,0,0,1,0,0,0,0,0,0,0,0,0,0,0,0,0,0,0,0],"split_type":[0,0,0,0,0,0,0,0,0,0,0,0,0,0,0,0,0,0,0,0,0,0,0,0,0,0,0,0,0,0,0],"sum_hessian":[2.607E3,1.543E3,1.064E3,7.37E2,8.06E2,6.63E2,4.01E2,1.77E2,5.6E2,4.63E2,3.43E2,2.81E2,3.82E2,3.36E2,6.5E1,5E1,1.27E2,1.81E2,3.79E2,2.97E2,1.66E2,1.84E2,1.59E2,1.25E2,1.56E2,1.8E2,2.02E2,2.16E2,1.2E2,4.1E1,2.4E1],"tree_param":{"num_deleted":"0","num_feature":"31","num_nodes":"31","size_leaf_vector":"1"}},{"base_weights":[-2.4318045E-1,-1.0942893E1,1.6704548E1,-1.8001085E1,-4.4136305E0,1.1727485E1,2.4762974E1,-2.5496233E1,-1.5514933E1,-7.763391E0,-3.784922E-1,7.4777E0,1.5167816E1,2.2542612E1,2.0794263E0,-1.4912938E0,-1.1165308E0,-8.634635E-1,-6.529271E-1,-4.4454858E-1,-2.697027E-1,-9.5500186E-2,7.4074894E-2,2.7693415E-1,4.7600436E-1,6.606268E-1,8.1801385E-1,1.0422789E0,1.3323079E0],"categories":[],"categories_nodes":[],"categories_segments":[],"categories_sizes":[],"default_left":[0,0,0,0,0,0,0,0,0,0,0,0,0,0,0,0,0,0,0,0,0,0,0,0,0,0,0,0,0],"id":7,"left_children":[1,3,5,7,9,11,13,15,17,19,21,23,25,27,-1,-1,-1,-1,-1,-1,-1,-1,-1,-1,-1,-1,-1,-1,-1],"loss_changes":[4.6621584E5,7.255019E4,3.9616344E4,1.37104375E4,1.1080797E4,8.907539E3,1.3221469E4,1.897E3,2.235125E3,1.1489277E3,1.0653561E3,1.0482129E3,5.7658594E2,1.7913906E3,0E0,0E0,0E0,0E0,0E0,0E0,0E0,0E0,0E0,0E0,0E0,0E0,0E0,0E0,0E0],"parents":[2147483647,0,0,1,1,2,2,3,3,4,4,5,5,6,6,7,7,8,8,9,9,10,10,11,11,12,12,13,13],"right_children":[2,4,6,8,10,12,14,16,18,20,22,24,26,28,-1,-1,-1,-1,-1,-1,-1,-1,-1,-1,-1,-1,-1,-1,-1],"split_conditions":[7.532E1,5.485E1,9.902E1,4.167E1,6.669E1,8.684E1,1.2545857E2,3.7327274E1,4.947E1,6.133E1,7.04E1,8.111E1,9.165E1,1.0476E2,2.0794263E0,-1.4912938E0,-1.1165308E0,-8.634635E-1,-6.529271E-1,-4.4454858E-1,-2.697027E-1,-9.5500186E-2,7.4074894E-2,2.7693415E-1,4.7600436E-1,6.606268E-1,8.1801385E-1,1.0422789E0,1.3323079E0],"split_indices":[2,2,1,2,1,2,7,7,2,2,2,2,2,2,0,0,0,0,0,0,0,0,0,0,0,0,0,0,0],"split_type":[0,0,0,0,0,0,0,0,0,0,0,0,0,0,0,0,0,0,0,0,0,0,0,0,0,0,0,0,0],"sum_hessian":[2.569E3,1.575E3,9.94E2,7.56E2,8.19E2,6.16E2,3.78E2,1.86E2,5.7E2,4.47E2,3.72E2,2.77E2,3.39E2,3.36E2,4.2E1,7.5E1,1.11E2,3.29E2,2.41E2,3.01E2,1.46E2,2.04E2,1.68E2,1.44E2,1.33E2,1.33E2,2.06E2,2.42E2,9.4E1],"tree_param":{"num_deleted":"0","num_feature":"31","num_nodes":"29","size_leaf_vector":"1"}},{"base_weights":[-1.0174756E-1,-1.0619172E1,1.5843134E1,-1.7399906E1,-4.726048E0,1.1110134E1,2.3505919E1,-2.4295975E1,-1.5043772E1,-7.8212976E0,-7.299041E-1,6.7574124E0,1.4144823E1,2.0729631E1,3.535394E1,-1.4543767E0,-1.0800203E0,-8.585645E-1,-6.753749E-1,-4.6808717E-1,-2.9637885E-1,-1.1601374E-1,4.4534598E-2,2.2381969E-1,4.3281007E-1,5.950406E-1,7.7617663E-1,9.6183676E-1,1.1497426E0,1.4589429E0,1.9730917E0],"categories":[],"categories_nodes":[],"categories_segments":[],"categories_sizes":[],"default_left":[1,0,0,0,1,0,0,0,0,0,0,0,0,0,0,0,0,0,0,0,0,0,0,0,0,0,0,0,0,0,0],"id":8,"left_children":[1,3,5,7,9,11,13,15,17,19,21,23,25,27,29,-1,-1,-1,-1,-1,-1,-1,-1,-1,-1,-1,-1,-1,-1,-1,-1],"loss_changes":[4.341735E5,6.2254906E4,3.705858E4,1.1414328E4,1.033483E4,8.331852E3,1.2161391E4,1.7353281E3,1.5428203E3,1.3184961E3,9.4537616E2,1.1046807E3,9.754531E2,6.398281E2,7.003047E2,0E0,0E0,0E0,0E0,0E0,0E0,0E0,0E0,0E0,0E0,0E0,0E0,0E0,0E0,0E0,0E0],"parents":[2147483647,0,0,1,1,2,2,3,3,4,4,5,5,6,6,7,7,8,8,9,9,10,10,11,11,12,12,13,13,14,14],"right_children":[2,4,6,8,10,12,14,16,18,20,22,24,26,28,30,-1,-1,-1,-1,-1,-1,-1,-1,-1,-1,-1,-1,-1,-1,-1,-1],"split_conditions":[7.605E1,5.409E1,9.784E1,4.204E1,6.569E1,8.727E1,1.1229E2,3.327E1,4.82E1,6.02E1,7.077E1,8.143E1,9.227E1,1.04E2,1.223E2,-1.4543767E0,-1.0800203E0,-8.585645E-1,-6.753749E-1,-4.6808717E-1,-2.9637885E-1,-1.1601374E-1,4.4534598E-2,2.2381969E-1,4.3281007E-1,5.950406E-1,7.7617663E-1,9.6183676E-1,1.1497426E0,1.4589429E0,1.9730917E0],"split_indices":[8,8,8,8,8,8,8,8,8,8,8,8,8,8,8,0,0,0,0,0,0,0,0,0,0,0,0,0,0,0,0],"split_type":[0,0,0,0,0,0,0,0,0,0,0,0,0,0,0,0,0,0,0,0,0,0,0,0,0,0,0,0,0,0,0],"sum_hessian":[2.587E3,1.559E3,1.028E3,7.24E2,8.35E2,6.37E2,3.91E2,1.82E2,5.42E2,4.7E2,3.65E2,2.63E2,3.74E2,3.19E2,7.2E1,6.2E1,1.2E2,2.23E2,3.19E2,2.57E2,2.13E2,1.84E2,1.81E2,1.21E2,1.42E2,1.46E2,2.28E2,1.98E2,1.21E2,3.2E1,4E1],"tree_param":{"num_deleted":"0","num_feature":"31","num_nodes":"31","size_leaf_vector":"1"}},{"base_weights":[7.0001766E-2,-1.0566502E1,1.4006156E1,-1.6174335E1,-4.817089E0,8.387402E0,2.0675173E1,-2.1719193E1,-1.3794408E1,-7.7013564E0,-2.1211154E0,4.133855E0,1.1420996E1,1.8648804E1,3.3855293E1,-1.3168645E0,-9.858021E-1,-7.625708E-1,-5.8419544E-1,-4.546151E-1,-3.3289525E-1,-1.8976201E-1,-3.5668697E-2,1.22524396E-1,2.7755085E-1,4.70543E-1,6.4265174E-1,8.049E-1,1.0313159E0,1.4273337E0,1.9720887E0],"categories":[],"categories_nodes":[],"categories_segments":[],"categories_sizes":[],"default_left":[0,0,0,0,0,0,0,0,0,0,0,0,0,0,0,0,0,0,0,0,0,0,0,0,0,0,0,0,0,0,0],"id":9,"left_children":[1,3,5,7,9,11,13,15,17,19,21,23,25,27,29,-1,-1,-1,-1,-1,-1,-1,-1,-1,-1,-1,-1,-1,-1,-1,-1],"loss_changes":[3.9518616E5,4.867164E4,4.306878E4,9.795625E3,5.800043E3,8.056203E3,1.3443656E4,1.5898984E3,1.4761641E3,4.6341602E2,9.117057E2,6.1381104E2,9.3260547E2,1.98325E3,9.203672E2,0E0,0E0,0E0,0E0,0E0,0E0,0E0,0E0,0E0,0E0,0E0,0E0,0E0,0E0,0E0,0E0],"parents":[2147483647,0,0,1,1,2,2,3,3,4,4,5,5,6,6,7,7,8,8,9,9,10,10,11,11,12,12,13,13,14,14],"right_children":[2,4,6,8,10,12,14,16,18,20,22,24,26,28,30,-1,-1,-1,-1,-1,-1,-1,-1,-1,-1,-1,-1,-1,-1,-1,-1],"split_conditions":[7.336E1,5.559E1,9.461E1,4.4E1,6.335E1,8.323E1,1.103E2,3.7327274E1,5.049E1,5.88E1,6.798E1,7.756E1,8.905E1,1.002E2,1.2629E2,-1.3168645E0,-9.858021E-1,-7.625708E-1,-5.8419544E-1,-4.546151E-1,-3.3289525E-1,-1.8976201E-1,-3.5668697E-2,1.22524396E-1,2.7755085E-1,4.70543E-1,6.4265174E-1,8.049E-1,1.0313159E0,1.4273337E0,1.9720887E0],"split_indices":[0,0,0,0,0,0,2,7,0,0,0,0,0,0,0,0,0,0,0,0,0,0,0,0,0,0,0,0,0,0,0],"split_type":[0,0,0,0,0,0,0,0,0,0,0,0,0,0,0,0,0,0,0,0,0,0,0,0,0,0,0,0,0,0,0],"sum_hessian":[2.664E3,1.511E3,1.153E3,7.64E2,7.47E2,6.27E2,5.26E2,2.27E2,5.37E2,3.6E2,3.87E2,2.62E2,3.65E2,4.58E2,6.8E1,6.5E1,1.62E2,3.14E2,2.23E2,1.51E2,2.09E2,1.76E2,2.11E2,1.21E2,1.41E2,1.55E2,2.1E2,2.04E2,2.54E2,3.8E1,3E1],"tree_param":{"num_deleted":"0","num_feature":"31","num_nodes":"31","size_leaf_vector":"1"}},{"base_weights":[-2.3737672E-1,-9.856392E0,1.4036519E1,-1.5990772E1,-4.390091E0,9.776968E0,2.1777794E1,-2.3504246E1,-1.4113947E1,-7.054538E0,-6.239715E-1,5.805649E0,1.2891004E1,1.9509592E1,1.7724007E0,-1.3624486E0,-1.0696023E0,-8.220291E-1,-6.225812E-1,-4.2436147E-1,-2.656283E-1,-1.1792471E-1,3.0047907E-2,1.8202661E-1,3.7670466E-1,5.549856E-1,7.072874E-1,9.0290517E-1,1.1478902E0],"categories":[],"categories_nodes":[],"categories_segments":[],"categories_sizes":[],"default_left":[0,0,0,0,0,0,0,0,0,0,0,0,0,0,0,0,0,0,0,0,0,0,0,0,0,0,0,0,0],"id":10,"left_children":[1,3,5,7,9,11,13,15,17,19,21,23,25,27,-1,-1,-1,-1,-1,-1,-1,-1,-1,-1,-1,-1,-1,-1,-1],"loss_changes":[3.6014106E5,5.247503E4,3.4607984E4,1.0075156E4,8.32434E3,8.371699E3,1.0904969E4,5.7189844E2,2.0887969E3,1.1678223E3,7.344279E2,1.1027432E3,7.015781E2,1.2020625E3,0E0,0E0,0E0,0E0,0E0,0E0,0E0,0E0,0E0,0E0,0E0,0E0,0E0,0E0,0E0],"parents":[2147483647,0,0,1,1,2,2,3,3,4,4,5,5,6,6,7,7,8,8,9,9,10,10,11,11,12,12,13,13],"right_children":[2,4,6,8,10,12,14,16,18,20,22,24,26,28,-1,-1,-1,-1,-1,-1,-1,-1,-1,-1,-1,-1,-1,-1,-1],"split_conditions":[7.411E1,5.35E1,9.97E1,3.86E1,6.566368E1,8.605E1,1.1495E2,3.171E1,4.633E1,5.943E1,6.855E1,8.129E1,9.165E1,1.0476E2,1.7724007E0,-1.3624486E0,-1.0696023E0,-8.220291E-1,-6.225812E-1,-4.2436147E-1,-2.656283E-1,-1.1792471E-1,3.0047907E-2,1.8202661E-1,3.7670466E-1,5.549856E-1,7.072874E-1,9.0290517E-1,1.1478902E0],"split_indices":[2,2,1,2,7,2,2,1,2,2,2,7,2,2,0,0,0,0,0,0,0,0,0,0,0,0,0,0,0],"split_type":[0,0,0,0,0,0,0,0,0,0,0,0,0,0,0,0,0,0,0,0,0,0,0,0,0,0,0,0,0],"sum_hessian":[2.621E3,1.566E3,1.055E3,7.37E2,8.29E2,6.82E2,3.73E2,1.45E2,5.92E2,4.85E2,3.44E2,3.01E2,3.81E2,3.22E2,5.1E1,4.8E1,9.7E1,2.43E2,3.49E2,2.64E2,2.21E2,1.42E2,2.02E2,1.35E2,1.66E2,1.61E2,2.2E2,2.31E2,9.1E1],"tree_param":{"num_deleted":"0","num_feature":"31","num_nodes":"29","size_leaf_vector":"1"}},{"base_weights":[4.5951452E-2,-9.117402E0,1.3432523E1,-1.4427101E1,-3.536136E0,8.884278E0,1.9401318E1,-2.0144598E1,-1.207409E1,-5.948043E0,-4.4725734E-1,4.7681575E0,1.1082072E1,1.7352201E1,3.0145845E1,-1.2402047E0,-8.932148E-1,-6.798484E-1,-5.043419E-1,-3.579765E-1,-2.1534224E-1,-8.374848E-2,4.3736976E-2,1.7616498E-1,2.967143E-1,4.7105154E-1,6.40359E-1,7.971541E-1,9.9767923E-1,1.336885E0,1.8835071E0],"categories":[],"categories_nodes":[],"categories_segments":[],"categories_sizes":[],"default_left":[0,0,0,0,0,0,0,0,0,0,0,0,0,0,0,0,0,0,0,0,0,0,0,0,0,0,0,0,0,0,0],"id":11,"left_children":[1,3,5,7,9,11,13,15,17,19,21,23,25,27,29,-1,-1,-1,-1,-1,-1,-1,-1,-1,-1,-1,-1,-1,-1,-1,-1],"loss_changes":[3.2028044E5,4.5883E4,2.8631172E4,1.0438719E4,5.6370576E3,5.4111797E3,9.560578E3,2.0006562E3,1.5727422E3,8.141885E2,5.4193475E2,2.8684424E2,1.00548047E3,1.1004844E3,8.3914844E2,0E0,0E0,0E0,0E0,0E0,0E0,0E0,0E0,0E0,0E0,0E0,0E0,0E0,0E0,0E0,0E0],"parents":[2147483647,0,0,1,1,2,2,3,3,4,4,5,5,6,6,7,7,8,8,9,9,10,10,11,11,12,12,13,13,14,14],"right_children":[2,4,6,8,10,12,14,16,18,20,22,24,26,28,30,-1,-1,-1,-1,-1,-1,-1,-1,-1,-1,-1,-1,-1,-1,-1,-1],"split_conditions":[7.564E1,5.573E1,9.654E1,4.448E1,6.65E1,8.32E1,1.103E2,3.7327274E1,5.103E1,6.167E1,7.105E1,7.997E1,9.195E1,1.0358E2,1.3104E2,-1.2402047E0,-8.932148E-1,-6.798484E-1,-5.043419E-1,-3.579765E-1,-2.1534224E-1,-8.374848E-2,4.3736976E-2,1.7616498E-1,2.967143E-1,4.7105154E-1,6.40359E-1,7.971541E-1,9.9767923E-1,1.336885E0,1.8835071E0],"split_indices":[0,2,0,0,0,2,2,7,0,0,0,0,0,0,0,0,0,0,0,0,0,0,0,0,0,0,0,0,0,0,0],"split_type":[0,0,0,0,0,0,0,0,0,0,0,0,0,0,0,0,0,0,0,0,0,0,0,0,0,0,0,0,0,0,0],"sum_hessian":[2.609E3,1.549E3,1.06E3,7.93E2,7.56E2,6.03E2,4.57E2,2.29E2,5.64E2,4.24E2,3.32E2,2.11E2,3.92E2,3.86E2,7.1E1,7.2E1,1.57E2,3.16E2,2.48E2,2.42E2,1.82E2,1.72E2,1.6E2,1.04E2,1.07E2,2.03E2,1.89E2,2.55E2,1.31E2,5.2E1,1.9E1],"tree_param":{"num_deleted":"0","num_feature":"31","num_nodes":"31","size_leaf_vector":"1"}},{"base_weights":[8.853622E-2,-8.678002E0,1.2894638E1,-1.398312E1,-3.7173777E0,9.099312E0,1.9577652E1,-1.9179379E1,-1.1907646E1,-6.463785E0,-9.89232E-1,4.8050575E0,1.1398278E1,1.759106E1,1.6278597E0,-1.201504E0,-8.8118714E-1,-6.6418403E-1,-5.162593E-1,-3.977705E-1,-2.786394E-1,-1.335701E-1,1.0673479E-2,1.5279126E-1,3.1217164E-1,4.6531335E-1,6.365527E-1,7.913215E-1,9.9959415E-1],"categories":[],"categories_nodes":[],"categories_segments":[],"categories_sizes":[],"default_left":[0,0,0,0,0,0,0,0,0,0,0,0,0,0,0,0,0,0,0,0,0,0,0,0,0,0,0,0,0],"id":12,"left_children":[1,3,5,7,9,11,13,15,17,19,21,23,25,27,-1,-1,-1,-1,-1,-1,-1,-1,-1,-1,-1,-1,-1,-1,-1],"loss_changes":[2.8897025E5,4.0159945E4,2.6352828E4,7.7307188E3,5.920251E3,6.549836E3,9.174031E3,1.1536016E3,1.0169219E3,4.793047E2,8.0578345E2,5.7219336E2,1.0943789E3,1.0816719E3,0E0,0E0,0E0,0E0,0E0,0E0,0E0,0E0,0E0,0E0,0E0,0E0,0E0,0E0,0E0],"parents":[2147483647,0,0,1,1,2,2,3,3,4,4,5,5,6,6,7,7,8,8,9,9,10,10,11,11,12,12,13,13],"right_children":[2,4,6,8,10,12,14,16,18,20,22,24,26,28,-1,-1,-1,-1,-1,-1,-1,-1,-1,-1,-1,-1,-1,-1,-1],"split_conditions":[7.411E1,5.61E1,9.97E1,4.269E1,6.318E1,8.458E1,1.2545857E2,3.187E1,5.102E1,5.776E1,6.802E1,7.962631E1,9.338E1,1.0518E2,1.6278597E0,-1.201504E0,-8.8118714E-1,-6.6418403E-1,-5.162593E-1,-3.977705E-1,-2.786394E-1,-1.335701E-1,1.0673479E-2,1.5279126E-1,3.1217164E-1,4.6531335E-1,6.365527E-1,7.913215E-1,9.9959415E-1],"split_indices":[2,1,1,2,2,2,7,8,1,2,2,7,1,1,0,0,0,0,0,0,0,0,0,0,0,0,0,0,0],"split_type":[0,0,0,0,0,0,0,0,0,0,0,0,0,0,0,0,0,0,0,0,0,0,0,0,0,0,0,0,0],"sum_hessian":[2.572E3,1.527E3,1.045E3,7.37E2,7.9E2,6.68E2,3.77E2,2.08E2,5.29E2,3.93E2,3.97E2,2.34E2,4.34E2,3.29E2,4.8E1,4.7E1,1.61E2,2.79E2,2.5E2,1.44E2,2.49E2,1.65E2,2.32E2,1.07E2,1.27E2,1.72E2,2.62E2,1.94E2,1.35E2],"tree_param":{"num_deleted":"0","num_feature":"31","num_nodes":"29","size_leaf_vector":"1"}},{"base_weights":[1.6355832E-1,-7.9527617E0,1.2636737E1,-1.3278247E1,-3.1713204E0,8.988644E0,1.8693665E1,-1.7667126E1,-1.1087949E1,-5.7394466E0,-2.5532156E-1,5.57924E0,1.1085244E1,1.6412888E1,2.7962864E1,-1.0251013E0,-7.629428E-1,-6.135966E-1,-4.553112E-1,-3.56115E-1,-2.359428E-1,-8.23264E-2,6.0483664E-2,2.1511729E-1,3.509292E-1,4.621253E-1,5.946089E-1,7.5057197E-1,9.063226E-1,1.2345551E0,1.6759369E0],"categories":[],"categories_nodes":[],"categories_segments":[],"categories_sizes":[],"default_left":[0,0,0,0,0,0,0,0,0,0,0,0,0,0,0,0,0,0,0,0,0,0,0,0,0,0,0,0,0,0,0],"id":13,"left_children":[1,3,5,7,9,11,13,15,17,19,21,23,25,27,29,-1,-1,-1,-1,-1,-1,-1,-1,-1,-1,-1,-1,-1,-1,-1,-1],"loss_changes":[2.650359E5,4.0342992E4,2.2635281E4,7.013828E3,6.266537E3,4.5558594E3,7.7226094E3,1.3803125E3,1.0684492E3,5.9443164E2,8.0296906E2,4.256001E2,4.8338672E2,4.795547E2,5.356953E2,0E0,0E0,0E0,0E0,0E0,0E0,0E0,0E0,0E0,0E0,0E0,0E0,0E0,0E0,0E0,0E0],"parents":[2147483647,0,0,1,1,2,2,3,3,4,4,5,5,6,6,7,7,8,8,9,9,10,10,11,11,12,12,13,13,14,14],"right_children":[2,4,6,8,10,12,14,16,18,20,22,24,26,28,30,-1,-1,-1,-1,-1,-1,-1,-1,-1,-1,-1,-1,-1,-1,-1,-1],"split_conditions":[7.819E1,5.673E1,9.719E1,4.576E1,6.639E1,8.605E1,1.103E2,3.95E1,5.05E1,5.868E1,7.04E1,8.111E1,9.288E1,1.045E2,1.3415E2,-1.0251013E0,-7.629428E-1,-6.135966E-1,-4.553112E-1,-3.56115E-1,-2.359428E-1,-8.23264E-2,6.0483664E-2,2.1511729E-1,3.509292E-1,4.621253E-1,5.946089E-1,7.5057197E-1,9.063226E-1,1.2345551E0,1.6759369E0],"split_indices":[1,1,2,1,1,2,2,1,2,2,2,2,1,1,1,0,0,0,0,0,0,0,0,0,0,0,0,0,0,0,0],"split_type":[0,0,0,0,0,0,0,0,0,0,0,0,0,0,0,0,0,0,0,0,0,0,0,0,0,0,0,0,0,0,0],"sum_hessian":[2.616E3,1.585E3,1.031E3,7.49E2,8.36E2,6.45E2,3.86E2,2.47E2,5.02E2,4.44E2,3.92E2,2.47E2,3.98E2,3.12E2,7.4E1,1.1E2,1.37E2,3.11E2,1.91E2,1.86E2,2.58E2,2.01E2,1.91E2,1.33E2,1.14E2,1.25E2,2.73E2,1.77E2,1.35E2,5E1,2.4E1],"tree_param":{"num_deleted":"0","num_feature":"31","num_nodes":"31","size_leaf_vector":"1"}},{"base_weights":[7.4851744E-2,-7.6662745E0,1.2134796E1,-1.2248752E1,-2.8353243E0,9.118874E0,1.8281748E1,-1.731715E1,-1.0317232E1,-4.987555E0,-3.4805343E-2,6.141421E0,1.14198475E1,1.6283619E1,1.4642593E0,-1.1421784E0,-7.9317826E-1,-5.846733E-1,-4.3623057E-1,-2.9659662E-1,-1.712496E-1,-4.8317526E-2,7.4946456E-2,2.2004764E-1,3.8306686E-1,5.1034415E-1,6.221892E-1,7.565641E-1,9.48761E-1],"categories":[],"categories_nodes":[],"categories_segments":[],"categories_sizes":[],"default_left":[0,0,0,0,0,0,0,0,0,0,0,0,0,0,0,0,0,0,0,0,0,0,0,0,0,0,0,0,0],"id":14,"left_children":[1,3,5,7,9,11,13,15,17,19,21,23,25,27,-1,-1,-1,-1,-1,-1,-1,-1,-1,-1,-1,-1,-1,-1,-1],"loss_changes":[2.4739719E5,3.5695547E4,1.9039422E4,7.927203E3,4.7433604E3,4.705043E3,6.9984688E3,1.4611328E3,1.2174531E3,6.3634766E2,4.915073E2,7.7576465E2,3.5985547E2,6.123594E2,0E0,0E0,0E0,0E0,0E0,0E0,0E0,0E0,0E0,0E0,0E0,0E0,0E0,0E0,0E0],"parents":[2147483647,0,0,1,1,2,2,3,3,4,4,5,5,6,6,7,7,8,8,9,9,10,10,11,11,12,12,13,13],"right_children":[2,4,6,8,10,12,14,16,18,20,22,24,26,28,-1,-1,-1,-1,-1,-1,-1,-1,-1,-1,-1,-1,-1,-1,-1],"split_conditions":[7.819E1,5.592E1,9.86E1,4.479913E1,6.572E1,9.132E1,1.2545857E2,3.171E1,4.99E1,6.151E1,7.336E1,8.229E1,9.345E1,1.0513E2,1.4642593E0,-1.1421784E0,-7.9317826E-1,-5.846733E-1,-4.3623057E-1,-2.9659662E-1,-1.712496E-1,-4.8317526E-2,7.4946456E-2,2.2004764E-1,3.8306686E-1,5.1034415E-1,6.221892E-1,7.565641E-1,9.48761E-1],"split_indices":[1,2,2,7,2,1,7,1,2,2,1,2,2,2,0,0,0,0,0,0,0,0,0,0,0,0,0,0,0],"split_type":[0,0,0,0,0,0,0,0,0,0,0,0,0,0,0,0,0,0,0,0,0,0,0,0,0,0,0,0,0],"sum_hessian":[2.648E3,1.613E3,1.035E3,8.27E2,7.86E2,6.96E2,3.39E2,2.26E2,6.01E2,4.44E2,3.42E2,3.05E2,3.91E2,2.89E2,5E1,4.4E1,1.82E2,3.19E2,2.82E2,2.75E2,1.69E2,2.13E2,1.29E2,1.44E2,1.61E2,1.84E2,2.07E2,2.07E2,8.2E1],"tree_param":{"num_deleted":"0","num_feature":"31","num_nodes":"29","size_leaf_vector":"1"}},{"base_weights":[1.1795325E-1,-7.3021307E0,1.1319039E1,-1.1915665E1,-2.8234735E0,8.205358E0,1.73391E1,-1.9134268E1,-1.0681981E1,-4.9766984E0,-4.874981E-2,5.043067E0,1.0352671E1,1.5116836E1,2.6665895E1,-1.1693923E0,-8.570245E-1,-6.4419144E-1,-4.60471E-1,-2.9898998E-1,-1.7306185E-1,-4.298785E-2,6.59905E-2,1.8611206E-1,3.2743123E-1,4.4917724E-1,5.713804E-1,6.9517493E-1,8.4032625E-1,1.1473151E0,1.6187035E0],"categories":[],"categories_nodes":[],"categories_segments":[],"categories_sizes":[],"default_left":[0,0,0,0,0,0,0,0,0,0,0,0,0,0,0,0,0,0,0,0,0,0,0,0,0,0,0,0,0,0,0],"id":15,"left_children":[1,3,5,7,9,11,13,15,17,19,21,23,25,27,29,-1,-1,-1,-1,-1,-1,-1,-1,-1,-1,-1,-1,-1,-1,-1,-1],"loss_changes":[2.1775562E5,3.253036E4,1.9427031E4,6.70625E3,4.7854155E3,4.6331875E3,6.9548438E3,5.4895703E2,2.0375078E3,6.648955E2,3.9071375E2,5.344155E2,5.007461E2,3.588203E2,6.796875E2,0E0,0E0,0E0,0E0,0E0,0E0,0E0,0E0,0E0,0E0,0E0,0E0,0E0,0E0,0E0,0E0],"parents":[2147483647,0,0,1,1,2,2,3,3,4,4,5,5,6,6,7,7,8,8,9,9,10,10,11,11,12,12,13,13,14,14],"right_children":[2,4,6,8,10,12,14,16,18,20,22,24,26,28,30,-1,-1,-1,-1,-1,-1,-1,-1,-1,-1,-1,-1,-1,-1,-1,-1],"split_conditions":[7.651E1,5.633E1,9.937E1,3.832E1,6.675E1,8.803E1,1.1486E2,2.904E1,4.733E1,6.167E1,7.242E1,8.247E1,9.243E1,1.0437E2,1.3415E2,-1.1693923E0,-8.570245E-1,-6.4419144E-1,-4.60471E-1,-2.9898998E-1,-1.7306185E-1,-4.298785E-2,6.59905E-2,1.8611206E-1,3.2743123E-1,4.4917724E-1,5.713804E-1,6.9517493E-1,8.4032625E-1,1.1473151E0,1.6187035E0],"split_indices":[0,0,0,0,0,0,0,0,0,0,0,0,2,0,1,0,0,0,0,0,0,0,0,0,0,0,0,0,0,0,0],"split_type":[0,0,0,0,0,0,0,0,0,0,0,0,0,0,0,0,0,0,0,0,0,0,0,0,0,0,0,0,0,0,0],"sum_hessian":[2.618E3,1.575E3,1.043E3,7.75E2,8E2,6.89E2,3.54E2,1.11E2,6.64E2,4.5E2,3.5E2,2.8E2,4.09E2,2.88E2,6.6E1,3.2E1,7.9E1,2.63E2,4.01E2,2.69E2,1.81E2,2.2E2,1.3E2,1.51E2,1.29E2,1.84E2,2.25E2,1.73E2,1.15E2,4.3E1,2.3E1],"tree_param":{"num_deleted":"0","num_feature":"31","num_nodes":"31","size_leaf_vector":"1"}},{"base_weights":[2.0345889E-2,-7.39538E0,9.988788E0,-1.2143079E1,-3.920255E0,5.994676E0,1.4505377E1,-1.8059961E1,-1.0844211E1,-5.995592E0,-1.401561E0,3.102272E0,8.276114E0,1.2934535E1,2.2544415E1,-1.0738391E0,-8.1695205E-1,-6.29397E-1,-4.853134E-1,-3.564131E-1,-2.5001976E-1,-1.4192857E-1,-1.7946582E-2,9.63211E-2,2.0559974E-1,3.3725804E-1,4.5484778E-1,5.6473726E-1,7.1567994E-1,9.8520166E-1,1.38529E0],"categories":[],"categories_nodes":[],"categories_segments":[],"categories_sizes":[],"default_left":[0,0,0,0,0,0,0,0,0,0,0,0,0,0,0,0,0,0,0,0,0,0,0,0,0,0,0,0,0,0,0],"id":16,"left_children":[1,3,5,7,9,11,13,15,17,19,21,23,25,27,29,-1,-1,-1,-1,-1,-1,-1,-1,-1,-1,-1,-1,-1,-1,-1,-1],"loss_changes":[1.907958E5,2.4370695E4,1.9774812E4,4.6074375E3,4.4660283E3,3.841246E3,6.2244766E3,3.0177734E2,8.9971484E2,4.9302734E2,5.803095E2,3.0077197E2,3.495703E2,8.1977344E2,6.708906E2,0E0,0E0,0E0,0E0,0E0,0E0,0E0,0E0,0E0,0E0,0E0,0E0,0E0,0E0,0E0,0E0],"parents":[2147483647,0,0,1,1,2,2,3,3,4,4,5,5,6,6,7,7,8,8,9,9,10,10,11,11,12,12,13,13,14,14],"right_children":[2,4,6,8,10,12,14,16,18,20,22,24,26,28,30,-1,-1,-1,-1,-1,-1,-1,-1,-1,-1,-1,-1,-1,-1,-1,-1],"split_conditions":[7.375E1,5.274E1,9.494E1,3.832E1,6.313E1,8.391E1,1.100385E2,2.904E1,4.623E1,5.709E1,6.662E1,7.683E1,8.905E1,1.0039E2,1.2629E2,-1.0738391E0,-8.1695205E-1,-6.29397E-1,-4.853134E-1,-3.564131E-1,-2.5001976E-1,-1.4192857E-1,-1.7946582E-2,9.63211E-2,2.0559974E-1,3.3725804E-1,4.5484778E-1,5.6473726E-1,7.1567994E-1,9.8520166E-1,1.38529E0],"split_indices":[0,0,0,0,0,0,7,0,0,2,2,2,0,0,0,0,0,0,0,0,0,0,0,0,0,0,0,0,0,0,0],"split_type":[0,0,0,0,0,0,0,0,0,0,0,0,0,0,0,0,0,0,0,0,0,0,0,0,0,0,0,0,0,0,0],"sum_hessian":[2.579E3,1.479E3,1.1E3,6.24E2,8.55E2,5.85E2,5.15E2,1.1E2,5.14E2,4.68E2,3.87E2,2.59E2,3.26E2,4.33E2,8.2E1,3.3E1,7.7E1,1.99E2,3.15E2,2.16E2,2.52E2,1.62E2,2.25E2,1.21E2,1.38E2,1.17E2,2.09E2,2.02E2,2.31E2,5.6E1,2.6E1],"tree_param":{"num_deleted":"0","num_feature":"31","num_nodes":"31","size_leaf_vector":"1"}},{"base_weights":[1.06188476E-1,-7.0846696E0,9.459902E0,-1.1505101E1,-3.8361042E0,5.565756E0,1.4253533E1,-1.7050652E1,-1.02898655E1,-5.7477674E0,-1.5144128E0,2.537015E0,7.583543E0,1.2430662E1,2.2601892E1,-1.0338618E0,-7.8194034E-1,-5.830238E-1,-4.5135805E-1,-3.3827436E-1,-2.4088359E-1,-1.22855484E-1,-1.4192529E-2,9.4250605E-2,1.9368456E-1,3.0434132E-1,4.3119937E-1,5.7506293E-1,7.1036583E-1,9.7023386E-1,1.4328973E0],"categories":[],"categories_nodes":[],"categories_segments":[],"categories_sizes":[],"default_left":[0,0,0,0,0,0,0,0,0,0,0,0,0,0,0,0,0,0,0,0,0,0,0,0,0,0,0,0,0,0,0],"id":17,"left_children":[1,3,5,7,9,11,13,15,17,19,21,23,25,27,29,-1,-1,-1,-1,-1,-1,-1,-1,-1,-1,-1,-1,-1,-1,-1,-1],"loss_changes":[1.7595514E5,2.119439E4,2.1145172E4,4.0432578E3,3.7815986E3,3.8248008E3,7.465008E3,2.4497461E2,7.8776953E2,4.1040332E2,4.482409E2,2.131919E2,5.3458984E2,5.301133E2,1.1865273E3,0E0,0E0,0E0,0E0,0E0,0E0,0E0,0E0,0E0,0E0,0E0,0E0,0E0,0E0,0E0,0E0],"parents":[2147483647,0,0,1,1,2,2,3,3,4,4,5,5,6,6,7,7,8,8,9,9,10,10,11,11,12,12,13,13,14,14],"right_children":[2,4,6,8,10,12,14,16,18,20,22,24,26,28,30,-1,-1,-1,-1,-1,-1,-1,-1,-1,-1,-1,-1,-1,-1,-1,-1],"split_conditions":[7.336E1,5.274E1,9.55E1,3.832E1,6.255E1,8.275E1,1.0992E2,2.904E1,4.733E1,5.781E1,6.874E1,8.052E1,8.905E1,1.0293E2,1.3415E2,-1.0338618E0,-7.8194034E-1,-5.830238E-1,-4.5135805E-1,-3.3827436E-1,-2.4088359E-1,-1.22855484E-1,-1.4192529E-2,9.4250605E-2,1.9368456E-1,3.0434132E-1,4.3119937E-1,5.7506293E-1,7.1036583E-1,9.7023386E-1,1.4328973E0],"split_indices":[0,0,0,0,0,0,0,0,0,0,0,1,0,0,1,0,0,0,0,0,0,0,0,0,0,0,0,0,0,0,0],"split_type":[0,0,0,0,0,0,0,0,0,0,0,0,0,0,0,0,0,0,0,0,0,0,0,0,0,0,0,0,0,0,0],"sum_hessian":[2.614E3,1.478E3,1.136E3,6.25E2,8.53E2,6.28E2,5.08E2,1.1E2,5.15E2,4.67E2,3.86E2,2.52E2,3.76E2,4.19E2,8.9E1,2.7E1,8.3E1,2.43E2,2.72E2,2.2E2,2.47E2,2.18E2,1.68E2,1.71E2,8.1E1,1.57E2,2.19E2,2.8E2,1.39E2,6.1E1,2.8E1],"tree_param":{"num_deleted":"0","num_feature":"31","num_nodes":"31","size_leaf_vector":"1"}},{"base_weights":[-3.2047373E-3,-6.415241E0,9.520288E0,-1.022382E1,-2.5788705E0,6.6685357E0,1.4416007E1,-1.41797285E1,-8.633104E0,-4.351845E0,-3.475128E-1,3.6652822E0,8.418858E0,1.3105842E1,1.2150854E0,-8.660057E-1,-6.330102E-1,-4.801189E-1,-3.638658E-1,-2.5514454E-1,-1.5946339E-1,-8.0790855E-2,1.3322202E-2,1.1908753E-1,2.2191451E-1,3.579034E-1,4.719588E-1,5.855251E-1,7.4325854E-1],"categories":[],"categories_nodes":[],"categories_segments":[],"categories_sizes":[],"default_left":[0,0,0,0,1,0,0,0,0,0,0,0,0,0,0,0,0,0,0,0,0,0,0,0,0,0,0,0,0],"id":18,"left_children":[1,3,5,7,9,11,13,15,17,19,21,23,25,27,-1,-1,-1,-1,-1,-1,-1,-1,-1,-1,-1,-1,-1,-1,-1],"loss_changes":[1.5950175E5,2.278159E4,1.4577281E4,4.804789E3,3.0803213E3,3.4700781E3,4.6809375E3,8.4485547E2,6.6734766E2,3.6267188E2,2.698552E2,2.3449756E2,4.727246E2,6.679336E2,0E0,0E0,0E0,0E0,0E0,0E0,0E0,0E0,0E0,0E0,0E0,0E0,0E0,0E0,0E0],"parents":[2147483647,0,0,1,1,2,2,3,3,4,4,5,5,6,6,7,7,8,8,9,9,10,10,11,11,12,12,13,13],"right_children":[2,4,6,8,10,12,14,16,18,20,22,24,26,28,-1,-1,-1,-1,-1,-1,-1,-1,-1,-1,-1,-1,-1,-1,-1],"split_conditions":[7.668E1,5.691E1,9.97E1,4.479913E1,6.6272385E1,8.734E1,1.2545857E2,3.584E1,5.185E1,6.25E1,6.999E1,7.962631E1,9.384E1,1.0518E2,1.2150854E0,-8.660057E-1,-6.330102E-1,-4.801189E-1,-3.638658E-1,-2.5514454E-1,-1.5946339E-1,-8.0790855E-2,1.3322202E-2,1.1908753E-1,2.2191451E-1,3.579034E-1,4.719588E-1,5.855251E-1,7.4325854E-1],"split_indices":[1,1,1,7,7,1,7,1,1,1,1,7,1,1,0,0,0,0,0,0,0,0,0,0,0,0,0,0,0],"split_type":[0,0,0,0,0,0,0,0,0,0,0,0,0,0,0,0,0,0,0,0,0,0,0,0,0,0,0,0,0],"sum_hessian":[2.61E3,1.56E3,1.05E3,7.82E2,7.78E2,6.65E2,3.85E2,2.22E2,5.6E2,4.33E2,3.45E2,2.46E2,4.19E2,3.42E2,4.3E1,6.9E1,1.53E2,3.23E2,2.37E2,2.61E2,1.72E2,1.12E2,2.33E2,9.4E1,1.52E2,1.91E2,2.28E2,1.95E2,1.47E2],"tree_param":{"num_deleted":"0","num_feature":"31","num_nodes":"29","size_leaf_vector":"1"}},{"base_weights":[-4.1843127E-3,-6.263634E0,8.88931E0,-1.0373672E1,-3.0723364E0,6.058549E0,1.3652976E1,-1.552159E1,-9.196329E0,-4.8336916E0,-7.7772135E-1,3.6235578E0,8.120781E0,1.2296169E1,1.1506621E0,-9.429393E-1,-6.9427776E-1,-5.3132695E-1,-3.9909652E-1,-2.9356536E-1,-1.942619E-1,-9.994576E-2,6.666941E-3,1.1163669E-1,2.3546533E-1,3.439324E-1,4.3682715E-1,5.569736E-1,7.306642E-1],"categories":[],"categories_nodes":[],"categories_segments":[],"categories_sizes":[],"default_left":[0,0,0,0,0,0,0,0,0,0,0,0,0,0,0,0,0,0,0,0,0,0,0,0,0,0,0,0,0],"id":19,"left_children":[1,3,5,7,9,11,13,15,17,19,21,23,25,27,-1,-1,-1,-1,-1,-1,-1,-1,-1,-1,-1,-1,-1,-1,-1],"loss_changes":[1.4635219E5,2.020666E4,1.4561766E4,3.9422734E3,3.512462E3,3.4002695E3,4.8478594E3,4.1514844E2,8.721836E2,4.6137988E2,4.2193475E2,4.651626E2,2.2213867E2,7.886914E2,0E0,0E0,0E0,0E0,0E0,0E0,0E0,0E0,0E0,0E0,0E0,0E0,0E0,0E0,0E0],"parents":[2147483647,0,0,1,1,2,2,3,3,4,4,5,5,6,6,7,7,8,8,9,9,10,10,11,11,12,12,13,13],"right_children":[2,4,6,8,10,12,14,16,18,20,22,24,26,28,-1,-1,-1,-1,-1,-1,-1,-1,-1,-1,-1,-1,-1,-1,-1],"split_conditions":[7.495E1,5.32E1,9.784E1,3.905E1,6.392E1,8.779E1,1.2545857E2,2.904E1,4.733E1,5.776E1,6.874E1,8.129E1,9.306E1,1.0562E2,1.1506621E0,-9.429393E-1,-6.9427776E-1,-5.3132695E-1,-3.9909652E-1,-2.9356536E-1,-1.942619E-1,-9.994576E-2,6.666941E-3,1.1163669E-1,2.3546533E-1,3.439324E-1,4.3682715E-1,5.569736E-1,7.306642E-1],"split_indices":[0,0,0,0,0,0,7,0,0,2,0,7,1,0,0,0,0,0,0,0,0,0,0,0,0,0,0,0,0],"split_type":[0,0,0,0,0,0,0,0,0,0,0,0,0,0,0,0,0,0,0,0,0,0,0,0,0,0,0,0,0],"sum_hessian":[2.627E3,1.542E3,1.085E3,6.73E2,8.69E2,6.82E2,4.03E2,1.23E2,5.5E2,4.91E2,3.78E2,3.14E2,3.68E2,3.54E2,4.9E1,3.7E1,8.6E1,2.49E2,3.01E2,2.32E2,2.59E2,1.61E2,2.17E2,1.39E2,1.75E2,1.26E2,2.42E2,2.4E2,1.14E2],"tree_param":{"num_deleted":"0","num_feature":"31","num_nodes":"29","size_leaf_vector":"1"}},{"base_weights":[8.0349475E-2,-5.761937E0,8.805196E0,-9.865284E0,-2.7730389E0,6.2418447E0,1.317051E1,-1.4383451E1,-8.529167E0,-4.6167006E0,-6.3791394E-1,3.8893049E0,7.9165807E0,1.14031E1,2.002869E1,-9.342991E-1,-6.510923E-1,-5.103361E-1,-3.8856605E-1,-2.807893E-1,-1.8115635E-1,-7.771036E-2,3.0204862E-2,1.4184977E-1,2.5806484E-1,3.5119614E-1,4.4167376E-1,5.279002E-1,6.340677E-1,8.718748E-1,1.262014E0],"categories":[],"categories_nodes":[],"categories_segments":[],"categories_sizes":[],"default_left":[0,0,0,0,0,0,0,0,0,0,0,0,0,0,0,0,0,0,0,0,0,0,0,0,0,0,0,0,0,0,0],"id":20,"left_children":[1,3,5,7,9,11,13,15,17,19,21,23,25,27,29,-1,-1,-1,-1,-1,-1,-1,-1,-1,-1,-1,-1,-1,-1,-1,-1],"loss_changes":[1.349764E5,1.9424125E4,1.1801391E4,3.9098984E3,3.6146514E3,2.612871E3,4.523133E3,6.4128516E2,5.7922656E2,4.690371E2,4.8688483E2,3.6148438E2,2.5797852E2,2.053086E2,6.2671094E2,0E0,0E0,0E0,0E0,0E0,0E0,0E0,0E0,0E0,0E0,0E0,0E0,0E0,0E0,0E0,0E0],"parents":[2147483647,0,0,1,1,2,2,3,3,4,4,5,5,6,6,7,7,8,8,9,9,10,10,11,11,12,12,13,13,14,14],"right_children":[2,4,6,8,10,12,14,16,18,20,22,24,26,28,30,-1,-1,-1,-1,-1,-1,-1,-1,-1,-1,-1,-1,-1,-1,-1,-1],"split_conditions":[7.651E1,5.32E1,9.868E1,4.017E1,6.392E1,8.684E1,1.103E2,2.904E1,4.595E1,5.801E1,7.069E1,8.275E1,9.409E1,1.0437E2,1.3415E2,-9.342991E-1,-6.510923E-1,-5.103361E-1,-3.8856605E-1,-2.807893E-1,-1.8115635E-1,-7.771036E-2,3.0204862E-2,1.4184977E-1,2.5806484E-1,3.5119614E-1,4.4167376E-1,5.279002E-1,6.340677E-1,8.718748E-1,1.262014E0],"split_indices":[0,0,0,0,0,2,2,0,0,2,0,0,0,0,1,0,0,0,0,0,0,0,0,0,0,0,0,0,0,0,0],"split_type":[0,0,0,0,0,0,0,0,0,0,0,0,0,0,0,0,0,0,0,0,0,0,0,0,0,0,0,0,0,0,0],"sum_hessian":[2.646E3,1.585E3,1.061E3,6.67E2,9.18E2,6.7E2,3.91E2,1.5E2,5.17E2,4.92E2,4.26E2,2.8E2,3.9E2,3.13E2,7.8E1,3.3E1,1.17E2,1.57E2,3.6E2,2.43E2,2.49E2,2.45E2,1.81E2,1.55E2,1.25E2,2.02E2,1.88E2,1.94E2,1.19E2,5.5E1,2.3E1],"tree_param":{"num_deleted":"0","num_feature":"31","num_nodes":"31","size_leaf_vector":"1"}},{"base_weights":[1.1651027E-1,-5.881083E0,7.773581E0,-9.700443E0,-3.2589562E0,4.9528813E0,1.1796043E1,-1.3784252E1,-8.489724E0,-5.0058055E0,-1.4924319E0,2.5349689E0,6.856033E0,1.03986435E1,1.9133495E1,-8.7132305E-1,-6.210842E-1,-4.8793536E-1,-3.8631022E-1,-2.8505728E-1,-2.0563102E-1,-1.23146676E-1,-2.4614053E-2,7.777964E-2,1.6964625E-1,2.6443508E-1,3.7589082E-1,4.6216875E-1,5.723154E-1,8.4070826E-1,1.1632422E0],"categories":[],"categories_nodes":[],"categories_segments":[],"categories_sizes":[],"default_left":[0,0,0,0,0,0,0,0,0,0,0,0,0,0,0,0,0,0,0,0,0,0,0,0,0,0,0,0,0,0,0],"id":21,"left_children":[1,3,5,7,9,11,13,15,17,19,21,23,25,27,29,-1,-1,-1,-1,-1,-1,-1,-1,-1,-1,-1,-1,-1,-1,-1,-1],"loss_changes":[1.1940219E5,1.4570039E4,1.2898883E4,2.8149727E3,2.664878E3,3.0795352E3,4.6201133E3,4.4854102E2,3.7029297E2,2.4671777E2,4.1810748E2,2.4512012E2,3.5024023E2,3.7470312E2,3.1788672E2,0E0,0E0,0E0,0E0,0E0,0E0,0E0,0E0,0E0,0E0,0E0,0E0,0E0,0E0,0E0,0E0],"parents":[2147483647,0,0,1,1,2,2,3,3,4,4,5,5,6,6,7,7,8,8,9,9,10,10,11,11,12,12,13,13,14,14],"right_children":[2,4,6,8,10,12,14,16,18,20,22,24,26,28,30,-1,-1,-1,-1,-1,-1,-1,-1,-1,-1,-1,-1,-1,-1,-1,-1],"split_conditions":[7.336E1,5.191E1,9.654E1,3.981E1,6.167E1,8.5658264E1,1.1246273E2,2.904E1,4.595E1,5.781E1,6.738E1,7.877E1,8.905E1,1.0190773E2,1.3104E2,-8.7132305E-1,-6.210842E-1,-4.8793536E-1,-3.8631022E-1,-2.8505728E-1,-2.0563102E-1,-1.23146676E-1,-2.4614053E-2,7.777964E-2,1.6964625E-1,2.6443508E-1,3.7589082E-1,4.6216875E-1,5.723154E-1,8.4070826E-1,1.1632422E0],"split_indices":[0,0,0,0,0,7,7,0,0,0,0,0,0,7,0,0,0,0,0,0,0,0,0,0,0,0,0,0,0,0,0],"split_type":[0,0,0,0,0,0,0,0,0,0,0,0,0,0,0,0,0,0,0,0,0,0,0,0,0,0,0,0,0,0,0],"sum_hessian":[2.598E3,1.457E3,1.141E3,5.92E2,8.65E2,6.72E2,4.69E2,1.33E2,4.59E2,4.34E2,4.31E2,2.97E2,3.75E2,3.96E2,7.3E1,3.3E1,1E2,1.68E2,2.91E2,2.41E2,1.93E2,2.18E2,2.13E2,1.4E2,1.57E2,1.14E2,2.61E2,1.93E2,2.03E2,5E1,2.3E1],"tree_param":{"num_deleted":"0","num_feature":"31","num_nodes":"31","size_leaf_vector":"1"}},{"base_weights":[5.420682E-2,-5.446491E0,7.3983064E0,-8.979878E0,-2.9134493E0,4.705211E0,1.1476047E1,-1.2856229E1,-7.945267E0,-4.2805424E0,-9.9449223E-1,2.1927295E0,6.36648E0,1.00366955E1,1.7863651E1,-7.9118955E-1,-5.8985656E-1,-4.4936368E-1,-3.466758E-1,-2.5947562E-1,-1.7397408E-1,-9.916428E-2,-1.7362809E-2,7.426505E-2,1.6332775E-1,2.5691634E-1,3.5098445E-1,4.6350417E-1,5.711083E-1,7.6663977E-1,1.1409111E0],"categories":[],"categories_nodes":[],"categories_segments":[],"categories_sizes":[],"default_left":[0,0,0,0,0,0,0,0,0,0,0,0,0,0,0,0,0,0,0,0,0,0,0,0,0,0,0,0,0,0,0],"id":22,"left_children":[1,3,5,7,9,11,13,15,17,19,21,23,25,27,29,-1,-1,-1,-1,-1,-1,-1,-1,-1,-1,-1,-1,-1,-1,-1,-1],"loss_changes":[1.04993445E5,1.3273863E4,1.2168684E4,2.384379E3,2.2702246E3,2.7909043E3,3.884457E3,2.1876367E2,4.5638086E2,3.5038184E2,2.3098502E2,1.9949536E2,2.880381E2,2.7966406E2,6.532793E2,0E0,0E0,0E0,0E0,0E0,0E0,0E0,0E0,0E0,0E0,0E0,0E0,0E0,0E0,0E0,0E0],"parents":[2147483647,0,0,1,1,2,2,3,3,4,4,5,5,6,6,7,7,8,8,9,9,10,10,11,11,12,12,13,13,14,14],"right_children":[2,4,6,8,10,12,14,16,18,20,22,24,26,28,30,-1,-1,-1,-1,-1,-1,-1,-1,-1,-1,-1,-1,-1,-1,-1,-1],"split_conditions":[7.227E1,5.212E1,9.573E1,3.86E1,6.248E1,8.32E1,1.103E2,2.904E1,4.633E1,5.725E1,6.662E1,7.96E1,8.846E1,1.0287E2,1.2863E2,-7.9118955E-1,-5.8985656E-1,-4.4936368E-1,-3.466758E-1,-2.5947562E-1,-1.7397408E-1,-9.916428E-2,-1.7362809E-2,7.426505E-2,1.6332775E-1,2.5691634E-1,3.5098445E-1,4.6350417E-1,5.711083E-1,7.6663977E-1,1.1409111E0],"split_indices":[2,2,2,2,2,2,2,8,2,2,2,8,2,2,2,0,0,0,0,0,0,0,0,0,0,0,0,0,0,0,0],"split_type":[0,0,0,0,0,0,0,0,0,0,0,0,0,0,0,0,0,0,0,0,0,0,0,0,0,0,0,0,0,0,0],"sum_hessian":[2.597E3,1.485E3,1.112E3,6.19E2,8.66E2,6.71E2,4.41E2,1.28E2,4.91E2,5.05E2,3.61E2,2.68E2,4.03E2,3.62E2,7.9E1,3E1,9.8E1,2.38E2,2.53E2,2.34E2,2.71E2,1.42E2,2.19E2,1.63E2,1.05E2,1.43E2,2.6E2,2.38E2,1.24E2,5.5E1,2.4E1],"tree_param":{"num_deleted":"0","num_feature":"31","num_nodes":"31","size_leaf_vector":"1"}},{"base_weights":[3.3767767E-2,-5.194334E0,7.0181913E0,-8.705621E0,-2.9069843E0,4.3917985E0,1.0566663E1,-1.2935587E1,-7.7914567E0,-4.316138E0,-1.0090073E0,1.9362227E0,5.858094E0,9.386057E0,1.6843287E1,-8.3678454E-1,-5.9566575E-1,-4.4982705E-1,-3.495748E-1,-2.5639006E-1,-1.7606843E-1,-8.711207E-2,-6.461131E-3,7.280135E-2,1.3769844E-1,2.4758904E-1,3.4061968E-1,4.2929313E-1,5.3380436E-1,7.078561E-1,9.957218E-1],"categories":[],"categories_nodes":[],"categories_segments":[],"categories_sizes":[],"default_left":[0,0,0,0,0,0,0,0,0,0,0,0,0,0,0,0,0,0,0,0,0,0,0,0,0,0,0,0,0,0,0],"id":23,"left_children":[1,3,5,7,9,11,13,15,17,19,21,23,25,27,29,-1,-1,-1,-1,-1,-1,-1,-1,-1,-1,-1,-1,-1,-1,-1,-1],"loss_changes":[9.800694E4,1.2303105E4,1.066191E4,2.2386758E3,2.485643E3,2.372254E3,3.4580977E3,2.1240625E2,4.1911133E2,3.2641797E2,2.5652E2,9.376697E1,3.24333E2,3.3467188E2,3.4503906E2,0E0,0E0,0E0,0E0,0E0,0E0,0E0,0E0,0E0,0E0,0E0,0E0,0E0,0E0,0E0,0E0],"parents":[2147483647,0,0,1,1,2,2,3,3,4,4,5,5,6,6,7,7,8,8,9,9,10,10,11,11,12,12,13,13,14,14],"right_children":[2,4,6,8,10,12,14,16,18,20,22,24,26,28,30,-1,-1,-1,-1,-1,-1,-1,-1,-1,-1,-1,-1,-1,-1,-1,-1],"split_conditions":[7.375E1,5.191E1,9.627E1,3.759E1,6.313E1,8.323E1,1.1229E2,2.633E1,4.581E1,5.757E1,6.904E1,7.96E1,9.143E1,1.0293E2,1.2629E2,-8.3678454E-1,-5.9566575E-1,-4.4982705E-1,-3.495748E-1,-2.5639006E-1,-1.7606843E-1,-8.711207E-2,-6.461131E-3,7.280135E-2,1.3769844E-1,2.4758904E-1,3.4061968E-1,4.2929313E-1,5.3380436E-1,7.078561E-1,9.957218E-1],"split_indices":[0,0,0,0,0,0,0,0,0,0,0,0,0,0,0,0,0,0,0,0,0,0,0,0,0,0,0,0,0,0,0],"split_type":[0,0,0,0,0,0,0,0,0,0,0,0,0,0,0,0,0,0,0,0,0,0,0,0,0,0,0,0,0,0,0],"sum_hessian":[2.682E3,1.534E3,1.148E3,6.04E2,9.3E2,6.61E2,4.87E2,1.05E2,4.99E2,5.33E2,3.97E2,2.48E2,4.13E2,4.12E2,7.5E1,1.9E1,8.6E1,1.95E2,3.04E2,2.61E2,2.72E2,2.16E2,1.81E2,1.58E2,9E1,2.15E2,1.98E2,2.59E2,1.53E2,4.3E1,3.2E1],"tree_param":{"num_deleted":"0","num_feature":"31","num_nodes":"31","size_leaf_vector":"1"}},{"base_weights":[-2.6040666E-2,-4.680485E0,6.837619E0,-8.041423E0,-2.33488E0,4.4299536E0,1.0048701E1,-1.1561921E1,-7.090789E0,-3.6678784E0,-3.831125E-1,2.3837142E0,5.7261014E0,8.804532E0,1.5320473E1,-7.400517E-1,-5.3932965E-1,-4.106989E-1,-3.1554362E-1,-2.2267571E-1,-1.3927168E-1,-7.200229E-2,7.1318597E-3,8.470961E-2,1.6297136E-1,2.3353289E-1,3.127075E-1,3.8169822E-1,4.7427627E-1,6.820101E-1,1.036184E0],"categories":[],"categories_nodes":[],"categories_segments":[],"categories_sizes":[],"default_left":[0,0,0,0,0,0,0,0,0,0,0,0,0,0,0,0,0,0,0,0,0,0,0,0,0,0,0,0,0,0,0],"id":24,"left_children":[1,3,5,7,9,11,13,15,17,19,21,23,25,27,29,-1,-1,-1,-1,-1,-1,-1,-1,-1,-1,-1,-1,-1,-1,-1,-1],"loss_changes":[8.261375E4,1.2129598E4,8.0345977E3,2.0364844E3,2.3635425E3,1.5750361E3,2.7969727E3,1.7436133E2,3.8703516E2,3.619663E2,2.058079E2,1.3577258E2,1.7477148E2,2.1774805E2,4.7994922E2,0E0,0E0,0E0,0E0,0E0,0E0,0E0,0E0,0E0,0E0,0E0,0E0,0E0,0E0,0E0,0E0],"parents":[2147483647,0,0,1,1,2,2,3,3,4,4,5,5,6,6,7,7,8,8,9,9,10,10,11,11,12,12,13,13,14,14],"right_children":[2,4,6,8,10,12,14,16,18,20,22,24,26,28,30,-1,-1,-1,-1,-1,-1,-1,-1,-1,-1,-1,-1,-1,-1,-1,-1],"split_conditions":[7.411E1,5.212E1,9.5349E1,4.0910435E1,6.4036E1,8.5658264E1,1.100385E2,2.814E1,4.552E1,5.92125E1,6.95E1,8.006E1,9.132E1,9.901E1,1.3415E2,-7.400517E-1,-5.3932965E-1,-4.106989E-1,-3.1554362E-1,-2.2267571E-1,-1.3927168E-1,-7.200229E-2,7.1318597E-3,8.470961E-2,1.6297136E-1,2.3353289E-1,3.127075E-1,3.8169822E-1,4.7427627E-1,6.820101E-1,1.036184E0],"split_indices":[2,2,7,7,7,7,7,1,2,7,1,2,1,2,1,0,0,0,0,0,0,0,0,0,0,0,0,0,0,0,0],"split_type":[0,0,0,0,0,0,0,0,0,0,0,0,0,0,0,0,0,0,0,0,0,0,0,0,0,0,0,0,0,0,0],"sum_hessian":[2.584E3,1.54E3,1.044E3,6.32E2,9.08E2,5.98E2,4.46E2,1.32E2,5E2,5.39E2,3.69E2,2.33E2,3.65E2,3.63E2,8.3E1,2.2E1,1.1E2,2.01E2,2.99E2,2.83E2,2.56E2,1.22E2,2.47E2,1.32E2,1.01E2,1.25E2,2.4E2,1.38E2,2.25E2,6.6E1,1.7E1],"tree_param":{"num_deleted":"0","num_feature":"31","num_nodes":"31","size_leaf_vector":"1"}},{"base_weights":[9.518856E-2,-4.737958E0,6.392585E0,-7.851346E0,-2.672135E0,4.202356E0,1.0105522E1,-1.1520106E1,-7.0747914E0,-4.1163344E0,-1.1044577E0,2.2939227E0,5.8477516E0,8.716955E0,1.5368068E1,-7.082986E-1,-5.371876E-1,-4.0800664E-1,-3.1734645E-1,-2.3447426E-1,-1.7270659E-1,-9.533837E-2,-1.1756106E-2,6.475955E-2,1.5483521E-1,2.4974595E-1,3.273054E-1,3.9165854E-1,4.7596145E-1,6.726552E-1,1.0055873E0],"categories":[],"categories_nodes":[],"categories_segments":[],"categories_sizes":[],"default_left":[0,0,0,0,0,0,0,0,0,0,0,0,0,0,0,0,0,0,0,0,0,0,0,0,0,0,0,0,0,0,0],"id":25,"left_children":[1,3,5,7,9,11,13,15,17,19,21,23,25,27,29,-1,-1,-1,-1,-1,-1,-1,-1,-1,-1,-1,-1,-1,-1,-1,-1],"loss_changes":[8.0047164E4,9.549406E3,9.244484E3,1.6079531E3,2.0240322E3,2.2474785E3,2.9570664E3,5.732617E1,3.3687695E2,1.6066846E2,3.0016388E2,2.6457996E2,1.9719824E2,1.6438086E2,5.197422E2,0E0,0E0,0E0,0E0,0E0,0E0,0E0,0E0,0E0,0E0,0E0,0E0,0E0,0E0,0E0,0E0],"parents":[2147483647,0,0,1,1,2,2,3,3,4,4,5,5,6,6,7,7,8,8,9,9,10,10,11,11,12,12,13,13,14,14],"right_children":[2,4,6,8,10,12,14,16,18,20,22,24,26,28,30,-1,-1,-1,-1,-1,-1,-1,-1,-1,-1,-1,-1,-1,-1,-1,-1],"split_conditions":[7.336E1,5.177875E1,9.716286E1,3.759E1,6.167E1,8.642809E1,1.0992E2,2.633E1,4.5865E1,5.733E1,6.798E1,7.877E1,9.259E1,1.022625E2,1.3104E2,-7.082986E-1,-5.371876E-1,-4.0800664E-1,-3.1734645E-1,-2.3447426E-1,-1.7270659E-1,-9.533837E-2,-1.1756106E-2,6.475955E-2,1.5483521E-1,2.4974595E-1,3.273054E-1,3.9165854E-1,4.7596145E-1,6.726552E-1,1.0055873E0],"split_indices":[0,7,7,0,0,7,0,8,7,0,0,0,0,7,0,0,0,0,0,0,0,0,0,0,0,0,0,0,0,0,0],"split_type":[0,0,0,0,0,0,0,0,0,0,0,0,0,0,0,0,0,0,0,0,0,0,0,0,0,0,0,0,0,0,0],"sum_hessian":[2.628E3,1.487E3,1.141E3,5.92E2,8.95E2,7.19E2,4.22E2,1.01E2,4.91E2,4.65E2,4.3E2,3.34E2,3.85E2,3.36E2,8.6E1,1.9E1,8.2E1,1.93E2,2.98E2,2.46E2,2.19E2,2.23E2,2.07E2,1.5E2,1.84E2,1.77E2,2.08E2,1.65E2,1.71E2,6.4E1,2.2E1],"tree_param":{"num_deleted":"0","num_feature":"31","num_nodes":"31","size_leaf_vector":"1"}},{"base_weights":[2.6606021E-2,-4.2648187E0,6.4782014E0,-6.93808E0,-1.8096368E0,4.8061233E0,1.0226621E1,-9.871643E0,-5.8306327E0,-3.2322633E0,-4.3407017E-1,3.0042336E0,6.0671587E0,9.105286E0,1.668356E1,-6.954995E-1,-4.573011E-1,-3.3926728E-1,-2.5807142E-1,-1.8841419E-1,-1.2712866E-1,-5.4626375E-2,2.2008356E-2,1.0521034E-1,1.9332418E-1,2.6927802E-1,3.4394708E-1,4.3058726E-1,5.744719E-1,7.2994065E-1,1.020296E0],"categories":[],"categories_nodes":[],"categories_segments":[],"categories_sizes":[],"default_left":[0,0,0,0,0,0,0,0,0,0,0,0,0,0,0,0,0,0,0,0,0,0,0,0,0,0,0,0,0,0,0],"id":26,"left_children":[1,3,5,7,9,11,13,15,17,19,21,23,25,27,29,-1,-1,-1,-1,-1,-1,-1,-1,-1,-1,-1,-1,-1,-1,-1,-1],"loss_changes":[7.187418E4,1.0219695E4,6.4504023E3,2.3660195E3,1.5915276E3,1.6155176E3,2.1577734E3,4.6763086E2,3.1253906E2,1.3829443E2,2.3937482E2,2.2312622E2,1.964502E2,2.2346484E2,5.906543E1,0E0,0E0,0E0,0E0,0E0,0E0,0E0,0E0,0E0,0E0,0E0,0E0,0E0,0E0,0E0,0E0],"parents":[2147483647,0,0,1,1,2,2,3,3,4,4,5,5,6,6,7,7,8,8,9,9,10,10,11,11,12,12,13,13,14,14],"right_children":[2,4,6,8,10,12,14,16,18,20,22,24,26,28,30,-1,-1,-1,-1,-1,-1,-1,-1,-1,-1,-1,-1,-1,-1,-1,-1],"split_conditions":[7.651E1,5.61E1,1.006705E2,4.318E1,6.483E1,8.876E1,1.2545857E2,2.787E1,4.936E1,6E1,7.069E1,8.275E1,9.532E1,1.100385E2,1.3346E2,-6.954995E-1,-4.573011E-1,-3.3926728E-1,-2.5807142E-1,-1.8841419E-1,-1.2712866E-1,-5.4626375E-2,2.2008356E-2,1.0521034E-1,1.9332418E-1,2.6927802E-1,3.4394708E-1,4.3058726E-1,5.744719E-1,7.2994065E-1,1.020296E0],"split_indices":[0,1,7,0,1,0,7,2,1,0,0,0,0,7,2,0,0,0,0,0,0,0,0,0,0,0,0,0,0,0,0],"split_type":[0,0,0,0,0,0,0,0,0,0,0,0,0,0,0,0,0,0,0,0,0,0,0,0,0,0,0,0,0,0,0],"sum_hessian":[2.594E3,1.558E3,1.036E3,7.45E2,8.13E2,7.18E2,3.18E2,2.02E2,5.43E2,3.99E2,4.14E2,2.97E2,4.21E2,2.73E2,4.5E1,2.8E1,1.74E2,2.2E2,3.23E2,2.22E2,1.77E2,2.36E2,1.78E2,1.47E2,1.5E2,2.33E2,1.88E2,2.3E2,4.3E1,3.2E1,1.3E1],"tree_param":{"num_deleted":"0","num_feature":"31","num_nodes":"31","size_leaf_vector":"1"}},{"base_weights":[5.2559193E-2,-4.221687E0,5.7502384E0,-7.100795E0,-2.2391672E0,3.635236E0,8.779515E0,-1.0360286E1,-6.281409E0,-3.624142E0,-9.714933E-1,1.9320259E0,4.987029E0,7.6075487E0,1.4025247E1,-6.0941696E-1,-4.7975984E-1,-3.7681136E-1,-2.860829E-1,-2.1080187E-1,-1.5956096E-1,-7.849821E-2,-3.6696268E-3,6.9687E-2,1.4188913E-1,2.0710371E-1,2.7146488E-1,3.5804698E-1,4.5121023E-1,5.8694506E-1,8.6511344E-1],"categories":[],"categories_nodes":[],"categories_segments":[],"categories_sizes":[],"default_left":[0,0,0,0,0,0,0,0,0,0,0,0,0,0,0,0,0,0,0,0,0,0,0,0,0,0,0,0,0,0,0],"id":27,"left_children":[1,3,5,7,9,11,13,15,17,19,21,23,25,27,29,-1,-1,-1,-1,-1,-1,-1,-1,-1,-1,-1,-1,-1,-1,-1,-1],"loss_changes":[6.3805523E4,8.528809E3,7.1630664E3,1.5640977E3,1.5555381E3,1.5168477E3,2.7274453E3,5.2283203E1,3.0104883E2,9.519385E1,2.4981622E2,1.3987378E2,1.1540527E2,1.7516992E2,4.1876074E2,0E0,0E0,0E0,0E0,0E0,0E0,0E0,0E0,0E0,0E0,0E0,0E0,0E0,0E0,0E0,0E0],"parents":[2147483647,0,0,1,1,2,2,3,3,4,4,5,5,6,6,7,7,8,8,9,9,10,10,11,11,12,12,13,13,14,14],"right_children":[2,4,6,8,10,12,14,16,18,20,22,24,26,28,30,-1,-1,-1,-1,-1,-1,-1,-1,-1,-1,-1,-1,-1,-1,-1,-1],"split_conditions":[7.375E1,5.252E1,9.654E1,3.832E1,6.167E1,8.659E1,1.0992E2,2.904E1,4.514E1,5.676E1,6.874E1,8.101E1,9.048E1,1.047E2,1.2629E2,-6.0941696E-1,-4.7975984E-1,-3.7681136E-1,-2.860829E-1,-2.1080187E-1,-1.5956096E-1,-7.849821E-2,-3.6696268E-3,6.9687E-2,1.4188913E-1,2.0710371E-1,2.7146488E-1,3.5804698E-1,4.5121023E-1,5.8694506E-1,8.6511344E-1],"split_indices":[0,0,0,0,0,1,0,0,0,0,0,0,0,0,0,0,0,0,0,0,0,0,0,0,0,0,0,0,0,0,0],"split_type":[0,0,0,0,0,0,0,0,0,0,0,0,0,0,0,0,0,0,0,0,0,0,0,0,0,0,0,0,0,0,0],"sum_hessian":[2.618E3,1.496E3,1.122E3,6.09E2,8.87E2,6.62E2,4.6E2,1.2E2,4.89E2,4.23E2,4.64E2,2.94E2,3.68E2,3.78E2,8.2E1,3.1E1,8.9E1,1.47E2,3.42E2,1.75E2,2.48E2,2.78E2,1.86E2,1.86E2,1.08E2,1.3E2,2.38E2,2.92E2,8.6E1,5.1E1,3.1E1],"tree_param":{"num_deleted":"0","num_feature":"31","num_nodes":"31","size_leaf_vector":"1"}},{"base_weights":[-4.138972E-2,-4.116736E0,5.3949013E0,-6.8721504E0,-2.2542694E0,3.3367333E0,8.168518E0,-1.0291637E1,-6.1083035E0,-3.4052808E0,-8.4888303E-1,1.7849746E0,4.6321816E0,7.2812057E0,1.2339919E1,-7.3486423E-1,-4.790213E-1,-3.5647804E-1,-2.7137655E-1,-1.9289418E-1,-1.299231E-1,-7.431394E-2,-1.2379522E-2,6.1081756E-2,1.3002674E-1,1.9685684E-1,2.656209E-1,3.2092842E-1,4.0102792E-1,5.307785E-1,7.697724E-1],"categories":[],"categories_nodes":[],"categories_segments":[],"categories_sizes":[],"default_left":[0,0,0,0,1,0,0,0,0,0,0,0,0,0,0,0,0,0,0,0,0,0,0,0,0,0,0,0,0,0,0],"id":28,"left_children":[1,3,5,7,9,11,13,15,17,19,21,23,25,27,29,-1,-1,-1,-1,-1,-1,-1,-1,-1,-1,-1,-1,-1,-1,-1,-1],"loss_changes":[5.71372E4,7.548883E3,6.280713E3,1.4886406E3,1.4222285E3,1.2702334E3,1.6497793E3,1.9446191E2,3.0058398E2,1.667168E2,1.5217007E2,1.3051929E2,1.4267139E2,1.9725977E2,2.6334082E2,0E0,0E0,0E0,0E0,0E0,0E0,0E0,0E0,0E0,0E0,0E0,0E0,0E0,0E0,0E0,0E0],"parents":[2147483647,0,0,1,1,2,2,3,3,4,4,5,5,6,6,7,7,8,8,9,9,10,10,11,11,12,12,13,13,14,14],"right_children":[2,4,6,8,10,12,14,16,18,20,22,24,26,28,30,-1,-1,-1,-1,-1,-1,-1,-1,-1,-1,-1,-1,-1,-1,-1,-1],"split_conditions":[7.336E1,5.177875E1,9.5349E1,3.759E1,6.270524E1,8.5658264E1,1.100385E2,2.331E1,4.5865E1,5.801E1,6.798E1,7.962631E1,9.195E1,1.0190773E2,1.2629E2,-7.3486423E-1,-4.790213E-1,-3.5647804E-1,-2.7137655E-1,-1.9289418E-1,-1.299231E-1,-7.431394E-2,-1.2379522E-2,6.1081756E-2,1.3002674E-1,1.9685684E-1,2.656209E-1,3.2092842E-1,4.0102792E-1,5.307785E-1,7.697724E-1],"split_indices":[0,7,7,0,7,7,7,2,7,2,0,7,0,7,0,0,0,0,0,0,0,0,0,0,0,0,0,0,0,0,0],"split_type":[0,0,0,0,0,0,0,0,0,0,0,0,0,0,0,0,0,0,0,0,0,0,0,0,0,0,0,0,0,0,0],"sum_hessian":[2.577E3,1.473E3,1.104E3,5.93E2,8.8E2,6.35E2,4.69E2,1.06E2,4.87E2,4.83E2,3.97E2,2.9E2,3.45E2,3.89E2,8E1,1.2E1,9.4E1,1.91E2,2.96E2,3.07E2,1.76E2,1.92E2,2.05E2,1.73E2,1.17E2,1.74E2,1.71E2,1.84E2,2.05E2,5.4E1,2.6E1],"tree_param":{"num_deleted":"0","num_feature":"31","num_nodes":"31","size_leaf_vector":"1"}},{"base_weights":[-5.0764862E-2,-3.9378102E0,5.152906E0,-6.519222E0,-2.1834776E0,2.7431138E0,7.3434305E0,-9.9998045E0,-5.8087893E0,-3.2709866E0,-8.033685E-1,1.4190992E0,3.925436E0,6.7086463E0,1.4797651E1,-6.3261217E-1,-4.5043778E-1,-3.432031E-1,-2.6032287E-1,-1.92559E-1,-1.3352925E-1,-7.87192E-2,-1.4025454E-2,7.354629E-2,-4.79791E-2,1.5392007E-1,2.1811087E-1,2.957358E-1,4.11257E-1,9.617352E-1,6.398204E-1],"categories":[],"categories_nodes":[],"categories_segments":[],"categories_sizes":[],"default_left":[0,0,0,0,1,0,0,0,0,0,0,1,0,0,0,0,0,0,0,0,0,0,0,0,0,0,0,0,0,0,0],"id":29,"left_children":[1,3,5,7,9,11,13,15,17,19,21,23,25,27,29,-1,-1,-1,-1,-1,-1,-1,-1,-1,-1,-1,-1,-1,-1,-1,-1],"loss_changes":[5.2792285E4,6.751574E3,5.8708965E3,1.4354355E3,1.3346572E3,8.287932E2,2.6641094E3,1.5151758E2,2.8461914E2,1.6319287E2,1.5839261E2,3.2600983E1,9.053223E1,6.0150586E2,1.5344824E2,0E0,0E0,0E0,0E0,0E0,0E0,0E0,0E0,0E0,0E0,0E0,0E0,0E0,0E0,0E0,0E0],"parents":[2147483647,0,0,1,1,2,2,3,3,4,4,5,5,6,6,7,7,8,8,9,9,10,10,11,11,12,12,13,13,14,14],"right_children":[2,4,6,8,10,12,14,16,18,20,22,24,26,28,30,-1,-1,-1,-1,-1,-1,-1,-1,-1,-1,-1,-1,-1,-1,-1,-1],"split_conditions":[7.336E1,5.177875E1,9.331E1,3.679E1,6.270524E1,8.275E1,1.2545857E2,2.633E1,4.514E1,5.733E1,6.769E1,1.38E2,8.727E1,1.0293E2,-1.255E2,-6.3261217E-1,-4.5043778E-1,-3.432031E-1,-2.6032287E-1,-1.92559E-1,-1.3352925E-1,-7.87192E-2,-1.4025454E-2,7.354629E-2,-4.79791E-2,1.5392007E-1,2.1811087E-1,2.957358E-1,4.11257E-1,9.617352E-1,6.398204E-1],"split_indices":[0,7,0,0,7,0,7,0,0,0,1,25,0,0,25,0,0,0,0,0,0,0,0,0,0,0,0,0,0,0,0],"split_type":[0,0,0,0,0,0,0,0,0,0,0,0,0,0,0,0,0,0,0,0,0,0,0,0,0,0,0,0,0,0,0],"sum_hessian":[2.608E3,1.493E3,1.115E3,6.03E2,8.9E2,5.32E2,5.83E2,1E2,5.03E2,4.97E2,3.93E2,2.52E2,2.8E2,5.39E2,4.4E1,2.4E1,7.6E1,1.79E2,3.24E2,2.5E2,2.47E2,1.58E2,2.35E2,2.47E2,5E0,9.8E1,1.82E2,3.57E2,1.82E2,1.1E1,3.3E1],"tree_param":{"num_deleted":"0","num_feature":"31","num_nodes":"31","size_leaf_vector":"1"}},{"base_weights":[-9.969854E-2,-3.4695656E0,5.320326E0,-6.166644E0,-1.7613621E0,3.9836502E0,8.308528E0,-9.06817E0,-5.447725E0,-2.9498966E0,-3.4067768E-1,2.5390713E0,4.947542E0,7.4188867E0,1.3964493E1,-5.9087515E-1,-4.141148E-1,-3.1664667E-1,-2.4513827E-1,-1.7556441E-1,-1.2195205E-1,-6.04871E-2,1.0537337E-2,8.823274E-2,1.6643797E-1,2.1379268E-1,2.6985332E-1,3.364859E-1,4.3724203E-1,5.9950644E-1,8.457878E-1],"categories":[],"categories_nodes":[],"categories_segments":[],"categories_sizes":[],"default_left":[0,0,0,0,0,0,0,0,0,0,0,0,0,0,0,0,0,0,0,0,0,0,0,0,0,0,0,0,0,0,0],"id":30,"left_children":[1,3,5,7,9,11,13,15,17,19,21,23,25,27,29,-1,-1,-1,-1,-1,-1,-1,-1,-1,-1,-1,-1,-1,-1,-1,-1],"loss_changes":[4.792693E4,7.4435195E3,3.985127E3,1.2585E3,1.674019E3,9.579541E2,1.456248E3,1.6788086E2,2.1256543E2,1.4630225E2,2.1734306E2,1.6597058E2,1.0283301E2,1.8787793E2,3.607959E1,0E0,0E0,0E0,0E0,0E0,0E0,0E0,0E0,0E0,0E0,0E0,0E0,0E0,0E0,0E0,0E0],"parents":[2147483647,0,0,1,1,2,2,3,3,4,4,5,5,6,6,7,7,8,8,9,9,10,10,11,11,12,12,13,13,14,14],"right_children":[2,4,6,8,10,12,14,16,18,20,22,24,26,28,30,-1,-1,-1,-1,-1,-1,-1,-1,-1,-1,-1,-1,-1,-1,-1,-1],"split_conditions":[7.56E1,5.115E1,9.901E1,3.829E1,6.27E1,9.033E1,1.223E2,2.547E1,4.673E1,5.85E1,6.95E1,8.229E1,9.307E1,1.0513E2,1.3346E2,-5.9087515E-1,-4.141148E-1,-3.1664667E-1,-2.4513827E-1,-1.7556441E-1,-1.2195205E-1,-6.04871E-2,1.0537337E-2,8.823274E-2,1.6643797E-1,2.1379268E-1,2.6985332E-1,3.364859E-1,4.3724203E-1,5.9950644E-1,8.457878E-1],"split_indices":[2,2,2,8,2,1,8,2,1,1,1,2,2,2,2,0,0,0,0,0,0,0,0,0,0,0,0,0,0,0,0],"split_type":[0,0,0,0,0,0,0,0,0,0,0,0,0,0,0,0,0,0,0,0,0,0,0,0,0,0,0,0,0,0,0],"sum_hessian":[2.622E3,1.617E3,1.005E3,6.26E2,9.91E2,6.96E2,3.09E2,1.22E2,5.04E2,5.39E2,4.52E2,2.8E2,4.16E2,2.69E2,4E1,2.4E1,9.8E1,1.88E2,3.16E2,2.54E2,2.85E2,1.75E2,2.77E2,1.43E2,1.37E2,1.71E2,2.45E2,1.81E2,8.8E1,2.7E1,1.3E1],"tree_param":{"num_deleted":"0","num_feature":"31","num_nodes":"31","size_leaf_vector":"1"}},{"base_weights":[-1.1902836E-2,-3.2736506E0,4.92303E0,-5.344426E0,-1.3409754E0,3.5138526E0,7.4584336E0,-8.1323185E0,-4.6109104E0,-2.2559986E0,-1.6405754E-1,2.1017175E0,4.385391E0,6.5410123E0,1.0562967E1,-5.697029E-1,-3.7290323E-1,-2.6568633E-1,-1.947598E-1,-1.5107113E-1,-9.141607E-2,-3.3518758E-2,2.7125264E-2,7.3298626E-2,1.3177209E-1,1.8584919E-1,2.3794913E-1,3.0205444E-1,3.699156E-1,4.7807074E-1,7.07969E-1],"categories":[],"categories_nodes":[],"categories_segments":[],"categories_sizes":[],"default_left":[0,0,0,0,0,0,0,0,0,0,0,0,0,0,0,0,0,0,0,0,0,0,0,0,0,0,0,0,0,0,0],"id":31,"left_children":[1,3,5,7,9,11,13,15,17,19,21,23,25,27,29,-1,-1,-1,-1,-1,-1,-1,-1,-1,-1,-1,-1,-1,-1,-1,-1],"loss_changes":[4.2108477E4,6.296201E3,3.6931094E3,1.5166758E3,8.78386E2,8.166035E2,9.875781E2,2.603037E2,2.8312402E2,1.4473145E2,1.2843645E2,8.36792E1,8.5691895E1,7.916797E1,1.6358203E2,0E0,0E0,0E0,0E0,0E0,0E0,0E0,0E0,0E0,0E0,0E0,0E0,0E0,0E0,0E0,0E0],"parents":[2147483647,0,0,1,1,2,2,3,3,4,4,5,5,6,6,7,7,8,8,9,9,10,10,11,11,12,12,13,13,14,14],"right_children":[2,4,6,8,10,12,14,16,18,20,22,24,26,28,30,-1,-1,-1,-1,-1,-1,-1,-1,-1,-1,-1,-1,-1,-1,-1,-1],"split_conditions":[7.651E1,5.589E1,9.868E1,4.073E1,6.589E1,8.685E1,1.0992E2,2.633E1,4.917E1,5.92125E1,7.176E1,8.142E1,9.2957E1,1.04555214E2,1.3104E2,-5.697029E-1,-3.7290323E-1,-2.6568633E-1,-1.947598E-1,-1.5107113E-1,-9.141607E-2,-3.3518758E-2,2.7125264E-2,7.3298626E-2,1.3177209E-1,1.8584919E-1,2.3794913E-1,3.0205444E-1,3.699156E-1,4.7807074E-1,7.07969E-1],"split_indices":[0,0,0,0,0,0,0,0,0,7,0,0,7,7,0,0,0,0,0,0,0,0,0,0,0,0,0,0,0,0,0],"split_type":[0,0,0,0,0,0,0,0,0,0,0,0,0,0,0,0,0,0,0,0,0,0,0,0,0,0,0,0,0,0,0],"sum_hessian":[2.614E3,1.574E3,1.04E3,7.59E2,8.15E2,6.7E2,3.7E2,1.56E2,6.03E2,4.58E2,3.57E2,2.57E2,4.13E2,2.88E2,8.2E1,2.4E1,1.32E2,3.01E2,3.02E2,1.62E2,2.96E2,2.08E2,1.49E2,1.19E2,1.38E2,1.52E2,2.61E2,1.87E2,1.01E2,6.7E1,1.5E1],"tree_param":{"num_deleted":"0","num_feature":"31","num_nodes":"31","size_leaf_vector":"1"}},{"base_weights":[-5.1014293E-2,-3.3239057E0,4.331477E0,-5.5537367E0,-1.8236567E0,2.9398377E0,7.125616E0,-8.643342E0,-4.9915648E0,-2.7343361E0,-7.1235156E-1,1.3971357E0,3.9628916E0,6.2351155E0,1.06631975E1,-6.382605E-1,-3.9278254E-1,-2.820649E-1,-2.1823815E-1,-1.55227E-1,-9.851696E-2,-6.9980904E-2,-1.547792E-2,-5.2033633E-2,7.831376E-2,1.5699431E-1,2.1557868E-1,2.7901164E-1,3.476982E-1,4.6949893E-1,6.893806E-1],"categories":[],"categories_nodes":[],"categories_segments":[],"categories_sizes":[],"default_left":[1,0,0,0,1,0,0,0,0,0,0,0,0,0,0,0,0,0,0,0,0,0,0,0,0,0,0,0,0,0,0],"id":32,"left_children":[1,3,5,7,9,11,13,15,17,19,21,23,25,27,29,-1,-1,-1,-1,-1,-1,-1,-1,-1,-1,-1,-1,-1,-1,-1,-1],"loss_changes":[3.740769E4,4.984408E3,4.3146543E3,9.989883E2,9.028186E2,1.1718506E3,1.0990957E3,1.9517676E2,1.8307715E2,1.3275488E2,1.1140454E2,1.2491644E2,1.1502344E2,1.0148242E2,1.609336E2,0E0,0E0,0E0,0E0,0E0,0E0,0E0,0E0,0E0,0E0,0E0,0E0,0E0,0E0,0E0,0E0],"parents":[2147483647,0,0,1,1,2,2,3,3,4,4,5,5,6,6,7,7,8,8,9,9,10,10,11,11,12,12,13,13,14,14],"right_children":[2,4,6,8,10,12,14,16,18,20,22,24,26,28,30,-1,-1,-1,-1,-1,-1,-1,-1,-1,-1,-1,-1,-1,-1,-1,-1],"split_conditions":[7.4150475E1,5.177875E1,9.789429E1,3.796091E1,6.270524E1,8.5658264E1,1.1246273E2,2.331E1,4.552E1,5.92125E1,6.681809E1,-2.78E0,9.132E1,1.0298131E2,1.2863E2,-6.382605E-1,-3.9278254E-1,-2.820649E-1,-2.1823815E-1,-1.55227E-1,-9.851696E-2,-6.9980904E-2,-1.547792E-2,-5.2033633E-2,7.831376E-2,1.5699431E-1,2.1557868E-1,2.7901164E-1,3.476982E-1,4.6949893E-1,6.893806E-1],"split_indices":[7,7,7,7,7,7,7,2,2,7,7,6,1,7,2,0,0,0,0,0,0,0,0,0,0,0,0,0,0,0,0],"split_type":[0,0,0,0,0,0,0,0,0,0,0,0,0,0,0,0,0,0,0,0,0,0,0,0,0,0,0,0,0,0,0],"sum_hessian":[2.606E3,1.492E3,1.114E3,5.99E2,8.93E2,7.45E2,3.69E2,9E1,5.09E2,4.9E2,4.03E2,2.98E2,4.47E2,2.97E2,7.2E1,1.2E1,7.8E1,2.46E2,2.63E2,3.28E2,1.62E2,1.48E2,2.55E2,1.9E1,2.79E2,1.36E2,3.11E2,1.6E2,1.37E2,5.4E1,1.8E1],"tree_param":{"num_deleted":"0","num_feature":"31","num_nodes":"31","size_leaf_vector":"1"}},{"base_weights":[-2.8475491E-2,-3.0159523E0,4.635287E0,-5.2174225E0,-1.4557077E0,4.0039644E0,1.0059049E1,-7.101029E0,-4.3629317E0,-2.3485909E0,-1.5464495E-1,2.5694795E0,5.136448E0,8.8105135E0,1.3561828E1,-5.707681E-1,-3.3868167E-1,-2.4318878E-1,-1.9248524E-1,-1.4269006E-1,-9.0622865E-2,-3.6278013E-2,1.5329346E-2,8.86301E-2,1.6261095E-1,2.2776051E-1,2.9854277E-1,4.4754538E-1,1.9351044E-1,2.3506077E-1,7.052164E-1],"categories":[],"categories_nodes":[],"categories_segments":[],"categories_sizes":[],"default_left":[0,0,0,0,1,0,0,0,0,0,0,0,0,0,0,0,0,0,0,0,0,0,0,0,0,0,0,0,0,0,0],"id":33,"left_children":[1,3,5,7,9,11,13,15,17,19,21,23,25,27,29,-1,-1,-1,-1,-1,-1,-1,-1,-1,-1,-1,-1,-1,-1,-1,-1],"loss_changes":[3.6504195E4,5.477832E3,3.4626191E3,1.0345234E3,1.0869852E3,1.4781211E3,3.440879E2,2.1223828E2,9.900293E1,1.4515479E2,1.0081235E2,2.1566724E2,2.2111621E2,2.1539062E1,5.8671875E1,0E0,0E0,0E0,0E0,0E0,0E0,0E0,0E0,0E0,0E0,0E0,0E0,0E0,0E0,0E0,0E0],"parents":[2147483647,0,0,1,1,2,2,3,3,4,4,5,5,6,6,7,7,8,8,9,9,10,10,11,11,12,12,13,13,14,14],"right_children":[2,4,6,8,10,12,14,16,18,20,22,24,26,28,30,-1,-1,-1,-1,-1,-1,-1,-1,-1,-1,-1,-1,-1,-1,-1,-1],"split_conditions":[7.718E1,5.212E1,1.0794E2,4.2889046E1,6.429318E1,9.283E1,1.3415E2,2.331E1,4.819E1,5.92125E1,7.069E1,8.5658264E1,1.006705E2,3.4141634E-2,-5.09E0,-5.707681E-1,-3.3868167E-1,-2.4318878E-1,-1.9248524E-1,-1.4269006E-1,-9.0622865E-2,-3.6278013E-2,1.5329346E-2,8.86301E-2,1.6261095E-1,2.2776051E-1,2.9854277E-1,4.4754538E-1,1.9351044E-1,2.3506077E-1,7.052164E-1],"split_indices":[0,2,0,7,7,0,1,2,0,7,0,7,7,18,24,0,0,0,0,0,0,0,0,0,0,0,0,0,0,0,0],"split_type":[0,0,0,0,0,0,0,0,0,0,0,0,0,0,0,0,0,0,0,0,0,0,0,0,0,0,0,0,0,0,0],"sum_hessian":[2.618E3,1.596E3,1.022E3,6.61E2,9.35E2,9.17E2,1.05E2,2.04E2,4.57E2,5.54E2,3.81E2,4.06E2,5.11E2,8E1,2.5E1,1.2E1,1.92E2,2.27E2,2.3E2,2.83E2,2.71E2,1.7E2,2.11E2,1.89E2,2.17E2,3.05E2,2.06E2,7.7E1,3E0,2E0,2.3E1],"tree_param":{"num_deleted":"0","num_feature":"31","num_nodes":"31","size_leaf_vector":"1"}},{"base_weights":[1.05183996E-1,-2.8820298E0,4.4097643E0,-4.466197E0,-1.0338668E0,3.2907608E0,7.1701937E0,-6.5969706E0,-3.703337E0,-1.8045744E0,-1.8576017E-1,2.062474E0,4.163356E0,6.285213E0,1.1367741E1,-4.9912453E-1,-3.0137652E-1,-2.2023137E-1,-1.6185999E-1,-1.1069355E-1,-6.1282486E-2,-2.770944E-2,2.1439558E-2,7.1466155E-2,1.2930067E-1,1.8503243E-1,2.3024216E-1,2.8576586E-1,3.7124005E-1,4.3592244E-1,6.2179816E-1],"categories":[],"categories_nodes":[],"categories_segments":[],"categories_sizes":[],"default_left":[0,0,0,0,0,0,0,0,0,0,0,0,0,0,0,0,0,0,0,0,0,0,0,0,0,0,0,0,0,0,0],"id":34,"left_children":[1,3,5,7,9,11,13,15,17,19,21,23,25,27,29,-1,-1,-1,-1,-1,-1,-1,-1,-1,-1,-1,-1,-1,-1,-1,-1],"loss_changes":[3.2738104E4,4.3958643E3,3.1981582E3,1.290583E3,4.5394623E2,7.888301E2,1.0429756E3,3.4853516E2,1.8122559E2,8.353711E1,7.540851E1,9.939392E1,7.161572E1,1.1992676E2,3.590918E1,0E0,0E0,0E0,0E0,0E0,0E0,0E0,0E0,0E0,0E0,0E0,0E0,0E0,0E0,0E0,0E0],"parents":[2147483647,0,0,1,1,2,2,3,3,4,4,5,5,6,6,7,7,8,8,9,9,10,10,11,11,12,12,13,13,14,14],"right_children":[2,4,6,8,10,12,14,16,18,20,22,24,26,28,30,-1,-1,-1,-1,-1,-1,-1,-1,-1,-1,-1,-1,-1,-1,-1,-1],"split_conditions":[7.605E1,5.733E1,1.0190773E2,4.479913E1,6.621E1,8.94E1,1.2545857E2,2.904E1,4.917E1,6.167E1,7.205E1,8.247E1,9.55E1,1.0685E2,1.2629E2,-4.9912453E-1,-3.0137652E-1,-2.2023137E-1,-1.6185999E-1,-1.1069355E-1,-6.1282486E-2,-2.770944E-2,2.1439558E-2,7.1466155E-2,1.2930067E-1,1.8503243E-1,2.3024216E-1,2.8576586E-1,3.7124005E-1,4.3592244E-1,6.2179816E-1],"split_indices":[0,0,7,7,0,0,7,0,0,0,0,0,0,0,0,0,0,0,0,0,0,0,0,0,0,0,0,0,0,0,0],"split_type":[0,0,0,0,0,0,0,0,0,0,0,0,0,0,0,0,0,0,0,0,0,0,0,0,0,0,0,0,0,0,0],"sum_hessian":[2.544E3,1.502E3,1.042E3,8.08E2,6.94E2,7.43E2,2.99E2,2.11E2,5.97E2,3.63E2,3.31E2,3.1E2,4.33E2,2.49E2,5E1,2.8E1,1.83E2,2.35E2,3.62E2,2.11E2,1.52E2,2.07E2,1.24E2,1.42E2,1.68E2,2.16E2,2.17E2,1.7E2,7.9E1,1.7E1,3.3E1],"tree_param":{"num_deleted":"0","num_feature":"31","num_nodes":"31","size_leaf_vector":"1"}},{"base_weights":[-3.3241134E-2,-2.9267287E0,3.767382E0,-4.806991E0,-1.634195E0,2.2913895E0,5.8377056E0,-7.28617E0,-4.225452E0,-2.3925412E0,-7.0936614E-1,1.1851398E0,3.152257E0,5.141247E0,1.0315464E1,-5.1677084E-1,-3.3752826E-1,-2.4283908E-1,-1.9047104E-1,-1.3669978E-1,-9.7969465E-2,-5.482487E-2,-1.2300807E-2,6.550839E-2,-6.866401E-2,1.2787338E-1,1.7799196E-1,2.3211573E-1,2.9335746E-1,4.6304822E-1,6.7888683E-1],"categories":[],"categories_nodes":[],"categories_segments":[],"categories_sizes":[],"default_left":[0,0,0,0,0,0,0,0,0,0,0,1,0,0,0,0,0,0,0,0,0,0,0,0,0,0,0,0,0,0,0],"id":35,"left_children":[1,3,5,7,9,11,13,15,17,19,21,23,25,27,29,-1,-1,-1,-1,-1,-1,-1,-1,-1,-1,-1,-1,-1,-1,-1,-1],"loss_changes":[2.864736E4,3.5865615E3,3.4274346E3,8.3713965E2,6.1407983E2,6.238523E2,1.406457E3,1.1478027E2,1.10197266E2,6.5931885E1,7.094302E1,9.456268E1,8.0593506E1,1.20168945E2,8.7541016E1,0E0,0E0,0E0,0E0,0E0,0E0,0E0,0E0,0E0,0E0,0E0,0E0,0E0,0E0,0E0,0E0],"parents":[2147483647,0,0,1,1,2,2,3,3,4,4,5,5,6,6,7,7,8,8,9,9,10,10,11,11,12,12,13,13,14,14],"right_children":[2,4,6,8,10,12,14,16,18,20,22,24,26,28,30,-1,-1,-1,-1,-1,-1,-1,-1,-1,-1,-1,-1,-1,-1,-1,-1],"split_conditions":[7.4150475E1,5.115E1,9.5349E1,3.829E1,6.133E1,8.32E1,1.1236E2,2.9678637E1,4.5865E1,5.8019524E1,6.9468094E1,1.38E2,8.953E1,1.0298131E2,1.3346E2,-5.1677084E-1,-3.3752826E-1,-2.4283908E-1,-1.9047104E-1,-1.3669978E-1,-9.7969465E-2,-5.482487E-2,-1.2300807E-2,6.550839E-2,-6.866401E-2,1.2787338E-1,1.7799196E-1,2.3211573E-1,2.9335746E-1,4.6304822E-1,6.7888683E-1],"split_indices":[7,2,7,8,2,2,2,7,7,7,7,25,2,7,2,0,0,0,0,0,0,0,0,0,0,0,0,0,0,0,0],"split_type":[0,0,0,0,0,0,0,0,0,0,0,0,0,0,0,0,0,0,0,0,0,0,0,0,0,0,0,0,0,0,0],"sum_hessian":[2.603E3,1.478E3,1.125E3,6.01E2,8.77E2,6.58E2,4.67E2,1.12E2,4.89E2,4.81E2,3.96E2,2.89E2,3.69E2,4.06E2,6.1E1,1.4E1,9.8E1,1.9E2,2.99E2,2.66E2,2.15E2,2.15E2,1.81E2,2.76E2,1.3E1,1.53E2,2.16E2,2.45E2,1.61E2,4.9E1,1.2E1],"tree_param":{"num_deleted":"0","num_feature":"31","num_nodes":"31","size_leaf_vector":"1"}},{"base_weights":[-2.879831E-2,-2.7100737E0,3.5430608E0,-4.4959807E0,-1.5349956E0,1.7600771E0,5.006134E0,-6.6779814E0,-4.00982E0,-2.2586913E0,-6.4269847E-1,9.577966E-1,2.715161E0,4.4597855E0,8.393734E0,-4.124043E-1,-2.9748377E-1,-2.3720132E-1,-1.8028744E-1,-1.3091575E-1,-9.033466E-2,-4.7477614E-2,-6.65458E-3,3.5836305E-2,7.91381E-2,1.09017126E-1,1.4749737E-1,2.0056115E-1,2.6658574E-1,3.8956052E-1,6.0366446E-1],"categories":[],"categories_nodes":[],"categories_segments":[],"categories_sizes":[],"default_left":[0,0,0,0,1,0,0,0,0,1,0,0,0,0,0,0,0,0,0,0,0,0,0,0,0,0,0,0,0,0,0],"id":36,"left_children":[1,3,5,7,9,11,13,15,17,19,21,23,25,27,29,-1,-1,-1,-1,-1,-1,-1,-1,-1,-1,-1,-1,-1,-1,-1,-1],"loss_changes":[2.4948469E4,3.115787E3,2.9050352E3,5.990967E2,5.790791E2,3.8435315E2,1.0971133E3,7.213867E1,1.26779785E2,7.589404E1,6.3049057E1,4.0447937E1,2.244873E1,1.859043E2,9.216455E1,0E0,0E0,0E0,0E0,0E0,0E0,0E0,0E0,0E0,0E0,0E0,0E0,0E0,0E0,0E0,0E0],"parents":[2147483647,0,0,1,1,2,2,3,3,4,4,5,5,6,6,7,7,8,8,9,9,10,10,11,11,12,12,13,13,14,14],"right_children":[2,4,6,8,10,12,14,16,18,20,22,24,26,28,30,-1,-1,-1,-1,-1,-1,-1,-1,-1,-1,-1,-1,-1,-1,-1,-1],"split_conditions":[7.295E1,5.177875E1,9.283E1,3.759E1,6.270524E1,8.457524E1,1.100385E2,2.904E1,4.514E1,5.8019524E1,6.904E1,8.101E1,8.685E1,1.0132E2,1.3668E2,-4.124043E-1,-2.9748377E-1,-2.3720132E-1,-1.8028744E-1,-1.3091575E-1,-9.033466E-2,-4.7477614E-2,-6.65458E-3,3.5836305E-2,7.91381E-2,1.09017126E-1,1.4749737E-1,2.0056115E-1,2.6658574E-1,3.8956052E-1,6.0366446E-1],"split_indices":[0,7,0,0,7,7,7,0,0,7,0,0,0,0,0,0,0,0,0,0,0,0,0,0,0,0,0,0,0,0,0],"split_type":[0,0,0,0,0,0,0,0,0,0,0,0,0,0,0,0,0,0,0,0,0,0,0,0,0,0,0,0,0,0,0],"sum_hessian":[2.603E3,1.487E3,1.116E3,5.89E2,8.98E2,5.04E2,6.12E2,1.05E2,4.84E2,4.95E2,4.03E2,2.75E2,2.29E2,5.29E2,8.3E1,3E1,7.5E1,1.68E2,3.16E2,2.73E2,2.22E2,2.51E2,1.52E2,2E2,7.5E1,7.3E1,1.56E2,3.53E2,1.76E2,7.4E1,9E0],"tree_param":{"num_deleted":"0","num_feature":"31","num_nodes":"31","size_leaf_vector":"1"}},{"base_weights":[7.0393416E-3,-2.3929482E0,3.782885E0,-4.1368756E0,-1.118196E0,2.718566E0,5.7695503E0,-5.793899E0,-3.5344868E0,-2.0426524E0,-2.8731784E-1,1.6177176E0,3.2986472E0,4.9330797E0,8.864519E0,-3.9259613E-1,-2.66724E-1,-1.9940756E-1,-1.5613706E-1,-1.22091435E-1,-8.5195646E-2,-3.6530416E-2,1.81626E-2,2.5582423E-2,8.550436E-2,1.4586416E-1,1.9219555E-1,4.1526794E-2,2.4799483E-1,3.6687428E-1,5.404343E-1],"categories":[],"categories_nodes":[],"categories_segments":[],"categories_sizes":[],"default_left":[0,0,0,0,0,0,0,0,0,0,0,0,0,0,0,0,0,0,0,0,0,0,0,0,0,0,0,0,0,0,0],"id":37,"left_children":[1,3,5,7,9,11,13,15,17,19,21,23,25,27,29,-1,-1,-1,-1,-1,-1,-1,-1,-1,-1,-1,-1,-1,-1,-1,-1],"loss_changes":[2.3388967E4,3.5033867E3,2.1051045E3,6.4430566E2,7.00698E2,4.1293457E2,8.597783E2,1.24521484E2,7.926221E1,5.425305E1,1.3927007E2,2.2419128E1,7.778613E1,2.635498E1,1.3741406E2,0E0,0E0,0E0,0E0,0E0,0E0,0E0,0E0,0E0,0E0,0E0,0E0,0E0,0E0,0E0,0E0],"parents":[2147483647,0,0,1,1,2,2,3,3,4,4,5,5,6,6,7,7,8,8,9,9,10,10,11,11,12,12,13,13,14,14],"right_children":[2,4,6,8,10,12,14,16,18,20,22,24,26,28,30,-1,-1,-1,-1,-1,-1,-1,-1,-1,-1,-1,-1,-1,-1,-1,-1],"split_conditions":[7.718E1,5.3501904E1,9.9E1,4.165E1,6.255E1,8.642809E1,1.1246273E2,2.904E1,4.8061817E1,5.8019524E1,7.105E1,-2.46E0,9.475739E1,-4.6E0,1.2629E2,-3.9259613E-1,-2.66724E-1,-1.9940756E-1,-1.5613706E-1,-1.22091435E-1,-8.5195646E-2,-3.6530416E-2,1.81626E-2,2.5582423E-2,8.550436E-2,1.4586416E-1,1.9219555E-1,4.1526794E-2,2.4799483E-1,3.6687428E-1,5.404343E-1],"split_indices":[0,7,0,0,0,7,7,0,7,7,0,6,7,13,0,0,0,0,0,0,0,0,0,0,0,0,0,0,0,0,0],"split_type":[0,0,0,0,0,0,0,0,0,0,0,0,0,0,0,0,0,0,0,0,0,0,0,0,0,0,0,0,0,0,0],"sum_hessian":[2.579E3,1.577E3,1.002E3,6.65E2,9.12E2,6.54E2,3.48E2,1.75E2,4.9E2,4.31E2,4.81E2,2.27E2,4.27E2,2.76E2,7.2E1,2.9E1,1.46E2,2.29E2,2.61E2,1.95E2,2.36E2,2.86E2,1.95E2,1.8E1,2.09E2,2.55E2,1.72E2,2E0,2.74E2,4.3E1,2.9E1],"tree_param":{"num_deleted":"0","num_feature":"31","num_nodes":"31","size_leaf_vector":"1"}},{"base_weights":[6.68859E-2,-2.3488822E0,3.465467E0,-4.0825686E0,-1.2513992E0,2.5134356E0,5.7769017E0,-5.894805E0,-3.5654795E0,-2.1197743E0,-4.519202E-1,1.5423934E0,3.2566564E0,5.2254643E0,1.0164463E1,-4.095764E-1,-2.8164834E-1,-1.9894768E-1,-1.5336624E-1,-1.1999699E-1,-8.783696E-2,-5.067544E-2,-4.7114203E-3,5.190713E-2,1.04542874E-1,1.4232515E-1,1.8133186E-1,2.4154651E-1,3.2990745E-1,3.2348913E-1,5.6178784E-1],"categories":[],"categories_nodes":[],"categories_segments":[],"categories_sizes":[],"default_left":[0,0,0,0,0,0,0,0,0,0,0,0,0,0,0,0,0,0,0,0,0,0,0,0,0,0,0,0,0,0,0],"id":38,"left_children":[1,3,5,7,9,11,13,15,17,19,21,23,25,27,29,-1,-1,-1,-1,-1,-1,-1,-1,-1,-1,-1,-1,-1,-1,-1,-1],"loss_changes":[2.1321777E4,2.8831758E3,2.3598828E3,5.2999023E2,6.453867E2,5.4779834E2,7.0659863E2,3.1434082E1,8.254346E1,4.114673E1,9.753006E1,9.02016E1,5.5384277E1,1.2030664E2,6.1882324E1,0E0,0E0,0E0,0E0,0E0,0E0,0E0,0E0,0E0,0E0,0E0,0E0,0E0,0E0,0E0,0E0],"parents":[2147483647,0,0,1,1,2,2,3,3,4,4,5,5,6,6,7,7,8,8,9,9,10,10,11,11,12,12,13,13,14,14],"right_children":[2,4,6,8,10,12,14,16,18,20,22,24,26,28,30,-1,-1,-1,-1,-1,-1,-1,-1,-1,-1,-1,-1,-1,-1,-1,-1],"split_conditions":[7.554857E1,5.177875E1,1.006705E2,4.0910435E1,6.15E1,8.876E1,1.2629E2,-5.7051282E-2,4.733E1,5.733E1,6.675E1,8.247E1,9.345E1,1.100385E2,-2.330243E-2,-4.095764E-1,-2.8164834E-1,-1.9894768E-1,-1.5336624E-1,-1.1999699E-1,-8.783696E-2,-5.067544E-2,-4.7114203E-3,5.190713E-2,1.04542874E-1,1.4232515E-1,1.8133186E-1,2.4154651E-1,3.2990745E-1,3.2348913E-1,5.6178784E-1],"split_indices":[7,7,7,7,0,0,0,18,0,0,0,0,2,7,18,0,0,0,0,0,0,0,0,0,0,0,0,0,0,0,0],"split_type":[0,0,0,0,0,0,0,0,0,0,0,0,0,0,0,0,0,0,0,0,0,0,0,0,0,0,0,0,0,0,0],"sum_hessian":[2.595E3,1.517E3,1.078E3,5.87E2,9.3E2,7.65E2,3.13E2,1.28E2,4.59E2,4.45E2,4.85E2,3.33E2,4.32E2,2.8E2,3.3E1,1E1,1.18E2,2.47E2,2.12E2,2.48E2,1.97E2,1.88E2,2.97E2,1.75E2,1.58E2,2.09E2,2.23E2,2.21E2,5.9E1,9E0,2.4E1],"tree_param":{"num_deleted":"0","num_feature":"31","num_nodes":"31","size_leaf_vector":"1"}},{"base_weights":[-2.8560484E-2,-2.3793733E0,3.0422904E0,-4.003795E0,-1.3533454E0,1.5436591E0,4.338265E0,-6.2851944E0,-3.559906E0,-1.9718497E0,-5.600248E-1,9.158181E-1,2.3859653E0,3.8465002E0,7.6198816E0,-4.6576267E-1,-2.8381845E-1,-2.0163532E-1,-1.5440015E-1,-1.1373074E-1,-7.8350954E-2,-5.3125214E-2,-1.4910939E-2,5.195076E-2,-3.636863E-2,1.0016882E-1,1.3705765E-1,1.7210966E-1,2.2623816E-1,3.239821E-1,5.698624E-1],"categories":[],"categories_nodes":[],"categories_segments":[],"categories_sizes":[],"default_left":[1,0,0,0,1,0,0,0,0,1,0,1,0,0,0,0,0,0,0,0,0,0,0,0,0,0,0,0,0,0,0],"id":39,"left_children":[1,3,5,7,9,11,13,15,17,19,21,23,25,27,29,-1,-1,-1,-1,-1,-1,-1,-1,-1,-1,-1,-1,-1,-1,-1,-1],"loss_changes":[1.9079826E4,2.4896338E3,2.2190508E3,5.639717E2,4.498235E2,2.7968347E2,9.615537E2,1.18687744E2,9.62041E1,5.9681274E1,5.2830215E1,6.2903687E1,2.5355713E1,1.3141016E2,2.6641162E2,0E0,0E0,0E0,0E0,0E0,0E0,0E0,0E0,0E0,0E0,0E0,0E0,0E0,0E0,0E0,0E0],"parents":[2147483647,0,0,1,1,2,2,3,3,4,4,5,5,6,6,7,7,8,8,9,9,10,10,11,11,12,12,13,13,14,14],"right_children":[2,4,6,8,10,12,14,16,18,20,22,24,26,28,30,-1,-1,-1,-1,-1,-1,-1,-1,-1,-1,-1,-1,-1,-1,-1,-1],"split_conditions":[7.4150475E1,5.1168423E1,9.259E1,3.796091E1,6.270524E1,8.32E1,1.100385E2,2.331E1,4.6855713E1,5.8019524E1,6.669E1,1.38E2,3.08676E-3,1.0190773E2,1.3104E2,-4.6576267E-1,-2.8381845E-1,-2.0163532E-1,-1.5440015E-1,-1.1373074E-1,-7.8350954E-2,-5.3125214E-2,-1.4910939E-2,5.195076E-2,-3.636863E-2,1.0016882E-1,1.3705765E-1,1.7210966E-1,2.2623816E-1,3.239821E-1,5.698624E-1],"split_indices":[7,7,8,7,7,2,7,2,7,7,1,25,18,7,8,0,0,0,0,0,0,0,0,0,0,0,0,0,0,0,0],"split_type":[0,0,0,0,0,0,0,0,0,0,0,0,0,0,0,0,0,0,0,0,0,0,0,0,0,0,0,0,0,0,0],"sum_hessian":[2.641E3,1.496E3,1.145E3,5.78E2,9.18E2,5.32E2,6.13E2,9.2E1,4.86E2,5.15E2,4.03E2,3.06E2,2.26E2,5.35E2,7.8E1,1.3E1,7.9E1,2.39E2,2.47E2,2.92E2,2.23E2,1.37E2,2.66E2,2.85E2,2.1E1,1.12E2,1.14E2,3.39E2,1.96E2,6.2E1,1.6E1],"tree_param":{"num_deleted":"0","num_feature":"31","num_nodes":"31","size_leaf_vector":"1"}},{"base_weights":[4.115042E-2,-2.1303775E0,3.1376605E0,-3.6879203E0,-1.1072772E0,2.2125502E0,4.8661637E0,-5.3760667E0,-3.2177784E0,-1.7152215E0,-2.3528698E-1,9.717654E-1,2.659554E0,4.1666427E0,7.1301246E0,-4.2746836E-1,-2.4969308E-1,-1.8500443E-1,-1.4560479E-1,-1.06054686E-1,-6.724051E-2,-3.877538E-2,-3.9066686E-3,-1.796691E-2,5.600166E-2,1.071847E-1,1.4837836E-1,2.0547692E-1,5.238808E-1,3.275787E-1,5.148263E-1],"categories":[],"categories_nodes":[],"categories_segments":[],"categories_sizes":[],"default_left":[1,0,0,0,0,0,0,0,0,0,0,0,0,0,0,0,0,0,0,0,0,0,0,0,0,0,0,0,0,0,0],"id":40,"left_children":[1,3,5,7,9,11,13,15,17,19,21,23,25,27,29,-1,-1,-1,-1,-1,-1,-1,-1,-1,-1,-1,-1,-1,-1,-1,-1],"loss_changes":[1.7960186E4,2.4977476E3,1.7497949E3,4.7636328E2,5.0268164E2,3.961985E2,5.7684375E2,1.19828125E2,6.1319824E1,8.11875E1,3.3134377E1,3.8295517E1,7.75332E1,6.3254395E1,9.558252E1,0E0,0E0,0E0,0E0,0E0,0E0,0E0,0E0,0E0,0E0,0E0,0E0,0E0,0E0,0E0,0E0],"parents":[2147483647,0,0,1,1,2,2,3,3,4,4,5,5,6,6,7,7,8,8,9,9,10,10,11,11,12,12,13,13,14,14],"right_children":[2,4,6,8,10,12,14,16,18,20,22,24,26,28,30,-1,-1,-1,-1,-1,-1,-1,-1,-1,-1,-1,-1,-1,-1,-1,-1],"split_conditions":[7.554857E1,5.115E1,9.8575714E1,4.0910435E1,6.555E1,8.275E1,1.0992E2,2.9678637E1,4.595E1,5.725E1,-1.4352283E-2,-2.46E0,8.974316E1,6.6022545E-2,1.3346E2,-4.2746836E-1,-2.4969308E-1,-1.8500443E-1,-1.4560479E-1,-1.06054686E-1,-6.724051E-2,-3.877538E-2,-3.9066686E-3,-1.796691E-2,5.600166E-2,1.071847E-1,1.4837836E-1,2.0547692E-1,5.238808E-1,3.275787E-1,5.148263E-1],"split_indices":[7,2,7,7,1,0,0,7,0,2,18,6,7,18,2,0,0,0,0,0,0,0,0,0,0,0,0,0,0,0,0],"split_type":[0,0,0,0,0,0,0,0,0,0,0,0,0,0,0,0,0,0,0,0,0,0,0,0,0,0,0,0,0,0,0],"sum_hessian":[2.669E3,1.569E3,1.1E3,6.21E2,9.48E2,7.18E2,3.82E2,1.33E2,4.88E2,5.58E2,3.9E2,1.91E2,5.27E2,2.94E2,8.8E1,1.2E1,1.21E2,1.85E2,3.03E2,2.64E2,2.94E2,8.7E1,3.03E2,1.9E1,1.72E2,2E2,3.27E2,2.93E2,1E0,7.7E1,1.1E1],"tree_param":{"num_deleted":"0","num_feature":"31","num_nodes":"31","size_leaf_vector":"1"}},{"base_weights":[-1.5005549E-2,-2.1648536E0,2.8147545E0,-3.627109E0,-1.2209482E0,1.8881047E0,4.687783E0,-5.545531E0,-3.1702063E0,-1.8135909E0,-5.1709926E-1,9.3168837E-1,2.504331E0,3.9506426E0,6.9367933E0,-3.9262697E-1,-2.4266648E-1,-1.8624645E-1,-1.3828538E-1,-1.01216964E-1,-7.478882E-2,-4.434317E-2,-6.4243614E-3,2.9677216E-2,6.6094436E-2,1.05824806E-1,1.4188102E-1,1.9462036E-1,5.107838E-1,3.0908343E-1,5.696447E-1],"categories":[],"categories_nodes":[],"categories_segments":[],"categories_sizes":[],"default_left":[1,0,0,0,0,0,0,0,0,0,0,0,0,0,0,0,0,0,0,0,0,0,0,0,0,0,0,0,0,0,0],"id":41,"left_children":[1,3,5,7,9,11,13,15,17,19,21,23,25,27,29,-1,-1,-1,-1,-1,-1,-1,-1,-1,-1,-1,-1,-1,-1,-1,-1],"loss_changes":[1.5951089E4,2.0521147E3,1.9558955E3,4.9431445E2,3.7740015E2,4.449978E2,5.92626E2,1.3914648E2,9.605615E1,2.992566E1,5.966307E1,3.8666656E1,5.3583496E1,6.3853516E1,2.3578027E2,0E0,0E0,0E0,0E0,0E0,0E0,0E0,0E0,0E0,0E0,0E0,0E0,0E0,0E0,0E0,0E0],"parents":[2147483647,0,0,1,1,2,2,3,3,4,4,5,5,6,6,7,7,8,8,9,9,10,10,11,11,12,12,13,13,14,14],"right_children":[2,4,6,8,10,12,14,16,18,20,22,24,26,28,30,-1,-1,-1,-1,-1,-1,-1,-1,-1,-1,-1,-1,-1,-1,-1,-1],"split_conditions":[7.4150475E1,5.1168423E1,9.868E1,3.759E1,6.167E1,8.5658264E1,1.0709E2,2.547E1,4.581E1,5.8019524E1,6.738E1,7.840263E1,9.283E1,6.01E0,1.3346E2,-3.9262697E-1,-2.4266648E-1,-1.8624645E-1,-1.3828538E-1,-1.01216964E-1,-7.478882E-2,-4.434317E-2,-6.4243614E-3,2.9677216E-2,6.6094436E-2,1.05824806E-1,1.4188102E-1,1.9462036E-1,5.107838E-1,3.0908343E-1,5.696447E-1],"split_indices":[7,7,0,0,0,7,2,2,0,7,0,7,0,24,2,0,0,0,0,0,0,0,0,0,0,0,0,0,0,0,0],"split_type":[0,0,0,0,0,0,0,0,0,0,0,0,0,0,0,0,0,0,0,0,0,0,0,0,0,0,0,0,0,0,0],"sum_hessian":[2.62E3,1.489E3,1.131E3,5.83E2,9.06E2,7.58E2,3.73E2,1.1E2,4.73E2,4.91E2,4.15E2,2.98E2,4.6E2,2.83E2,9E1,2.3E1,8.7E1,1.96E2,2.77E2,2.92E2,1.99E2,2.12E2,2.03E2,1.61E2,1.37E2,2.16E2,2.44E2,2.82E2,1E0,7.9E1,1.1E1],"tree_param":{"num_deleted":"0","num_feature":"31","num_nodes":"31","size_leaf_vector":"1"}},{"base_weights":[6.802528E-2,-1.7388825E0,3.074093E0,-3.2235541E0,-7.8896654E-1,2.4558475E0,5.469128E0,-4.246734E0,-2.647194E0,-1.388088E0,7.593221E-2,1.5199553E0,2.9244525E0,4.674024E0,7.9213185E0,-2.663091E-1,-1.8719345E-1,-1.400968E-1,-1.0433453E-1,-8.5934214E-2,-4.912228E-2,6.470951E-3,-9.62285E-2,5.3350206E-2,9.376015E-2,1.2360352E-1,1.6676235E-1,1.989206E-1,2.651258E-1,5.5067337E-1,3.4230316E-1],"categories":[],"categories_nodes":[],"categories_segments":[],"categories_sizes":[],"default_left":[1,0,0,0,0,0,0,0,0,0,1,0,0,0,0,0,0,0,0,0,0,0,0,0,0,0,0,0,0,0,0],"id":42,"left_children":[1,3,5,7,9,11,13,15,17,19,21,23,25,27,29,-1,-1,-1,-1,-1,-1,-1,-1,-1,-1,-1,-1,-1,-1,-1,-1],"loss_changes":[1.4583996E4,2.3625518E3,1.4791338E3,3.7443604E2,5.3072125E2,3.4772217E2,3.6462354E2,1.0707861E2,3.0667969E1,7.9444336E1,4.5189278E1,4.1444763E1,9.099121E1,4.797998E1,8.75188E1,0E0,0E0,0E0,0E0,0E0,0E0,0E0,0E0,0E0,0E0,0E0,0E0,0E0,0E0,0E0,0E0],"parents":[2147483647,0,0,1,1,2,2,3,3,4,4,5,5,6,6,7,7,8,8,9,9,10,10,11,11,12,12,13,13,14,14],"right_children":[2,4,6,8,10,12,14,16,18,20,22,24,26,28,30,-1,-1,-1,-1,-1,-1,-1,-1,-1,-1,-1,-1,-1,-1,-1,-1],"split_conditions":[7.840263E1,5.305E1,1.04E2,4.448E1,6.675E1,8.974316E1,1.223E2,3.7327274E1,5.103E1,6.02E1,1.150595E5,8.32E1,9.67E1,3.7016876E-3,-1.255E2,-2.663091E-1,-1.8719345E-1,-1.400968E-1,-1.0433453E-1,-8.5934214E-2,-4.912228E-2,6.470951E-3,-9.62285E-2,5.3350206E-2,9.376015E-2,1.2360352E-1,1.6676235E-1,1.989206E-1,2.651258E-1,5.5067337E-1,3.4230316E-1],"split_indices":[7,0,0,0,0,7,8,7,0,0,25,2,0,18,25,0,0,0,0,0,0,0,0,0,0,0,0,0,0,0,0],"split_type":[0,0,0,0,0,0,0,0,0,0,0,0,0,0,0,0,0,0,0,0,0,0,0,0,0,0,0,0,0,0,0],"sum_hessian":[2.683E3,1.676E3,1.007E3,6.53E2,1.023E3,8.02E2,2.05E2,2.33E2,4.2E2,6.04E2,4.19E2,2.69E2,5.33E2,1.57E2,4.8E1,7.1E1,1.62E2,3.26E2,9.4E1,3.31E2,2.73E2,4.09E2,1E1,1.2E2,1.49E2,2.57E2,2.76E2,7.8E1,7.9E1,1E1,3.8E1],"tree_param":{"num_deleted":"0","num_feature":"31","num_nodes":"31","size_leaf_vector":"1"}},{"base_weights":[2.324353E-3,-1.9543203E0,2.471625E0,-3.2228925E0,-1.1170328E0,1.5337864E0,3.9380271E0,-5.0589194E0,-2.8889637E0,-1.7391394E0,-5.958281E-1,7.8970516E-1,2.1440468E0,3.7023623E0,8.111241E0,-3.8456956E-1,-2.267586E-1,-1.7190945E-1,-1.2826635E-1,-9.5060326E-2,-7.173575E-2,-4.8344683E-2,-1.2825862E-2,1.8547954E-2,5.3753156E-2,7.645847E-2,1.1491481E-1,1.6053538E-1,2.2632091E-1,1.8912055E-1,4.5517802E-1],"categories":[],"categories_nodes":[],"categories_segments":[],"categories_sizes":[],"default_left":[1,0,0,0,0,0,0,0,0,0,0,0,0,0,0,0,0,0,0,0,0,0,0,0,0,0,0,0,0,0,0],"id":43,"left_children":[1,3,5,7,9,11,13,15,17,19,21,23,25,27,29,-1,-1,-1,-1,-1,-1,-1,-1,-1,-1,-1,-1,-1,-1,-1,-1],"loss_changes":[1.2513698E4,1.5312212E3,1.5686196E3,3.3730615E2,2.8170544E2,3.1616516E2,4.0860107E2,8.5069336E1,7.792163E1,1.685913E1,5.9683502E1,3.7480316E1,3.2905884E1,1.5725146E2,6.436499E1,0E0,0E0,0E0,0E0,0E0,0E0,0E0,0E0,0E0,0E0,0E0,0E0,0E0,0E0,0E0,0E0],"parents":[2147483647,0,0,1,1,2,2,3,3,4,4,5,5,6,6,7,7,8,8,9,9,10,10,11,11,12,12,13,13,14,14],"right_children":[2,4,6,8,10,12,14,16,18,20,22,24,26,28,30,-1,-1,-1,-1,-1,-1,-1,-1,-1,-1,-1,-1,-1,-1,-1,-1],"split_conditions":[7.4150475E1,5.074E1,9.654E1,3.796091E1,6.02E1,8.516E1,1.3415E2,2.9678637E1,4.514E1,5.733E1,6.589E1,7.718E1,8.803E1,1.04555214E2,-2.9223276E-2,-3.8456956E-1,-2.267586E-1,-1.7190945E-1,-1.2826635E-1,-9.5060326E-2,-7.173575E-2,-4.8344683E-2,-1.2825862E-2,1.8547954E-2,5.3753156E-2,7.645847E-2,1.1491481E-1,1.6053538E-1,2.2632091E-1,1.8912055E-1,4.5517802E-1],"split_indices":[7,2,0,7,0,0,1,7,0,0,0,0,0,7,18,0,0,0,0,0,0,0,0,0,0,0,0,0,0,0,0],"split_type":[0,0,0,0,0,0,0,0,0,0,0,0,0,0,0,0,0,0,0,0,0,0,0,0,0,0,0,0,0,0,0],"sum_hessian":[2.588E3,1.444E3,1.144E3,5.73E2,8.71E2,6.99E2,4.45E2,8.6E1,4.87E2,3.96E2,4.75E2,3.16E2,3.83E2,4.23E2,2.2E1,1.2E1,7.4E1,1.77E2,3.1E2,2.55E2,1.41E2,2.26E2,2.49E2,1.29E2,1.87E2,7.9E1,3.04E2,2.68E2,1.55E2,5E0,1.7E1],"tree_param":{"num_deleted":"0","num_feature":"31","num_nodes":"31","size_leaf_vector":"1"}},{"base_weights":[-1.4223806E-3,-1.830581E0,2.4141488E0,-3.0669596E0,-9.7311914E-1,1.53149E0,3.6101966E0,-4.7409525E0,-2.657358E0,-1.370526E0,-2.355916E-1,8.0445606E-1,2.1176605E0,3.2411547E0,5.4245033E0,-3.8525072E-1,-2.1564125E-1,-1.6112366E-1,-1.2094014E-1,-8.141731E-2,-5.1575083E-2,-2.1735085E-2,1.2696165E-2,2.4968667E-2,6.0287137E-2,-7.596989E-2,1.0658747E-1,1.6006097E-1,4.873726E-1,2.3473154E-1,3.103219E-1],"categories":[],"categories_nodes":[],"categories_segments":[],"categories_sizes":[],"default_left":[1,1,0,0,0,0,0,0,0,0,0,0,0,0,0,0,0,0,0,0,0,0,0,0,0,0,0,0,0,0,0],"id":44,"left_children":[1,3,5,7,9,11,13,15,17,19,21,23,25,27,29,-1,-1,-1,-1,-1,-1,-1,-1,-1,-1,-1,-1,-1,-1,-1,-1],"loss_changes":[1.1801715E4,1.60844E3,1.209585E3,4.1388818E2,2.631726E2,2.8127063E2,3.0916113E2,1.2031836E2,5.9880615E1,4.9366333E1,3.0910072E1,3.5880707E1,2.2044556E1,7.480762E1,1.709082E1,0E0,0E0,0E0,0E0,0E0,0E0,0E0,0E0,0E0,0E0,0E0,0E0,0E0,0E0,0E0,0E0],"parents":[2147483647,0,0,1,1,2,2,3,3,4,4,5,5,6,6,7,7,8,8,9,9,10,10,11,11,12,12,13,13,14,14],"right_children":[2,4,6,8,10,12,14,16,18,20,22,24,26,28,30,-1,-1,-1,-1,-1,-1,-1,-1,-1,-1,-1,-1,-1,-1,-1,-1],"split_conditions":[7.4150475E1,5.177875E1,9.5349E1,3.8533638E1,6.3923332E1,8.561E1,1.100385E2,2.629E1,4.576E1,5.92125E1,6.7E-1,8.052E1,-4.42E0,6.6022545E-2,1.2545857E2,-3.8525072E-1,-2.1564125E-1,-1.6112366E-1,-1.2094014E-1,-8.141731E-2,-5.1575083E-2,-2.1735085E-2,1.2696165E-2,2.4968667E-2,6.0287137E-2,-7.596989E-2,1.0658747E-1,1.6006097E-1,4.873726E-1,2.3473154E-1,3.103219E-1],"split_indices":[7,7,7,7,7,7,7,1,1,7,13,1,9,18,7,0,0,0,0,0,0,0,0,0,0,0,0,0,0,0,0],"split_type":[0,0,0,0,0,0,0,0,0,0,0,0,0,0,0,0,0,0,0,0,0,0,0,0,0,0,0,0,0,0,0],"sum_hessian":[2.669E3,1.519E3,1.15E3,6.21E2,8.98E2,6.63E2,4.87E2,1.2E2,5.01E2,5.83E2,3.15E2,2.97E2,3.66E2,4.07E2,8E1,1.3E1,1.07E2,1.45E2,3.56E2,3.29E2,2.54E2,2.24E2,9.1E1,1.7E2,1.27E2,1E0,3.65E2,4.06E2,1E0,4.5E1,3.5E1],"tree_param":{"num_deleted":"0","num_feature":"31","num_nodes":"31","size_leaf_vector":"1"}},{"base_weights":[-3.2779798E-2,-1.7737751E0,2.1979954E0,-2.9372225E0,-9.6812224E-1,1.6080657E0,3.9014406E0,-4.666852E0,-2.6109421E0,-1.4677433E0,-3.979124E-1,7.656522E-1,2.1692715E0,3.3240783E0,5.7108665E0,-3.4077916E-1,-2.1321891E-1,-1.560895E-1,-1.13397494E-1,-8.079236E-2,-4.9509726E-2,-2.9592587E-2,-2.249045E-3,4.339721E-2,-6.1146703E-2,8.22156E-2,1.15463115E-1,1.6267161E-1,4.7518826E-1,2.5429407E-1,4.0059444E-1],"categories":[],"categories_nodes":[],"categories_segments":[],"categories_sizes":[],"default_left":[1,0,0,0,1,0,0,0,0,1,0,1,0,0,0,0,0,0,0,0,0,0,0,0,0,0,0,0,0,0,0],"id":45,"left_children":[1,3,5,7,9,11,13,15,17,19,21,23,25,27,29,-1,-1,-1,-1,-1,-1,-1,-1,-1,-1,-1,-1,-1,-1,-1,-1],"loss_changes":[1.0047326E4,1.359103E3,1.1332979E3,3.2303564E2,2.4442041E2,3.9735474E2,2.8502246E2,5.1362793E1,8.087842E1,3.0792908E1,2.7557632E1,7.001958E1,3.338867E1,6.643555E1,5.848169E1,0E0,0E0,0E0,0E0,0E0,0E0,0E0,0E0,0E0,0E0,0E0,0E0,0E0,0E0,0E0,0E0],"parents":[2147483647,0,0,1,1,2,2,3,3,4,4,5,5,6,6,7,7,8,8,9,9,10,10,11,11,12,12,13,13,14,14],"right_children":[2,4,6,8,10,12,14,16,18,20,22,24,26,28,30,-1,-1,-1,-1,-1,-1,-1,-1,-1,-1,-1,-1,-1,-1,-1,-1],"split_conditions":[7.4150475E1,5.115E1,1.0190773E2,3.796091E1,6.20865E1,8.642809E1,1.1246273E2,2.331E1,4.5443043E1,1.2227539E-2,6.882E1,1.38E2,8.974316E1,6.6022545E-2,1.3401572E2,-3.4077916E-1,-2.1321891E-1,-1.560895E-1,-1.13397494E-1,-8.079236E-2,-4.9509726E-2,-2.9592587E-2,-2.249045E-3,4.339721E-2,-6.1146703E-2,8.22156E-2,1.15463115E-1,1.6267161E-1,4.7518826E-1,2.5429407E-1,4.0059444E-1],"split_indices":[7,2,7,7,7,7,7,2,7,18,2,25,7,18,7,0,0,0,0,0,0,0,0,0,0,0,0,0,0,0,0],"split_type":[0,0,0,0,0,0,0,0,0,0,0,0,0,0,0,0,0,0,0,0,0,0,0,0,0,0,0,0,0,0,0],"sum_hessian":[2.585E3,1.452E3,1.133E3,5.93E2,8.59E2,8.43E2,2.9E2,9.2E1,5.01E2,4.57E2,4.02E2,3.38E2,5.05E2,2.22E2,6.8E1,1.2E1,8E1,1.98E2,3.03E2,3.47E2,1.1E2,2.59E2,1.43E2,3.22E2,1.6E1,1.09E2,3.96E2,2.21E2,1E0,5.6E1,1.2E1],"tree_param":{"num_deleted":"0","num_feature":"31","num_nodes":"31","size_leaf_vector":"1"}},{"base_weights":[4.1453855E-5,-1.6299483E0,2.0941448E0,-3.143423E0,-1.0643675E0,1.2127782E0,3.1066172E0,-4.4587455E0,-2.7718863E0,-1.5366758E0,-3.8967514E-1,5.636882E-1,1.6797144E0,2.6381307E0,5.077758E0,-3.4038544E-1,-2.0173839E-1,-2.517218E-1,-1.3526009E-1,-8.725489E-2,-5.4980602E-2,-3.3162855E-2,-4.711316E-3,3.0707968E-2,-1.0817277E-1,-8.201014E-3,8.770726E-2,1.858902E-3,1.3339707E-1,2.2404082E-1,3.823856E-1],"categories":[],"categories_nodes":[],"categories_segments":[],"categories_sizes":[],"default_left":[1,0,0,0,0,0,0,0,0,0,0,0,0,0,0,0,0,0,0,0,0,0,0,0,0,0,0,0,0,0,0],"id":46,"left_children":[1,3,5,7,9,11,13,15,17,19,21,23,25,27,29,-1,-1,-1,-1,-1,-1,-1,-1,-1,-1,-1,-1,-1,-1,-1,-1],"loss_changes":[9.09321E3,1.2789307E3,1.0367236E3,1.8653809E2,3.4738098E2,1.8848047E2,4.8711572E2,6.0172363E1,3.466162E1,5.656311E1,3.6391594E1,3.7528572E1,5.0102417E1,3.4016357E1,1.23745605E2,0E0,0E0,0E0,0E0,0E0,0E0,0E0,0E0,0E0,0E0,0E0,0E0,0E0,0E0,0E0,0E0],"parents":[2147483647,0,0,1,1,2,2,3,3,4,4,5,5,6,6,7,7,8,8,9,9,10,10,11,11,12,12,13,13,14,14],"right_children":[2,4,6,8,10,12,14,16,18,20,22,24,26,28,30,-1,-1,-1,-1,-1,-1,-1,-1,-1,-1,-1,-1,-1,-1,-1,-1],"split_conditions":[7.4150475E1,4.8061817E1,9.475739E1,3.796091E1,6.167E1,8.247E1,1.0794E2,2.629E1,-3.97E0,5.85E1,6.766E1,6.24E0,-3.71E0,-4.6E0,1.3401572E2,-3.4038544E-1,-2.0173839E-1,-2.517218E-1,-1.3526009E-1,-8.725489E-2,-5.4980602E-2,-3.3162855E-2,-4.711316E-3,3.0707968E-2,-1.0817277E-1,-8.201014E-3,8.770726E-2,1.858902E-3,1.3339707E-1,2.2404082E-1,3.823856E-1],"split_indices":[7,7,7,7,0,0,0,1,26,1,0,11,24,13,7,0,0,0,0,0,0,0,0,0,0,0,0,0,0,0,0],"split_type":[0,0,0,0,0,0,0,0,0,0,0,0,0,0,0,0,0,0,0,0,0,0,0,0,0,0,0,0,0,0,0],"sum_hessian":[2.662E3,1.497E3,1.165E3,4.06E2,1.091E3,6.24E2,5.41E2,8.7E1,3.19E2,6.41E2,4.5E2,2.62E2,3.62E2,4.39E2,1.02E2,1.1E1,7.6E1,7E0,3.12E2,4.32E2,2.09E2,2.33E2,2.17E2,2.58E2,4E0,1.4E1,3.48E2,5E0,4.34E2,8.5E1,1.7E1],"tree_param":{"num_deleted":"0","num_feature":"31","num_nodes":"31","size_leaf_vector":"1"}},{"base_weights":[9.523984E-2,-1.4282161E0,2.3514254E0,-2.4762013E0,-6.5779823E-1,1.9345591E0,4.5697546E0,-3.7422004E0,-2.1411195E0,-1.0227821E0,-1.0391516E-1,1.2757393E0,2.4492636E0,9.503429E0,4.1583104E0,-2.8573206E-1,-1.7535645E-1,-1.273996E-1,-9.532897E-2,-6.487911E-2,-3.945444E-2,-1.9490909E-2,9.778692E-3,4.4910748E-2,7.834059E-2,1.203472E-1,4.3148246E-1,5.134984E-1,2.6787568E-2,6.944148E-2,2.1497913E-1],"categories":[],"categories_nodes":[],"categories_segments":[],"categories_sizes":[],"default_left":[0,0,0,0,0,0,0,0,0,0,0,0,0,0,0,0,0,0,0,0,0,0,0,0,0,0,0,0,0,0,0],"id":47,"left_children":[1,3,5,7,9,11,13,15,17,19,21,23,25,27,29,-1,-1,-1,-1,-1,-1,-1,-1,-1,-1,-1,-1,-1,-1,-1,-1],"loss_changes":[8.988197E3,1.2587017E3,9.658428E2,2.7239282E2,1.8203839E2,2.9833325E2,2.9745044E2,4.3480103E1,4.5241943E1,3.3846985E1,3.0815542E1,4.1668396E1,1.0948096E2,7.6986694E1,5.4672363E1,0E0,0E0,0E0,0E0,0E0,0E0,0E0,0E0,0E0,0E0,0E0,0E0,0E0,0E0,0E0,0E0],"parents":[2147483647,0,0,1,1,2,2,3,3,4,4,5,5,6,6,7,7,8,8,9,9,10,10,11,11,12,12,13,13,14,14],"right_children":[2,4,6,8,10,12,14,16,18,20,22,24,26,28,30,-1,-1,-1,-1,-1,-1,-1,-1,-1,-1,-1,-1,-1,-1,-1,-1],"split_conditions":[7.683E1,5.32E1,1.0562E2,3.981E1,6.589E1,9.259E1,-1.255E2,2.451E1,4.633E1,5.899E1,7.135E1,8.516E1,6.6022545E-2,5.7E-1,-1.91E0,-2.8573206E-1,-1.7535645E-1,-1.273996E-1,-9.532897E-2,-6.487911E-2,-3.945444E-2,-1.9490909E-2,9.778692E-3,4.4910748E-2,7.834059E-2,1.203472E-1,4.3148246E-1,5.134984E-1,2.6787568E-2,6.944148E-2,2.1497913E-1],"split_indices":[0,0,0,0,0,0,25,0,0,0,0,0,18,6,26,0,0,0,0,0,0,0,0,0,0,0,0,0,0,0,0],"split_type":[0,0,0,0,0,0,0,0,0,0,0,0,0,0,0,0,0,0,0,0,0,0,0,0,0,0,0,0,0,0,0],"sum_hessian":[2.613E3,1.56E3,1.053E3,6.6E2,9E2,8.88E2,1.65E2,1.36E2,5.24E2,5.42E2,3.58E2,3.91E2,4.97E2,1.1E1,1.54E2,1.2E1,1.24E2,1.88E2,3.36E2,2.47E2,2.95E2,1.83E2,1.75E2,1.72E2,2.19E2,4.95E2,2E0,1E1,1E0,8E0,1.46E2],"tree_param":{"num_deleted":"0","num_feature":"31","num_nodes":"31","size_leaf_vector":"1"}},{"base_weights":[3.2620348E-2,-1.4619292E0,1.9431636E0,-2.4460316E0,-8.2338446E-1,1.3334125E0,3.2337973E0,-3.3203547E0,-2.15767E0,-1.1862322E0,-3.264955E-1,7.55394E-1,1.7783465E0,3.0627532E0,9.033803E0,-3.0429822E-1,-1.5541215E-1,-1.0342546E-2,-1.1014892E-1,-6.7119636E-2,-4.4575747E-2,2.7683625E-2,-1.952902E-2,2.2390803E-2,5.462422E-2,9.030036E-2,-2.6171876E-2,1.2844796E-1,1.9156726E-1,1.0568466E-1,4.7839245E-1],"categories":[],"categories_nodes":[],"categories_segments":[],"categories_sizes":[],"default_left":[0,1,0,0,0,0,0,0,0,0,1,0,0,0,0,0,0,0,0,0,0,0,0,0,0,0,0,0,0,0,0],"id":48,"left_children":[1,3,5,7,9,11,13,15,17,19,21,23,25,27,29,-1,-1,-1,-1,-1,-1,-1,-1,-1,-1,-1,-1,-1,-1,-1,-1],"loss_changes":[7.4554395E3,9.185825E2,8.975498E2,1.3805762E2,1.600752E2,1.9925708E2,3.3641724E2,6.379663E1,3.8081787E1,2.2459167E1,2.1481106E1,3.4866196E1,2.8959595E1,1.2602783E2,1.6733093E1,0E0,0E0,0E0,0E0,0E0,0E0,0E0,0E0,0E0,0E0,0E0,0E0,0E0,0E0,0E0,0E0],"parents":[2147483647,0,0,1,1,2,2,3,3,4,4,5,5,6,6,7,7,8,8,9,9,10,10,11,11,12,12,13,13,14,14],"right_children":[2,4,6,8,10,12,14,16,18,20,22,24,26,28,30,-1,-1,-1,-1,-1,-1,-1,-1,-1,-1,-1,-1,-1,-1,-1,-1],"split_conditions":[7.295E1,5.177875E1,9.868E1,4.073E1,6.255E1,8.663E1,1.3346E2,2.629E1,-3.23E0,5.92125E1,-1.89E0,7.962631E1,4.15E0,1.0542E2,-1.87E0,-3.0429822E-1,-1.5541215E-1,-1.0342546E-2,-1.1014892E-1,-6.7119636E-2,-4.4575747E-2,2.7683625E-2,-1.952902E-2,2.2390803E-2,5.462422E-2,9.030036E-2,-2.6171876E-2,1.2844796E-1,1.9156726E-1,1.0568466E-1,4.7839245E-1],"split_indices":[0,7,0,0,0,0,2,1,10,7,10,7,10,7,13,0,0,0,0,0,0,0,0,0,0,0,0,0,0,0,0],"split_type":[0,0,0,0,0,0,0,0,0,0,0,0,0,0,0,0,0,0,0,0,0,0,0,0,0,0,0,0,0,0,0],"sum_hessian":[2.609E3,1.464E3,1.145E3,5.75E2,8.89E2,7.79E2,3.66E2,1.4E2,4.35E2,5.13E2,3.76E2,3.4E2,4.39E2,3.57E2,9E0,8E0,1.32E2,1E1,4.25E2,3.33E2,1.8E2,2.5E1,3.51E2,1.79E2,1.61E2,4.34E2,5E0,2.2E2,1.37E2,1E0,8E0],"tree_param":{"num_deleted":"0","num_feature":"31","num_nodes":"31","size_leaf_vector":"1"}},{"base_weights":[-6.577192E-3,-1.2908777E0,2.0917232E0,-2.1751106E0,-4.9892265E-1,1.5557481E0,3.5378506E0,-3.0836968E0,-1.7922404E0,-9.894416E-1,-6.432164E-2,1.2500877E0,2.1032348E0,3.1678834E0,6.367328E0,-1.8688953E-1,-1.3735913E-1,-1.0550451E-1,-8.0521025E-2,-5.610922E-2,-3.2567184E-2,-1.700465E-2,1.0406619E-2,3.8573142E-2,7.1088195E-2,6.807539E-3,1.0826941E-1,3.8232908E-1,1.5489122E-1,5.203189E-1,2.5716314E-1],"categories":[],"categories_nodes":[],"categories_segments":[],"categories_sizes":[],"default_left":[0,0,0,0,0,0,0,0,0,0,0,0,0,0,0,0,0,0,0,0,0,0,0,0,0,0,0,0,0,0,0],"id":49,"left_children":[1,3,5,7,9,11,13,15,17,19,21,23,25,27,29,-1,-1,-1,-1,-1,-1,-1,-1,-1,-1,-1,-1,-1,-1,-1,-1],"loss_changes":[7.055117E3,1.1361577E3,7.649336E2,2.612898E2,1.8284483E2,1.1903064E2,2.603755E2,3.9476807E1,2.7924927E1,1.7355713E1,3.433235E1,3.7440186E1,3.137085E1,5.13042E1,9.479907E1,0E0,0E0,0E0,0E0,0E0,0E0,0E0,0E0,0E0,0E0,0E0,0E0,0E0,0E0,0E0,0E0],"parents":[2147483647,0,0,1,1,2,2,3,3,4,4,5,5,6,6,7,7,8,8,9,9,10,10,11,11,12,12,13,13,14,14],"right_children":[2,4,6,8,10,12,14,16,18,20,22,24,26,28,30,-1,-1,-1,-1,-1,-1,-1,-1,-1,-1,-1,-1,-1,-1,-1,-1],"split_conditions":[7.756E1,5.589E1,1.017E2,4.4E1,6.418E1,9.461E1,1.2629E2,3.466E1,4.86E1,6.167E1,7.069E1,8.324E1,-3.6617592E-2,9.755E1,3.4E0,-1.8688953E-1,-1.3735913E-1,-1.0550451E-1,-8.0521025E-2,-5.610922E-2,-3.2567184E-2,-1.700465E-2,1.0406619E-2,3.8573142E-2,7.1088195E-2,6.807539E-3,1.0826941E-1,3.8232908E-1,1.5489122E-1,5.203189E-1,2.5716314E-1],"split_indices":[0,0,0,0,0,0,0,8,0,0,0,8,18,2,11,0,0,0,0,0,0,0,0,0,0,0,0,0,0,0,0],"split_type":[0,0,0,0,0,0,0,0,0,0,0,0,0,0,0,0,0,0,0,0,0,0,0,0,0,0,0,0,0,0,0],"sum_hessian":[2.616E3,1.623E3,9.93E2,7.66E2,8.57E2,7.26E2,2.67E2,2.25E2,5.41E2,4.02E2,4.55E2,4.68E2,2.58E2,2.38E2,2.9E1,7.3E1,1.52E2,1.93E2,3.48E2,2.87E2,1.15E2,2.26E2,2.29E2,1.25E2,3.43E2,8E0,2.5E2,