{"learner":{"attributes":{"best_iteration":"93","best_score":"3.759512521674052"},"feature_names":["Price","High","Low","Vol.","barcos_panamá","barcos_suez","Change ","Price_Media_Mes_Pasado","Price_lag1","Price_lag2","Pendiente","Alto-Bajo","Bajo-Alto","Price_lag3","media_col1","desv_col1","skew_col1","kurt_col1","cambio_pct","evento_extremo","media_sp","desv_sp","skew_sp","kurt_sp","momentum_EP","momentum_sp","momentum_dolar","Vol_WTI_extrema","media_Dolar","desv_Dolar","skew_Dolar"],"feature_types":["float","float","float","float","int","int","float","float","float","float","float","float","float","float","float","float","float","float","float","int","float","float","float","float","float","float","float","int","float","float","float"],"gradient_booster":{"model":{"gbtree_model_param":{"num_parallel_tree":"1","num_trees":"144"},"iteration_indptr":[0,1,2,3,4,5,6,7,8,9,10,11,12,13,14,15,16,17,18,19,20,21,22,23,24,25,26,27,28,29,30,31,32,33,34,35,36,37,38,39,40,41,42,43,44,45,46,47,48,49,50,51,52,53,54,55,56,57,58,59,60,61,62,63,64,65,66,67,68,69,70,71,72,73,74,75,76,77,78,79,80,81,82,83,84,85,86,87,88,89,90,91,92,93,94,95,96,97,98,99,100,101,102,103,104,105,106,107,108,109,110,111,112,113,114,115,116,117,118,119,120,121,122,123,124,125,126,127,128,129,130,131,132,133,134,135,136,137,138,139,140,141,142,143,144],"tree_info":[0,0,0,0,0,0,0,0,0,0,0,0,0,0,0,0,0,0,0,0,0,0,0,0,0,0,0,0,0,0,0,0,0,0,0,0,0,0,0,0,0,0,0,0,0,0,0,0,0,0,0,0,0,0,0,0,0,0,0,0,0,0,0,0,0,0,0,0,0,0,0,0,0,0,0,0,0,0,0,0,0,0,0,0,0,0,0,0,0,0,0,0,0,0,0,0,0,0,0,0,0,0,0,0,0,0,0,0,0,0,0,0,0,0,0,0,0,0,0,0,0,0,0,0,0,0,0,0,0,0,0,0,0,0,0,0,0,0,0,0,0,0,0,0],"trees":[{"base_weights":[2.1161377E-1,-1.5507387E1,2.4087986E1,-2.6181799E1,-6.7463145E0,1.754959E1,3.559267E1,-3.4789356E1,-2.216234E1,-1.145238E1,-3.8167778E-1,8.8657675E0,2.1135227E1,3.221876E1,2.9063082E0,-2.0190349E0,-1.5059035E0,-1.2064145E0,-9.474921E-1,-6.45902E-1,-3.78914E-1,-1.0230984E-1,1.406194E-1,2.8754163E-1,5.4796547E-1,8.83552E-1,1.1808084E0,1.462685E0,1.7965382E0],"categories":[],"categories_nodes":[],"categories_segments":[],"categories_sizes":[],"default_left":[0,0,0,0,0,0,0,0,0,0,0,0,0,0,0,0,0,0,0,0,0,0,0,0,0,0,0,0,0],"id":0,"left_children":[1,3,5,7,9,11,13,15,17,19,21,23,25,27,-1,-1,-1,-1,-1,-1,-1,-1,-1,-1,-1,-1,-1,-1,-1],"loss_changes":[9.9645175E5,1.4937116E5,7.8035E4,2.3402906E4,2.6409277E4,2.0673875E4,2.5144344E4,3.4704688E3,2.2243906E3,2.6830156E3,2.0158612E3,1.1847207E3,3.2649062E3,1.584875E3,0E0,0E0,0E0,0E0,0E0,0E0,0E0,0E0,0E0,0E0,0E0,0E0,0E0,0E0,0E0],"parents":[2147483647,0,0,1,1,2,2,3,3,4,4,5,5,6,6,7,7,8,8,9,9,10,10,11,11,12,12,13,13],"right_children":[2,4,6,8,10,12,14,16,18,20,22,24,26,28,-1,-1,-1,-1,-1,-1,-1,-1,-1,-1,-1,-1,-1,-1,-1],"split_conditions":[7.686E1,5.478E1,9.8575714E1,4.479913E1,6.6272385E1,8.5658264E1,1.2545857E2,3.796091E1,5.104E1,6.270524E1,7.26E1,7.962631E1,9.228E1,1.04555214E2,2.9063082E0,-2.0190349E0,-1.5059035E0,-1.2064145E0,-9.474921E-1,-6.45902E-1,-3.78914E-1,-1.0230984E-1,1.406194E-1,2.8754163E-1,5.4796547E-1,8.83552E-1,1.1808084E0,1.462685E0,1.7965382E0],"split_indices":[0,0,7,7,7,7,7,7,1,7,0,7,0,7,0,0,0,0,0,0,0,0,0,0,0,0,0,0,0],"split_type":[0,0,0,0,0,0,0,0,0,0,0,0,0,0,0,0,0,0,0,0,0,0,0,0,0,0,0,0,0],"sum_hessian":[2.651E3,1.599E3,1.052E3,7.19E2,8.8E2,6.74E2,3.78E2,2.24E2,4.95E2,5.05E2,3.75E2,1.99E2,4.75E2,3.33E2,4.5E1,9.5E1,1.29E2,2.99E2,1.96E2,3.63E2,1.42E2,2.47E2,1.28E2,8.3E1,1.16E2,2.05E2,2.7E2,1.95E2,1.38E2],"tree_param":{"num_deleted":"0","num_feature":"31","num_nodes":"29","size_leaf_vector":"1"}},{"base_weights":[-5.513483E-2,-1.4622489E1,2.3290092E1,-2.3933962E1,-5.557436E0,1.715246E1,3.4016914E1,-3.3099586E1,-2.0393127E1,-1.0551434E1,-6.324269E-1,8.609822E0,2.041955E1,1.4919223E0,2.4615414E0,-1.908912E0,-1.4236845E0,-1.1206723E0,-8.363299E-1,-6.111809E-1,-4.0831158E-1,-1.6244917E-1,6.6763036E-2,2.8416738E-1,5.0817513E-1,8.561355E-1,1.1397213E0],"categories":[],"categories_nodes":[],"categories_segments":[],"categories_sizes":[],"default_left":[0,0,0,0,0,0,0,0,0,0,0,0,0,0,0,0,0,0,0,0,0,0,0,0,0,0,0],"id":1,"left_children":[1,3,5,7,9,11,13,15,17,19,21,23,25,-1,-1,-1,-1,-1,-1,-1,-1,-1,-1,-1,-1,-1,-1],"loss_changes":[8.974674E5,1.3689856E5,6.559206E4,2.4645594E4,2.0302521E4,1.7761703E4,2.0392594E4,2.9943906E3,3.5687969E3,1.4356445E3,2.160777E3,7.1654004E2,2.8836406E3,0E0,0E0,0E0,0E0,0E0,0E0,0E0,0E0,0E0,0E0,0E0,0E0,0E0,0E0],"parents":[2147483647,0,0,1,1,2,2,3,3,4,4,5,5,6,6,7,7,8,8,9,9,10,10,11,11,12,12],"right_children":[2,4,6,8,10,12,14,16,18,20,22,24,26,-1,-1,-1,-1,-1,-1,-1,-1,-1,-1,-1,-1,-1,-1],"split_conditions":[7.719E1,5.634E1,9.937E1,4.479913E1,6.429318E1,8.5658264E1,1.1246273E2,3.796091E1,5.177875E1,6.109E1,7.016E1,7.962631E1,9.284E1,1.4919223E0,2.4615414E0,-1.908912E0,-1.4236845E0,-1.1206723E0,-8.363299E-1,-6.111809E-1,-4.0831158E-1,-1.6244917E-1,6.6763036E-2,2.8416738E-1,5.0817513E-1,8.561355E-1,1.1397213E0],"split_indices":[0,0,0,7,7,7,7,7,7,0,0,7,0,0,0,0,0,0,0,0,0,0,0,0,0,0,0],"split_type":[0,0,0,0,0,0,0,0,0,0,0,0,0,0,0,0,0,0,0,0,0,0,0,0,0,0,0],"sum_hessian":[2.635E3,1.623E3,1.012E3,7.99E2,8.24E2,6.47E2,3.65E2,2.18E2,5.81E2,4.08E2,4.16E2,1.81E2,4.66E2,2.91E2,7.4E1,9.7E1,1.21E2,3.68E2,2.13E2,2.35E2,1.73E2,1.78E2,2.38E2,6.6E1,1.15E2,2.02E2,2.64E2],"tree_param":{"num_deleted":"0","num_feature":"31","num_nodes":"27","size_leaf_vector":"1"}},{"base_weights":[8.11114E-2,-1.3731062E1,2.2353767E1,-2.278674E1,-5.003528E0,1.5724544E1,3.1842041E1,-3.182581E1,-1.971766E1,-9.504901E0,1.1372448E-1,1.0090488E1,1.9295135E1,2.817027E1,4.754036E1,-1.9155018E0,-1.4153192E0,-1.1098739E0,-8.361597E-1,-5.6980866E-1,-3.5391167E-1,-9.017121E-2,1.2894507E-1,4.114618E-1,6.506299E-1,7.9928786E-1,1.0527712E0,2.2650413E-1,1.4106768E0,1.8390087E0,2.636241E0],"categories":[],"categories_nodes":[],"categories_segments":[],"categories_sizes":[],"default_left":[0,0,0,0,0,0,0,0,0,0,0,0,0,0,0,0,0,0,0,0,0,0,0,0,0,0,0,0,0,0,0],"id":2,"left_children":[1,3,5,7,9,11,13,15,17,19,21,23,25,27,29,-1,-1,-1,-1,-1,-1,-1,-1,-1,-1,-1,-1,-1,-1,-1,-1],"loss_changes":[8.0692206E5,1.27727625E5,6.2150062E4,2.0771812E4,1.9051828E4,1.1580172E4,2.1011844E4,2.3496719E3,3.6981562E3,1.8580508E3,1.8477588E3,1.0639473E3,1.4356406E3,9.00625E1,3.0546875E2,0E0,0E0,0E0,0E0,0E0,0E0,0E0,0E0,0E0,0E0,0E0,0E0,0E0,0E0,0E0,0E0],"parents":[2147483647,0,0,1,1,2,2,3,3,4,4,5,5,6,6,7,7,8,8,9,9,10,10,11,11,12,12,13,13,14,14],"right_children":[2,4,6,8,10,12,14,16,18,20,22,24,26,28,30,-1,-1,-1,-1,-1,-1,-1,-1,-1,-1,-1,-1,-1,-1,-1,-1],"split_conditions":[7.889E1,5.575E1,9.902E1,4.172E1,6.551E1,8.606E1,1.103E2,3.211E1,4.95E1,6.048E1,7.12E1,8.244E1,9.318E1,-4.96E0,1.2054E2,-1.9155018E0,-1.4153192E0,-1.1098739E0,-8.361597E-1,-5.6980866E-1,-3.5391167E-1,-9.017121E-2,1.2894507E-1,4.114618E-1,6.506299E-1,7.9928786E-1,1.0527712E0,2.2650413E-1,1.4106768E0,1.8390087E0,2.636241E0],"split_indices":[1,2,1,2,2,2,2,2,2,2,2,2,1,6,2,0,0,0,0,0,0,0,0,0,0,0,0,0,0,0,0],"split_type":[0,0,0,0,0,0,0,0,0,0,0,0,0,0,0,0,0,0,0,0,0,0,0,0,0,0,0,0,0,0,0],"sum_hessian":[2.619E3,1.617E3,1.002E3,7.92E2,8.25E2,5.93E2,4.09E2,1.96E2,5.96E2,4.38E2,3.87E2,2.33E2,3.6E2,3.36E2,7.3E1,6.2E1,1.34E2,3.19E2,2.77E2,2.42E2,1.96E2,2.18E2,1.69E2,1.47E2,8.6E1,1.32E2,2.28E2,1E0,3.35E2,2.9E1,4.4E1],"tree_param":{"num_deleted":"0","num_feature":"31","num_nodes":"31","size_leaf_vector":"1"}},{"base_weights":[-3.8472185E-1,-1.3380571E1,2.0584253E1,-2.2405706E1,-5.469497E0,1.3206675E1,2.8118395E1,-3.07322E1,-1.9430525E1,-9.761987E0,-3.299956E-1,8.951683E0,1.6994455E1,2.5336956E1,4.360102E1,-1.8137035E0,-1.3653946E0,-1.0624615E0,-8.1995326E-1,-6.0814464E-1,-3.9712447E-1,-9.224375E-2,1.2799059E-1,3.701598E-1,5.709798E-1,2.833875E-2,8.526085E-1,1.1252049E0,1.402409E0,6.107548E-1,2.207438E0],"categories":[],"categories_nodes":[],"categories_segments":[],"categories_sizes":[],"default_left":[0,0,0,0,0,0,0,0,0,0,0,0,0,0,0,0,0,0,0,0,0,0,0,0,0,0,0,0,0,0,0],"id":3,"left_children":[1,3,5,7,9,11,13,15,17,19,21,23,25,27,29,-1,-1,-1,-1,-1,-1,-1,-1,-1,-1,-1,-1,-1,-1,-1,-1],"loss_changes":[7.0934844E5,1.1449231E5,5.4618688E4,1.7385312E4,1.894418E4,7.867047E3,1.8935E4,1.7004219E3,2.3795E3,1.8512227E3,1.7298849E3,7.595488E2,2.3286719E2,1.9710938E3,1.5921875E2,0E0,0E0,0E0,0E0,0E0,0E0,0E0,0E0,0E0,0E0,0E0,0E0,0E0,0E0,0E0,0E0],"parents":[2147483647,0,0,1,1,2,2,3,3,4,4,5,5,6,6,7,7,8,8,9,9,10,10,11,11,12,12,13,13,14,14],"right_children":[2,4,6,8,10,12,14,16,18,20,22,24,26,28,30,-1,-1,-1,-1,-1,-1,-1,-1,-1,-1,-1,-1,-1,-1,-1,-1],"split_conditions":[7.686E1,5.478E1,9.532E1,4.17E1,6.594E1,8.688E1,1.1229E2,3.327E1,5.011E1,5.943E1,7.26E1,8.281E1,-4.93E0,1.0107E2,-1.82E0,-1.8137035E0,-1.3653946E0,-1.0624615E0,-8.1995326E-1,-6.0814464E-1,-3.9712447E-1,-9.224375E-2,1.2799059E-1,3.701598E-1,5.709798E-1,2.833875E-2,8.526085E-1,1.1252049E0,1.402409E0,6.107548E-1,2.207438E0],"split_indices":[0,0,0,0,0,0,0,0,0,0,0,0,6,0,26,0,0,0,0,0,0,0,0,0,0,0,0,0,0,0,0],"split_type":[0,0,0,0,0,0,0,0,0,0,0,0,0,0,0,0,0,0,0,0,0,0,0,0,0,0,0,0,0,0,0],"sum_hessian":[2.599E3,1.605E3,9.94E2,7.48E2,8.57E2,5.05E2,4.89E2,1.92E2,5.56E2,4.66E2,3.91E2,2.41E2,2.64E2,4.19E2,7E1,6.6E1,1.26E2,3.4E2,2.16E2,1.96E2,2.7E2,2.57E2,1.34E2,1.53E2,8.8E1,1E0,2.63E2,2.14E2,2.05E2,2E0,6.8E1],"tree_param":{"num_deleted":"0","num_feature":"31","num_nodes":"31","size_leaf_vector":"1"}},{"base_weights":[-1.1990411E-1,-1.3862808E1,1.8059517E1,-2.1180182E1,-6.5087123E0,9.354485E0,2.5202528E1,-2.8379543E1,-1.7937952E1,-9.480681E0,-1.6779293E0,5.5028553E0,7.3354244E-1,2.2907976E1,4.166851E1,-1.7202883E0,-1.2490404E0,-9.644869E-1,-7.287576E-1,-5.802925E-1,-3.9761886E-1,-1.9290958E-1,-2.9646203E-2,1.73829E-1,4.4241667E-1,9.9396604E-1,1.3145715E0,1.653834E0,2.3319795E0],"categories":[],"categories_nodes":[],"categories_segments":[],"categories_sizes":[],"default_left":[0,0,0,0,0,0,0,0,0,0,0,0,0,0,0,0,0,0,0,0,0,0,0,0,0,0,0,0,0],"id":4,"left_children":[1,3,5,7,9,11,13,15,17,19,21,23,-1,25,27,-1,-1,-1,-1,-1,-1,-1,-1,-1,-1,-1,-1,-1,-1],"loss_changes":[6.615721E5,8.087381E4,7.041391E4,1.6605062E4,1.0807674E4,1.0424973E4,2.1704719E4,3.0122656E3,1.8287812E3,1.3321836E3,6.814475E2,1.9924707E3,0E0,4.6214375E3,7.522656E1,0E0,0E0,0E0,0E0,0E0,0E0,0E0,0E0,0E0,0E0,0E0,0E0,0E0,0E0],"parents":[2147483647,0,0,1,1,2,2,3,3,4,4,5,5,6,6,7,7,8,8,9,9,10,10,11,11,13,13,14,14],"right_children":[2,4,6,8,10,12,14,16,18,20,22,24,-1,26,28,-1,-1,-1,-1,-1,-1,-1,-1,-1,-1,-1,-1,-1,-1],"split_conditions":[7.303E1,5.478E1,9.362E1,4.479913E1,6.429318E1,8.5658264E1,1.1246273E2,3.7327274E1,5.177875E1,5.92125E1,6.8E1,7.962631E1,7.3354244E-1,1.006705E2,1.2545857E2,-1.7202883E0,-1.2490404E0,-9.644869E-1,-7.287576E-1,-5.802925E-1,-3.9761886E-1,-1.9290958E-1,-2.9646203E-2,1.73829E-1,4.4241667E-1,9.9396604E-1,1.3145715E0,1.653834E0,2.3319795E0],"split_indices":[0,0,1,7,7,7,7,7,7,7,0,7,0,7,7,0,0,0,0,0,0,0,0,0,0,0,0,0,0],"split_type":[0,0,0,0,0,0,0,0,0,0,0,0,0,0,0,0,0,0,0,0,0,0,0,0,0,0,0,0,0],"sum_hessian":[2.644E3,1.506E3,1.138E3,7.53E2,7.53E2,5.15E2,6.23E2,2.29E2,5.24E2,4.65E2,2.88E2,3.01E2,2.14E2,5.51E2,7.2E1,7.6E1,1.53E2,3.67E2,1.57E2,1.89E2,2.76E2,9.4E1,1.94E2,1.9E2,1.11E2,2.98E2,2.53E2,3.2E1,4E1],"tree_param":{"num_deleted":"0","num_feature":"31","num_nodes":"29","size_leaf_vector":"1"}},{"base_weights":[-1.4284162E-1,-1.2914649E1,1.7626888E1,-2.004019E1,-5.8294377E0,1.079194E1,2.5123747E1,-2.7275038E1,-1.7452175E1,-9.058151E0,-1.4861283E0,5.413086E0,1.44139185E1,2.2824598E1,4.0971527E1,-1.6648871E0,-1.2152117E0,-9.5806503E-1,-7.3736304E-1,-5.3001994E-1,-3.5651833E-1,-2.1060875E-1,-7.6150075E-3,1.6925943E-1,3.683524E-1,5.9903294E-1,8.055851E-1,9.699168E-1,1.2512919E0,2.180654E0,1.3263692E0],"categories":[],"categories_nodes":[],"categories_segments":[],"categories_sizes":[],"default_left":[0,0,0,0,0,0,0,0,0,0,0,0,0,0,0,0,0,0,0,0,0,0,0,0,0,0,0,0,0,0,0],"id":5,"left_children":[1,3,5,7,9,11,13,15,17,19,21,23,25,27,29,-1,-1,-1,-1,-1,-1,-1,-1,-1,-1,-1,-1,-1,-1,-1,-1],"loss_changes":[5.991535E5,7.731281E4,5.6027406E4,1.3371781E4,1.0813084E4,1.1163039E4,1.7258781E4,1.9241094E3,2.0653594E3,1.1659258E3,1.2058948E3,8.892197E2,1.0433203E3,2.5210469E3,1.2803906E2,0E0,0E0,0E0,0E0,0E0,0E0,0E0,0E0,0E0,0E0,0E0,0E0,0E0,0E0,0E0,0E0],"parents":[2147483647,0,0,1,1,2,2,3,3,4,4,5,5,6,6,7,7,8,8,9,9,10,10,11,11,12,12,13,13,14,14],"right_children":[2,4,6,8,10,12,14,16,18,20,22,24,26,28,30,-1,-1,-1,-1,-1,-1,-1,-1,-1,-1,-1,-1,-1,-1,-1,-1],"split_conditions":[7.44E1,5.388E1,9.495E1,4.172E1,6.368E1,8.244E1,1.1236E2,3.327E1,5.011E1,5.945E1,6.8E1,7.886E1,8.941E1,9.861E1,1.06E3,-1.6648871E0,-1.2152117E0,-9.5806503E-1,-7.3736304E-1,-5.3001994E-1,-3.5651833E-1,-2.1060875E-1,-7.6150075E-3,1.6925943E-1,3.683524E-1,5.9903294E-1,8.055851E-1,9.699168E-1,1.2512919E0,2.180654E0,1.3263692E0],"split_indices":[0,2,0,2,2,2,2,0,0,2,0,0,0,2,4,0,0,0,0,0,0,0,0,0,0,0,0,0,0,0,0],"split_type":[0,0,0,0,0,0,0,0,0,0,0,0,0,0,0,0,0,0,0,0,0,0,0,0,0,0,0,0,0,0,0],"sum_hessian":[2.636E3,1.534E3,1.102E3,7.63E2,7.71E2,5.79E2,5.23E2,1.96E2,5.67E2,4.41E2,3.3E2,2.35E2,3.44E2,4.61E2,6.2E1,5.8E1,1.38E2,3.4E2,2.27E2,2.4E2,2.01E2,1.07E2,2.23E2,1.18E2,1.17E2,1.48E2,1.96E2,1.88E2,2.73E2,4.9E1,1.3E1],"tree_param":{"num_deleted":"0","num_feature":"31","num_nodes":"31","size_leaf_vector":"1"}},{"base_weights":[5.796426E-3,-1.134374E1,1.7818407E1,-1.8739355E1,-4.4827886E0,1.1940345E1,2.5087143E1,-2.5757568E1,-1.5889448E1,-8.282023E0,-4.0607896E-1,6.9441056E0,1.463996E1,2.2790596E1,2.1522427E0,-1.4984239E0,-1.1164259E0,-8.633928E-1,-6.5031224E-1,-5.134647E-1,-3.481091E-1,-1.0632217E-1,6.939485E-2,2.3093784E-1,4.080467E-1,6.302527E-1,8.221059E-1,1.0363474E0,1.3349651E0],"categories":[],"categories_nodes":[],"categories_segments":[],"categories_sizes":[],"default_left":[0,0,0,0,1,0,0,0,0,0,0,0,0,0,0,0,0,0,0,0,0,0,0,0,0,0,0,0,0],"id":6,"left_children":[1,3,5,7,9,11,13,15,17,19,21,23,25,27,-1,-1,-1,-1,-1,-1,-1,-1,-1,-1,-1,-1,-1,-1,-1],"loss_changes":[5.2724594E5,8.066236E4,4.2767875E4,1.45024375E4,1.2833141E4,7.4173594E3,1.6678781E4,1.8095E3,1.7366406E3,9.822207E2,1.246592E3,4.9618164E2,9.2403125E2,2.1600156E3,0E0,0E0,0E0,0E0,0E0,0E0,0E0,0E0,0E0,0E0,0E0,0E0,0E0,0E0,0E0],"parents":[2147483647,0,0,1,1,2,2,3,3,4,4,5,5,6,6,7,7,8,8,9,9,10,10,11,11,12,12,13,13],"right_children":[2,4,6,8,10,12,14,16,18,20,22,24,26,28,-1,-1,-1,-1,-1,-1,-1,-1,-1,-1,-1,-1,-1,-1,-1],"split_conditions":[7.686E1,5.591E1,9.5349E1,4.479913E1,6.429318E1,8.5658264E1,1.2545857E2,3.796091E1,5.177875E1,5.92125E1,7.109E1,7.962631E1,9.288E1,1.04555214E2,2.1522427E0,-1.4984239E0,-1.1164259E0,-8.633928E-1,-6.5031224E-1,-5.134647E-1,-3.481091E-1,-1.0632217E-1,6.939485E-2,2.3093784E-1,4.080467E-1,6.302527E-1,8.221059E-1,1.0363474E0,1.3349651E0],"split_indices":[0,0,7,7,7,7,7,7,7,7,0,7,1,7,0,0,0,0,0,0,0,0,0,0,0,0,0,0,0],"split_type":[0,0,0,0,0,0,0,0,0,0,0,0,0,0,0,0,0,0,0,0,0,0,0,0,0,0,0,0,0],"sum_hessian":[2.604E3,1.591E3,1.013E3,7.64E2,8.27E2,5.63E2,4.5E2,2.16E2,5.48E2,4.27E2,4E2,2E2,3.63E2,4.03E2,4.7E1,9E1,1.26E2,3.64E2,1.84E2,1.65E2,2.62E2,2.04E2,1.96E2,7.2E1,1.28E2,1.78E2,1.85E2,2.72E2,1.31E2],"tree_param":{"num_deleted":"0","num_feature":"31","num_nodes":"29","size_leaf_vector":"1"}},{"base_weights":[-2.3433644E-1,-1.1866838E1,1.5247968E1,-1.8222857E1,-5.6664476E0,9.687813E0,2.3613724E1,-2.4654112E1,-1.5427569E1,-8.244523E0,-1.5093381E0,4.912192E0,1.3919973E1,2.0844967E1,3.7147663E1,-1.4191607E0,-1.0657785E0,-8.2709914E-1,-6.33088E-1,-5.151664E-1,-3.3463344E-1,-1.718415E-1,-3.5435844E-2,1.5535076E-1,3.8285956E-1,6.0367817E-1,7.6413697E-1,9.2529833E-1,1.1318182E0,1.4340789E0,2.061573E0],"categories":[],"categories_nodes":[],"categories_segments":[],"categories_sizes":[],"default_left":[1,0,0,0,1,0,0,0,0,0,0,0,0,0,0,0,0,0,0,0,0,0,0,0,0,0,0,0,0,0,0],"id":7,"left_children":[1,3,5,7,9,11,13,15,17,19,21,23,25,27,29,-1,-1,-1,-1,-1,-1,-1,-1,-1,-1,-1,-1,-1,-1,-1,-1],"loss_changes":[4.6303347E5,5.7647062E4,5.0848406E4,1.2254781E4,7.970248E3,1.3323902E4,1.4901594E4,1.4791406E3,1.1530625E3,1.3317754E3,4.395675E2,1.5182642E3,5.166719E2,7.083281E2,1.2415625E2,0E0,0E0,0E0,0E0,0E0,0E0,0E0,0E0,0E0,0E0,0E0,0E0,0E0,0E0,0E0,0E0],"parents":[2147483647,0,0,1,1,2,2,3,3,4,4,5,5,6,6,7,7,8,8,9,9,10,10,11,11,12,12,13,13,14,14],"right_children":[2,4,6,8,10,12,14,16,18,20,22,24,26,28,30,-1,-1,-1,-1,-1,-1,-1,-1,-1,-1,-1,-1,-1,-1,-1,-1],"split_conditions":[7.4150475E1,5.367E1,9.5349E1,4.479913E1,6.429318E1,8.5658264E1,1.1246273E2,3.796091E1,5.1168423E1,5.92125E1,6.877E1,7.962631E1,9.288E1,1.0190773E2,1.2545857E2,-1.4191607E0,-1.0657785E0,-8.2709914E-1,-6.33088E-1,-5.151664E-1,-3.3463344E-1,-1.718415E-1,-3.5435844E-2,1.5535076E-1,3.8285956E-1,6.0367817E-1,7.6413697E-1,9.2529833E-1,1.1318182E0,1.4340789E0,2.061573E0],"split_indices":[7,2,7,7,7,7,7,7,7,7,1,7,1,7,7,0,0,0,0,0,0,0,0,0,0,0,0,0,0,0,0],"split_type":[0,0,0,0,0,0,0,0,0,0,0,0,0,0,0,0,0,0,0,0,0,0,0,0,0,0,0,0,0,0,0],"sum_hessian":[2.567E3,1.466E3,1.101E3,7.22E2,7.44E2,6.64E2,4.37E2,2.14E2,5.08E2,4.58E2,2.86E2,3.14E2,3.5E2,3.67E2,7E1,9.4E1,1.2E2,3.55E2,1.53E2,1.92E2,2.66E2,8.2E1,2.04E2,1.92E2,1.22E2,1.57E2,1.93E2,1.69E2,1.98E2,2.8E1,4.2E1],"tree_param":{"num_deleted":"0","num_feature":"31","num_nodes":"31","size_leaf_vector":"1"}},{"base_weights":[-1.22817025E-1,-1.042846E1,1.6041336E1,-1.6752556E1,-3.9567642E0,1.1954556E1,2.4180126E1,-2.3908731E1,-1.4579279E1,-6.914033E0,6.817713E-3,5.8325877E0,1.396013E1,2.1874723E1,1.9610703E0,-1.4225868E0,-1.0555317E0,-8.164711E-1,-6.062357E-1,-4.276739E-1,-2.5879097E-1,-5.2615043E-2,1.00815535E-1,1.9298676E-1,3.366997E-1,5.7711977E-1,7.85923E-1,9.963819E-1,1.2119203E0],"categories":[],"categories_nodes":[],"categories_segments":[],"categories_sizes":[],"default_left":[1,0,0,0,1,0,0,0,0,0,0,0,0,0,0,0,0,0,0,0,0,0,0,0,0,0,0,0,0],"id":8,"left_children":[1,3,5,7,9,11,13,15,17,19,21,23,25,27,-1,-1,-1,-1,-1,-1,-1,-1,-1,-1,-1,-1,-1,-1,-1],"loss_changes":[4.3128222E5,6.4574016E4,3.2949406E4,1.17291875E4,9.189654E3,8.1248438E3,9.900609E3,1.1249844E3,2.2588594E3,1.1909766E3,7.2147766E2,2.5033545E2,1.7924922E3,3.9165625E2,0E0,0E0,0E0,0E0,0E0,0E0,0E0,0E0,0E0,0E0,0E0,0E0,0E0,0E0,0E0],"parents":[2147483647,0,0,1,1,2,2,3,3,4,4,5,5,6,6,7,7,8,8,9,9,10,10,11,11,12,12,13,13],"right_children":[2,4,6,8,10,12,14,16,18,20,22,24,26,28,-1,-1,-1,-1,-1,-1,-1,-1,-1,-1,-1,-1,-1,-1,-1],"split_conditions":[7.686E1,5.634E1,9.937E1,4.217E1,6.707E1,8.469E1,1.223E2,3.327E1,5.055E1,6.11E1,7.26E1,-7.072283E-3,9.228E1,1.053E2,1.9610703E0,-1.4225868E0,-1.0555317E0,-8.164711E-1,-6.062357E-1,-4.276739E-1,-2.5879097E-1,-5.2615043E-2,1.00815535E-1,1.9298676E-1,3.366997E-1,5.7711977E-1,7.85923E-1,9.963819E-1,1.2119203E0],"split_indices":[8,8,8,8,8,8,8,8,8,8,8,18,8,8,0,0,0,0,0,0,0,0,0,0,0,0,0,0,0],"split_type":[0,0,0,0,0,0,0,0,0,0,0,0,0,0,0,0,0,0,0,0,0,0,0,0,0,0,0,0,0],"sum_hessian":[2.585E3,1.579E3,1.006E3,7.97E2,7.82E2,6.73E2,3.33E2,1.81E2,6.16E2,4.47E2,3.35E2,1.68E2,5.05E2,2.93E2,4E1,6.2E1,1.19E2,3.53E2,2.63E2,2.26E2,2.21E2,2.2E2,1.15E2,5.6E1,1.12E2,2.19E2,2.86E2,1.71E2,1.22E2],"tree_param":{"num_deleted":"0","num_feature":"31","num_nodes":"29","size_leaf_vector":"1"}},{"base_weights":[4.2507257E-2,-1.0240252E1,1.4425336E1,-1.5882531E1,-4.13371E0,9.102403E0,2.0639729E1,-2.0883156E1,-1.3087227E1,-6.945578E0,-1.0403403E0,5.091011E0,1.2247785E1,1.8426737E1,3.341284E1,-1.2638257E0,-9.402976E-1,-7.144643E-1,-5.501505E-1,-3.925466E-1,-2.3000255E-1,-1.2606804E-1,1.3705157E-2,1.5015717E-1,3.551728E-1,5.3561276E-1,6.650666E-1,7.976691E-1,1.011509E0,1.292445E0,1.8882427E0],"categories":[],"categories_nodes":[],"categories_segments":[],"categories_sizes":[],"default_left":[0,0,0,0,1,0,0,0,0,0,0,0,0,0,0,0,0,0,0,0,0,0,0,0,0,0,0,0,0,0,0],"id":9,"left_children":[1,3,5,7,9,11,13,15,17,19,21,23,25,27,29,-1,-1,-1,-1,-1,-1,-1,-1,-1,-1,-1,-1,-1,-1,-1,-1],"loss_changes":[3.9414025E5,5.341147E4,3.6374797E4,1.0733844E4,6.500461E3,7.4709453E3,1.3212969E4,1.6593047E3,9.9584375E2,7.601953E2,7.002539E2,1.083395E3,2.5858984E2,1.3171562E3,4.506797E2,0E0,0E0,0E0,0E0,0E0,0E0,0E0,0E0,0E0,0E0,0E0,0E0,0E0,0E0,0E0,0E0],"parents":[2147483647,0,0,1,1,2,2,3,3,4,4,5,5,6,6,7,7,8,8,9,9,10,10,11,11,12,12,13,13,14,14],"right_children":[2,4,6,8,10,12,14,16,18,20,22,24,26,28,30,-1,-1,-1,-1,-1,-1,-1,-1,-1,-1,-1,-1,-1,-1,-1,-1],"split_conditions":[7.461E1,5.575E1,9.4828575E1,4.5443043E1,6.429318E1,8.5658264E1,1.1246273E2,3.796091E1,5.177875E1,6.270524E1,6.956E1,7.962631E1,8.974316E1,1.006705E2,1.2545857E2,-1.2638257E0,-9.402976E-1,-7.144643E-1,-5.501505E-1,-3.925466E-1,-2.3000255E-1,-1.2606804E-1,1.3705157E-2,1.5015717E-1,3.551728E-1,5.3561276E-1,6.650666E-1,7.976691E-1,1.011509E0,1.292445E0,1.8882427E0],"split_indices":[0,2,7,7,7,7,7,7,7,7,0,7,7,7,7,0,0,0,0,0,0,0,0,0,0,0,0,0,0,0,0],"split_type":[0,0,0,0,0,0,0,0,0,0,0,0,0,0,0,0,0,0,0,0,0,0,0,0,0,0,0,0,0,0,0],"sum_hessian":[2.661E3,1.552E3,1.109E3,8.05E2,7.47E2,6E2,5.09E2,2.84E2,5.21E2,3.9E2,3.57E2,2.66E2,3.34E2,4.38E2,7.1E1,8.4E1,2E2,3.23E2,1.98E2,2.78E2,1.12E2,1.67E2,1.9E2,1.33E2,1.33E2,1.45E2,1.89E2,1.93E2,2.45E2,3.1E1,4E1],"tree_param":{"num_deleted":"0","num_feature":"31","num_nodes":"31","size_leaf_vector":"1"}},{"base_weights":[-2.3922375E-1,-1.0447945E1,1.3270349E1,-1.601286E1,-5.131492E0,7.897282E0,1.9973925E1,-2.342182E1,-1.4061037E1,-8.01107E0,-2.2176883E0,2.7449548E0,1.0478788E1,1.7660736E1,1.6320938E0,-1.2803273E0,-9.860012E-1,-8.326721E-1,-6.349687E-1,-4.6949896E-1,-3.4735236E-1,-1.8859832E-1,-3.362737E-2,-1.9214703E-1,1.6235237E-1,3.8083172E-1,5.9226197E-1,7.657691E-1,9.764143E-1],"categories":[],"categories_nodes":[],"categories_segments":[],"categories_sizes":[],"default_left":[0,0,0,0,0,0,0,0,0,0,0,0,0,0,0,0,0,0,0,0,0,0,0,0,0,0,0,0,0],"id":10,"left_children":[1,3,5,7,9,11,13,15,17,19,21,23,25,27,-1,-1,-1,-1,-1,-1,-1,-1,-1,-1,-1,-1,-1,-1,-1],"loss_changes":[3.617537E5,4.4036547E4,4.0349703E4,9.883391E3,6.4E3,8.321953E3,1.3528E4,1.9510938E2,1.6314766E3,4.344043E2,9.1713245E2,7.2950354E2,1.4582656E3,1.2765E3,0E0,0E0,0E0,0E0,0E0,0E0,0E0,0E0,0E0,0E0,0E0,0E0,0E0,0E0,0E0],"parents":[2147483647,0,0,1,1,2,2,3,3,4,4,5,5,6,6,7,7,8,8,9,9,10,10,11,11,12,12,13,13],"right_children":[2,4,6,8,10,12,14,16,18,20,22,24,26,28,-1,-1,-1,-1,-1,-1,-1,-1,-1,-1,-1,-1,-1,-1,-1],"split_conditions":[7.4150475E1,5.335E1,9.4828575E1,4.0910435E1,6.2966087E1,8.129E1,1.1246273E2,3.7327274E1,4.6855713E1,5.8019524E1,6.895E1,-4.87E0,8.642809E1,1.006705E2,1.6320938E0,-1.2803273E0,-9.860012E-1,-8.326721E-1,-6.349687E-1,-4.6949896E-1,-3.4735236E-1,-1.8859832E-1,-3.362737E-2,-1.9214703E-1,1.6235237E-1,3.8083172E-1,5.9226197E-1,7.657691E-1,9.764143E-1],"split_indices":[7,2,7,7,7,7,7,7,7,7,1,12,7,7,0,0,0,0,0,0,0,0,0,0,0,0,0,0,0],"split_type":[0,0,0,0,0,0,0,0,0,0,0,0,0,0,0,0,0,0,0,0,0,0,0,0,0,0,0,0,0],"sum_hessian":[2.619E3,1.492E3,1.127E3,7.27E2,7.65E2,6.28E2,4.99E2,1.47E2,5.8E2,3.83E2,3.82E2,2.11E2,4.17E2,4.26E2,7.3E1,8.5E1,6.2E1,1.92E2,3.88E2,1.6E2,2.23E2,1.89E2,1.93E2,1.4E1,1.97E2,1.39E2,2.78E2,1.97E2,2.29E2],"tree_param":{"num_deleted":"0","num_feature":"31","num_nodes":"29","size_leaf_vector":"1"}},{"base_weights":[5.25735E-2,-9.347198E0,1.3136408E1,-1.4412398E1,-3.7678676E0,9.297639E0,2.0309092E1,-2.023409E1,-1.222975E1,-6.248281E0,-9.617599E-1,4.9914923E0,1.2212462E1,1.7484474E1,2.874057E1,-1.2313706E0,-9.080289E-1,-7.042567E-1,-5.237835E-1,-3.487826E-1,-2.1010852E-1,-9.661065E-2,1.7149432E-2,1.5501224E-1,3.3002627E-1,5.108819E-1,6.6524106E-1,2.2285624E-1,8.7720984E-1,1.1964486E0,1.6899601E0],"categories":[],"categories_nodes":[],"categories_segments":[],"categories_sizes":[],"default_left":[0,0,0,0,1,0,0,0,0,1,0,0,0,0,0,0,0,0,0,0,0,0,0,0,0,0,0,0,0,0,0],"id":11,"left_children":[1,3,5,7,9,11,13,15,17,19,21,23,25,27,29,-1,-1,-1,-1,-1,-1,-1,-1,-1,-1,-1,-1,-1,-1,-1,-1],"loss_changes":[3.212366E5,4.2847234E4,2.9689797E4,9.619625E3,5.041164E3,8.852516E3,8.021125E3,1.0549609E3,1.6055156E3,5.143633E2,4.3563104E2,8.476533E2,6.5421875E2,6.8453125E1,6.2172656E2,0E0,0E0,0E0,0E0,0E0,0E0,0E0,0E0,0E0,0E0,0E0,0E0,0E0,0E0,0E0,0E0],"parents":[2147483647,0,0,1,1,2,2,3,3,4,4,5,5,6,6,7,7,8,8,9,9,10,10,11,11,12,12,13,13,14,14],"right_children":[2,4,6,8,10,12,14,16,18,20,22,24,26,28,30,-1,-1,-1,-1,-1,-1,-1,-1,-1,-1,-1,-1,-1,-1,-1,-1],"split_conditions":[7.461E1,5.575E1,9.8575714E1,4.479913E1,6.429318E1,8.642809E1,1.100385E2,3.211E1,4.976E1,6.270524E1,7.096091E1,7.962631E1,9.197E1,-4.96E0,1.223E2,-1.2313706E0,-9.080289E-1,-7.042567E-1,-5.237835E-1,-3.487826E-1,-2.1010852E-1,-9.661065E-2,1.7149432E-2,1.5501224E-1,3.3002627E-1,5.108819E-1,6.6524106E-1,2.2285624E-1,8.7720984E-1,1.1964486E0,1.6899601E0],"split_indices":[0,2,7,7,7,7,7,2,0,7,7,7,0,6,0,0,0,0,0,0,0,0,0,0,0,0,0,0,0,0,0],"split_type":[0,0,0,0,0,0,0,0,0,0,0,0,0,0,0,0,0,0,0,0,0,0,0,0,0,0,0,0,0,0,0],"sum_hessian":[2.608E3,1.518E3,1.09E3,7.94E2,7.24E2,7.13E2,3.77E2,2.12E2,5.82E2,3.83E2,3.41E2,2.9E2,4.23E2,2.87E2,9E1,6.1E1,1.51E2,2.76E2,3.06E2,2.79E2,1.04E2,1.95E2,1.46E2,1.36E2,1.54E2,1.57E2,2.66E2,2E0,2.85E2,5.2E1,3.8E1],"tree_param":{"num_deleted":"0","num_feature":"31","num_nodes":"31","size_leaf_vector":"1"}},{"base_weights":[7.666245E-2,-8.232179E0,1.35244875E1,-1.3162424E1,-2.5840025E0,1.0498666E1,2.1046473E1,-1.8514656E1,-1.1029241E1,-5.0169945E0,3.522682E-1,5.094549E0,1.20665E1,1.8552128E1,1.5889186E0,-1.1647408E0,-8.380793E-1,-6.2948364E-1,-4.5445433E-1,-3.1480834E-1,-1.7522317E-1,-4.071116E-2,1.04204535E-1,1.5897335E-1,2.9585823E-1,4.9345627E-1,6.676916E-1,9.3078226E-1,6.4669676E-2],"categories":[],"categories_nodes":[],"categories_segments":[],"categories_sizes":[],"default_left":[0,0,0,0,0,0,0,0,0,0,0,0,0,0,0,0,0,0,0,0,0,0,0,0,0,0,0,0,0],"id":12,"left_children":[1,3,5,7,9,11,13,15,17,19,21,23,25,27,-1,-1,-1,-1,-1,-1,-1,-1,-1,-1,-1,-1,-1,-1,-1],"loss_changes":[2.8760725E5,4.4236383E4,2.193136E4,9.284875E3,5.3186133E3,5.8503438E3,6.3162188E3,1.2218906E3,1.6239609E3,7.433291E2,6.8822675E2,2.1758398E2,1.2780859E3,2.0616406E2,0E0,0E0,0E0,0E0,0E0,0E0,0E0,0E0,0E0,0E0,0E0,0E0,0E0,0E0,0E0],"parents":[2147483647,0,0,1,1,2,2,3,3,4,4,5,5,6,6,7,7,8,8,9,9,10,10,11,11,12,12,13,13],"right_children":[2,4,6,8,10,12,14,16,18,20,22,24,26,28,-1,-1,-1,-1,-1,-1,-1,-1,-1,-1,-1,-1,-1,-1,-1],"split_conditions":[7.939E1,5.8019524E1,1.0190773E2,4.5170433E1,6.667E1,8.5658264E1,1.2545857E2,3.211E1,5.177875E1,6.270524E1,7.4150475E1,7.962631E1,9.385E1,1E0,1.5889186E0,-1.1647408E0,-8.380793E-1,-6.2948364E-1,-4.5445433E-1,-3.1480834E-1,-1.7522317E-1,-4.071116E-2,1.04204535E-1,1.5897335E-1,2.9585823E-1,4.9345627E-1,6.676916E-1,9.3078226E-1,6.4669676E-2],"split_indices":[1,7,7,7,2,7,7,2,7,7,7,7,1,27,0,0,0,0,0,0,0,0,0,0,0,0,0,0,0],"split_type":[0,0,0,0,0,0,0,0,0,0,0,0,0,0,0,0,0,0,0,0,0,0,0,0,0,0,0,0,0],"sum_hessian":[2.57E3,1.589E3,9.81E2,8.47E2,7.42E2,7.03E2,2.78E2,2.37E2,6.1E2,4.05E2,3.37E2,1.6E2,5.43E2,2.3E2,4.8E1,5.7E1,1.8E2,3.32E2,2.78E2,2.16E2,1.89E2,2.02E2,1.35E2,5.1E1,1.09E2,2.07E2,3.36E2,2.29E2,1E0],"tree_param":{"num_deleted":"0","num_feature":"31","num_nodes":"29","size_leaf_vector":"1"}},{"base_weights":[1.988986E-1,-8.766974E0,1.1529991E1,-1.3904013E1,-4.5578327E0,7.189259E0,1.7613232E1,-1.0090909E0,-1.2440402E1,-6.9000654E0,-2.024066E0,3.6507034E0,1.0203689E1,1.5304777E1,2.6767E1,-7.2586364E-1,-5.494959E-1,-4.1256037E-1,-2.8338706E-1,-1.8705884E-1,-5.3760506E-2,2.0852757E-1,-2.6950917E-1,4.456432E-1,5.6685317E-1,7.023903E-1,8.4692144E-1,1.130534E0,1.5851034E0],"categories":[],"categories_nodes":[],"categories_segments":[],"categories_sizes":[],"default_left":[1,0,0,0,1,0,0,0,0,0,0,1,0,0,0,0,0,0,0,0,0,0,0,0,0,0,0,0,0],"id":13,"left_children":[1,3,5,7,9,11,13,-1,15,17,19,21,23,25,27,-1,-1,-1,-1,-1,-1,-1,-1,-1,-1,-1,-1,-1,-1],"loss_changes":[2.6586825E5,3.1463758E4,3.027175E4,5.534539E3,4.755416E3,7.157539E3,9.323594E3,0E0,1.301625E3,6.02459E2,6.273783E2,1.5254238E3,3.3190234E2,3.2083594E2,4.944922E2,0E0,0E0,0E0,0E0,0E0,0E0,0E0,0E0,0E0,0E0,0E0,0E0,0E0,0E0],"parents":[2147483647,0,0,1,1,2,2,3,3,4,4,5,5,6,6,8,8,9,9,10,10,11,11,12,12,13,13,14,14],"right_children":[2,4,6,8,10,12,14,-1,16,18,20,22,24,26,28,-1,-1,-1,-1,-1,-1,-1,-1,-1,-1,-1,-1,-1,-1],"split_conditions":[7.4150475E1,5.4050434E1,9.5349E1,3.9258423E1,6.270524E1,8.5658264E1,1.100385E2,-1.0090909E0,4.6855713E1,5.8019524E1,6.6272385E1,1.215E2,9.288E1,1.0127E2,1.2404E2,-7.2586364E-1,-5.494959E-1,-4.1256037E-1,-2.8338706E-1,-1.8705884E-1,-5.3760506E-2,2.0852757E-1,-2.6950917E-1,4.456432E-1,5.6685317E-1,7.023903E-1,8.4692144E-1,1.130534E0,1.5851034E0],"split_indices":[7,7,7,7,7,7,7,0,7,7,7,25,1,2,2,0,0,0,0,0,0,0,0,0,0,0,0,0,0],"split_type":[0,0,0,0,0,0,0,0,0,0,0,0,0,0,0,0,0,0,0,0,0,0,0,0,0,0,0,0,0],"sum_hessian":[2.613E3,1.459E3,1.154E3,6.55E2,8.04E2,6.76E2,4.78E2,1.19E2,5.36E2,4.16E2,3.88E2,3.13E2,3.63E2,3.86E2,9.2E1,2.13E2,3.23E2,1.93E2,2.23E2,1.36E2,2.52E2,2.97E2,1.6E1,1.78E2,1.85E2,2.29E2,1.57E2,5.6E1,3.6E1],"tree_param":{"num_deleted":"0","num_feature":"31","num_nodes":"29","size_leaf_vector":"1"}},{"base_weights":[5.646621E-2,-8.4410715E0,1.1096535E1,-1.3826322E1,-4.8719444E0,6.703953E0,1.6127907E1,-1.9126017E1,-1.2037612E1,-7.1838627E0,-1.8564152E0,3.5093563E0,9.498526E0,1.4281931E1,2.6444954E1,-1.0816373E0,-8.335924E-1,-6.824077E-1,-5.396709E-1,-4.0890738E-1,-2.9184583E-1,-1.7489362E-1,-4.6891402E-2,1.9853462E-1,-1.977197E-1,3.7655276E-1,5.1164585E-1,6.642081E-1,8.716157E-1,4.8670387E-1,1.3424218E0],"categories":[],"categories_nodes":[],"categories_segments":[],"categories_sizes":[],"default_left":[0,0,0,0,0,0,0,0,0,0,0,1,0,0,0,0,0,0,0,0,0,0,0,0,0,0,0,0,0,0,0],"id":14,"left_children":[1,3,5,7,9,11,13,15,17,19,21,23,25,27,29,-1,-1,-1,-1,-1,-1,-1,-1,-1,-1,-1,-1,-1,-1,-1,-1],"loss_changes":[2.4869902E5,2.8657805E4,2.5265875E4,5.189383E3,6.275707E3,5.4594766E3,9.452766E3,1.8301953E2,6.0910547E2,5.888867E2,5.890287E2,1.0368464E3,3.212422E2,9.7965625E2,9.96875E0,0E0,0E0,0E0,0E0,0E0,0E0,0E0,0E0,0E0,0E0,0E0,0E0,0E0,0E0,0E0,0E0],"parents":[2147483647,0,0,1,1,2,2,3,3,4,4,5,5,6,6,7,7,8,8,9,9,10,10,11,11,12,12,13,13,14,14],"right_children":[2,4,6,8,10,12,14,16,18,20,22,24,26,28,30,-1,-1,-1,-1,-1,-1,-1,-1,-1,-1,-1,-1,-1,-1,-1,-1],"split_conditions":[7.4150475E1,5.177875E1,9.4828575E1,4.0910435E1,6.270524E1,8.5658264E1,1.1246273E2,3.211E1,4.6855713E1,5.8019524E1,6.6272385E1,1.3075E2,-5.25E0,1.04555214E2,1.055E2,-1.0816373E0,-8.335924E-1,-6.824077E-1,-5.396709E-1,-4.0890738E-1,-2.9184583E-1,-1.7489362E-1,-4.6891402E-2,1.9853462E-1,-1.977197E-1,3.7655276E-1,5.1164585E-1,6.642081E-1,8.716157E-1,4.8670387E-1,1.3424218E0],"split_indices":[7,7,7,7,7,7,7,2,7,7,7,25,25,7,2,0,0,0,0,0,0,0,0,0,0,0,0,0,0,0,0],"split_type":[0,0,0,0,0,0,0,0,0,0,0,0,0,0,0,0,0,0,0,0,0,0,0,0,0,0,0,0,0,0,0],"sum_hessian":[2.647E3,1.496E3,1.151E3,5.94E2,9.02E2,6.17E2,5.34E2,1.45E2,4.49E2,5.09E2,3.93E2,2.9E2,3.27E2,4.57E2,7.7E1,6.4E1,8.1E1,1.87E2,2.62E2,2.87E2,2.22E2,1.39E2,2.54E2,2.74E2,1.6E1,9.5E1,2.32E2,3.55E2,1.02E2,3E0,7.4E1],"tree_param":{"num_deleted":"0","num_feature":"31","num_nodes":"31","size_leaf_vector":"1"}},{"base_weights":[1.2761286E-1,-7.156346E0,1.1472982E1,-1.1801789E1,-2.6251395E0,9.763765E0,2.1379276E1,-1.6884716E1,-1.0238864E1,-4.934001E0,1.3350771E-1,6.398705E0,1.2217241E1,1.769982E1,1.4548126E0,-1.0368304E0,-7.34994E-1,-6.0506505E-1,-4.36249E-1,-3.0361333E-1,-1.8833986E-1,-5.209249E-2,4.886174E-2,2.2904705E-1,3.9342985E-1,5.414843E-1,6.829543E-1,5.2835935E-1,9.1113263E-1],"categories":[],"categories_nodes":[],"categories_segments":[],"categories_sizes":[],"default_left":[0,0,0,0,0,0,0,0,0,0,0,0,0,0,0,0,0,0,0,0,0,0,0,0,0,0,0,0,0],"id":15,"left_children":[1,3,5,7,9,11,13,15,17,19,21,23,25,27,-1,-1,-1,-1,-1,-1,-1,-1,-1,-1,-1,-1,-1,-1,-1],"loss_changes":[2.16431E5,3.351193E4,1.6920906E4,5.9063516E3,5.1604785E3,7.08425E3,3.20075E3,9.2202344E2,1.5002812E3,5.4016016E2,3.6994986E2,9.2720703E2,7.144844E2,1.0167969E1,0E0,0E0,0E0,0E0,0E0,0E0,0E0,0E0,0E0,0E0,0E0,0E0,0E0,0E0,0E0],"parents":[2147483647,0,0,1,1,2,2,3,3,4,4,5,5,6,6,7,7,8,8,9,9,10,10,11,11,12,12,13,13],"right_children":[2,4,6,8,10,12,14,16,18,20,22,24,26,28,-1,-1,-1,-1,-1,-1,-1,-1,-1,-1,-1,-1,-1,-1,-1],"split_conditions":[7.719E1,5.575E1,1.0476E2,4.216E1,6.681E1,9.288E1,1.223E2,3.211E1,4.882E1,6.095E1,7.109E1,8.469E1,9.97E1,-1.64E0,1.4548126E0,-1.0368304E0,-7.34994E-1,-6.0506505E-1,-4.36249E-1,-3.0361333E-1,-1.8833986E-1,-5.209249E-2,4.886174E-2,2.2904705E-1,3.9342985E-1,5.414843E-1,6.829543E-1,5.2835935E-1,9.1113263E-1],"split_indices":[0,2,2,0,0,1,8,2,0,0,0,0,1,26,0,0,0,0,0,0,0,0,0,0,0,0,0,0,0],"split_type":[0,0,0,0,0,0,0,0,0,0,0,0,0,0,0,0,0,0,0,0,0,0,0,0,0,0,0,0,0],"sum_hessian":[2.615E3,1.593E3,1.022E3,7.85E2,8.08E2,8.75E2,1.47E2,1.8E2,6.05E2,4.39E2,3.69E2,3.72E2,5.03E2,1.04E2,4.3E1,5.9E1,1.21E2,2.65E2,3.4E2,2.18E2,2.21E2,1.54E2,2.15E2,1.7E2,2.02E2,2.65E2,2.38E2,1E1,9.4E1],"tree_param":{"num_deleted":"0","num_feature":"31","num_nodes":"29","size_leaf_vector":"1"}},{"base_weights":[-1.341786E-2,-7.232409E0,1.02394705E1,-1.15604315E1,-3.2681909E0,6.352076E0,1.4452583E1,-1.770362E1,-1.0229609E1,-5.3235803E0,-5.9571E-1,3.5642881E0,8.559311E0,1.2914745E1,1.1652359E0,-1.0142282E0,-7.767165E-1,-6.000682E-1,-4.5139918E-1,-3.2574958E-1,-2.2019319E-1,-8.519589E-2,1.27727855E-2,1.0654304E-1,2.4932332E-1,3.1661102E-1,4.5055053E-1,5.714692E-1,7.19869E-1],"categories":[],"categories_nodes":[],"categories_segments":[],"categories_sizes":[],"default_left":[0,0,0,0,1,0,0,0,0,1,0,0,0,0,0,0,0,0,0,0,0,0,0,0,0,0,0,0,0],"id":16,"left_children":[1,3,5,7,9,11,13,15,17,19,21,23,25,27,-1,-1,-1,-1,-1,-1,-1,-1,-1,-1,-1,-1,-1,-1,-1],"loss_changes":[1.909601E5,2.5900469E4,1.7275375E4,5.5486797E3,4.3495986E3,3.3725273E3,6.34075E3,7.523828E1,1.0585664E3,4.3351855E2,3.2818472E2,4.8839624E2,1.9773438E2,6.376875E2,0E0,0E0,0E0,0E0,0E0,0E0,0E0,0E0,0E0,0E0,0E0,0E0,0E0,0E0,0E0],"parents":[2147483647,0,0,1,1,2,2,3,3,4,4,5,5,6,6,7,7,8,8,9,9,10,10,11,11,12,12,13,13],"right_children":[2,4,6,8,10,12,14,16,18,20,22,24,26,28,-1,-1,-1,-1,-1,-1,-1,-1,-1,-1,-1,-1,-1,-1,-1],"split_conditions":[7.461E1,5.478E1,9.532E1,3.9258423E1,6.429318E1,8.5658264E1,1.1246273E2,-6.9E1,4.737E1,5.92125E1,6.931E1,7.962631E1,8.606E1,1.0190773E2,1.1652359E0,-1.0142282E0,-7.767165E-1,-6.000682E-1,-4.5139918E-1,-3.2574958E-1,-2.2019319E-1,-8.519589E-2,1.27727855E-2,1.0654304E-1,2.4932332E-1,3.1661102E-1,4.5055053E-1,5.714692E-1,7.19869E-1],"split_indices":[0,0,0,7,7,7,7,25,0,7,0,7,2,7,0,0,0,0,0,0,0,0,0,0,0,0,0,0,0],"split_type":[0,0,0,0,0,0,0,0,0,0,0,0,0,0,0,0,0,0,0,0,0,0,0,0,0,0,0,0,0],"sum_hessian":[2.576E3,1.512E3,1.064E3,7.21E2,7.91E2,5.56E2,5.08E2,1.24E2,5.97E2,4.46E2,3.45E2,2.48E2,3.08E2,4.37E2,7.1E1,4.9E1,7.5E1,2.34E2,3.63E2,1.89E2,2.57E2,1.49E2,1.96E2,1.26E2,1.22E2,5.7E1,2.51E2,2.27E2,2.1E2],"tree_param":{"num_deleted":"0","num_feature":"31","num_nodes":"29","size_leaf_vector":"1"}},{"base_weights":[1.24116644E-1,-6.370561E0,1.0484428E1,-1.0584998E1,-2.4241521E0,7.457973E0,1.5384215E1,-1.4128527E1,-8.860386E0,-4.490046E0,2.8859973E-1,4.9036846E0,9.125784E0,1.3694566E1,2.5846457E1,-9.008309E-1,-6.2733245E-1,-5.034397E-1,-3.8018554E-1,-2.750508E-1,-1.6285108E-1,-4.421106E-2,5.4935366E-2,1.5566915E-1,2.792606E-1,3.8216648E-1,4.8751506E-1,6.421923E-1,8.1001896E-1,1.3065237E0,1.940946E-1],"categories":[],"categories_nodes":[],"categories_segments":[],"categories_sizes":[],"default_left":[0,0,0,0,0,0,0,0,0,0,0,0,0,0,0,0,0,0,0,0,0,0,0,0,0,0,0,0,0,0,0],"id":17,"left_children":[1,3,5,7,9,11,13,15,17,19,21,23,25,27,29,-1,-1,-1,-1,-1,-1,-1,-1,-1,-1,-1,-1,-1,-1,-1,-1],"loss_changes":[1.7602152E5,2.6692762E4,1.4718148E4,4.498047E3,4.6709385E3,2.5815625E3,6.062578E3,1.0916797E3,6.486875E2,5.537842E2,3.4588324E2,2.7269727E2,1.9998242E2,2.9585156E2,1.1528125E2,0E0,0E0,0E0,0E0,0E0,0E0,0E0,0E0,0E0,0E0,0E0,0E0,0E0,0E0,0E0,0E0],"parents":[2147483647,0,0,1,1,2,2,3,3,4,4,5,5,6,6,7,7,8,8,9,9,10,10,11,11,12,12,13,13,14,14],"right_children":[2,4,6,8,10,12,14,16,18,20,22,24,26,28,30,-1,-1,-1,-1,-1,-1,-1,-1,-1,-1,-1,-1,-1,-1,-1,-1],"split_conditions":[7.758E1,5.634E1,9.995E1,4.517E1,6.681E1,8.806E1,1.223E2,3.466E1,5.034E1,6.137E1,7.109E1,8.112E1,9.228E1,1.0685E2,1.06E3,-9.008309E-1,-6.2733245E-1,-5.034397E-1,-3.8018554E-1,-2.750508E-1,-1.6285108E-1,-4.421106E-2,5.4935366E-2,1.5566915E-1,2.792606E-1,3.8216648E-1,4.8751506E-1,6.421923E-1,8.1001896E-1,1.3065237E0,1.940946E-1],"split_indices":[0,0,1,0,0,0,0,0,0,0,0,0,0,0,4,0,0,0,0,0,0,0,0,0,0,0,0,0,0,0,0],"split_type":[0,0,0,0,0,0,0,0,0,0,0,0,0,0,0,0,0,0,0,0,0,0,0,0,0,0,0,0,0,0,0],"sum_hessian":[2.612E3,1.606E3,1.006E3,7.75E2,8.31E2,6.25E2,3.81E2,2.49E2,5.26E2,4.71E2,3.6E2,2.5E2,3.75E2,3.32E2,4.9E1,6.6E1,1.83E2,2.61E2,2.65E2,2.55E2,2.16E2,1.47E2,2.13E2,7.2E1,1.78E2,1.19E2,2.56E2,2.57E2,7.5E1,4.8E1,1E0],"tree_param":{"num_deleted":"0","num_feature":"31","num_nodes":"31","size_leaf_vector":"1"}},{"base_weights":[-1.7527152E-2,-6.3131256E0,9.77703E0,-1.0374984E1,-2.4639902E0,7.3283257E0,1.5201486E1,-1.4265569E1,-8.775599E0,-4.625478E0,-2.4245001E-1,4.2386084E0,9.048858E0,1.3602061E1,1.2114519E0,-8.906684E-1,-6.4120233E-1,-4.7512338E-1,-3.5620713E-1,-2.6106265E-1,-1.3835351E-1,-5.777679E-2,4.03874E-2,1.1583667E-1,2.5327727E-1,3.7992826E-1,4.879729E-1,2.5409743E-1,6.943687E-1],"categories":[],"categories_nodes":[],"categories_segments":[],"categories_sizes":[],"default_left":[0,0,0,0,1,0,0,0,0,1,0,0,0,0,0,0,0,0,0,0,0,0,0,0,0,0,0,0,0],"id":18,"left_children":[1,3,5,7,9,11,13,15,17,19,21,23,25,27,-1,-1,-1,-1,-1,-1,-1,-1,-1,-1,-1,-1,-1,-1,-1],"loss_changes":[1.6106283E5,2.4807953E4,1.3352305E4,4.5596484E3,3.930457E3,3.6869883E3,3.9035547E3,6.7848047E2,5.284258E2,4.3058984E2,3.9118863E2,3.849707E2,3.1853516E2,5.224844E2,0E0,0E0,0E0,0E0,0E0,0E0,0E0,0E0,0E0,0E0,0E0,0E0,0E0,0E0,0E0],"parents":[2147483647,0,0,1,1,2,2,3,3,4,4,5,5,6,6,7,7,8,8,9,9,10,10,11,11,12,12,13,13],"right_children":[2,4,6,8,10,12,14,16,18,20,22,24,26,28,-1,-1,-1,-1,-1,-1,-1,-1,-1,-1,-1,-1,-1,-1,-1],"split_conditions":[7.797E1,5.678E1,1.006705E2,4.479913E1,6.429318E1,8.793143E1,1.2545857E2,3.44E1,5.177875E1,6.270524E1,7.096954E1,8.129E1,9.385E1,-7.075E1,1.2114519E0,-8.906684E-1,-6.4120233E-1,-4.7512338E-1,-3.5620713E-1,-2.6106265E-1,-1.3835351E-1,-5.777679E-2,4.03874E-2,1.1583667E-1,2.5327727E-1,3.7992826E-1,4.879729E-1,2.5409743E-1,6.943687E-1],"split_indices":[1,1,7,7,7,7,7,1,7,7,7,7,1,25,0,0,0,0,0,0,0,0,0,0,0,0,0,0,0],"split_type":[0,0,0,0,0,0,0,0,0,0,0,0,0,0,0,0,0,0,0,0,0,0,0,0,0,0,0,0,0],"sum_hessian":[2.608E3,1.588E3,1.02E3,7.71E2,8.17E2,7.06E2,3.14E2,2.2E2,5.51E2,4.13E2,4.04E2,2.55E2,4.51E2,2.71E2,4.3E1,5.7E1,1.63E2,3.76E2,1.75E2,3.1E2,1.03E2,2.16E2,1.88E2,7.9E1,1.76E2,1.56E2,2.95E2,1E1,2.61E2],"tree_param":{"num_deleted":"0","num_feature":"31","num_nodes":"29","size_leaf_vector":"1"}},{"base_weights":[3.0800201E-2,-5.8295546E0,9.654678E0,-9.696161E0,-2.0790606E0,7.936949E0,1.7189772E1,-1.3290004E1,-8.035897E0,-3.770773E0,3.0716985E-1,4.9326744E0,9.607557E0,1.5056446E1,1.2396951E0,-8.4983844E-1,-5.9999603E-1,-4.5912766E-1,-3.5486668E-1,-2.2675136E-1,-1.2797888E-1,-2.8027937E-2,7.6186866E-2,1.9071397E-1,3.0748862E-1,4.1109562E-1,5.302641E-1,6.6733974E-1,8.5286E-1],"categories":[],"categories_nodes":[],"categories_segments":[],"categories_sizes":[],"default_left":[0,0,0,0,0,0,0,0,0,1,0,0,0,0,0,0,0,0,0,0,0,0,0,0,0,0,0,0,0],"id":19,"left_children":[1,3,5,7,9,11,13,15,17,19,21,23,25,27,-1,-1,-1,-1,-1,-1,-1,-1,-1,-1,-1,-1,-1,-1,-1],"loss_changes":[1.4827364E5,2.3655434E4,1.2605664E4,4.5836562E3,3.3609475E3,3.9906562E3,2.2220195E3,7.92375E2,4.6695703E2,4.2758105E2,3.6801898E2,3.5463867E2,5.458828E2,5.0929688E1,0E0,0E0,0E0,0E0,0E0,0E0,0E0,0E0,0E0,0E0,0E0,0E0,0E0,0E0,0E0],"parents":[2147483647,0,0,1,1,2,2,3,3,4,4,5,5,6,6,7,7,8,8,9,9,10,10,11,11,12,12,13,13],"right_children":[2,4,6,8,10,12,14,16,18,20,22,24,26,28,-1,-1,-1,-1,-1,-1,-1,-1,-1,-1,-1,-1,-1,-1,-1],"split_conditions":[7.886E1,5.575E1,1.04555214E2,4.5170433E1,6.667E1,8.974316E1,1.2629E2,3.056E1,4.9688637E1,6.270524E1,7.4150475E1,8.5658264E1,9.5349E1,1.100385E2,1.2396951E0,-8.4983844E-1,-5.9999603E-1,-4.5912766E-1,-3.5486668E-1,-2.2675136E-1,-1.2797888E-1,-2.8027937E-2,7.6186866E-2,1.9071397E-1,3.0748862E-1,4.1109562E-1,5.302641E-1,6.6733974E-1,8.5286E-1],"split_indices":[0,2,7,7,2,7,0,2,7,7,7,7,7,7,0,0,0,0,0,0,0,0,0,0,0,0,0,0,0],"split_type":[0,0,0,0,0,0,0,0,0,0,0,0,0,0,0,0,0,0,0,0,0,0,0,0,0,0,0,0,0],"sum_hessian":[2.625E3,1.632E3,9.93E2,8.02E2,8.3E2,8.12E2,1.81E2,2.49E2,5.53E2,4.85E2,3.45E2,2.93E2,5.19E2,1.46E2,3.5E1,5.8E1,1.91E2,2.41E2,3.12E2,2.94E2,1.91E2,2.02E2,1.43E2,1.57E2,1.36E2,2.25E2,2.94E2,8.7E1,5.9E1],"tree_param":{"num_deleted":"0","num_feature":"31","num_nodes":"29","size_leaf_vector":"1"}},{"base_weights":[7.564683E-2,-5.775743E0,8.800296E0,-9.681528E0,-2.632683E0,6.968803E0,1.4548956E1,-1.342096E1,-8.282461E0,-4.601137E0,-6.921453E-1,4.020742E0,8.511096E0,6.311525E-1,1.1267482E0,-8.8802224E-1,-6.137647E-1,-4.6266255E-1,-3.6557212E-1,-2.7596736E-1,-1.843459E-1,-8.1279695E-2,1.9095724E-2,1.516167E-1,2.8023288E-1,3.6224324E-1,4.7204477E-1],"categories":[],"categories_nodes":[],"categories_segments":[],"categories_sizes":[],"default_left":[0,0,0,0,0,0,0,0,0,0,0,0,0,0,0,0,0,0,0,0,0,0,0,0,0,0,0],"id":20,"left_children":[1,3,5,7,9,11,13,15,17,19,21,23,25,-1,-1,-1,-1,-1,-1,-1,-1,-1,-1,-1,-1,-1,-1],"loss_changes":[1.3518344E5,1.9406668E4,1.0989156E4,3.4712812E3,3.3589272E3,3.6144453E3,3.3530547E3,5.0360547E2,3.539297E2,3.2613867E2,4.4839215E2,4.074961E2,4.871953E2,0E0,0E0,0E0,0E0,0E0,0E0,0E0,0E0,0E0,0E0,0E0,0E0,0E0,0E0],"parents":[2147483647,0,0,1,1,2,2,3,3,4,4,5,5,6,6,7,7,8,8,9,9,10,10,11,11,12,12],"right_children":[2,4,6,8,10,12,14,16,18,20,22,24,26,-1,-1,-1,-1,-1,-1,-1,-1,-1,-1,-1,-1,-1,-1],"split_conditions":[7.651E1,5.292E1,1.0266E2,4.216E1,6.354E1,8.806E1,1.223E2,2.904E1,4.882E1,5.985E1,6.913E1,8.244E1,9.495E1,6.311525E-1,1.1267482E0,-8.8802224E-1,-6.137647E-1,-4.6266255E-1,-3.6557212E-1,-2.7596736E-1,-1.843459E-1,-8.1279695E-2,1.9095724E-2,1.516167E-1,2.8023288E-1,3.6224324E-1,4.7204477E-1],"split_indices":[0,2,0,0,0,0,0,0,0,1,2,2,0,0,0,0,0,0,0,0,0,0,0,0,0,0,0],"split_type":[0,0,0,0,0,0,0,0,0,0,0,0,0,0,0,0,0,0,0,0,0,0,0,0,0,0,0],"sum_hessian":[2.644E3,1.583E3,1.061E3,7.04E2,8.79E2,8.08E2,2.53E2,1.87E2,5.17E2,4.35E2,4.44E2,2.8E2,5.28E2,2.08E2,4.5E1,3.3E1,1.54E2,2.5E2,2.67E2,2.12E2,2.23E2,2.37E2,2.07E2,1.76E2,1.04E2,2.31E2,2.97E2],"tree_param":{"num_deleted":"0","num_feature":"31","num_nodes":"27","size_leaf_vector":"1"}},{"base_weights":[1.4432457E-1,-5.7638855E0,7.9513445E0,-9.003941E0,-2.6202676E0,4.8467054E0,1.1514979E1,-1.3865395E1,-7.840277E0,-4.017428E0,-6.582701E-1,2.5130532E0,6.780835E0,1.01867285E1,1.9124285E1,-8.5687256E-1,-6.2553036E-1,-4.746348E-1,-3.5302296E-1,-2.5371948E-1,-1.630302E-1,3.442409E-3,-5.6119006E-2,1.4284876E-1,-1.926059E-1,2.6130193E-1,3.6895737E-1,4.5262906E-1,5.9072477E-1,1.0164067E0,6.07204E-1],"categories":[],"categories_nodes":[],"categories_segments":[],"categories_sizes":[],"default_left":[1,0,0,0,1,0,0,0,0,1,1,0,0,0,0,0,0,0,0,0,0,0,0,0,0,0,0,0,0,0,0],"id":21,"left_children":[1,3,5,7,9,11,13,15,17,19,21,23,25,27,29,-1,-1,-1,-1,-1,-1,-1,-1,-1,-1,-1,-1,-1,-1,-1,-1],"loss_changes":[1.1992574E5,1.5027348E4,1.2279828E4,3.9009453E3,2.0615952E3,2.6830977E3,4.866047E3,1.8294727E2,6.287969E2,3.1887988E2,1.0679285E2,6.262085E2,2.2799512E2,6.113164E2,1.365E2,0E0,0E0,0E0,0E0,0E0,0E0,0E0,0E0,0E0,0E0,0E0,0E0,0E0,0E0,0E0,0E0],"parents":[2147483647,0,0,1,1,2,2,3,3,4,4,5,5,6,6,7,7,8,8,9,9,10,10,11,11,12,12,13,13,14,14],"right_children":[2,4,6,8,10,12,14,16,18,20,22,24,26,28,30,-1,-1,-1,-1,-1,-1,-1,-1,-1,-1,-1,-1,-1,-1,-1,-1],"split_conditions":[7.460318E1,5.478E1,9.4828575E1,4.0910435E1,6.429318E1,8.5658264E1,1.1246273E2,2.904E1,4.6855713E1,5.92125E1,-5.8E-1,1.1625E2,-6.25E0,1.022625E2,1.06E3,-8.5687256E-1,-6.2553036E-1,-4.746348E-1,-3.5302296E-1,-2.5371948E-1,-1.630302E-1,3.442409E-3,-5.6119006E-2,1.4284876E-1,-1.926059E-1,2.6130193E-1,3.6895737E-1,4.5262906E-1,5.9072477E-1,1.0164067E0,6.07204E-1],"split_indices":[7,0,7,7,7,7,7,0,7,7,26,25,25,7,4,0,0,0,0,0,0,0,0,0,0,0,0,0,0,0,0],"split_type":[0,0,0,0,0,0,0,0,0,0,0,0,0,0,0,0,0,0,0,0,0,0,0,0,0,0,0,0,0,0,0],"sum_hessian":[2.596E3,1.478E3,1.118E3,7.26E2,7.52E2,6E2,5.18E2,1.36E2,5.9E2,4.38E2,3.14E2,2.74E2,3.26E2,4.45E2,7.3E1,3.3E1,1.03E2,1.82E2,4.08E2,1.78E2,2.6E2,1.23E2,1.91E2,2.61E2,1.3E1,9.6E1,2.3E2,2.7E2,1.75E2,5.9E1,1.4E1],"tree_param":{"num_deleted":"0","num_feature":"31","num_nodes":"31","size_leaf_vector":"1"}},{"base_weights":[9.1722794E-2,-5.5307193E0,7.4007354E0,-8.760276E0,-2.808102E0,5.298377E0,1.2443597E1,-1.1639533E1,-7.5913744E0,-4.125716E0,-9.545436E-1,2.1570992E0,6.941574E0,1.1219664E1,2.1290262E1,-7.17234E-1,-5.116782E-1,-4.424618E-1,-3.3648798E-1,-2.3910911E-1,-1.5678254E-1,-2.408283E-2,-1.1059592E-1,6.913354E-2,1.607395E-1,2.8752032E-1,3.9121327E-1,5.0204515E-1,6.642494E-1,4.9500033E-1,1.1208029E0],"categories":[],"categories_nodes":[],"categories_segments":[],"categories_sizes":[],"default_left":[0,0,0,0,0,0,0,0,0,0,1,0,0,0,0,0,0,0,0,0,0,0,0,0,0,0,0,0,0,0,0],"id":22,"left_children":[1,3,5,7,9,11,13,15,17,19,21,23,25,27,29,-1,-1,-1,-1,-1,-1,-1,-1,-1,-1,-1,-1,-1,-1,-1,-1],"loss_changes":[1.0680427E5,1.2867488E4,1.1848285E4,2.0815781E3,1.9459438E3,4.1046035E3,3.1062422E3,4.2904492E2,4.0436523E2,2.735332E2,1.9705896E2,2.1882129E2,4.6201562E2,4.5139844E2,4.34375E1,0E0,0E0,0E0,0E0,0E0,0E0,0E0,0E0,0E0,0E0,0E0,0E0,0E0,0E0,0E0,0E0],"parents":[2147483647,0,0,1,1,2,2,3,3,4,4,5,5,6,6,7,7,8,8,9,9,10,10,11,11,12,12,13,13,14,14],"right_children":[2,4,6,8,10,12,14,16,18,20,22,24,26,28,30,-1,-1,-1,-1,-1,-1,-1,-1,-1,-1,-1,-1,-1,-1,-1,-1],"split_conditions":[7.167E1,5.292E1,9.861E1,4.172E1,6.275E1,8.244E1,1.2404E2,3.211E1,4.667E1,5.893E1,8.875E1,7.725E1,9.136E1,1.055E2,-3.18E0,-7.17234E-1,-5.116782E-1,-4.424618E-1,-3.3648798E-1,-2.3910911E-1,-1.5678254E-1,-2.408283E-2,-1.1059592E-1,6.913354E-2,1.607395E-1,2.8752032E-1,3.9121327E-1,5.0204515E-1,6.642494E-1,4.9500033E-1,1.1208029E0],"split_indices":[2,2,2,2,2,2,2,2,2,2,25,2,2,2,24,0,0,0,0,0,0,0,0,0,0,0,0,0,0,0,0],"split_type":[0,0,0,0,0,0,0,0,0,0,0,0,0,0,0,0,0,0,0,0,0,0,0,0,0,0,0,0,0,0,0],"sum_hessian":[2.595E3,1.467E3,1.128E3,6.69E2,7.98E2,7.99E2,3.29E2,1.88E2,4.81E2,4.65E2,3.33E2,2.76E2,5.23E2,2.93E2,3.6E1,5.8E1,1.3E2,1.88E2,2.93E2,2.75E2,1.9E2,2.44E2,8.9E1,1.62E2,1.14E2,2.29E2,2.94E2,1.94E2,9.9E1,5E0,3.1E1],"tree_param":{"num_deleted":"0","num_feature":"31","num_nodes":"31","size_leaf_vector":"1"}},{"base_weights":[6.341558E-2,-4.955128E0,7.4364495E0,-7.779619E0,-1.8860366E0,4.5528846E0,1.0276931E1,-9.874085E0,-6.0474563E0,-3.1031027E0,1.8680266E-1,2.3415897E0,5.6918697E0,9.410847E0,9.535848E-1,-6.773121E-1,-4.4373235E-1,-3.3788994E-1,-2.6928648E-1,-1.8784508E-1,-9.528722E-2,3.408138E-2,-5.7510413E-2,3.319205E-2,1.3322042E-1,2.4222095E-1,3.3150482E-1,4.2511678E-1,5.603512E-1],"categories":[],"categories_nodes":[],"categories_segments":[],"categories_sizes":[],"default_left":[0,0,0,0,0,0,0,0,0,0,1,0,0,0,0,0,0,0,0,0,0,0,0,0,0,0,0,0,0],"id":23,"left_children":[1,3,5,7,9,11,13,15,17,19,21,23,25,27,-1,-1,-1,-1,-1,-1,-1,-1,-1,-1,-1,-1,-1,-1,-1],"loss_changes":[9.931277E4,1.3814449E4,8.809727E3,2.8954062E3,1.9386558E3,1.3409619E3,3.7999219E3,1.1285117E3,1.434336E2,3.645708E2,1.9078174E2,9.828491E1,2.1961328E2,6.269844E2,0E0,0E0,0E0,0E0,0E0,0E0,0E0,0E0,0E0,0E0,0E0,0E0,0E0,0E0,0E0],"parents":[2147483647,0,0,1,1,2,2,3,3,4,4,5,5,6,6,7,7,8,8,9,9,10,10,11,11,12,12,13,13],"right_children":[2,4,6,8,10,12,14,16,18,20,22,24,26,28,-1,-1,-1,-1,-1,-1,-1,-1,-1,-1,-1,-1,-1,-1,-1],"split_conditions":[7.565E1,5.699E1,9.495E1,4.737E1,6.8E1,8.324E1,1.223E2,3.466E1,5.159E1,6.315E1,5.25E1,-1.17E0,9.086E1,1.0358E2,9.535848E-1,-6.773121E-1,-4.4373235E-1,-3.3788994E-1,-2.6928648E-1,-1.8784508E-1,-9.528722E-2,3.408138E-2,-5.7510413E-2,3.319205E-2,1.3322042E-1,2.4222095E-1,3.3150482E-1,4.2511678E-1,5.603512E-1],"split_indices":[0,0,0,0,0,0,8,0,0,0,25,24,0,0,0,0,0,0,0,0,0,0,0,0,0,0,0,0,0],"split_type":[0,0,0,0,0,0,0,0,0,0,0,0,0,0,0,0,0,0,0,0,0,0,0,0,0,0,0,0,0],"sum_hessian":[2.68E3,1.595E3,1.085E3,8.29E2,7.66E2,5.41E2,5.44E2,3.71E2,4.58E2,4.82E2,2.84E2,1.86E2,3.55E2,4.99E2,4.5E1,7.4E1,2.97E2,2.12E2,2.46E2,3.09E2,1.73E2,2.08E2,7.6E1,3.1E1,1.55E2,1.93E2,1.62E2,3.39E2,1.6E2],"tree_param":{"num_deleted":"0","num_feature":"31","num_nodes":"29","size_leaf_vector":"1"}},{"base_weights":[-3.3893123E-2,-4.4823685E0,7.333108E0,-8.380258E0,-2.3069863E0,6.112539E0,1.2797817E1,-1.2363523E1,-7.483122E0,-3.865805E0,-1.1110461E-1,3.8300169E0,7.459473E0,1.154467E1,1.0968773E0,-8.285058E-1,-5.604487E-1,-4.3125662E-1,-3.303848E-1,-2.3095451E-1,-1.4392424E-1,7.988753E-2,-2.875718E-2,1.4638406E-1,2.3266576E-1,3.2339248E-1,4.1168952E-1,4.9449664E-1,6.428645E-1],"categories":[],"categories_nodes":[],"categories_segments":[],"categories_sizes":[],"default_left":[0,0,0,0,0,0,0,0,0,0,0,0,0,0,0,0,0,0,0,0,0,0,0,0,0,0,0,0,0],"id":24,"left_children":[1,3,5,7,9,11,13,15,17,19,21,23,25,27,-1,-1,-1,-1,-1,-1,-1,-1,-1,-1,-1,-1,-1,-1,-1],"loss_changes":[8.4781164E4,1.3638604E4,6.340176E3,1.8768945E3,3.5521953E3,2.4023867E3,1.5092793E3,1.2877539E2,3.6189453E2,4.248545E2,3.451962E2,1.9636377E2,2.7817383E2,9.1041016E1,0E0,0E0,0E0,0E0,0E0,0E0,0E0,0E0,0E0,0E0,0E0,0E0,0E0,0E0,0E0],"parents":[2147483647,0,0,1,1,2,2,3,3,4,4,5,5,6,6,7,7,8,8,9,9,10,10,11,11,12,12,13,13],"right_children":[2,4,6,8,10,12,14,16,18,20,22,24,26,28,-1,-1,-1,-1,-1,-1,-1,-1,-1,-1,-1,-1,-1,-1,-1],"split_conditions":[7.939E1,5.177875E1,1.04555214E2,3.8533638E1,6.429318E1,8.974316E1,1.3415E2,2.9678637E1,4.5865E1,5.92125E1,-8.6E-1,8.561E1,9.5349E1,1.06538635E2,1.0968773E0,-8.285058E-1,-5.604487E-1,-4.3125662E-1,-3.303848E-1,-2.3095451E-1,-1.4392424E-1,7.988753E-2,-2.875718E-2,1.4638406E-1,2.3266576E-1,3.2339248E-1,4.1168952E-1,4.9449664E-1,6.428645E-1],"split_indices":[1,7,7,7,7,7,1,7,7,7,26,7,7,7,0,0,0,0,0,0,0,0,0,0,0,0,0,0,0],"split_type":[0,0,0,0,0,0,0,0,0,0,0,0,0,0,0,0,0,0,0,0,0,0,0,0,0,0,0,0,0],"sum_hessian":[2.583E3,1.611E3,9.72E2,5.75E2,1.036E3,7.98E2,1.74E2,1.01E2,4.74E2,6.05E2,4.31E2,2.99E2,4.99E2,1.57E2,1.7E1,1.6E1,8.5E1,1.98E2,2.76E2,3.39E2,2.66E2,9.1E1,3.4E2,1.47E2,1.52E2,2.27E2,2.72E2,7.7E1,8E1],"tree_param":{"num_deleted":"0","num_feature":"31","num_nodes":"29","size_leaf_vector":"1"}},{"base_weights":[7.778576E-2,-4.5979705E0,6.6160307E0,-7.59064E0,-2.3267128E0,4.8372808E0,1.0885922E1,-1.0924765E1,-6.677234E0,-3.4432652E0,-3.2975313E-1,2.404807E0,6.257164E0,9.612399E0,1.7403927E1,-2.5329357E-1,-5.6026095E-1,-3.7932283E-1,-2.962814E-1,-2.271469E-1,-1.387285E-1,5.370364E-3,-1.3581078E-1,6.848619E-2,1.682965E-1,2.3667347E-1,3.3392194E-1,4.4164473E-1,5.965168E-1,8.887822E-1,2.1206856E-1],"categories":[],"categories_nodes":[],"categories_segments":[],"categories_sizes":[],"default_left":[0,0,0,0,1,0,0,0,0,1,1,0,0,0,0,0,0,0,0,0,0,0,0,0,0,0,0,0,0,0,0],"id":25,"left_children":[1,3,5,7,9,11,13,15,17,19,21,23,25,27,29,-1,-1,-1,-1,-1,-1,-1,-1,-1,-1,-1,-1,-1,-1,-1,-1],"loss_changes":[8.0432625E4,1.0391469E4,8.22648E3,1.8671211E3,1.9487256E3,2.6569805E3,2.3299844E3,1.1486914E2,2.681797E2,3.8731982E2,3.302558E2,2.7928357E2,2.5130469E2,2.825078E2,9.3850586E1,0E0,0E0,0E0,0E0,0E0,0E0,0E0,0E0,0E0,0E0,0E0,0E0,0E0,0E0,0E0,0E0],"parents":[2147483647,0,0,1,1,2,2,3,3,4,4,5,5,6,6,7,7,8,8,9,9,10,10,11,11,12,12,13,13,14,14],"right_children":[2,4,6,8,10,12,14,16,18,20,22,24,26,28,30,-1,-1,-1,-1,-1,-1,-1,-1,-1,-1,-1,-1,-1,-1,-1,-1],"split_conditions":[7.461E1,5.3501904E1,1.006705E2,4.0910435E1,6.6272385E1,8.642809E1,1.2545857E2,-8.309E4,4.737E1,5.8019524E1,1.0275E2,7.962631E1,8.974316E1,1.06538635E2,1.79E0,-2.5329357E-1,-5.6026095E-1,-3.7932283E-1,-2.962814E-1,-2.271469E-1,-1.387285E-1,5.370364E-3,-1.3581078E-1,6.848619E-2,1.682965E-1,2.3667347E-1,3.3392194E-1,4.4164473E-1,5.965168E-1,8.887822E-1,2.1206856E-1],"split_indices":[0,7,7,7,7,7,7,25,0,7,25,7,7,7,6,0,0,0,0,0,0,0,0,0,0,0,0,0,0,0,0],"split_type":[0,0,0,0,0,0,0,0,0,0,0,0,0,0,0,0,0,0,0,0,0,0,0,0,0,0,0,0,0,0,0],"sum_hessian":[2.627E3,1.532E3,1.095E3,6.59E2,8.73E2,7.76E2,3.19E2,1.37E2,5.22E2,5.59E2,3.14E2,2.88E2,4.88E2,2.71E2,4.8E1,8E0,1.29E2,2.28E2,2.94E2,2.07E2,3.52E2,2.67E2,4.7E1,1.41E2,1.47E2,1.11E2,3.77E2,2.1E2,6.1E1,4.6E1,2E0],"tree_param":{"num_deleted":"0","num_feature":"31","num_nodes":"31","size_leaf_vector":"1"}},{"base_weights":[4.6071373E-2,-4.3555803E0,6.4344063E0,-7.048253E0,-2.098629E0,4.868582E0,1.0612383E1,-1.060203E1,-6.177254E0,-3.7132988E0,-7.713235E-1,2.611427E0,5.9740043E0,9.634864E0,2.0085987E1,-7.532239E-1,-4.9183568E-1,-3.732954E-1,-2.7544785E-1,-1.4199464E-1,-2.3417298E-1,-8.361515E-2,-2.7501348E-3,6.516334E-2,1.6916919E-1,2.5610384E-1,3.4197125E-1,4.3004805E-1,5.822794E-1,1.0233983E0,1.8197466E-1],"categories":[],"categories_nodes":[],"categories_segments":[],"categories_sizes":[],"default_left":[0,0,0,0,1,0,0,0,0,1,0,0,0,0,0,0,0,0,0,0,0,0,0,0,0,0,0,0,0,0,0],"id":26,"left_children":[1,3,5,7,9,11,13,15,17,19,21,23,25,27,29,-1,-1,-1,-1,-1,-1,-1,-1,-1,-1,-1,-1,-1,-1,-1,-1],"loss_changes":[7.299732E4,9.311121E3,6.824621E3,2.0357539E3,1.7923833E3,1.9000117E3,2.270748E3,1.6467969E2,4.0604492E2,2.936958E2,2.9863168E2,2.517207E2,3.118457E2,3.4850195E2,8.069336E0,0E0,0E0,0E0,0E0,0E0,0E0,0E0,0E0,0E0,0E0,0E0,0E0,0E0,0E0,0E0,0E0],"parents":[2147483647,0,0,1,1,2,2,3,3,4,4,5,5,6,6,7,7,8,8,9,9,10,10,11,11,12,12,13,13,14,14],"right_children":[2,4,6,8,10,12,14,16,18,20,22,24,26,28,30,-1,-1,-1,-1,-1,-1,-1,-1,-1,-1,-1,-1,-1,-1,-1,-1],"split_conditions":[7.565E1,5.292E1,1.0190773E2,4.0910435E1,6.270524E1,8.642809E1,1.3415E2,2.9678637E1,4.6855713E1,3E-2,6.8E1,7.962631E1,9.475739E1,1.06538635E2,1.79E0,-7.532239E-1,-4.9183568E-1,-3.732954E-1,-2.7544785E-1,-1.4199464E-1,-2.3417298E-1,-8.361515E-2,-2.7501348E-3,6.516334E-2,1.6916919E-1,2.5610384E-1,3.4197125E-1,4.3004805E-1,5.822794E-1,1.0233983E0,1.8197466E-1],"split_indices":[0,2,7,7,7,7,1,7,7,26,0,7,7,7,6,0,0,0,0,0,0,0,0,0,0,0,0,0,0,0,0],"split_type":[0,0,0,0,0,0,0,0,0,0,0,0,0,0,0,0,0,0,0,0,0,0,0,0,0,0,0,0,0,0,0],"sum_hessian":[2.592E3,1.535E3,1.057E3,6.98E2,8.37E2,7.72E2,2.85E2,1.33E2,5.65E2,3.76E2,4.61E2,2.56E2,5.16E2,2.62E2,2.3E1,1.4E1,1.19E2,1.86E2,3.79E2,2.02E2,1.74E2,2.03E2,2.58E2,9.7E1,1.59E2,2.67E2,2.49E2,1.8E2,8.2E1,2.2E1,1E0],"tree_param":{"num_deleted":"0","num_feature":"31","num_nodes":"31","size_leaf_vector":"1"}},{"base_weights":[9.722643E-2,-4.0673957E0,6.0036573E0,-6.3533373E0,-1.5392482E0,4.150129E0,9.356043E0,-8.960141E0,-5.3686085E0,-2.6029396E0,-1.6110796E-1,2.3253975E0,5.4491377E0,8.398969E0,1.6555216E1,-5.478679E-1,-3.8570198E-1,-3.2197818E-1,-2.3365729E-1,-1.6294686E-1,-9.5605865E-2,6.6495123E-3,-8.616569E-2,6.180423E-2,1.399599E-1,2.0352355E-1,2.8528684E-1,1.319694E-1,4.2429247E-1,5.9653896E-1,9.4651747E-1],"categories":[],"categories_nodes":[],"categories_segments":[],"categories_sizes":[],"default_left":[0,0,0,0,0,0,0,0,0,0,1,0,0,0,0,0,0,0,0,0,0,0,0,0,0,0,0,0,0,0,0],"id":27,"left_children":[1,3,5,7,9,11,13,15,17,19,21,23,25,27,29,-1,-1,-1,-1,-1,-1,-1,-1,-1,-1,-1,-1,-1,-1,-1,-1],"loss_changes":[6.4421945E4,8.857289E3,6.651828E3,1.9727871E3,1.0722118E3,1.6362666E3,2.3677227E3,3.7349414E2,3.7925195E2,1.746997E2,1.4793924E2,1.4533447E2,9.788574E1,1.2683984E2,2.0588867E1,0E0,0E0,0E0,0E0,0E0,0E0,0E0,0E0,0E0,0E0,0E0,0E0,0E0,0E0,0E0,0E0],"parents":[2147483647,0,0,1,1,2,2,3,3,4,4,5,5,6,6,7,7,8,8,9,9,10,10,11,11,12,12,13,13,14,14],"right_children":[2,4,6,8,10,12,14,16,18,20,22,24,26,28,30,-1,-1,-1,-1,-1,-1,-1,-1,-1,-1,-1,-1,-1,-1,-1,-1],"split_conditions":[7.502E1,5.715E1,9.97E1,4.365E1,6.651E1,8.688E1,1.223E2,3.466E1,4.882E1,6.137E1,9.925E1,7.886E1,8.941E1,-7.075E1,1.3415E2,-5.478679E-1,-3.8570198E-1,-3.2197818E-1,-2.3365729E-1,-1.6294686E-1,-9.5605865E-2,6.6495123E-3,-8.616569E-2,6.180423E-2,1.399599E-1,2.0352355E-1,2.8528684E-1,1.319694E-1,4.2429247E-1,5.9653896E-1,9.4651747E-1],"split_indices":[0,0,1,0,0,0,8,0,0,0,25,0,0,25,1,0,0,0,0,0,0,0,0,0,0,0,0,0,0,0,0],"split_type":[0,0,0,0,0,0,0,0,0,0,0,0,0,0,0,0,0,0,0,0,0,0,0,0,0,0,0,0,0,0,0],"sum_hessian":[2.615E3,1.534E3,1.081E3,8.04E2,7.3E2,6.99E2,3.82E2,2.16E2,5.88E2,4.11E2,3.19E2,2.93E2,4.06E2,3.41E2,4.1E1,7.7E1,1.39E2,2.25E2,3.63E2,2.07E2,2.04E2,2.7E2,4.9E1,9.1E1,2.02E2,6.9E1,3.37E2,6E0,3.35E2,1.8E1,2.3E1],"tree_param":{"num_deleted":"0","num_feature":"31","num_nodes":"31","size_leaf_vector":"1"}},{"base_weights":[-1.5520505E-2,-4.166658E0,5.3580875E0,-6.837315E0,-2.3240268E0,3.008146E0,8.018257E0,-1.0173214E1,-6.0354614E0,-3.434591E0,-8.9811677E-1,1.0837839E0,4.001378E0,7.1961436E0,1.3254683E1,-7.194272E-1,-4.5854488E-1,-3.4738225E-1,-2.7112722E-1,-1.4260213E-1,-2.0789269E-1,-6.1654795E-2,1.0619227E-2,7.928083E-2,-2.0243132E-1,1.3110991E-1,2.3252563E-1,3.2298765E-1,4.2457637E-1,2.7114615E-2,6.71284E-1],"categories":[],"categories_nodes":[],"categories_segments":[],"categories_sizes":[],"default_left":[1,0,0,0,1,0,0,0,0,1,0,1,0,0,0,0,0,0,0,0,0,0,0,0,0,0,0,0,0,0,0],"id":28,"left_children":[1,3,5,7,9,11,13,15,17,19,21,23,25,27,29,-1,-1,-1,-1,-1,-1,-1,-1,-1,-1,-1,-1,-1,-1,-1,-1],"loss_changes":[5.7528715E4,7.128326E3,6.9781543E3,1.463416E3,1.3620312E3,1.1381294E3,2.073629E3,2.0929883E2,1.9469531E2,1.8063086E2,1.4225378E2,5.459908E2,3.2924414E2,3.2813867E2,1.3542969E2,0E0,0E0,0E0,0E0,0E0,0E0,0E0,0E0,0E0,0E0,0E0,0E0,0E0,0E0,0E0,0E0],"parents":[2147483647,0,0,1,1,2,2,3,3,4,4,5,5,6,6,7,7,8,8,9,9,10,10,11,11,12,12,13,13,14,14],"right_children":[2,4,6,8,10,12,14,16,18,20,22,24,26,28,30,-1,-1,-1,-1,-1,-1,-1,-1,-1,-1,-1,-1,-1,-1,-1,-1],"split_conditions":[7.4150475E1,5.177875E1,9.475739E1,3.8533638E1,6.270524E1,8.129E1,1.1246273E2,2.9678637E1,4.5865E1,8E-2,3.8273E4,1.1625E2,-7.5E0,1.0298131E2,1.043E3,-7.194272E-1,-4.5854488E-1,-3.4738225E-1,-2.7112722E-1,-1.4260213E-1,-2.0789269E-1,-6.1654795E-2,1.0619227E-2,7.928083E-2,-2.0243132E-1,1.3110991E-1,2.3252563E-1,3.2298765E-1,4.2457637E-1,2.7114615E-2,6.71284E-1],"split_indices":[7,7,7,7,7,7,7,7,7,26,25,25,25,7,5,0,0,0,0,0,0,0,0,0,0,0,0,0,0,0,0],"split_type":[0,0,0,0,0,0,0,0,0,0,0,0,0,0,0,0,0,0,0,0,0,0,0,0,0,0,0,0,0,0,0],"sum_hessian":[2.575E3,1.453E3,1.122E3,5.91E2,8.62E2,5.98E2,5.24E2,1.1E2,4.81E2,4.83E2,3.79E2,2.05E2,3.93E2,4.57E2,6.7E1,1.6E1,9.4E1,1.85E2,2.96E2,2.73E2,2.1E2,2.91E2,8.8E1,1.88E2,1.7E1,1.29E2,2.64E2,2.99E2,1.58E2,1E0,6.6E1],"tree_param":{"num_deleted":"0","num_feature":"31","num_nodes":"31","size_leaf_vector":"1"}},{"base_weights":[-7.43752E-2,-3.9763663E0,5.1622725E0,-6.59306E0,-2.2074254E0,2.7472475E0,7.424675E0,-1.0077634E1,-5.773022E0,-3.2634397E0,-8.723349E-1,1.5305227E0,4.0358806E0,6.4558773E0,1.2491189E1,-6.995272E-1,-4.5153412E-1,-3.4577358E-1,-2.6032612E-1,-7.7028364E-2,-1.7116377E-1,-7.700424E-2,-1.1110953E-2,8.4599376E-2,-1.8716207E-1,1.7636578E-1,2.3703375E-1,2.9091534E-1,3.7967208E-1,5.276422E-1,8.610018E-1],"categories":[],"categories_nodes":[],"categories_segments":[],"categories_sizes":[],"default_left":[0,0,0,0,1,0,0,0,0,1,0,1,0,0,0,0,0,0,0,0,0,0,0,0,0,0,0,0,0,0,0],"id":29,"left_children":[1,3,5,7,9,11,13,15,17,19,21,23,25,27,29,-1,-1,-1,-1,-1,-1,-1,-1,-1,-1,-1,-1,-1,-1,-1,-1],"loss_changes":[5.3310805E4,6.890914E3,6.045834E3,1.6038477E3,1.2561436E3,8.3745435E2,2.6561582E3,2.0613379E2,2.4641016E2,1.26865234E2,1.7209317E2,2.5279779E2,6.046582E1,2.641211E2,4.615127E2,0E0,0E0,0E0,0E0,0E0,0E0,0E0,0E0,0E0,0E0,0E0,0E0,0E0,0E0,0E0,0E0],"parents":[2147483647,0,0,1,1,2,2,3,3,4,4,5,5,6,6,7,7,8,8,9,9,10,10,11,11,12,12,13,13,14,14],"right_children":[2,4,6,8,10,12,14,16,18,20,22,24,26,28,30,-1,-1,-1,-1,-1,-1,-1,-1,-1,-1,-1,-1,-1,-1,-1,-1],"split_conditions":[7.351E1,5.177875E1,9.345E1,3.8533638E1,6.270524E1,8.561E1,1.100385E2,2.9678637E1,4.5170433E1,-2.02E0,6.8E1,1.3075E2,9.17425E1,1.022625E2,1.3104E2,-6.995272E-1,-4.5153412E-1,-3.4577358E-1,-2.6032612E-1,-7.7028364E-2,-1.7116377E-1,-7.700424E-2,-1.1110953E-2,8.4599376E-2,-1.8716207E-1,1.7636578E-1,2.3703375E-1,2.9091534E-1,3.7967208E-1,5.276422E-1,8.610018E-1],"split_indices":[0,7,0,7,7,7,7,7,7,26,0,25,7,7,0,0,0,0,0,0,0,0,0,0,0,0,0,0,0,0,0],"split_type":[0,0,0,0,0,0,0,0,0,0,0,0,0,0,0,0,0,0,0,0,0,0,0,0,0,0,0,0,0,0,0],"sum_hessian":[2.605E3,1.493E3,1.112E3,6E2,8.93E2,5.4E2,5.72E2,1.1E2,4.9E2,4.97E2,3.96E2,2.8E2,2.6E2,4.84E2,8.8E1,1.8E1,9.2E1,1.55E2,3.35E2,4.4E1,4.53E2,1.94E2,2.02E2,2.73E2,7E0,1.58E2,1.02E2,3.18E2,1.66E2,6.7E1,2.1E1],"tree_param":{"num_deleted":"0","num_feature":"31","num_nodes":"31","size_leaf_vector":"1"}},{"base_weights":[-8.8081114E-2,-3.4391356E0,5.555439E0,-5.8015604E0,-1.3668822E0,4.9286103E0,1.2971029E1,-7.9329085E0,-4.951156E0,-2.2750063E0,1.7529605E-1,3.068967E0,6.112232E0,9.495911E0,1.5249292E1,-5.3004825E-1,-3.5534003E-1,-2.861545E-1,-2.2010802E-1,-7.8767404E-2,-1.4284407E-1,7.558965E-2,-1.523228E-2,8.131009E-2,1.8675886E-1,2.5664827E-1,3.454587E-1,5.008234E-1,1.1829933E-1,7.919996E-1,3.2125512E-1],"categories":[],"categories_nodes":[],"categories_segments":[],"categories_sizes":[],"default_left":[0,0,0,0,0,0,0,0,0,1,0,0,0,0,0,0,0,0,0,0,0,0,0,0,0,0,0,0,0,0,0],"id":30,"left_children":[1,3,5,7,9,11,13,15,17,19,21,23,25,27,29,-1,-1,-1,-1,-1,-1,-1,-1,-1,-1,-1,-1,-1,-1,-1,-1],"loss_changes":[4.964371E4,8.0470977E3,4.4181875E3,1.3152637E3,1.233228E3,1.9544902E3,3.0418066E2,3.254082E2,1.8481445E2,2.165398E2,2.1131361E2,3.3003345E2,3.5907812E2,8.250586E1,1.5375977E1,0E0,0E0,0E0,0E0,0E0,0E0,0E0,0E0,0E0,0E0,0E0,0E0,0E0,0E0,0E0,0E0],"parents":[2147483647,0,0,1,1,2,2,3,3,4,4,5,5,6,6,7,7,8,8,9,9,10,10,11,11,12,12,13,13,14,14],"right_children":[2,4,6,8,10,12,14,16,18,20,22,24,26,28,30,-1,-1,-1,-1,-1,-1,-1,-1,-1,-1,-1,-1,-1,-1,-1,-1],"split_conditions":[7.939E1,5.388E1,1.103E2,4.241E1,6.801E1,9.136E1,1.223E2,2.936E1,4.761E1,-2.4E-1,-7.6E-1,8.244E1,9.97E1,5.2E0,5.45E1,-5.3004825E-1,-3.5534003E-1,-2.861545E-1,-2.2010802E-1,-7.8767404E-2,-1.4284407E-1,7.558965E-2,-1.523228E-2,8.131009E-2,1.8675886E-1,2.5664827E-1,3.454587E-1,5.008234E-1,1.1829933E-1,7.919996E-1,3.2125512E-1],"split_indices":[1,2,2,2,8,2,8,2,2,26,26,2,1,11,25,0,0,0,0,0,0,0,0,0,0,0,0,0,0,0,0],"split_type":[0,0,0,0,0,0,0,0,0,0,0,0,0,0,0,0,0,0,0,0,0,0,0,0,0,0,0,0,0,0,0],"sum_hessian":[2.621E3,1.645E3,9.76E2,7.67E2,8.78E2,9.03E2,7.3E1,2.14E2,5.53E2,5.52E2,3.26E2,3.54E2,5.49E2,3.3E1,4E1,4.5E1,1.69E2,2.22E2,3.31E2,2.54E2,2.98E2,8.5E1,2.41E2,1.14E2,2.4E2,2.53E2,2.96E2,3E1,3E0,3.6E1,4E0],"tree_param":{"num_deleted":"0","num_feature":"31","num_nodes":"31","size_leaf_vector":"1"}},{"base_weights":[-2.4583872E-2,-3.3870459E0,4.845995E0,-5.453138E0,-1.4740428E0,3.5966177E0,7.642781E0,-8.610494E0,-4.7491603E0,-2.648083E0,-6.0608166E-1,1.8652012E0,4.4169555E0,6.515853E0,1.0478082E1,-6.2228227E-1,-3.9169326E-1,-2.8396836E-1,-2.0736606E-1,-9.5028564E-2,-1.6824016E-1,-5.133706E-2,1.0178717E-2,-1.1945259E-1,1.0637871E-1,1.6890872E-1,2.396109E-1,3.3186123E-1,-2.1503003E-2,1.2111029E-2,5.293824E-1],"categories":[],"categories_nodes":[],"categories_segments":[],"categories_sizes":[],"default_left":[1,0,0,0,1,0,0,0,0,1,0,0,0,0,0,0,0,0,0,0,0,0,0,0,0,0,0,0,0,0,0],"id":31,"left_children":[1,3,5,7,9,11,13,15,17,19,21,23,25,27,29,-1,-1,-1,-1,-1,-1,-1,-1,-1,-1,-1,-1,-1,-1,-1,-1],"loss_changes":[4.2826285E4,6.0983477E3,3.676871E3,1.5696875E3,8.181211E2,1.0374209E3,9.1147266E2,2.0114355E2,2.9551074E2,1.7043848E2,1.5913272E2,2.8028625E2,1.6330957E2,2.0803809E2,9.580664E1,0E0,0E0,0E0,0E0,0E0,0E0,0E0,0E0,0E0,0E0,0E0,0E0,0E0,0E0,0E0,0E0],"parents":[2147483647,0,0,1,1,2,2,3,3,4,4,5,5,6,6,7,7,8,8,9,9,10,10,11,11,12,12,13,13,14,14],"right_children":[2,4,6,8,10,12,14,16,18,20,22,24,26,28,30,-1,-1,-1,-1,-1,-1,-1,-1,-1,-1,-1,-1,-1,-1,-1,-1],"split_conditions":[7.554857E1,5.415E1,9.861E1,4.0910435E1,6.270524E1,8.5658264E1,1.100385E2,2.9678637E1,4.737E1,-1E-1,7.096091E1,-4.93E0,8.974316E1,2.04E0,1.043E3,-6.2228227E-1,-3.9169326E-1,-2.8396836E-1,-2.0736606E-1,-9.5028564E-2,-1.6824016E-1,-5.133706E-2,1.0178717E-2,-1.1945259E-1,1.0637871E-1,1.6890872E-1,2.396109E-1,3.3186123E-1,-2.1503003E-2,1.2111029E-2,5.293824E-1],"split_indices":[7,2,2,7,7,7,7,7,0,26,7,6,7,26,5,0,0,0,0,0,0,0,0,0,0,0,0,0,0,0,0],"split_type":[0,0,0,0,0,0,0,0,0,0,0,0,0,0,0,0,0,0,0,0,0,0,0,0,0,0,0,0,0,0,0],"sum_hessian":[2.611E3,1.545E3,1.066E3,7.41E2,8.04E2,7.4E2,3.26E2,1.31E2,6.1E2,3.4E2,4.64E2,2.4E2,5E2,2.38E2,8.8E1,1.7E1,1.14E2,2.33E2,3.77E2,1.7E2,1.7E2,3.05E2,1.59E2,1.3E1,2.27E2,1.38E2,3.62E2,2.34E2,4E0,1E0,8.7E1],"tree_param":{"num_deleted":"0","num_feature":"31","num_nodes":"31","size_leaf_vector":"1"}},{"base_weights":[-6.85744E-2,-2.954574E0,5.072836E0,-4.9463406E0,-7.7888185E-1,4.21919E0,8.907246E0,-7.5643134E0,-4.1948104E0,-1.6142203E0,2.4305743E-1,3.3459628E0,5.306452E0,3.8734648E-1,1.2499551E1,-6.1165696E-1,-3.4854814E-1,-2.3928039E-1,-1.640076E-1,-1.14590384E-1,-5.9825104E-2,-1.3596104E-1,2.5868261E-2,1.696937E-1,-1.7447138E-1,2.201064E-1,3.1770962E-1,6.4363325E-1,1.4458752E-1],"categories":[],"categories_nodes":[],"categories_segments":[],"categories_sizes":[],"default_left":[1,1,0,0,0,0,0,0,0,0,0,0,0,0,0,0,0,0,0,0,0,0,0,0,0,0,0,0,0],"id":32,"left_children":[1,3,5,7,9,11,13,15,17,19,21,23,25,-1,27,-1,-1,-1,-1,-1,-1,-1,-1,-1,-1,-1,-1,-1,-1],"loss_changes":[3.871293E4,7.2335225E3,2.995125E3,1.6521855E3,6.8457043E2,6.964971E2,5.1076172E2,3.6133398E2,3.3714258E2,1.1933667E2,2.9696616E2,1.6548926E2,2.6620605E2,0E0,6.1773438E1,0E0,0E0,0E0,0E0,0E0,0E0,0E0,0E0,0E0,0E0,0E0,0E0,0E0,0E0],"parents":[2147483647,0,0,1,1,2,2,3,3,4,4,5,5,6,6,7,7,8,8,9,9,10,10,11,11,12,12,14,14],"right_children":[2,4,6,8,10,12,14,16,18,20,22,24,26,-1,28,-1,-1,-1,-1,-1,-1,-1,-1,-1,-1,-1,-1,-1,-1],"split_conditions":[7.962631E1,5.8019524E1,1.04555214E2,4.2889046E1,6.75E1,9.345E1,1.2054E2,2.9678637E1,5.177875E1,6.185E1,-3.22E0,9.775E1,1.115E3,3.8734648E-1,1.26E0,-6.1165696E-1,-3.4854814E-1,-2.3928039E-1,-1.640076E-1,-1.14590384E-1,-5.9825104E-2,-1.3596104E-1,2.5868261E-2,1.696937E-1,-1.7447138E-1,2.201064E-1,3.1770962E-1,6.4363325E-1,1.4458752E-1],"split_indices":[7,7,7,7,2,2,2,7,7,1,6,1,5,0,6,0,0,0,0,0,0,0,0,0,0,0,0,0,0],"split_type":[0,0,0,0,0,0,0,0,0,0,0,0,0,0,0,0,0,0,0,0,0,0,0,0,0,0,0,0,0],"sum_hessian":[2.605E3,1.669E3,9.36E2,8.7E2,7.99E2,7.69E2,1.67E2,1.9E2,6.8E2,4.39E2,3.6E2,4.31E2,3.38E2,1.31E2,3.6E1,1.7E1,1.73E2,4.08E2,2.72E2,1.64E2,2.75E2,2.9E1,3.31E2,4.29E2,2E0,1.87E2,1.51E2,3.4E1,2E0],"tree_param":{"num_deleted":"0","num_feature":"31","num_nodes":"29","size_leaf_vector":"1"}},{"base_weights":[-3.405091E-2,-3.2915835E0,4.2949085E0,-5.3841286E0,-1.7883406E0,3.0005887E0,6.847031E0,-7.6249046E0,-4.6616044E0,-2.5070415E0,-4.992955E-1,1.5178045E0,3.9235582E0,6.010312E0,1.1735263E1,-5.669948E-1,-3.551516E-1,-2.2633044E-1,-3.8005143E-1,-1.5160097E-1,-8.882865E-2,-4.1795865E-2,7.1621807E-3,8.767991E-2,-1.2444693E-1,1.4932477E-1,2.1588929E-1,-4.360285E-2,3.0290896E-1,4.7381908E-1,7.5373E-1],"categories":[],"categories_nodes":[],"categories_segments":[],"categories_sizes":[],"default_left":[1,0,0,0,1,0,0,0,0,1,0,1,0,0,0,0,0,0,0,0,0,0,0,0,0,0,0,0,0,0,0],"id":33,"left_children":[1,3,5,7,9,11,13,15,17,19,21,23,25,27,29,-1,-1,-1,-1,-1,-1,-1,-1,-1,-1,-1,-1,-1,-1,-1,-1],"loss_changes":[3.6946594E4,4.683421E3,3.67508E3,9.391758E2,8.062766E2,1.0145137E3,1.4008926E3,1.2777832E2,1.2046387E2,2.0397534E2,6.837167E1,2.8365558E2,1.4451074E2,1.17961914E2,1.1408252E2,0E0,0E0,0E0,0E0,0E0,0E0,0E0,0E0,0E0,0E0,0E0,0E0,0E0,0E0,0E0,0E0],"parents":[2147483647,0,0,1,1,2,2,3,3,4,4,5,5,6,6,7,7,8,8,9,9,10,10,11,11,12,12,13,13,14,14],"right_children":[2,4,6,8,10,12,14,16,18,20,22,24,26,28,30,-1,-1,-1,-1,-1,-1,-1,-1,-1,-1,-1,-1,-1,-1,-1,-1],"split_conditions":[7.44365E1,5.117E1,9.995E1,4.0910435E1,6.3923332E1,8.5658264E1,1.2545857E2,2.9678637E1,4.75E0,5.92125E1,1.64E0,1.27E2,8.974316E1,-4.96E0,1.3401572E2,-5.669948E-1,-3.551516E-1,-2.2633044E-1,-3.8005143E-1,-1.5160097E-1,-8.882865E-2,-4.1795865E-2,7.1621807E-3,8.767991E-2,-1.2444693E-1,1.4932477E-1,2.1588929E-1,-4.360285E-2,3.0290896E-1,4.7381908E-1,7.5373E-1],"split_indices":[7,2,1,7,7,7,7,7,11,7,24,25,7,6,7,0,0,0,0,0,0,0,0,0,0,0,0,0,0,0,0],"split_type":[0,0,0,0,0,0,0,0,0,0,0,0,0,0,0,0,0,0,0,0,0,0,0,0,0,0,0,0,0,0,0],"sum_hessian":[2.616E3,1.493E3,1.123E3,6.22E2,8.71E2,7.48E2,3.75E2,1.47E2,4.75E2,5.58E2,3.13E2,2.89E2,4.59E2,3.24E2,5.1E1,1.3E1,1.34E2,4.59E2,1.6E1,3.21E2,2.37E2,2.05E2,1.08E2,2.74E2,1.5E1,1.41E2,3.18E2,2E0,3.22E2,3.5E1,1.6E1],"tree_param":{"num_deleted":"0","num_feature":"31","num_nodes":"31","size_leaf_vector":"1"}},{"base_weights":[1.4430943E-1,-2.9625864E0,4.422911E0,-4.4176207E0,-1.060906E0,3.3902042E0,8.008897E0,-6.6286464E0,-3.6582568E0,-2.2493014E0,-5.476419E-1,1.9772992E0,4.3383856E0,6.946353E0,1.3774719E1,-5.4710144E-1,-3.0934438E-1,-2.1485749E-1,-1.6096023E-1,-8.062283E-2,-1.6490887E-1,-3.4362566E-2,1.0550344E-1,-1.056458E-1,1.0832479E-1,2.954079E-1,2.0461123E-1,2.0491445E-1,3.6571237E-1,1.6086273E-1,7.10979E-1],"categories":[],"categories_nodes":[],"categories_segments":[],"categories_sizes":[],"default_left":[1,1,0,0,0,0,0,0,0,1,1,0,0,0,0,0,0,0,0,0,0,0,0,0,0,0,0,0,0,0,0],"id":34,"left_children":[1,3,5,7,9,11,13,15,17,19,21,23,25,27,29,-1,-1,-1,-1,-1,-1,-1,-1,-1,-1,-1,-1,-1,-1,-1,-1],"loss_changes":[3.384403E4,4.0719648E3,3.9119043E3,1.3534424E3,3.8913116E2,1.1014854E3,1.2667266E3,2.6666113E2,1.4793164E2,1.18282104E2,1.7024002E2,2.7149182E2,1.4408105E2,1.5484473E2,7.2884766E1,0E0,0E0,0E0,0E0,0E0,0E0,0E0,0E0,0E0,0E0,0E0,0E0,0E0,0E0,0E0,0E0],"parents":[2147483647,0,0,1,1,2,2,3,3,4,4,5,5,6,6,7,7,8,8,9,9,10,10,11,11,12,12,13,13,14,14],"right_children":[2,4,6,8,10,12,14,16,18,20,22,24,26,28,30,-1,-1,-1,-1,-1,-1,-1,-1,-1,-1,-1,-1,-1,-1,-1,-1],"split_conditions":[7.554857E1,5.8019524E1,1.0298131E2,4.479913E1,6.171E1,8.941E1,1.2629E2,2.9678637E1,4.938E1,7E-2,3.8273E4,-4.93E0,1.005E3,-1.4E0,-3.8503136E-2,-5.4710144E-1,-3.0934438E-1,-2.1485749E-1,-1.6096023E-1,-8.062283E-2,-1.6490887E-1,-3.4362566E-2,1.0550344E-1,-1.056458E-1,1.0832479E-1,2.954079E-1,2.0461123E-1,2.0491445E-1,3.6571237E-1,1.6086273E-1,7.10979E-1],"split_indices":[7,7,7,7,0,0,0,7,0,26,25,6,4,26,18,0,0,0,0,0,0,0,0,0,0,0,0,0,0,0,0],"split_type":[0,0,0,0,0,0,0,0,0,0,0,0,0,0,0,0,0,0,0,0,0,0,0,0,0,0,0,0,0,0,0],"sum_hessian":[2.542E3,1.473E3,1.069E3,8.33E2,6.4E2,8.33E2,2.36E2,2.09E2,6.24E2,1.91E2,4.49E2,3.37E2,4.96E2,2.03E2,3.3E1,1.5E1,1.94E2,2.47E2,3.77E2,1.22E2,6.9E1,4.28E2,2.1E1,1.4E1,3.23E2,6.1E1,4.35E2,2.6E1,1.77E2,2E0,3.1E1],"tree_param":{"num_deleted":"0","num_feature":"31","num_nodes":"31","size_leaf_vector":"1"}},{"base_weights":[-2.1665832E-3,-2.7665946E0,4.0528555E0,-4.8428946E0,-1.4400735E0,2.5274441E0,5.951281E0,-7.611976E0,-4.308093E0,-2.176908E0,-1.5133761E-1,1.3181914E0,3.3171024E0,5.51881E0,1.3510117E1,-4.450069E-1,-2.82012E-1,-2.5587317E-1,-1.8936159E-1,-1.3422377E-1,-7.7804916E-2,-6.9311925E-4,-8.8982336E-2,-1.6873096E-1,7.9986125E-2,1.1175852E-1,1.8768165E-1,2.5201508E-1,3.7939796E-1,1.5684108E-1,7.0839894E-1],"categories":[],"categories_nodes":[],"categories_segments":[],"categories_sizes":[],"default_left":[0,0,0,0,0,0,0,0,0,0,0,0,0,0,0,0,0,0,0,0,0,0,0,0,0,0,0,0,0,0,0],"id":35,"left_children":[1,3,5,7,9,11,13,15,17,19,21,23,25,27,29,-1,-1,-1,-1,-1,-1,-1,-1,-1,-1,-1,-1,-1,-1,-1,-1],"loss_changes":[2.9201578E4,4.2523945E3,3.0279688E3,8.2740137E2,8.995477E2,5.536892E2,1.3840332E3,1.4089453E2,1.7623828E2,1.8165259E2,7.762735E1,3.225935E2,1.5088525E2,3.6608594E2,7.489551E1,0E0,0E0,0E0,0E0,0E0,0E0,0E0,0E0,0E0,0E0,0E0,0E0,0E0,0E0,0E0,0E0],"parents":[2147483647,0,0,1,1,2,2,3,3,4,4,5,5,6,6,7,7,8,8,9,9,10,10,11,11,12,12,13,13,14,14],"right_children":[2,4,6,8,10,12,14,16,18,20,22,24,26,28,30,-1,-1,-1,-1,-1,-1,-1,-1,-1,-1,-1,-1,-1,-1,-1,-1],"split_conditions":[7.554857E1,5.117E1,9.5349E1,3.796091E1,6.429318E1,8.5658264E1,1.2863E2,-7.4E1,4.5443043E1,5.92125E1,1.136E3,-4.93E0,4.75E0,1.06538635E2,-3.8503136E-2,-4.450069E-1,-2.82012E-1,-2.5587317E-1,-1.8936159E-1,-1.3422377E-1,-7.7804916E-2,-6.9311925E-4,-8.8982336E-2,-1.6873096E-1,7.9986125E-2,1.1175852E-1,1.8768165E-1,2.5201508E-1,3.7939796E-1,1.5684108E-1,7.0839894E-1],"split_indices":[7,2,7,7,7,7,2,25,7,7,5,6,25,7,18,0,0,0,0,0,0,0,0,0,0,0,0,0,0,0,0],"split_type":[0,0,0,0,0,0,0,0,0,0,0,0,0,0,0,0,0,0,0,0,0,0,0,0,0,0,0,0,0,0,0],"sum_hessian":[2.601E3,1.547E3,1.054E3,6.01E2,9.46E2,5.87E2,4.67E2,9.3E1,5.08E2,6.01E2,3.45E2,2.34E2,3.53E2,4.45E2,2.2E1,5.2E1,4.1E1,1.92E2,3.16E2,3.27E2,2.74E2,3.2E2,2.5E1,1.2E1,2.22E2,1.05E2,2.48E2,3.67E2,7.8E1,2E0,2E1],"tree_param":{"num_deleted":"0","num_feature":"31","num_nodes":"31","size_leaf_vector":"1"}},{"base_weights":[-2.8980188E-2,-2.3842692E0,4.229892E0,-3.9140265E0,-7.625446E-1,3.6572087E0,8.846667E0,-6.1703243E0,-3.3221767E0,-1.6102867E0,1.9237107E-1,2.5200334E0,4.4336624E0,7.6362042E0,1.2499131E1,-4.494341E-1,-2.7364272E-1,-2.1010934E-1,-1.4695592E-1,-1.1388415E-1,-5.298416E-2,2.1302817E-2,-7.9868995E-2,8.676948E-2,1.524642E-1,-8.2848586E-2,2.2389935E-1,-5.5141736E-2,3.9426827E-1,8.164241E-2,6.4305323E-1],"categories":[],"categories_nodes":[],"categories_segments":[],"categories_sizes":[],"default_left":[1,1,0,0,0,0,0,0,0,0,1,0,0,0,0,0,0,0,0,0,0,0,0,0,0,0,0,0,0,0,0],"id":36,"left_children":[1,3,5,7,9,11,13,15,17,19,21,23,25,27,29,-1,-1,-1,-1,-1,-1,-1,-1,-1,-1,-1,-1,-1,-1,-1,-1],"loss_changes":[2.6140566E4,4.1568877E3,2.388875E3,1.1114434E3,6.6199927E2,7.0963086E2,2.5564697E2,2.4954492E2,2.0722021E2,1.542876E2,1.6280118E2,1.3102466E2,1.471211E2,1.9376416E2,4.4522705E1,0E0,0E0,0E0,0E0,0E0,0E0,0E0,0E0,0E0,0E0,0E0,0E0,0E0,0E0,0E0,0E0],"parents":[2147483647,0,0,1,1,2,2,3,3,4,4,5,5,6,6,7,7,8,8,9,9,10,10,11,11,12,12,13,13,14,14],"right_children":[2,4,6,8,10,12,14,16,18,20,22,24,26,28,30,-1,-1,-1,-1,-1,-1,-1,-1,-1,-1,-1,-1,-1,-1,-1,-1],"split_conditions":[7.962631E1,5.8019524E1,1.06538635E2,4.2042274E1,6.8E1,9.331E1,1.3104E2,2.904E1,4.764E1,4.925E1,8.875E1,8.642809E1,-1.5175E2,-1.75E0,-5.31E0,-4.494341E-1,-2.7364272E-1,-2.1010934E-1,-1.4695592E-1,-1.1388415E-1,-5.298416E-2,2.1302817E-2,-7.9868995E-2,8.676948E-2,1.524642E-1,-8.2848586E-2,2.2389935E-1,-5.5141736E-2,3.9426827E-1,8.164241E-2,6.4305323E-1],"split_indices":[7,7,7,7,0,0,0,0,0,25,25,7,25,26,9,0,0,0,0,0,0,0,0,0,0,0,0,0,0,0,0],"split_type":[0,0,0,0,0,0,0,0,0,0,0,0,0,0,0,0,0,0,0,0,0,0,0,0,0,0,0,0,0,0,0],"sum_hessian":[2.602E3,1.676E3,9.26E2,8.61E2,8.15E2,8.27E2,9.9E1,1.75E2,6.86E2,4.31E2,3.84E2,3.39E2,4.88E2,7.9E1,2E1,3E1,1.45E2,2.02E2,4.84E2,1.92E2,2.39E2,3.41E2,4.3E1,1.4E2,1.99E2,3E0,4.85E2,2E0,7.7E1,1E0,1.9E1],"tree_param":{"num_deleted":"0","num_feature":"31","num_nodes":"31","size_leaf_vector":"1"}},{"base_weights":[4.1905295E-2,-2.2787685E0,4.1023774E0,-3.5351121E0,-3.5347986E-1,3.60799E0,9.783853E0,-5.172034E0,-2.8023603E0,-1.111779E0,2.212218E-1,2.615703E0,4.7970333E0,7.920073E0,5.929061E-1,-3.3896455E-1,-2.2288807E-1,-1.6931432E-1,-1.1698454E-1,6.445718E-2,-6.2366333E-2,2.1873068E-2,-5.631543E-2,8.8980675E-2,1.5171964E-1,-5.5699255E-2,2.4165295E-1,4.139112E-2,4.0218163E-1],"categories":[],"categories_nodes":[],"categories_segments":[],"categories_sizes":[],"default_left":[0,0,0,0,0,0,0,0,0,0,0,0,0,0,0,0,0,0,0,0,0,0,0,0,0,0,0,0,0],"id":37,"left_children":[1,3,5,7,9,11,13,15,17,19,21,23,25,27,-1,-1,-1,-1,-1,-1,-1,-1,-1,-1,-1,-1,-1,-1,-1],"loss_changes":[2.4330117E4,3.971628E3,2.5669092E3,1.1632734E3,2.8419498E2,9.978535E2,9.824805E1,2.8970508E2,1.7083838E2,9.466443E1,1.0938226E2,1.5617944E2,9.424414E1,2.6116943E1,0E0,0E0,0E0,0E0,0E0,0E0,0E0,0E0,0E0,0E0,0E0,0E0,0E0,0E0,0E0],"parents":[2147483647,0,0,1,1,2,2,3,3,4,4,5,5,6,6,7,7,8,8,9,9,10,10,11,11,12,12,13,13],"right_children":[2,4,6,8,10,12,14,16,18,20,22,24,26,28,-1,-1,-1,-1,-1,-1,-1,-1,-1,-1,-1,-1,-1,-1,-1],"split_conditions":[7.962631E1,6.041E1,1.1246273E2,4.5865E1,6.667E1,9.5349E1,1.2629E2,3.796091E1,5.177875E1,-2.02E0,7.666682E1,8.642809E1,-4.96E0,-5.31E0,5.929061E-1,-3.3896455E-1,-2.2288807E-1,-1.6931432E-1,-1.1698454E-1,6.445718E-2,-6.2366333E-2,2.1873068E-2,-5.631543E-2,8.8980675E-2,1.5171964E-1,-5.5699255E-2,2.4165295E-1,4.139112E-2,4.0218163E-1],"split_indices":[7,0,7,7,2,7,0,7,7,26,7,7,6,9,0,0,0,0,0,0,0,0,0,0,0,0,0,0,0],"split_type":[0,0,0,0,0,0,0,0,0,0,0,0,0,0,0,0,0,0,0,0,0,0,0,0,0,0,0,0,0],"sum_hessian":[2.578E3,1.641E3,9.37E2,9.92E2,6.49E2,8.65E2,7.2E1,3.03E2,6.89E2,2.79E2,3.7E2,4.75E2,3.9E2,4.3E1,2.9E1,8.8E1,2.15E2,2.99E2,3.9E2,1.4E1,2.65E2,3.2E2,5E1,1.62E2,3.13E2,2E0,3.88E2,1E0,4.2E1],"tree_param":{"num_deleted":"0","num_feature":"31","num_nodes":"29","size_leaf_vector":"1"}},{"base_weights":[4.622718E-2,-2.3986187E0,3.4802444E0,-3.8850286E0,-1.1654925E0,2.6278043E0,5.932424E0,-5.8636837E0,-3.4109764E0,-2.00069E0,-5.6560653E-1,1.588703E0,3.4868789E0,5.4444604E0,6.174371E-1,-3.4817845E-1,-2.2747676E-1,-1.6591783E-1,-3.1637698E-1,-1.3511477E-1,-8.885794E-2,-1.2214525E-1,-1.956376E-2,-8.648918E-2,8.6485766E-2,2.2254746E-1,1.5899912E-1,-4.426918E-2,2.7624634E-1],"categories":[],"categories_nodes":[],"categories_segments":[],"categories_sizes":[],"default_left":[0,0,0,0,0,0,0,0,0,0,0,0,0,0,0,0,0,0,0,0,0,0,0,0,0,0,0,0,0],"id":38,"left_children":[1,3,5,7,9,11,13,15,17,19,21,23,25,27,-1,-1,-1,-1,-1,-1,-1,-1,-1,-1,-1,-1,-1,-1,-1],"loss_changes":[2.1803389E4,2.771501E3,2.2263838E3,6.043955E2,4.14588E2,7.075166E2,7.328047E2,1.2454199E2,1.09009766E2,4.481543E1,1.5746976E2,1.7818878E2,1.015791E2,1.427207E2,0E0,0E0,0E0,0E0,0E0,0E0,0E0,0E0,0E0,0E0,0E0,0E0,0E0,0E0,0E0],"parents":[2147483647,0,0,1,1,2,2,3,3,4,4,5,5,6,6,7,7,8,8,9,9,10,10,11,11,12,12,13,13],"right_children":[2,4,6,8,10,12,14,16,18,20,22,24,26,28,-1,-1,-1,-1,-1,-1,-1,-1,-1,-1,-1,-1,-1,-1,-1],"split_conditions":[7.554857E1,5.277E1,1.0134E2,4.0910435E1,6.151E1,8.95785E1,1.3401572E2,-1.475E1,5.6894093E1,-1.01E0,1.011E3,-4.93E0,1.011E3,-2.78E0,6.174371E-1,-3.4817845E-1,-2.2747676E-1,-1.6591783E-1,-3.1637698E-1,-1.3511477E-1,-8.885794E-2,-1.2214525E-1,-1.956376E-2,-8.648918E-2,8.6485766E-2,2.2254746E-1,1.5899912E-1,-4.426918E-2,2.7624634E-1],"split_indices":[7,2,0,7,0,7,7,25,7,24,4,6,4,6,0,0,0,0,0,0,0,0,0,0,0,0,0,0,0],"split_type":[0,0,0,0,0,0,0,0,0,0,0,0,0,0,0,0,0,0,0,0,0,0,0,0,0,0,0,0,0],"sum_hessian":[2.593E3,1.515E3,1.078E3,6.85E2,8.3E2,8.03E2,2.75E2,1.28E2,5.57E2,3.45E2,4.85E2,3.66E2,4.37E2,2.59E2,1.6E1,6.5E1,6.3E1,5.44E2,1.3E1,7.8E1,2.67E2,3.9E1,4.46E2,1.4E1,3.52E2,9.9E1,3.38E2,3E0,2.56E2],"tree_param":{"num_deleted":"0","num_feature":"31","num_nodes":"29","size_leaf_vector":"1"}},{"base_weights":[-1.5065166E-2,-2.41817E0,3.1192634E0,-4.238933E0,-1.5363224E0,2.044972E0,5.047716E0,-6.0125375E0,-3.737809E0,-2.1445353E0,-7.1782494E-1,9.891472E-1,2.8491282E0,4.705637E0,1.1955595E1,-4.5266953E-1,-2.689577E-1,-1.9053979E-1,-1.0548866E-1,-7.657408E-2,-1.3054572E-1,-6.906875E-2,-1.421149E-2,6.5356284E-2,-1.452863E-1,1.1613698E-1,1.6002141E-1,-4.923388E-2,2.4069655E-1,1.5658398E-1,6.333563E-1],"categories":[],"categories_nodes":[],"categories_segments":[],"categories_sizes":[],"default_left":[1,0,0,0,1,0,0,0,0,1,0,1,0,0,0,0,0,0,0,0,0,0,0,0,0,0,0,0,0,0,0],"id":39,"left_children":[1,3,5,7,9,11,13,15,17,19,21,23,25,27,29,-1,-1,-1,-1,-1,-1,-1,-1,-1,-1,-1,-1,-1,-1,-1,-1],"loss_changes":[1.9907416E4,2.3890068E3,2.3556182E3,3.878955E2,5.0021802E2,6.2265894E2,8.539678E2,1.0290747E2,2.966748E1,1.5754785E2,1.2408179E2,4.0762723E2,6.2614258E1,2.516582E2,3.3674072E1,0E0,0E0,0E0,0E0,0E0,0E0,0E0,0E0,0E0,0E0,0E0,0E0,0E0,0E0,0E0,0E0],"parents":[2147483647,0,0,1,1,2,2,3,3,4,4,5,5,6,6,7,7,8,8,9,9,10,10,11,11,12,12,13,13,14,14],"right_children":[2,4,6,8,10,12,14,16,18,20,22,24,26,28,30,-1,-1,-1,-1,-1,-1,-1,-1,-1,-1,-1,-1,-1,-1,-1,-1],"split_conditions":[7.4150475E1,5.045E1,9.865E1,3.8533638E1,6.1997143E1,8.5658264E1,1.3415E2,2.331E1,5.8172263E-2,-1.2E-1,-3.437816E-3,1.215E2,2.275E1,-9.847E1,-1.575E2,-4.5266953E-1,-2.689577E-1,-1.9053979E-1,-1.0548866E-1,-7.657408E-2,-1.3054572E-1,-6.906875E-2,-1.421149E-2,6.5356284E-2,-1.452863E-1,1.1613698E-1,1.6002141E-1,-4.923388E-2,2.4069655E-1,1.5658398E-1,6.333563E-1],"split_indices":[7,1,1,7,7,7,1,2,18,26,18,25,25,25,25,0,0,0,0,0,0,0,0,0,0,0,0,0,0,0,0],"split_type":[0,0,0,0,0,0,0,0,0,0,0,0,0,0,0,0,0,0,0,0,0,0,0,0,0,0,0,0,0,0,0],"sum_hessian":[2.639E3,1.494E3,1.145E3,4.85E2,1.009E3,7.38E2,4.07E2,1.02E2,3.83E2,5.77E2,4.32E2,3.21E2,4.17E2,3.91E2,1.6E1,1.3E1,8.9E1,3.64E2,1.9E1,2.53E2,3.24E2,1.69E2,2.63E2,2.98E2,2.3E1,1.73E2,2.44E2,7E0,3.84E2,2E0,1.4E1],"tree_param":{"num_deleted":"0","num_feature":"31","num_nodes":"31","size_leaf_vector":"1"}},{"base_weights":[3.1649373E-2,-1.9478683E0,3.434259E0,-3.2742074E0,-5.123271E-1,2.9715452E0,6.9754896E0,-4.6801667E0,-2.5119526E0,-9.8948085E-1,3.7382337E-1,1.9234407E0,3.4377506E0,5.794015E-1,5.8456836E0,-4.682099E-1,-2.2126399E-1,-1.5685795E-1,-1.1283409E-1,-8.90167E-2,-3.818273E-2,4.0103298E-2,-5.9962448E-2,4.2600434E-2,1.211942E-1,1.1996931E-1,1.869886E-1,-1.07103065E-1,3.0329484E-1],"categories":[],"categories_nodes":[],"categories_segments":[],"categories_sizes":[],"default_left":[1,1,0,1,0,0,0,0,0,0,0,0,0,0,0,0,0,0,0,0,0,0,0,0,0,0,0,0,0],"id":40,"left_children":[1,3,5,7,9,11,13,15,17,19,21,23,25,-1,27,-1,-1,-1,-1,-1,-1,-1,-1,-1,-1,-1,-1,-1,-1],"loss_changes":[1.7983764E4,3.210621E3,1.567626E3,9.163672E2,3.445006E2,4.1286328E2,4.481831E2,2.824546E2,7.729004E1,9.175787E1,1.9458954E2,1.4224976E2,1.7053271E2,0E0,1.9133374E2,0E0,0E0,0E0,0E0,0E0,0E0,0E0,0E0,0E0,0E0,0E0,0E0,0E0,0E0],"parents":[2147483647,0,0,1,1,2,2,3,3,4,4,5,5,6,6,7,7,8,8,9,9,10,10,11,11,12,12,14,14],"right_children":[2,4,6,8,10,12,14,16,18,20,22,24,26,-1,28,-1,-1,-1,-1,-1,-1,-1,-1,-1,-1,-1,-1,-1,-1],"split_conditions":[7.962631E1,5.8019524E1,1.06538635E2,4.5865E1,7.096091E1,8.974316E1,1.017E3,2.9678637E1,-1.274607E-2,-8.6E-1,7.666682E1,-6.25E0,-9.651239E-3,5.794015E-1,-1.75E0,-4.682099E-1,-2.2126399E-1,-1.5685795E-1,-1.1283409E-1,-8.90167E-2,-3.818273E-2,4.0103298E-2,-5.9962448E-2,4.2600434E-2,1.211942E-1,1.1996931E-1,1.869886E-1,-1.07103065E-1,3.0329484E-1],"split_indices":[7,7,7,7,7,7,4,7,18,13,7,25,18,0,26,0,0,0,0,0,0,0,0,0,0,0,0,0,0],"split_type":[0,0,0,0,0,0,0,0,0,0,0,0,0,0,0,0,0,0,0,0,0,0,0,0,0,0,0,0,0],"sum_hessian":[2.666E3,1.686E3,9.8E2,8.75E2,8.11E2,8.7E2,1.1E2,3.04E2,5.71E2,5.27E2,2.84E2,2.71E2,5.99E2,1.8E1,9.2E1,1.2E1,2.92E2,1.59E2,4.12E2,1.14E2,4.13E2,2.24E2,6E1,8.8E1,1.83E2,1.39E2,4.6E2,2E0,9E1],"tree_param":{"num_deleted":"0","num_feature":"31","num_nodes":"29","size_leaf_vector":"1"}},{"base_weights":[-3.7452046E-2,-2.1012359E0,2.98175E0,-3.6902916E0,-1.1144313E0,2.4236028E0,5.8714366E0,-5.656555E0,-3.2119143E0,-1.7838982E0,-3.386109E-1,1.4929906E0,3.0635812E0,5.126898E0,1.0004495E1,-4.3590188E-1,-2.4701265E-1,-1.8377341E-1,-1.4038183E-1,1.4528634E-2,-9.4082974E-2,-2.1295E-2,7.881651E-2,-5.575713E-2,7.9345316E-2,9.0713374E-2,1.674959E-1,-3.895836E-2,2.5886664E-1,8.905935E-2,5.295071E-1],"categories":[],"categories_nodes":[],"categories_segments":[],"categories_sizes":[],"default_left":[1,1,0,0,0,0,0,0,1,0,1,0,0,0,0,0,0,0,0,0,0,0,0,0,0,0,0,0,0,0,0],"id":41,"left_children":[1,3,5,7,9,11,13,15,17,19,21,23,25,27,29,-1,-1,-1,-1,-1,-1,-1,-1,-1,-1,-1,-1,-1,-1,-1,-1],"loss_changes":[1.634393E4,2.4348555E3,1.689248E3,5.2427E2,4.9948022E2,5.244844E2,4.236211E2,1.6385742E2,7.006494E1,1.0594263E2,7.639464E1,9.392377E1,1.7708105E2,5.2450928E1,7.785718E1,0E0,0E0,0E0,0E0,0E0,0E0,0E0,0E0,0E0,0E0,0E0,0E0,0E0,0E0,0E0,0E0],"parents":[2147483647,0,0,1,1,2,2,3,3,4,4,5,5,6,6,7,7,8,8,9,9,10,10,11,11,12,12,13,13,14,14],"right_children":[2,4,6,8,10,12,14,16,18,20,22,24,26,28,30,-1,-1,-1,-1,-1,-1,-1,-1,-1,-1,-1,-1,-1,-1,-1,-1],"split_conditions":[7.554857E1,5.177875E1,1.04555214E2,3.8533638E1,6.270524E1,8.974316E1,1.3104E2,2.9678637E1,-4.652474E-3,-2.34E0,2.72E0,-4.31E0,-1.1329986E-2,-4.7353186E-2,1.3415E2,-4.3590188E-1,-2.4701265E-1,-1.8377341E-1,-1.4038183E-1,1.4528634E-2,-9.4082974E-2,-2.1295E-2,7.881651E-2,-5.575713E-2,7.9345316E-2,9.0713374E-2,1.674959E-1,-3.895836E-2,2.5886664E-1,8.905935E-2,5.295071E-1],"split_indices":[7,7,7,7,7,7,0,7,18,26,24,24,18,18,1,0,0,0,0,0,0,0,0,0,0,0,0,0,0,0,0],"split_type":[0,0,0,0,0,0,0,0,0,0,0,0,0,0,0,0,0,0,0,0,0,0,0,0,0,0,0,0,0,0,0],"sum_hessian":[2.619E3,1.556E3,1.063E3,5.94E2,9.62E2,8.94E2,1.69E2,1.12E2,4.82E2,5.15E2,4.47E2,3.67E2,5.27E2,1.47E2,2.2E1,1.7E1,9.5E1,2.17E2,2.65E2,2.3E1,4.92E2,4.29E2,1.8E1,1.2E1,3.55E2,1.01E2,4.26E2,1E0,1.46E2,2E0,2E1],"tree_param":{"num_deleted":"0","num_feature":"31","num_nodes":"31","size_leaf_vector":"1"}},{"base_weights":[1.0287862E-1,-1.7158482E0,3.1985326E0,-3.4262593E0,-7.986614E-1,2.4598327E0,5.4987826E0,-5.7346478E0,-3.0832608E0,-1.5635712E0,3.263896E-2,4.534084E0,2.2214708E0,4.9981065E0,5.2532065E-1,-3.498857E-1,-1.3496104E-1,-1.8681754E-1,-1.3551585E-1,-7.499852E-2,-2.6150182E-1,1.4761646E-2,-5.6681138E-2,1.4560066E-1,3.0014452E-1,5.5055745E-2,1.2652671E-1,2.551E-1,-1.6075602E-1],"categories":[],"categories_nodes":[],"categories_segments":[],"categories_sizes":[],"default_left":[1,1,0,0,0,0,0,0,1,0,1,0,0,0,0,0,0,0,0,0,0,0,0,0,0,0,0,0,0],"id":42,"left_children":[1,3,5,7,9,11,13,15,17,19,21,23,25,27,-1,-1,-1,-1,-1,-1,-1,-1,-1,-1,-1,-1,-1,-1,-1],"loss_changes":[1.5122296E4,2.64888E3,1.6619482E3,4.317837E2,7.0210223E2,3.5363867E2,4.967041E2,2.459353E2,1.05913574E2,1.183949E2,1.6328986E2,1.4610962E2,2.305774E2,2.2224072E2,0E0,0E0,0E0,0E0,0E0,0E0,0E0,0E0,0E0,0E0,0E0,0E0,0E0,0E0,0E0],"parents":[2147483647,0,0,1,1,2,2,3,3,4,4,5,5,6,6,7,7,8,8,9,9,10,10,11,11,12,12,13,13],"right_children":[2,4,6,8,10,12,14,16,18,20,22,24,26,28,-1,-1,-1,-1,-1,-1,-1,-1,-1,-1,-1,-1,-1,-1,-1],"split_conditions":[7.962631E1,5.177875E1,1.0298131E2,3.7327274E1,6.394E1,1.005E3,1.3401572E2,-7.4E1,4.5170433E1,1E0,8.875E1,9.829E1,-2.3E1,1E0,5.2532065E-1,-3.498857E-1,-1.3496104E-1,-1.8681754E-1,-1.3551585E-1,-7.499852E-2,-2.6150182E-1,1.4761646E-2,-5.6681138E-2,1.4560066E-1,3.0014452E-1,5.5055745E-2,1.2652671E-1,2.551E-1,-1.6075602E-1],"split_indices":[7,7,7,7,0,4,7,25,7,27,25,1,25,27,0,0,0,0,0,0,0,0,0,0,0,0,0,0,0],"split_type":[0,0,0,0,0,0,0,0,0,0,0,0,0,0,0,0,0,0,0,0,0,0,0,0,0,0,0,0,0],"sum_hessian":[2.682E3,1.69E3,9.92E2,5.88E2,1.102E3,7.54E2,2.38E2,7.2E1,5.16E2,5.73E2,5.29E2,7.4E1,6.8E2,2.2E2,1.8E1,4.9E1,2.3E1,1.81E2,3.35E2,5.66E2,7E0,4.33E2,9.6E1,3.8E1,3.6E1,1.49E2,5.31E2,2.18E2,2E0],"tree_param":{"num_deleted":"0","num_feature":"31","num_nodes":"29","size_leaf_vector":"1"}},{"base_weights":[2.7061855E-2,-2.0358534E0,2.3761172E0,-3.3598094E0,-1.2511156E0,1.0883056E0,3.444377E0,-8.7394705E0,-3.1957397E0,-1.8158852E0,-6.580009E-1,6.461089E-1,1.7860166E0,3.016552E0,6.0916553E0,-4.530409E-1,-7.6032706E-2,-2.131025E-1,-1.4470866E-1,-1.3127021E-1,-7.1290396E-2,-1.2665074E-1,-2.8395012E-2,3.963266E-2,-6.777749E-2,9.876043E-2,-3.1381723E-2,1.0909726E-2,1.5558684E-1,4.5038006E-1,2.6826948E-1],"categories":[],"categories_nodes":[],"categories_segments":[],"categories_sizes":[],"default_left":[0,0,0,0,0,0,0,0,0,0,1,1,0,0,0,0,0,0,0,0,0,0,0,0,0,0,0,0,0,0,0],"id":43,"left_children":[1,3,5,7,9,11,13,15,17,19,21,23,25,27,29,-1,-1,-1,-1,-1,-1,-1,-1,-1,-1,-1,-1,-1,-1,-1,-1],"loss_changes":[1.2550868E4,1.4243164E3,1.6584971E3,3.960537E2,2.887019E2,1.6799811E2,7.118789E2,4.9196777E0,1.361123E2,1.3271729E2,6.9260345E1,1.02175E2,9.9744446E1,1.5126758E2,9.393921E1,0E0,0E0,0E0,0E0,0E0,0E0,0E0,0E0,0E0,0E0,0E0,0E0,0E0,0E0,0E0,0E0],"parents":[2147483647,0,0,1,1,2,2,3,3,4,4,5,5,6,6,7,7,8,8,9,9,10,10,11,11,12,12,13,13,14,14],"right_children":[2,4,6,8,10,12,14,16,18,20,22,24,26,28,30,-1,-1,-1,-1,-1,-1,-1,-1,-1,-1,-1,-1,-1,-1,-1,-1],"split_conditions":[7.109E1,5.034E1,9.115E1,2.9678637E1,5.893E1,8.281E1,1.100385E2,2.62E0,3.9258423E1,-7E-1,5.8019524E1,1.0275E2,9.316136E1,-3.73E0,1.017E3,-4.530409E-1,-7.6032706E-2,-2.131025E-1,-1.4470866E-1,-1.3127021E-1,-7.1290396E-2,-1.2665074E-1,-2.8395012E-2,3.963266E-2,-6.777749E-2,9.876043E-2,-3.1381723E-2,1.0909726E-2,1.5558684E-1,4.5038006E-1,2.6826948E-1],"split_indices":[0,0,0,7,2,0,7,9,7,24,7,25,7,24,4,0,0,0,0,0,0,0,0,0,0,0,0,0,0,0,0],"split_type":[0,0,0,0,0,0,0,0,0,0,0,0,0,0,0,0,0,0,0,0,0,0,0,0,0,0,0,0,0,0,0],"sum_hessian":[2.586E3,1.377E3,1.209E3,5.1E2,8.67E2,5.5E2,6.59E2,1.2E1,4.98E2,4.42E2,4.25E2,3.39E2,2.11E2,5.71E2,8.8E1,1.1E1,1E0,1.04E2,3.94E2,1.4E2,3.02E2,1.7E1,4.08E2,3.17E2,2.2E1,1.96E2,1.5E1,1.9E1,5.52E2,1.3E1,7.5E1],"tree_param":{"num_deleted":"0","num_feature":"31","num_nodes":"31","size_leaf_vector":"1"}},{"base_weights":[-2.5684528E-2,-1.8669157E0,2.4563015E0,-3.140642E0,-9.960279E-1,1.7833158E0,4.3849916E0,-5.0405197E0,-2.666406E0,-1.5703161E0,-4.67936E-1,7.5506264E-1,2.341596E0,3.6918485E0,5.6888614E0,-2.1704283E-1,-3.76787E-1,-1.4244351E-1,-9.330476E-2,-7.48437E-2,-2.3651326E-1,-3.726123E-2,8.423015E-3,4.810142E-2,-1.4078318E-1,1.0053102E-1,1.3672559E-1,1.7463788E-2,1.9240749E-1,1.609463E-1,3.011938E-1],"categories":[],"categories_nodes":[],"categories_segments":[],"categories_sizes":[],"default_left":[1,1,0,0,0,0,0,0,1,1,0,1,0,0,0,0,0,0,0,0,0,0,0,0,0,0,0,0,0,0,0],"id":44,"left_children":[1,3,5,7,9,11,13,15,17,19,21,23,25,27,29,-1,-1,-1,-1,-1,-1,-1,-1,-1,-1,-1,-1,-1,-1,-1,-1],"loss_changes":[1.221083E4,1.6953677E3,1.4614624E3,5.3353613E2,2.7572552E2,4.82687E2,2.2279883E2,1.4756592E2,6.267383E1,8.7255005E1,8.4778015E1,2.2786191E2,6.0269043E1,1.0023413E2,4.231079E1,0E0,0E0,0E0,0E0,0E0,0E0,0E0,0E0,0E0,0E0,0E0,0E0,0E0,0E0,0E0,0E0],"parents":[2147483647,0,0,1,1,2,2,3,3,4,4,5,5,6,6,7,7,8,8,9,9,10,10,11,11,12,12,13,13,14,14],"right_children":[2,4,6,8,10,12,14,16,18,20,22,24,26,28,30,-1,-1,-1,-1,-1,-1,-1,-1,-1,-1,-1,-1,-1,-1,-1,-1],"split_conditions":[7.44365E1,5.177875E1,1.0190773E2,3.8533638E1,6.185E1,8.5658264E1,1.06538635E2,3.21E0,1.03E0,1.150595E5,8.834666E-3,1.3075E2,9.4828575E1,-7.075E1,-6.45E1,-2.1704283E-1,-3.76787E-1,-1.4244351E-1,-9.330476E-2,-7.48437E-2,-2.3651326E-1,-3.726123E-2,8.423015E-3,4.810142E-2,-1.4078318E-1,1.0053102E-1,1.3672559E-1,1.7463788E-2,1.9240749E-1,1.609463E-1,3.011938E-1],"split_indices":[7,7,7,7,1,7,7,11,13,25,18,25,7,25,25,0,0,0,0,0,0,0,0,0,0,0,0,0,0,0,0],"split_type":[0,0,0,0,0,0,0,0,0,0,0,0,0,0,0,0,0,0,0,0,0,0,0,0,0,0,0,0,0,0,0],"sum_hessian":[2.668E3,1.532E3,1.136E3,6.2E2,9.12E2,8.45E2,2.91E2,1.2E2,5E2,4.35E2,4.77E2,2.99E2,5.46E2,1.95E2,9.6E1,9.8E1,2.2E1,4.03E2,9.7E1,4.28E2,7E0,3.32E2,1.45E2,2.84E2,1.5E1,3.03E2,2.43E2,9E0,1.86E2,1.4E1,8.2E1],"tree_param":{"num_deleted":"0","num_feature":"31","num_nodes":"31","size_leaf_vector":"1"}},{"base_weights":[-1.4275839E-2,-1.7454971E0,2.2950866E0,-3.1193461E0,-1.061985E0,1.6512043E0,3.8984168E0,-6.0537086E0,-2.8740046E0,-1.4787551E0,-1.6784048E-1,1.7563213E0,-2.8213372E0,3.6435072E0,4.4383404E-1,-1.2556273E-1,-3.6115086E-1,-1.6714603E-1,-1.12832844E-1,-9.098275E-2,-5.3880103E-2,-1.2022373E-2,9.4783574E-2,6.1631735E-2,1.1584611E-1,-1.545548E-1,3.3905283E-2,1.8614823E-1,-3.9573178E-2],"categories":[],"categories_nodes":[],"categories_segments":[],"categories_sizes":[],"default_left":[1,0,0,0,1,0,0,0,0,1,1,0,0,0,0,0,0,0,0,0,0,0,0,0,0,0,0,0,0],"id":45,"left_children":[1,3,5,7,9,11,13,15,17,19,21,23,25,27,-1,-1,-1,-1,-1,-1,-1,-1,-1,-1,-1,-1,-1,-1,-1],"loss_changes":[1.033889E4,1.3812793E3,1.1309761E3,3.1796436E2,3.684298E2,3.8320166E2,3.3632178E2,1.1284241E2,1.1691699E2,8.83866E1,4.8406265E1,2.2239917E2,2.212828E1,1.1302026E2,0E0,0E0,0E0,0E0,0E0,0E0,0E0,0E0,0E0,0E0,0E0,0E0,0E0,0E0,0E0],"parents":[2147483647,0,0,1,1,2,2,3,3,4,4,5,5,6,6,7,7,8,8,9,9,10,10,11,11,12,12,13,13],"right_children":[2,4,6,8,10,12,14,16,18,20,22,24,26,28,-1,-1,-1,-1,-1,-1,-1,-1,-1,-1,-1,-1,-1,-1,-1],"split_conditions":[7.460318E1,4.912E1,1.006705E2,2.904E1,6.429318E1,1.375E2,1.3401572E2,2.02E0,4.5443043E1,5.8019524E1,5.65565E4,8.974316E1,8.465E1,7.79E0,4.4383404E-1,-1.2556273E-1,-3.6115086E-1,-1.6714603E-1,-1.12832844E-1,-9.098275E-2,-5.3880103E-2,-1.2022373E-2,9.4783574E-2,6.1631735E-2,1.1584611E-1,-1.545548E-1,3.3905283E-2,1.8614823E-1,-3.9573178E-2],"split_indices":[7,2,7,8,7,25,7,11,7,7,25,7,2,11,0,0,0,0,0,0,0,0,0,0,0,0,0,0,0],"split_type":[0,0,0,0,0,0,0,0,0,0,0,0,0,0,0,0,0,0,0,0,0,0,0,0,0,0,0,0,0],"sum_hessian":[2.582E3,1.476E3,1.106E3,4.88E2,9.88E2,7.92E2,3.14E2,3.4E1,4.54E2,6.73E2,3.15E2,7.75E2,1.7E1,3.02E2,1.2E1,1E1,2.4E1,2.53E2,2.01E2,3.6E2,3.13E2,3.06E2,9E0,4.04E2,3.71E2,1.6E1,1E0,2.97E2,5E0],"tree_param":{"num_deleted":"0","num_feature":"31","num_nodes":"29","size_leaf_vector":"1"}},{"base_weights":[1.7702932E-3,-1.5603944E0,2.2610962E0,-3.1625443E0,-1.000398E0,1.6042343E0,3.8089218E0,-6.697701E0,-2.9452353E0,-1.5191393E0,-3.660854E-1,7.135857E-1,1.9799883E0,3.4582753E0,4.5276186E-1,-6.818288E-2,-3.54737E-1,-1.6778003E-1,-1.07370354E-1,-1.1030358E-1,-6.0955174E-2,-7.480127E-2,-9.504498E-3,4.5078706E-2,-1.16451524E-1,8.272174E-2,1.2875502E-1,4.904532E-2,1.8123293E-1],"categories":[],"categories_nodes":[],"categories_segments":[],"categories_sizes":[],"default_left":[1,1,0,0,0,0,0,0,1,0,0,0,0,0,0,0,0,0,0,0,0,0,0,0,0,0,0,0,0],"id":46,"left_children":[1,3,5,7,9,11,13,15,17,19,21,23,25,27,-1,-1,-1,-1,-1,-1,-1,-1,-1,-1,-1,-1,-1,-1,-1],"loss_changes":[9.402423E3,1.4067593E3,1.0949736E3,2.7321338E2,3.838694E2,2.5419666E2,5.3156006E2,2.7242493E1,1.12292725E2,1.2714624E2,1.0463044E2,1.3632617E2,9.590576E1,1.19019775E2,0E0,0E0,0E0,0E0,0E0,0E0,0E0,0E0,0E0,0E0,0E0,0E0,0E0,0E0,0E0],"parents":[2147483647,0,0,1,1,2,2,3,3,4,4,5,5,6,6,7,7,8,8,9,9,10,10,11,11,12,12,13,13],"right_children":[2,4,6,8,10,12,14,16,18,20,22,24,26,28,-1,-1,-1,-1,-1,-1,-1,-1,-1,-1,-1,-1,-1,-1,-1],"split_conditions":[7.554857E1,4.8061817E1,1.006705E2,2.633E1,6.171E1,8.561E1,1.3401572E2,-1.47E0,5.1E-1,-7.2E-1,-1.98E0,4.87E0,5.7E-1,-1.64E0,4.5276186E-1,-6.818288E-2,-3.54737E-1,-1.6778003E-1,-1.07370354E-1,-1.1030358E-1,-6.0955174E-2,-7.480127E-2,-9.504498E-3,4.5078706E-2,-1.16451524E-1,8.272174E-2,1.2875502E-1,4.904532E-2,1.8123293E-1],"split_indices":[7,7,7,0,0,7,7,26,13,24,24,11,13,26,0,0,0,0,0,0,0,0,0,0,0,0,0,0,0],"split_type":[0,0,0,0,0,0,0,0,0,0,0,0,0,0,0,0,0,0,0,0,0,0,0,0,0,0,0,0,0],"sum_hessian":[2.66E3,1.573E3,1.087E3,4.05E2,1.168E3,7.66E2,3.21E2,2E1,3.85E2,6.41E2,5.27E2,2.29E2,5.37E2,3.04E2,1.7E1,2E0,1.8E1,2.5E2,1.35E2,1.91E2,4.5E2,6.9E1,4.58E2,2.17E2,1.2E1,3.52E2,1.85E2,2E1,2.84E2],"tree_param":{"num_deleted":"0","num_feature":"31","num_nodes":"29","size_leaf_vector":"1"}},{"base_weights":[6.4372994E-2,-1.6418809E0,2.1963453E0,-2.7146592E0,-9.563875E-1,1.8202542E0,5.315233E0,-5.5299234E0,-2.530515E0,-1.3116763E0,-3.0702305E-1,1.1617916E0,2.7128768E0,7.4618447E-1,5.57584E0,-1.2033512E-1,-3.4363717E-1,-1.2309823E-1,-3.2111025E-1,-4.3495346E-2,-8.451095E-2,-1.1851895E-2,-1.47547E-1,6.1541986E-2,-1.5860142E-1,1.3776647E-1,-1.6460486E-1,8.029949E-2,-5.657835E-2,1.4000823E-1,2.980051E-1],"categories":[],"categories_nodes":[],"categories_segments":[],"categories_sizes":[],"default_left":[0,0,0,0,0,0,0,0,0,1,1,1,0,0,0,0,0,0,0,0,0,0,0,0,0,0,0,0,0,0,0],"id":47,"left_children":[1,3,5,7,9,11,13,15,17,19,21,23,25,27,29,-1,-1,-1,-1,-1,-1,-1,-1,-1,-1,-1,-1,-1,-1,-1,-1],"loss_changes":[9.508848E3,1.0625828E3,1.3436597E3,2.64917E2,2.0429749E2,6.0496533E2,1.3932886E2,1.05318115E2,1.1083618E2,9.3048584E1,5.7257114E1,1.879524E2,1.3030884E2,1.8165075E1,9.141211E1,0E0,0E0,0E0,0E0,0E0,0E0,0E0,0E0,0E0,0E0,0E0,0E0,0E0,0E0,0E0,0E0],"parents":[2147483647,0,0,1,1,2,2,3,3,4,4,5,5,6,6,7,7,8,8,9,9,10,10,11,11,12,12,13,13,14,14],"right_children":[2,4,6,8,10,12,14,16,18,20,22,24,26,28,30,-1,-1,-1,-1,-1,-1,-1,-1,-1,-1,-1,-1,-1,-1,-1,-1],"split_conditions":[7.303E1,5.159E1,1.0726E2,2.904E1,6.394E1,9.495E1,-1.79E0,2.04E0,3.8E0,-1E-1,9.074795E5,1.375E2,1E0,3.0073E2,-1.8773595E-2,-1.2033512E-1,-3.4363717E-1,-1.2309823E-1,-3.2111025E-1,-4.3495346E-2,-8.451095E-2,-1.1851895E-2,-1.47547E-1,6.1541986E-2,-1.5860142E-1,1.3776647E-1,-1.6460486E-1,8.029949E-2,-5.657835E-2,1.4000823E-1,2.980051E-1],"split_indices":[0,0,0,0,0,0,26,11,6,26,25,25,27,3,18,0,0,0,0,0,0,0,0,0,0,0,0,0,0,0,0],"split_type":[0,0,0,0,0,0,0,0,0,0,0,0,0,0,0,0,0,0,0,0,0,0,0,0,0,0,0,0,0,0,0],"sum_hessian":[2.61E3,1.45E3,1.16E3,5.63E2,8.87E2,1.038E3,1.22E2,3.1E1,5.32E2,5.72E2,3.15E2,6E2,4.38E2,7E0,1.15E2,1.1E1,2E1,5.26E2,6E0,2.67E2,3.05E2,3.09E2,6E0,5.92E2,8E0,4.36E2,2E0,5E0,2E0,1.6E1,9.9E1],"tree_param":{"num_deleted":"0","num_feature":"31","num_nodes":"31","size_leaf_vector":"1"}},{"base_weights":[2.2891693E-2,-1.5872337E0,1.7976226E0,-2.5249069E0,-9.059063E-1,1.4091282E0,4.074083E0,-3.7265298E0,-2.2685208E0,-1.3848017E0,-5.5727947E-1,7.4436903E-1,2.0514338E0,3.6894886E0,3.7774932E-1,-2.5210854E-1,-1.3429742E-1,-9.59811E-2,-1.3917774E-1,-1.7056899E-1,-6.1699588E-2,-8.511826E-2,-2.1912055E-2,4.3331664E-2,-4.3568667E-2,1.08195916E-1,-9.514599E-2,1.4597143E-1,2.2417085E-1],"categories":[],"categories_nodes":[],"categories_segments":[],"categories_sizes":[],"default_left":[1,1,0,0,0,0,0,0,0,0,0,1,0,0,0,0,0,0,0,0,0,0,0,0,0,0,0,0,0],"id":48,"left_children":[1,3,5,7,9,11,13,15,17,19,21,23,25,27,-1,-1,-1,-1,-1,-1,-1,-1,-1,-1,-1,-1,-1,-1,-1],"loss_changes":[7.4610264E3,8.700276E2,1.0869336E3,1.6023804E2,1.313534E2,4.5125098E2,1.8522437E2,1.070791E2,7.538721E1,9.366046E1,6.175534E1,1.0542029E2,2.484292E2,7.5309814E1,0E0,0E0,0E0,0E0,0E0,0E0,0E0,0E0,0E0,0E0,0E0,0E0,0E0,0E0,0E0],"parents":[2147483647,0,0,1,1,2,2,3,3,4,4,5,5,6,6,7,7,8,8,9,9,10,10,11,11,12,12,13,13],"right_children":[2,4,6,8,10,12,14,16,18,20,22,24,26,28,-1,-1,-1,-1,-1,-1,-1,-1,-1,-1,-1,-1,-1,-1,-1],"split_conditions":[7.096091E1,5.177875E1,1.04555214E2,3.8533638E1,5.902E1,8.941E1,1.3401572E2,-7.4E1,4.5E-1,-1.18E2,-2.4E0,1.0025E2,1.0376381E2,1.111E3,3.7774932E-1,-2.5210854E-1,-1.3429742E-1,-9.59811E-2,-1.3917774E-1,-1.7056899E-1,-6.1699588E-2,-8.511826E-2,-2.1912055E-2,4.3331664E-2,-4.3568667E-2,1.08195916E-1,-9.514599E-2,1.4597143E-1,2.2417085E-1],"split_indices":[7,7,7,7,0,0,7,25,10,25,24,25,7,5,0,0,0,0,0,0,0,0,0,0,0,0,0,0,0],"split_type":[0,0,0,0,0,0,0,0,0,0,0,0,0,0,0,0,0,0,0,0,0,0,0,0,0,0,0,0,0],"sum_hessian":[2.607E3,1.367E3,1.24E3,5.73E2,7.94E2,1.062E3,1.78E2,9.6E1,4.77E2,3.32E2,4.62E2,5.24E2,5.38E2,1.64E2,1.4E1,3.9E1,5.7E1,2.9E2,1.87E2,2E1,3.12E2,4.1E1,4.21E2,4.88E2,3.6E1,5.24E2,1.4E1,8.8E1,7.6E1],"tree_param":{"num_deleted":"0","num_feature":"31","num_nodes":"29","size_leaf_vector":"1"}},{"base_weights":[-1.7934503E-2,-1.658077E0,1.5826241E0,-2.8454134E0,-1.1956096E0,8.26439E-1,2.7763267E0,-4.632361E0,-2.637383E0,-1.5805867E0,-8.088212E-1,3.3281878E-1,1.3381852E0,2.433387E0,6.605614E0,-9.996015E-2,-3.003286E-1,-1.281929E-1,-2.8643063E-1,-7.5954E-2,-2.3610377E-1,-4.6024103E-2,5.457139E-2,4.970009E-2,-4.965524E-3,5.5703927E-2,1.2959413E-1,-1.5463171E-2,1.2777856E-1,4.4652724E-1,2.107288E-1],"categories":[],"categories_nodes":[],"categories_segments":[],"categories_sizes":[],"default_left":[0,0,0,0,0,0,0,0,0,0,1,1,0,0,0,0,0,0,0,0,0,0,0,0,0,0,0,0,0,0,0],"id":49,"left_children":[1,3,5,7,9,11,13,15,17,19,21,23,25,27,29,-1,-1,-1,-1,-1,-1,-1,-1,-1,-1,-1,-1,-1,-1,-1,-1],"loss_changes":[6.8726255E3,7.03188E2,1.1914358E3,1.0976318E2,1.3652002E2,2.0473242E2,6.415315E2,1.0263135E2,4.5174072E1,7.569519E1,1.01735504E2,1.1934122E2,1.06328674E2,1.6042188E2,1.5264209E2,0E0,0E0,0E0,0E0,0E0,0E0,0E0,0E0,0E0,0E0,0E0,0E0,0E0,0E0,0E0,0E0],"parents":[2147483647,0,0,1,1,2,2,3,3,4,4,5,5,6,6,7,7,8,8,9,9,10,10,11,11,12,12,13,13,14,14],"right_children":[2,4,6,8,10,12,14,16,18,20,22,24,26,28,30,-1,-1,-1,-1,-1,-1,-1,-1,-1,-1,-1,-1,-1,-1,-1,-1],"split_conditions":[6.8E1,4.644E1,9.495E1,2.904E1,5.699E1,8.143E1,1.223E2,2.02E0,3.8E0,4.75E0,1.2758E4,-5.9E-1,1.5709743E-2,-7.075E1,1.017E3,-9.996015E-2,-3.003286E-1,-1.281929E-1,-2.8643063E-1,-7.5954E-2,-2.3610377E-1,-4.6024103E-2,5.457139E-2,4.970009E-2,-4.965524E-3,5.5703927E-2,1.2959413E-1,-1.5463171E-2,1.2777856E-1,4.4652724E-1,2.107288E-1],"split_indices":[0,2,0,0,0,0,8,11,6,11,25,26,18,25,4,0,0,0,0,0,0,0,0,0,0,0,0,0,0,0,0],"split_type":[0,0,0,0,0,0,0,0,0,0,0,0,0,0,0,0,0,0,0,0,0,0,0,0,0,0,0,0,0,0,0],"sum_hessian":[2.614E3,1.291E3,1.323E3,3.59E2,9.32E2,8.12E2,5.11E2,3.3E1,3.26E2,4.64E2,4.68E2,4.15E2,3.97E2,4.72E2,3.9E1,1.3E1,2E1,3.22E2,4E0,4.58E2,6E0,4.43E2,2.5E1,1.63E2,2.52E2,3.4E2,5.7E1,2E1,4.52E2,1.7E1,2.2E1],"tree_param":{"num_deleted":"0","num_feature":"31","num_nodes":"31","size_leaf_vector":"1"}},{"base_weights":[-3.3889517E-2,-1.2021366E0,1.9915533E0,-2.1903408E0,-4.1840488E-1,1.7240866E0,5.356626E0,-3.8737755E0,-1.8651631E0,-3.4611794E-1,-2.981479E0,1.3403692E0,2.3467815E0,4.4495826E0,3.902504E-1,-2.4028762E-1,-1.1233021E-1,-1.435082E-1,-8.430564E-2,-3.2513086E-2,1.2327048E-2,-1.9208148E-1,1.639723E-2,7.300222E-2,-1.8467779E-3,-4.251439E-2,1.2304624E-1,2.584472E-1,1.1982846E-1],"categories":[],"categories_nodes":[],"categories_segments":[],"categories_sizes":[],"default_left":[1,0,0,0,1,0,0,0,0,1,0,0,0,0,0,0,0,0,0,0,0,0,0,0,0,0,0,0,0],"id":50,"left_children":[1,3,5,7,9,11,13,15,17,19,21,23,25,27,-1,-1,-1,-1,-1,-1,-1,-1,-1,-1,-1,-1,-1,-1,-1],"loss_changes":[6.145123E3,1.2737471E3,8.36572E2,3.8406787E2,1.6857603E2,2.046919E2,8.377637E1,1.5431909E2,1.0080786E2,1.6218826E2,7.368472E1,9.092865E1,1.2606958E2,5.6451782E1,0E0,0E0,0E0,0E0,0E0,0E0,0E0,0E0,0E0,0E0,0E0,0E0,0E0,0E0,0E0],"parents":[2147483647,0,0,1,1,2,2,3,3,4,4,5,5,6,6,7,7,8,8,9,9,10,10,11,11,12,12,13,13],"right_children":[2,4,6,8,10,12,14,16,18,20,22,24,26,28,-1,-1,-1,-1,-1,-1,-1,-1,-1,-1,-1,-1,-1,-1,-1],"split_conditions":[7.962631E1,5.388E1,1.1246273E2,3.8533638E1,8.3441925E5,9.865E1,1.3401572E2,4.1E1,-2.11E0,6.985238E1,4.2E0,3.7961E2,-7.075E1,5.2E0,3.902504E-1,-2.4028762E-1,-1.1233021E-1,-1.435082E-1,-8.430564E-2,-3.2513086E-2,1.2327048E-2,-1.9208148E-1,1.639723E-2,7.300222E-2,-1.8467779E-3,