{"learner":{"attributes":{"best_iteration":"333","best_score":"7.816366820703421"},"feature_names":["Open","High","Low","Vol.","DAY","N10D","GPRD","GPRD_ACT","GPRD_THREAT","GPRD_MA30","GPRD_MA7","event","GPRC_CHN","GPRC_EGY","GPRC_ISR","GPRC_RUS","GPRC_SAU","GPRC_USA","GPRC_VEN","barcos_panamá","barcos_suez","Change ","GPRD_Delta","Price_Media_Mes_Pasado","Price_lag1","Price_lag2","Pendiente","Alto-Bajo","Bajo-Alto","Price_lag3","media_col1","desv_col1","skew_col1","kurt_col1","cambio_pct","evento_extremo","media_sp","desv_sp","skew_sp","kurt_sp","GPRD_extremo","momentum_sp"],"feature_types":["float","float","float","float","float","float","float","float","float","float","float","c","float","float","float","float","float","float","float","int","int","float","float","float","float","float","float","float","float","float","float","float","float","float","float","int","float","float","float","float","int","float"],"gradient_booster":{"model":{"gbtree_model_param":{"num_parallel_tree":"1","num_trees":"384"},"iteration_indptr":[0,1,2,3,4,5,6,7,8,9,10,11,12,13,14,15,16,17,18,19,20,21,22,23,24,25,26,27,28,29,30,31,32,33,34,35,36,37,38,39,40,41,42,43,44,45,46,47,48,49,50,51,52,53,54,55,56,57,58,59,60,61,62,63,64,65,66,67,68,69,70,71,72,73,74,75,76,77,78,79,80,81,82,83,84,85,86,87,88,89,90,91,92,93,94,95,96,97,98,99,100,101,102,103,104,105,106,107,108,109,110,111,112,113,114,115,116,117,118,119,120,121,122,123,124,125,126,127,128,129,130,131,132,133,134,135,136,137,138,139,140,141,142,143,144,145,146,147,148,149,150,151,152,153,154,155,156,157,158,159,160,161,162,163,164,165,166,167,168,169,170,171,172,173,174,175,176,177,178,179,180,181,182,183,184,185,186,187,188,189,190,191,192,193,194,195,196,197,198,199,200,201,202,203,204,205,206,207,208,209,210,211,212,213,214,215,216,217,218,219,220,221,222,223,224,225,226,227,228,229,230,231,232,233,234,235,236,237,238,239,240,241,242,243,244,245,246,247,248,249,250,251,252,253,254,255,256,257,258,259,260,261,262,263,264,265,266,267,268,269,270,271,272,273,274,275,276,277,278,279,280,281,282,283,284,285,286,287,288,289,290,291,292,293,294,295,296,297,298,299,300,301,302,303,304,305,306,307,308,309,310,311,312,313,314,315,316,317,318,319,320,321,322,323,324,325,326,327,328,329,330,331,332,333,334,335,336,337,338,339,340,341,342,343,344,345,346,347,348,349,350,351,352,353,354,355,356,357,358,359,360,361,362,363,364,365,366,367,368,369,370,371,372,373,374,375,376,377,378,379,380,381,382,383,384],"tree_info":[0,0,0,0,0,0,0,0,0,0,0,0,0,0,0,0,0,0,0,0,0,0,0,0,0,0,0,0,0,0,0,0,0,0,0,0,0,0,0,0,0,0,0,0,0,0,0,0,0,0,0,0,0,0,0,0,0,0,0,0,0,0,0,0,0,0,0,0,0,0,0,0,0,0,0,0,0,0,0,0,0,0,0,0,0,0,0,0,0,0,0,0,0,0,0,0,0,0,0,0,0,0,0,0,0,0,0,0,0,0,0,0,0,0,0,0,0,0,0,0,0,0,0,0,0,0,0,0,0,0,0,0,0,0,0,0,0,0,0,0,0,0,0,0,0,0,0,0,0,0,0,0,0,0,0,0,0,0,0,0,0,0,0,0,0,0,0,0,0,0,0,0,0,0,0,0,0,0,0,0,0,0,0,0,0,0,0,0,0,0,0,0,0,0,0,0,0,0,0,0,0,0,0,0,0,0,0,0,0,0,0,0,0,0,0,0,0,0,0,0,0,0,0,0,0,0,0,0,0,0,0,0,0,0,0,0,0,0,0,0,0,0,0,0,0,0,0,0,0,0,0,0,0,0,0,0,0,0,0,0,0,0,0,0,0,0,0,0,0,0,0,0,0,0,0,0,0,0,0,0,0,0,0,0,0,0,0,0,0,0,0,0,0,0,0,0,0,0,0,0,0,0,0,0,0,0,0,0,0,0,0,0,0,0,0,0,0,0,0,0,0,0,0,0,0,0,0,0,0,0,0,0,0,0,0,0,0,0,0,0,0,0,0,0,0,0,0,0,0,0,0,0,0,0,0,0,0,0,0,0,0,0,0,0,0,0,0,0,0,0,0,0,0,0,0,0,0,0,0,0,0,0,0,0],"trees":[{"base_weights":[2.5331324E-1,-1.3693127E1,2.607091E1,-2.2941692E1,-3.5611796E0,2.3941084E1,5.095831E1,-3.0571207E1,-1.9018545E1,-8.990223E0,7.316056E-1,1.8691448E1,2.8773851E1,5.7389693E0,3.336334E0,-3.7553856E1,-2.7497059E1,-2.203079E1,-1.5369431E1,-3.7096796E0,-1.0514296E1,4.58563E0,-2.9112096E0,1.1465395E1,2.1273438E1,7.8001823E0,2.949109E1,-4.0203986E0,-3.2020192E0,-1.91668E0,-2.7831004E0,-2.2556894E1,-7.9809794E0,-2.64179E0,-1.479749E1,-6.747371E0,-1.0376997E0,-1.2027605E1,-6.9231315E0,5.4640164E0,-9.858838E0,-3.1898588E-1,-7.339646E0,1.3998267E1,4.220854E0,2.1819307E1,1.0811782E0,-2.2294757E0,1.3473585E1,2.692E1,3.2631786E1,-2.1276376E0,-2.7045753E0,-8.9868015E-1,-1.2973684E-1,-1.366496E0,-1.8769683E0,-7.8460073E-1,-5.2015036E-1,-2.7710024E-1,1.9346409E-2,-8.237036E-1,-1.3295048E0,-7.7207583E-1,-3.8967186E-1,3.411085E-1,7.819724E-1,-1.2485383E0,-4.2758808E-1,2.1973157E-1,-2.4027477E-1,-1.269926E0,-4.1802046E-1,5.922761E-1,1.5598404E0,2.3923297E-1,7.069034E-1,3.0603712E0,2.1229122E0,2.6420785E-2,-4.1657907E-1,6.003156E-1,1.6884807E0,2.1077693E0,2.8669462E0,-2.275528E-1,3.28177E0],"categories":[],"categories_nodes":[],"categories_segments":[],"categories_sizes":[],"default_left":[0,0,0,0,0,0,0,0,0,0,0,0,0,0,0,0,0,0,0,0,0,0,0,0,0,0,0,0,0,0,0,0,0,0,0,0,0,0,0,0,0,0,0,0,0,0,0,0,0,0,0,0,0,0,0,0,0,0,0,0,0,0,0,0,0,0,0,0,0,0,0,0,0,0,0,0,0,0,0,0,0,0,0,0,0,0,0],"id":0,"left_children":[1,3,5,7,9,11,13,15,17,19,21,23,25,-1,-1,27,29,31,33,35,37,39,41,43,45,47,49,-1,-1,-1,-1,51,53,-1,55,57,59,61,63,65,67,69,71,73,75,77,-1,79,81,83,85,-1,-1,-1,-1,-1,-1,-1,-1,-1,-1,-1,-1,-1,-1,-1,-1,-1,-1,-1,-1,-1,-1,-1,-1,-1,-1,-1,-1,-1,-1,-1,-1,-1,-1,-1,-1],"loss_changes":[1.01429594E6,1.713065E5,5.114975E4,2.8033281E4,2.037578E4,2.2599875E4,6.7985938E3,5.9008125E3,6.6303438E3,3.0674941E3,6.8786646E3,7.965422E3,6.885375E3,0E0,0E0,1.205E2,1.008125E2,2.3701094E3,1.4416094E3,7.0726355E2,1.5416602E3,3.0735708E3,2.890492E3,2.1061562E3,1.6086719E3,9.9737805E2,2.8118438E3,0E0,0E0,0E0,0E0,1.3329219E3,8.2456055E1,0E0,9.941289E2,2.8821167E1,1.029671E2,8.945918E2,1.8958398E2,1.0614507E3,1.5190845E2,8.4421924E2,1.5217197E3,1.0318223E3,1.4974347E2,9.367344E2,0E0,3.4900528E1,1.7895435E2,2.0225E3,1.379125E3,0E0,0E0,0E0,0E0,0E0,0E0,0E0,0E0,0E0,0E0,0E0,0E0,0E0,0E0,0E0,0E0,0E0,0E0,0E0,0E0,0E0,0E0,0E0,0E0,0E0,0E0,0E0,0E0,0E0,0E0,0E0,0E0,0E0,0E0,0E0,0E0],"parents":[2147483647,0,0,1,1,2,2,3,3,4,4,5,5,6,6,7,7,8,8,9,9,10,10,11,11,12,12,15,15,16,16,17,17,18,18,19,19,20,20,21,21,22,22,23,23,24,24,25,25,26,26,31,31,32,32,34,34,35,35,36,36,37,37,38,38,39,39,40,40,41,41,42,42,43,43,44,44,45,45,47,47,48,48,49,49,50,50],"right_children":[2,4,6,8,10,12,14,16,18,20,22,24,26,-1,-1,28,30,32,34,36,38,40,42,44,46,48,50,-1,-1,-1,-1,52,54,-1,56,58,60,62,64,66,68,70,72,74,76,78,-1,80,82,84,86,-1,-1,-1,-1,-1,-1,-1,-1,-1,-1,-1,-1,-1,-1,-1,-1,-1,-1,-1,-1,-1,-1,-1,-1,-1,-1,-1,-1,-1,-1,-1,-1,-1,-1,-1,-1],"split_conditions":[7.840263E1,5.8019524E1,1.1246273E2,4.5170433E1,6.429318E1,9.475739E1,2.0080716E7,3.796091E1,5.177875E1,1.27435E-1,5.1065E-2,8.561E1,5.9985E-2,5.7389693E0,3.336334E0,-1.525E1,1.005E3,5.253575E4,-4.93E0,1.992213E0,1.063E3,2.17787E-1,1.06E3,8.4339134E1,9.471591E1,-6.975E1,1.0190773E2,-4.0203986E0,-3.2020192E0,-1.91668E0,-2.7831004E0,4.994E1,4.985E1,-2.64179E0,1.079414E0,2.0070424E7,3.80327E-1,1.005E3,1.178409E0,7.44365E1,7.729E1,1.24083E-1,1.063E3,7.962631E1,8.385E1,1.005E3,1.0811782E0,2.0080924E7,1.0412E2,1.1416E-2,1.433396E0,-2.1276376E0,-2.7045753E0,-8.9868015E-1,-1.2973684E-1,-1.366496E0,-1.8769683E0,-7.8460073E-1,-5.2015036E-1,-2.7710024E-1,1.9346409E-2,-8.237036E-1,-1.3295048E0,-7.7207583E-1,-3.8967186E-1,3.411085E-1,7.819724E-1,-1.2485383E0,-4.2758808E-1,2.1973157E-1,-2.4027477E-1,-1.269926E0,-4.1802046E-1,5.922761E-1,1.5598404E0,2.3923297E-1,7.069034E-1,3.0603712E0,2.1229122E0,2.6420785E-2,-4.1657907E-1,6.003156E-1,1.6884807E0,2.1077693E0,2.8669462E0,-2.275528E-1,3.28177E0],"split_indices":[23,23,23,23,23,23,4,23,23,16,18,23,16,0,0,41,19,41,21,17,19,16,19,23,23,41,23,0,0,0,0,23,2,0,15,4,15,19,15,23,0,16,19,23,2,19,0,4,1,18,17,0,0,0,0,0,0,0,0,0,0,0,0,0,0,0,0,0,0,0,0,0,0,0,0,0,0,0,0,0,0,0,0,0,0,0,0],"split_type":[0,0,0,0,0,0,0,0,0,0,0,0,0,0,0,0,0,0,0,0,0,0,0,0,0,0,0,0,0,0,0,0,0,0,0,0,0,0,0,0,0,0,0,0,0,0,0,0,0,0,0,0,0,0,0,0,0,0,0,0,0,0,0,0,0,0,0,0,0,0,0,0,0,0,0,0,0,0,0,0,0,0,0,0,0,0,0],"sum_hessian":[2.815E3,1.828E3,9.87E2,9.55E2,8.73E2,9.11E2,7.6E1,3.22E2,6.33E2,3.85E2,4.88E2,4.39E2,4.72E2,5.4E1,2.2E1,9.5E1,2.27E2,3.44E2,2.89E2,8.7E1,2.98E2,2.37E2,2.51E2,1.17E2,3.22E2,1.6E1,4.56E2,6E1,3.5E1,1.1E1,2.16E2,3.31E2,1.3E1,1.2E1,2.77E2,4E1,4.7E1,2.08E2,9E1,2.24E2,1.3E1,1.59E2,9.2E1,8.6E1,3.1E1,3.05E2,1.7E1,6E0,1E1,2.56E2,2E2,2.62E2,6.9E1,1.1E1,2E0,2.19E2,5.8E1,2.1E1,1.9E1,1.9E1,2.8E1,5.4E1,1.54E2,7E1,2E1,1.21E2,1.03E2,8E0,5E0,7.2E1,8.7E1,3.3E1,5.9E1,1.5E1,7.1E1,2E1,1.1E1,1.6E1,2.89E2,3E0,3E0,4E0,6E0,6.2E1,1.94E2,1E0,1.99E2],"tree_param":{"num_deleted":"0","num_feature":"42","num_nodes":"87","size_leaf_vector":"1"}},{"base_weights":[-1.3704654E-2,-1.2586616E1,2.3336E1,-2.1564861E1,-4.323584E0,2.1249935E1,4.4774292E1,-2.8874252E1,-1.8613575E1,-9.051586E0,3.3448032E-1,1.5410609E1,2.4884766E1,5.2378554E0,3.1603699E0,-3.3346558E1,-2.5596893E1,-1.3545641E1,-1.9532038E1,-4.5393147E0,-1.0496451E1,2.1977696E0,-3.766986E0,1.2529254E1,1.9662731E1,3.1800573E0,2.5404284E1,-2.680646E0,-3.4911313E0,-2.182033E1,-2.7086126E1,-1.6609116E1,-1.1972983E1,-2.4535648E1,-1.8329025E1,-6.079264E0,-1.343024E0,-1.2913971E1,-8.006382E0,-5.0376E-1,6.929644E0,-1.0409925E1,-2.2901607E0,2.0208807E1,1.0814383E1,1.437373E1,2.2067368E1,1.1031593E1,-4.087544E0,2.1963182E1,2.8438036E1,-1.3779465E0,-2.2660956E0,-2.7202094E0,-7.6867086E-1,-1.8101406E0,-1.0950028E0,-7.031152E-1,-1.2691411E0,-3.148395E0,-2.058447E0,-1.9943304E0,-1.4716432E0,-8.7063515E-1,-3.084794E-1,-1.7996092E-1,2.1216767E-1,-1.4725993E0,-1.1368785E0,-7.3747116E-1,-1.5456456E0,3.2425623E-2,-1.2178291E0,6.369612E-1,1.1899998E0,-1.1340178E0,-4.048774E-1,-8.358526E-2,-1.0283134E0,1.2703651E0,2.184114E0,5.570916E-1,1.3996607E0,1.4861709E0,5.534527E-1,2.5795174E0,1.9143727E0,1.2811439E0,1.762619E-2,-4.6418998E-1,-1.6163178E-1,1.4590142E0,2.266302E0,3.5464935E0,2.7164316E0],"categories":[],"categories_nodes":[],"categories_segments":[],"categories_sizes":[],"default_left":[0,0,0,0,0,0,0,0,0,0,0,0,0,0,0,0,0,0,0,0,0,0,0,0,0,0,0,0,0,0,0,0,0,0,0,0,0,0,0,0,0,0,0,0,0,0,0,0,0,0,0,0,0,0,0,0,0,0,0,0,0,0,0,0,0,0,0,0,0,0,0,0,0,0,0,0,0,0,0,0,0,0,0,0,0,0,0,0,0,0,0,0,0,0,0],"id":1,"left_children":[1,3,5,7,9,11,13,15,17,19,21,23,25,-1,-1,27,29,31,33,35,37,39,41,43,45,47,49,-1,-1,51,53,55,57,59,61,63,65,67,69,71,73,75,77,79,81,83,85,87,89,91,93,-1,-1,-1,-1,-1,-1,-1,-1,-1,-1,-1,-1,-1,-1,-1,-1,-1,-1,-1,-1,-1,-1,-1,-1,-1,-1,-1,-1,-1,-1,-1,-1,-1,-1,-1,-1,-1,-1,-1,-1,-1,-1,-1,-1],"loss_changes":[8.2200675E5,1.349281E5,4.2875812E4,1.8273469E4,2.090318E4,1.8612844E4,6.9577656E3,2.796125E3,2.6399688E3,3.0230938E3,3.6689014E3,3.9927969E3,6.1210312E3,0E0,0E0,1.07984375E2,2.4135156E2,2.780996E2,2.7165E3,5.6280176E2,2.0396523E3,4.2219795E3,1.447729E3,2.5338672E3,1.4379102E3,8.4395776E2,4.981375E3,0E0,0E0,5.4335938E0,2.0382812E1,6.358496E1,1.557373E2,2.0698672E3,2.2024844E3,5.867478E2,6.55135E1,3.3376758E2,7.2368066E2,2.0436228E3,2.5822852E2,1.1385864E2,1.4328108E3,1.7582031E2,2.8086836E3,1.1616211E2,5.1977344E2,1.3298749E2,3.456726E0,9.9028906E2,1.5606406E3,0E0,0E0,0E0,0E0,0E0,0E0,0E0,0E0,0E0,0E0,0E0,0E0,0E0,0E0,0E0,0E0,0E0,0E0,0E0,0E0,0E0,0E0,0E0,0E0,0E0,0E0,0E0,0E0,0E0,0E0,0E0,0E0,0E0,0E0,0E0,0E0,0E0,0E0,0E0,0E0,0E0,0E0,0E0,0E0],"parents":[2147483647,0,0,1,1,2,2,3,3,4,4,5,5,6,6,7,7,8,8,9,9,10,10,11,11,12,12,15,15,16,16,17,17,18,18,19,19,20,20,21,21,22,22,23,23,24,24,25,25,26,26,29,29,30,30,31,31,32,32,33,33,34,34,35,35,36,36,37,37,38,38,39,39,40,40,41,41,42,42,43,43,44,44,45,45,46,46,47,47,48,48,49,49,50,50],"right_children":[2,4,6,8,10,12,14,16,18,20,22,24,26,-1,-1,28,30,32,34,36,38,40,42,44,46,48,50,-1,-1,52,54,56,58,60,62,64,66,68,70,72,74,76,78,80,82,84,86,88,90,92,94,-1,-1,-1,-1,-1,-1,-1,-1,-1,-1,-1,-1,-1,-1,-1,-1,-1,-1,-1,-1,-1,-1,-1,-1,-1,-1,-1,-1,-1,-1,-1,-1,-1,-1,-1,-1,-1,-1,-1,-1,-1,-1,-1,-1],"split_conditions":[8E1,5.474E1,1.0748E2,4.37E1,6.389E1,9.152E1,2.0080716E7,3.812E1,1.02617E-1,1.27435E-1,2.0120628E7,2.27234E-1,7.2023E-2,5.2378554E0,3.1603699E0,1.044E3,4.45568E-1,8.4157326E1,1.017E3,1.14842E-1,1.115E3,2.0090918E7,8.16942E-1,2.0080304E7,3.06772E-1,2.0080924E7,1.0015E2,-2.680646E0,-3.4911313E0,6.846531E1,4.268E1,1.111E3,2.0090506E7,8.189647E1,5.095E1,4.73037E-1,1.0070781E2,1.45151E-1,1.16889E0,1.136E3,2.0100914E7,7.78E1,1.136E3,2.0070928E7,2.0100824E7,1.3565337E2,3.30451E-1,1.1224E2,1.15E0,2.87642E-1,2.0110404E7,-1.3779465E0,-2.2660956E0,-2.7202094E0,-7.6867086E-1,-1.8101406E0,-1.0950028E0,-7.031152E-1,-1.2691411E0,-3.148395E0,-2.058447E0,-1.9943304E0,-1.4716432E0,-8.7063515E-1,-3.084794E-1,-1.7996092E-1,2.1216767E-1,-1.4725993E0,-1.1368785E0,-7.3747116E-1,-1.5456456E0,3.2425623E-2,-1.2178291E0,6.369612E-1,1.1899998E0,-1.1340178E0,-4.048774E-1,-8.358526E-2,-1.0283134E0,1.2703651E0,2.184114E0,5.570916E-1,1.3996607E0,1.4861709E0,5.534527E-1,2.5795174E0,1.9143727E0,1.2811439E0,1.762619E-2,-4.6418998E-1,-1.6163178E-1,1.4590142E0,2.266302E0,3.5464935E0,2.7164316E0],"split_indices":[1,2,2,1,2,2,4,1,13,16,4,13,13,0,0,19,12,9,19,16,20,4,15,4,12,4,1,0,0,9,2,20,4,9,0,15,9,13,12,20,4,0,20,4,4,6,15,1,26,15,4,0,0,0,0,0,0,0,0,0,0,0,0,0,0,0,0,0,0,0,0,0,0,0,0,0,0,0,0,0,0,0,0,0,0,0,0,0,0,0,0,0,0,0,0],"split_type":[0,0,0,0,0,0,0,0,0,0,0,0,0,0,0,0,0,0,0,0,0,0,0,0,0,0,0,0,0,0,0,0,0,0,0,0,0,0,0,0,0,0,0,0,0,0,0,0,0,0,0,0,0,0,0,0,0,0,0,0,0,0,0,0,0,0,0,0,0,0,0,0,0,0,0,0,0,0,0,0,0,0,0,0,0,0,0,0,0,0,0,0,0,0,0],"sum_hessian":[2.798E3,1.819E3,9.79E2,8.71E2,9.48E2,8.94E2,8.5E1,2.48E2,6.23E2,4.7E2,4.78E2,3.45E2,5.49E2,5.2E1,3.3E1,1.01E2,1.47E2,9.8E1,5.25E2,1.15E2,3.55E2,3.29E2,1.49E2,2.08E2,1.37E2,1.3E1,5.36E2,2.3E1,7.8E1,4.6E1,1.01E2,3E1,6.8E1,9.8E1,4.27E2,7.7E1,3.8E1,1.78E2,1.77E2,2.1E2,1.19E2,2.6E1,1.23E2,3.6E1,1.72E2,4.5E1,9.2E1,6E0,7E0,2.55E2,2.81E2,6E0,4E1,1E2,1E0,2.2E1,8E0,1E1,5.8E1,3.3E1,6.5E1,2.92E2,1.35E2,4E1,3.7E1,3.4E1,4E0,7.8E1,1E2,1.65E2,1.2E1,1.97E2,1.3E1,1.09E2,1E1,2.2E1,4E0,1.05E2,1.8E1,8E0,2.8E1,6.6E1,1.06E2,4.2E1,3E0,3.7E1,5.5E1,5E0,1E0,5E0,2E0,2.4E1,2.31E2,3.9E1,2.42E2],"tree_param":{"num_deleted":"0","num_feature":"42","num_nodes":"95","size_leaf_vector":"1"}},{"base_weights":[8.2587555E-2,-1.1023539E1,2.1695374E1,-1.8661179E1,-2.6608574E0,1.9731873E1,4.3573128E1,-2.482407E1,-1.5502186E1,-7.4195266E0,6.5424925E-1,1.5121035E1,2.374241E1,2.518299E0,4.691514E0,-3.0880505E1,-2.2434889E1,-1.7911577E1,-1.2530597E1,-1.8683819E0,-6.773926E0,4.0036526E0,-2.4976308E0,9.296261E0,1.7193874E1,3.9490855E0,2.4305443E1,-3.2855155E0,-2.5901847E0,-2.060932E1,-2.4176493E0,-1.6710419E1,-2.3328379E1,-2.2504237E0,-1.1941014E1,-7.6402826E0,-2.8021781E0,-8.259484E0,4.7052436E0,-9.599793E-1,-9.525201E0,1.2824705E1,2.3661485E0,1.7599052E1,8.3492464E-1,-3.334008E0,8.365694E0,3.2005773E0,2.328469E1,-2.4396372E0,-1.9221725E0,-1.7151283E0,-6.7939943E-1,-3.547858E0,-1.9945761E0,-1.1074764E0,-1.4991047E0,-8.5418475E-1,-5.842038E-1,-1.4624879E-2,-5.539065E-1,-1.0540996E0,-3.4606355E-1,8.242056E-1,3.3366522E-1,1.27747655E-2,-3.5724893E-1,-1.1091945E0,-5.698465E-1,6.705347E-1,1.308606E0,1.3214763E-1,5.585484E-1,1.2685174E0,1.851614E0,-4.0439606E-2,-4.6977147E-1,3.9972165E-1,1.2826986E0,1.0969113E0,2.3636405E0],"categories":[],"categories_nodes":[],"categories_segments":[],"categories_sizes":[],"default_left":[1,0,0,0,1,0,0,0,0,0,0,0,0,0,0,0,0,0,0,0,0,0,0,0,0,0,0,0,0,0,0,0,0,0,0,0,0,0,0,0,0,0,0,0,0,0,0,0,0,0,0,0,0,0,0,0,0,0,0,0,0,0,0,0,0,0,0,0,0,0,0,0,0,0,0,0,0,0,0,0,0],"id":2,"left_children":[1,3,5,7,9,11,13,15,17,19,21,23,25,-1,-1,27,29,31,33,-1,35,37,39,41,43,45,47,-1,-1,49,-1,51,53,-1,55,57,59,61,63,65,67,69,71,73,-1,75,77,-1,79,-1,-1,-1,-1,-1,-1,-1,-1,-1,-1,-1,-1,-1,-1,-1,-1,-1,-1,-1,-1,-1,-1,-1,-1,-1,-1,-1,-1,-1,-1,-1,-1],"loss_changes":[6.682546E5,1.1740942E5,3.9734562E4,1.8324438E4,1.3871516E4,1.5710469E4,3.5509688E3,3.9954531E3,4.3434688E3,2.4987148E3,5.4890396E3,4.754211E3,5.063828E3,0E0,0E0,2.396875E1,2.5208594E2,1.8874297E3,1.4306797E3,0E0,1.158835E3,2.2069966E3,2.886852E3,2.6349785E3,9.245781E2,4.7822333E2,2.7918125E3,0E0,0E0,1.7215625E2,0E0,1.1512969E3,1.799418E3,0E0,5.605547E2,4.0566406E2,4.5713544E2,1.1680237E2,1.1293662E3,6.2847156E2,2.2457764E2,2.7404297E1,1.2041864E2,1.0494688E3,0E0,2.207106E1,1.2412921E2,0E0,1.4777031E3,0E0,0E0,0E0,0E0,0E0,0E0,0E0,0E0,0E0,0E0,0E0,0E0,0E0,0E0,0E0,0E0,0E0,0E0,0E0,0E0,0E0,0E0,0E0,0E0,0E0,0E0,0E0,0E0,0E0,0E0,0E0,0E0],"parents":[2147483647,0,0,1,1,2,2,3,3,4,4,5,5,6,6,7,7,8,8,9,9,10,10,11,11,12,12,15,15,16,16,17,17,18,18,20,20,21,21,22,22,23,23,24,24,25,25,26,26,29,29,31,31,32,32,34,34,35,35,36,36,37,37,38,38,39,39,40,40,41,41,42,42,43,43,45,45,46,46,48,48],"right_children":[2,4,6,8,10,12,14,16,18,20,22,24,26,-1,-1,28,30,32,34,-1,36,38,40,42,44,46,48,-1,-1,50,-1,52,54,-1,56,58,60,62,64,66,68,70,72,74,-1,76,78,-1,80,-1,-1,-1,-1,-1,-1,-1,-1,-1,-1,-1,-1,-1,-1,-1,-1,-1,-1,-1,-1,-1,-1,-1,-1,-1,-1,-1,-1,-1,-1,-1,-1],"split_conditions":[7.962631E1,5.8019524E1,1.1246273E2,4.5170433E1,6.429318E1,9.475739E1,5.3161E-2,3.796091E1,5.177875E1,2.65044E-1,5.1065E-2,8.561E1,5.3161E-2,2.518299E0,4.691514E0,-1.525E1,4.52459E-1,5.088095E1,-4.93E0,-1.8683819E0,1.815E2,1.006E3,1.136E3,8.4339134E1,9.471591E1,-6.975E1,2.0110404E7,-3.2855155E0,-2.5901847E0,2.0090204E7,-2.4176493E0,7.230875E4,8.279301E1,-2.2504237E0,1.079414E0,6.231913E1,1.12E3,7.832E1,1.25482E-1,1.22837E-1,7.208E1,7.689E1,8.663E1,2.66179E-1,8.3492464E-1,9.73E1,1.028E2,3.2005773E0,1.7365E-1,-2.4396372E0,-1.9221725E0,-1.7151283E0,-6.7939943E-1,-3.547858E0,-1.9945761E0,-1.1074764E0,-1.4991047E0,-8.5418475E-1,-5.842038E-1,-1.4624879E-2,-5.539065E-1,-1.0540996E0,-3.4606355E-1,8.242056E-1,3.3366522E-1,1.27747655E-2,-3.5724893E-1,-1.1091945E0,-5.698465E-1,6.705347E-1,1.308606E0,1.3214763E-1,5.585484E-1,1.2685174E0,1.851614E0,-4.0439606E-2,-4.6977147E-1,3.9972165E-1,1.2826986E0,1.0969113E0,2.3636405E0],"split_indices":[23,23,23,23,23,23,13,23,23,12,18,23,13,0,0,41,12,23,21,0,41,20,20,23,23,41,4,0,0,4,0,41,9,0,15,23,20,1,13,13,2,0,1,14,0,0,0,0,14,0,0,0,0,0,0,0,0,0,0,0,0,0,0,0,0,0,0,0,0,0,0,0,0,0,0,0,0,0,0,0,0],"split_type":[0,0,0,0,0,0,0,0,0,0,0,0,0,0,0,0,0,0,0,0,0,0,0,0,0,0,0,0,0,0,0,0,0,0,0,0,0,0,0,0,0,0,0,0,0,0,0,0,0,0,0,0,0,0,0,0,0,0,0,0,0,0,0,0,0,0,0,0,0,0,0,0,0,0,0,0,0,0,0,0,0],"sum_hessian":[2.782E3,1.838E3,9.44E2,9.6E2,8.78E2,8.68E2,7.6E1,3.23E2,6.37E2,3.6E2,5.18E2,4.06E2,4.62E2,1.3E1,6.3E1,8.8E1,2.35E2,3.49E2,2.88E2,1.8E1,3.42E2,2.51E2,2.67E2,1.08E2,2.98E2,1.3E1,4.49E2,5.9E1,2.9E1,1.21E2,1.14E2,2.89E2,6E1,1.4E1,2.74E2,2.8E2,6.2E1,1.3E1,2.38E2,2.2E2,4.7E1,7.1E1,3.7E1,2.84E2,1.4E1,5E0,8E0,4.9E1,4E2,2.8E1,9.3E1,2.76E2,1.3E1,1.1E1,4.9E1,2.17E2,5.7E1,1.84E2,9.6E1,3.2E1,3E1,8E0,5E0,6.5E1,1.73E2,1.56E2,6.4E1,3.2E1,1.5E1,4E0,6.7E1,2.9E1,8E0,4.7E1,2.37E2,2E0,3E0,5E0,3E0,1.2E1,3.88E2],"tree_param":{"num_deleted":"0","num_feature":"42","num_nodes":"81","size_leaf_vector":"1"}},{"base_weights":[-1.4137933E-1,-9.907254E0,1.925253E1,-1.6879263E1,-2.2017725E0,1.670303E1,3.0087143E1,-2.2616314E1,-1.3957305E1,-6.515237E0,8.3293486E-1,9.147594E0,1.82067E1,2.5626123E1,4.063795E1,-2.7862955E1,-2.0230593E1,-1.5912842E1,-1.1400181E1,-1.0437064E1,-5.084713E0,5.4619613E0,-6.4599216E-2,1.1558423E1,4.9891973E0,1.5202728E1,1.9847507E1,3.1442811E0,2.3107328E0,4.6630588E0,3.1575696E0,-2.4509141E0,-3.0716586E0,-1.8545397E1,-2.1884503E0,-1.2104198E1,-1.7237528E1,-2.0804985E0,-1.0864347E1,-1.4690814E1,-6.6370244E0,-4.3169003E0,-9.699425E0,7.815831E0,3.669157E0,-1.2129744E1,3.116873E-1,6.013306E-1,1.1773986E0,1.888768E0,1.0531817E1,1.0525138E1,1.5817255E1,9.720949E0,2.0441097E1,-1.5592531E0,-2.015206E0,-1.3142335E0,-7.205314E-1,-2.8893785E0,-1.6616528E0,-7.3996395E-1,-1.1496414E0,-1.5063246E0,6.618805E-2,-4.538816E-1,-8.721537E-1,-2.1102881E-1,-5.3567654E-1,-9.948579E-1,-3.6493685E-2,8.497602E-1,3.1043395E-1,4.63549E-1,1.5775017E-1,-1.388979E0,-6.5357125E-1,1.5629248E-1,-2.7621078E-1,3.414848E-2,4.439116E-1,1.200596E0,2.7393666E-1,-1.06556706E-1,1.1423175E0,1.3902167E0,1.8310156E0,1.1503042E0,-2.0652771E-1,2.0921435E0,8.325924E-1],"categories":[],"categories_nodes":[],"categories_segments":[],"categories_sizes":[],"default_left":[1,1,0,0,0,0,0,0,0,0,0,0,0,0,0,0,0,0,0,0,0,0,0,0,0,0,0,0,0,0,0,0,0,0,0,0,0,0,0,0,0,0,0,0,0,0,0,0,0,0,0,0,0,0,0,0,0,0,0,0,0,0,0,0,0,0,0,0,0,0,0,0,0,0,0,0,0,0,0,0,0,0,0,0,0,0,0,0,0,0,0],"id":3,"left_children":[1,3,5,7,9,11,13,15,17,19,21,23,25,27,29,31,33,35,37,39,41,43,45,47,49,51,53,-1,-1,-1,-1,-1,-1,55,-1,57,59,-1,61,63,65,67,69,71,73,75,77,-1,-1,79,81,83,85,87,89,-1,-1,-1,-1,-1,-1,-1,-1,-1,-1,-1,-1,-1,-1,-1,-1,-1,-1,-1,-1,-1,-1,-1,-1,-1,-1,-1,-1,-1,-1,-1,-1,-1,-1,-1,-1],"loss_changes":[5.2027894E5,9.81142E4,2.4910438E4,1.57604375E4,1.1380725E4,8.320016E3,7.1483125E3,3.4667969E3,3.0089453E3,1.9610176E3,2.1234092E3,1.2055059E3,2.7640625E3,1.1048203E3,1.2429531E3,1.8507031E2,2.2125781E2,1.6026016E3,1.185E3,1.4381162E3,8.9708496E2,3.2158472E2,1.9514198E3,2.3628906E1,8.04964E2,4.7741016E2,2.1996719E3,0E0,0E0,0E0,0E0,0E0,0E0,2.4559766E2,0E0,3.935332E2,1.4308594E3,0E0,4.9964062E2,2.615547E2,1.8784912E2,5.141538E2,8.242139E1,8.604614E1,9.172797E1,3.7215088E1,1.6081188E3,0E0,0E0,1.24759674E2,1.6239343E2,3.1402954E2,6.811758E2,5.2785693E2,2.013875E3,0E0,0E0,0E0,0E0,0E0,0E0,0E0,0E0,0E0,0E0,0E0,0E0,0E0,0E0,0E0,0E0,0E0,0E0,0E0,0E0,0E0,0E0,0E0,0E0,0E0,0E0,0E0,0E0,0E0,0E0,0E0,0E0,0E0,0E0,0E0,0E0],"parents":[2147483647,0,0,1,1,2,2,3,3,4,4,5,5,6,6,7,7,8,8,9,9,10,10,11,11,12,12,13,13,14,14,15,15,16,16,17,17,18,18,19,19,20,20,21,21,22,22,23,23,24,24,25,25,26,26,33,33,35,35,36,36,38,38,39,39,40,40,41,41,42,42,43,43,44,44,45,45,46,46,49,49,50,50,51,51,52,52,53,53,54,54],"right_children":[2,4,6,8,10,12,14,16,18,20,22,24,26,28,30,32,34,36,38,40,42,44,46,48,50,52,54,-1,-1,-1,-1,-1,-1,56,-1,58,60,-1,62,64,66,68,70,72,74,76,78,-1,-1,80,82,84,86,88,90,-1,-1,-1,-1,-1,-1,-1,-1,-1,-1,-1,-1,-1,-1,-1,-1,-1,-1,-1,-1,-1,-1,-1,-1,-1,-1,-1,-1,-1,-1,-1,-1,-1,-1,-1,-1],"split_conditions":[7.962631E1,5.8019524E1,1.04555214E2,4.5170433E1,6.429318E1,8.5658264E1,1.1418E2,3.796091E1,5.177875E1,1.107E3,4.00128E-1,8.4339134E1,1.738269E0,1.637074E0,8.1623344E1,3.1595715E1,4.52459E-1,1.10354E-1,3.02072E-1,4.1478E-1,9.6296E-1,1.04744E-1,3.51882E-1,7.78E1,1.58043E-1,1.19707E-1,8.6881E-2,3.1442811E0,2.3107328E0,4.6630588E0,3.1575696E0,-2.4509141E0,-3.0716586E0,4.19235E1,-2.1884503E0,4.994E1,1.527768E0,-2.0804985E0,2.00305E-1,1.0404546E2,5.9418636E1,1.27435E-1,6.381E1,1.0606406E2,7.892E1,7.251E1,1.78333E-1,6.013306E-1,1.1773986E0,8.385E1,9.014739E1,-2.05E0,4.40397E-1,5.12E0,5.00235E-1,-1.5592531E0,-2.015206E0,-1.3142335E0,-7.205314E-1,-2.8893785E0,-1.6616528E0,-7.3996395E-1,-1.1496414E0,-1.5063246E0,6.618805E-2,-4.538816E-1,-8.721537E-1,-2.1102881E-1,-5.3567654E-1,-9.948579E-1,-3.6493685E-2,8.497602E-1,3.1043395E-1,4.63549E-1,1.5775017E-1,-1.388979E0,-6.5357125E-1,1.5629248E-1,-2.7621078E-1,3.414848E-2,4.439116E-1,1.200596E0,2.7393666E-1,-1.06556706E-1,1.1423175E0,1.3902167E0,1.8310156E0,1.1503042E0,-2.0652771E-1,2.0921435E0,8.325924E-1],"split_indices":[23,23,23,23,23,23,2,23,23,20,15,23,17,17,9,23,12,13,12,12,12,13,12,0,13,13,13,0,0,0,0,0,0,23,0,23,17,0,16,10,23,16,0,9,0,0,16,0,0,2,8,29,15,27,16,0,0,0,0,0,0,0,0,0,0,0,0,0,0,0,0,0,0,0,0,0,0,0,0,0,0,0,0,0,0,0,0,0,0,0,0],"split_type":[0,0,0,0,0,0,0,0,0,0,0,0,0,0,0,0,0,0,0,0,0,0,0,0,0,0,0,0,0,0,0,0,0,0,0,0,0,0,0,0,0,0,0,0,0,0,0,0,0,0,0,0,0,0,0,0,0,0,0,0,0,0,0,0,0,0,0,0,0,0,0,0,0,0,0,0,0,0,0,0,0,0,0,0,0,0,0,0,0,0,0],"sum_hessian":[2.745E3,1.826E3,9.19E2,9.58E2,8.68E2,7.46E2,1.73E2,3.21E2,6.37E2,3.58E2,5.1E2,1.25E2,6.21E2,1.24E2,4.9E1,9.7E1,2.24E2,3.58E2,2.79E2,9.4E1,2.64E2,8.2E1,4.28E2,7.8E1,4.7E1,2.23E2,3.98E2,3.4E1,9E1,2.7E1,2.2E1,4.9E1,4.8E1,1.17E2,1.07E2,9.5E1,2.63E2,1.3E1,2.66E2,4.3E1,5.1E1,2.28E2,3.6E1,3.4E1,4.8E1,1.2E1,4.16E2,4E0,7.4E1,3.1E1,1.6E1,2.8E1,1.95E2,2.3E1,3.75E2,4.5E1,7.2E1,7.7E1,1.8E1,1.1E1,2.52E2,4.3E1,2.23E2,4.2E1,1E0,2.7E1,2.4E1,7.4E1,1.54E2,3.5E1,1E0,2.9E1,5E0,3.2E1,1.6E1,8E0,4E0,2.96E2,1.2E2,2E1,1.1E1,1.3E1,3E0,2E0,2.6E1,1.14E2,8.1E1,2E1,3E0,3.6E2,1.5E1],"tree_param":{"num_deleted":"0","num_feature":"42","num_nodes":"91","size_leaf_vector":"1"}},{"base_weights":[-6.9922395E-2,-9.165736E0,1.7441717E1,-1.5343604E1,-2.413378E0,1.494043E1,2.7673407E1,-2.0440006E1,-1.2687647E1,-5.221603E0,1.3644576E0,8.89502E0,1.6496225E1,3.7294918E1,2.2525806E1,-2.5752823E1,-1.8246569E1,-1.4838095E1,-1.0081333E1,-1.0479156E1,-4.428314E0,3.5579975E0,-1.382296E0,7.449657E0,1.4074768E0,1.2629107E1,1.7692175E1,2.9364085E0,4.075002E0,2.3372302E0,1.7755598E0,-3.0942397E0,-2.3836064E0,-1.7468119E1,-2.126413E0,-1.1112921E1,-1.5820787E1,-1.8647053E0,-9.5828905E0,-5.8979E0,-1.4617457E1,-3.9616385E0,-1.1778654E1,4.4227834E0,-8.036723E0,-5.219561E-1,-6.82089E0,9.635765E0,4.2754383E0,1.4597383E1,9.71055E0,3.0534465E0,1.807071E1,-1.5640125E0,-1.9099215E0,-1.2785184E0,-8.273018E-1,-2.5448534E0,-1.5202112E0,-7.756345E-1,-1.102447E0,-6.3341594E-1,-2.1880157E-1,-1.499101E0,-5.760418E-1,-2.2361378E-1,-4.976627E-1,-6.459915E-1,-1.305128E0,7.623598E-1,3.2822093E-1,-9.5117515E-1,-1.602457E-1,-1.5062031E-1,3.0622503E-1,-8.731745E-1,-3.9425263E-1,1.0642704E0,5.855867E-1,6.384156E-1,1.9302712E-1,1.79343E0,1.1643565E0,7.690854E-1,1.1011689E0,-2.6918408E-1,8.362527E-1,1.8730057E0,1.0745245E0],"categories":[],"categories_nodes":[],"categories_segments":[],"categories_sizes":[],"default_left":[0,0,0,0,0,0,0,0,0,0,0,0,0,0,0,0,0,0,0,0,0,0,0,0,0,0,0,0,0,0,0,0,0,0,0,0,0,0,0,0,0,0,0,0,0,0,0,0,0,0,0,0,0,0,0,0,0,0,0,0,0,0,0,0,0,0,0,0,0,0,0,0,0,0,0,0,0,0,0,0,0,0,0,0,0,0,0,0,0],"id":4,"left_children":[1,3,5,7,9,11,13,15,17,19,21,23,25,27,29,31,33,35,37,39,41,43,45,47,-1,49,51,-1,-1,-1,-1,-1,-1,53,-1,55,57,-1,59,61,63,65,67,69,71,73,75,77,79,81,83,85,87,-1,-1,-1,-1,-1,-1,-1,-1,-1,-1,-1,-1,-1,-1,-1,-1,-1,-1,-1,-1,-1,-1,-1,-1,-1,-1,-1,-1,-1,-1,-1,-1,-1,-1,-1,-1],"loss_changes":[4.4869972E5,7.730289E4,2.4232031E4,1.2843359E4,9.417318E3,7.151875E3,8.471125E3,3.3757031E3,3.4318438E3,2.0765098E3,2.288436E3,1.1004922E3,2.6255E3,5.571406E2,8.975391E1,1.9748828E2,1.8527344E2,1.0981094E3,1.0680078E3,1.1650571E3,1.4763574E3,2.1512312E3,7.871974E2,8.4701855E2,0E0,7.1418555E2,2.538125E3,0E0,0E0,0E0,0E0,0E0,0E0,2.7972266E2,0E0,2.5515723E2,1.2392344E3,0E0,6.4649414E2,3.9550293E1,2.6137207E1,7.226929E2,9.1677734E1,6.9417847E2,1.2711871E2,5.2319086E2,9.2078E1,2.2313672E2,2.5472272E2,6.48709E2,8.086865E1,4.190391E2,2.0012344E3,0E0,0E0,0E0,0E0,0E0,0E0,0E0,0E0,0E0,0E0,0E0,0E0,0E0,0E0,0E0,0E0,0E0,0E0,0E0,0E0,0E0,0E0,0E0,0E0,0E0,0E0,0E0,0E0,0E0,0E0,0E0,0E0,0E0,0E0,0E0,0E0],"parents":[2147483647,0,0,1,1,2,2,3,3,4,4,5,5,6,6,7,7,8,8,9,9,10,10,11,11,12,12,13,13,14,14,15,15,16,16,17,17,18,18,19,19,20,20,21,21,22,22,23,23,25,25,26,26,33,33,35,35,36,36,38,38,39,39,40,40,41,41,42,42,43,43,44,44,45,45,46,46,47,47,48,48,49,49,50,50,51,51,52,52],"right_children":[2,4,6,8,10,12,14,16,18,20,22,24,26,28,30,32,34,36,38,40,42,44,46,48,-1,50,52,-1,-1,-1,-1,-1,-1,54,-1,56,58,-1,60,62,64,66,68,70,72,74,76,78,80,82,84,86,88,-1,-1,-1,-1,-1,-1,-1,-1,-1,-1,-1,-1,-1,-1,-1,-1,-1,-1,-1,-1,-1,-1,-1,-1,-1,-1,-1,-1,-1,-1,-1,-1,-1,-1,-1,-1],"split_conditions":[7.840263E1,5.8019524E1,1.04555214E2,4.5170433E1,6.697E1,8.642809E1,2.0080716E7,3.796091E1,5.177875E1,3.23846E-1,5.1065E-2,3.7547E-2,1.630986E0,1.1087E2,9.702479E1,-2.6075E2,2.05862E-1,2.0150404E7,-4.93E0,1.692542E0,5.31367E-1,2.17787E-1,1.136E3,1.124E3,1.4074768E0,1.568321E0,5.3161E-2,2.9364085E0,4.075002E0,2.3372302E0,1.7755598E0,-3.0942397E0,-2.3836064E0,4.45568E-1,-2.126413E0,3.24465E-1,1.005E3,-1.8647053E0,8.25593E-1,2.018022E7,2.28E0,1.27435E-1,6.152E1,1.1922E-1,7.832E1,7.41175E1,7.099E1,8.421E1,8.2405235E1,3.00085E-1,2.0120604E7,-7.525E1,2.0140718E7,-1.5640125E0,-1.9099215E0,-1.2785184E0,-8.273018E-1,-2.5448534E0,-1.5202112E0,-7.756345E-1,-1.102447E0,-6.3341594E-1,-2.1880157E-1,-1.499101E0,-5.760418E-1,-2.2361378E-1,-4.976627E-1,-6.459915E-1,-1.305128E0,7.623598E-1,3.2822093E-1,-9.5117515E-1,-1.602457E-1,-1.5062031E-1,3.0622503E-1,-8.731745E-1,-3.9425263E-1,1.0642704E0,5.855867E-1,6.384156E-1,1.9302712E-1,1.79343E0,1.1643565E0,7.690854E-1,1.1011689E0,-2.6918408E-1,8.362527E-1,1.8730057E0,1.0745245E0],"split_indices":[23,23,23,23,2,23,4,23,23,12,18,18,17,24,9,41,13,4,21,17,16,16,20,20,0,17,13,0,0,0,0,0,0,12,0,12,19,0,15,4,25,16,1,13,1,23,2,2,23,14,4,41,4,0,0,0,0,0,0,0,0,0,0,0,0,0,0,0,0,0,0,0,0,0,0,0,0,0,0,0,0,0,0,0,0,0,0,0,0],"split_type":[0,0,0,0,0,0,0,0,0,0,0,0,0,0,0,0,0,0,0,0,0,0,0,0,0,0,0,0,0,0,0,0,0,0,0,0,0,0,0,0,0,0,0,0,0,0,0,0,0,0,0,0,0,0,0,0,0,0,0,0,0,0,0,0,0,0,0,0,0,0,0,0,0,0,0,0,0,0,0,0,0,0,0,0,0,0,0,0,0],"sum_hessian":[2.815E3,1.853E3,9.62E2,9.67E2,8.86E2,7.75E2,1.87E2,3.29E2,6.38E2,5.08E2,3.78E2,1.6E2,6.15E2,6.3E1,1.24E2,9.3E1,2.36E2,3.47E2,2.91E2,6.5E1,4.43E2,2.1E2,1.68E2,1.27E2,3.3E1,1.48E2,4.67E2,2.2E1,4.1E1,1.02E2,2.2E1,2.1E1,7.2E1,1.93E2,4.3E1,7.5E1,2.72E2,1.4E1,2.77E2,3.2E1,3.3E1,4.18E2,2.5E1,1.96E2,1.4E1,1.46E2,2.2E1,7.4E1,5.3E1,8.6E1,6.2E1,1.2E1,4.55E2,9.6E1,9.7E1,4.5E1,3E1,1.4E1,2.58E2,1.25E2,1.52E2,2.8E1,4E0,3.1E1,2E0,1.56E2,2.62E2,6E0,1.9E1,5E1,1.46E2,1.1E1,3E0,1.15E2,3.1E1,1.2E1,1E1,5.7E1,1.7E1,2.7E1,2.6E1,3.8E1,4.8E1,2.7E1,3.5E1,6E0,6E0,4.16E2,3.9E1],"tree_param":{"num_deleted":"0","num_feature":"42","num_nodes":"89","size_leaf_vector":"1"}},{"base_weights":[-1.5983787E-1,-8.270473E0,1.5609588E1,-1.3679711E1,-2.1012583E0,1.428146E1,3.162546E1,-1.821009E1,-1.1482412E1,-5.6355734E0,6.665216E-1,1.1144139E1,1.7379282E1,3.7263246E0,2.3413754E1,-2.3057953E1,-1.6300985E1,-1.316859E1,-9.250787E0,-1.521991E0,-5.199998E0,2.701309E0,-1.5363318E0,7.3304706E0,1.2486902E1,3.4952745E0,1.7893751E1,2.5607252E0,1.6027333E0,-2.7543049E1,-2.0263195E0,-1.5669139E1,-1.9912716E0,-1.2415663E1,-1.7262766E1,-1.6953186E0,-8.769009E0,-7.7994447E0,-4.3584466E0,3.4304354E0,-7.008421E0,4.6658862E-1,-4.524369E0,9.3649235E0,4.2108417E0,1.208157E1,1.9534458E0,-2.677943E0,1.0774887E1,7.302524E0,1.8290222E1,-2.8227055E0,-1.1749984E0,-1.4358662E0,-1.7124245E0,-9.9564356E-1,-1.3283733E0,-2.61423E0,-1.4246932E0,-7.3015076E-1,-9.94325E-1,-1.1458589E0,-5.395621E-1,-3.877209E-1,-7.9367983E-1,6.453954E-1,2.5829628E-1,-8.224745E-1,-2.2010314E-1,-3.4256032E-1,1.1382369E-1,-5.919336E-1,3.217083E-1,7.8526443E-1,1.091536E0,1.7139418E-1,9.09752E-1,1.2730577E0,9.234285E-1,-4.6916023E-1,-5.535698E-2,9.2104726E-2,1.2051E0,9.82975E-2,7.63606E-1,2.142651E0,1.7312416E0],"categories":[],"categories_nodes":[],"categories_segments":[],"categories_sizes":[],"default_left":[1,1,0,0,0,0,0,0,1,0,0,0,0,0,0,0,0,1,0,0,0,0,0,0,0,0,0,0,0,1,0,0,0,0,0,0,0,0,0,0,0,0,0,0,0,0,0,0,0,0,0,0,0,0,0,0,0,0,0,0,0,0,0,0,0,0,0,0,0,0,0,0,0,0,0,0,0,0,0,0,0,0,0,0,0,0,0],"id":5,"left_children":[1,3,5,7,9,11,13,15,17,19,21,23,25,-1,27,29,31,33,35,-1,37,39,41,43,45,47,49,-1,-1,51,-1,53,-1,55,57,-1,59,61,63,65,67,69,71,73,75,77,-1,79,81,83,85,-1,-1,-1,-1,-1,-1,-1,-1,-1,-1,-1,-1,-1,-1,-1,-1,-1,-1,-1,-1,-1,-1,-1,-1,-1,-1,-1,-1,-1,-1,-1,-1,-1,-1,-1,-1],"loss_changes":[3.5812138E5,6.167379E4,1.9777172E4,9.596203E3,8.465364E3,8.358922E3,2.4608203E3,2.5857656E3,2.3842812E3,1.5072432E3,2.1825667E3,2.1616445E3,3.0874688E3,0E0,1.0805078E2,5.449492E2,2.1970312E2,9.478203E2,9.274863E2,0E0,7.6446875E2,1.815186E3,1.4025541E3,7.0313477E2,6.8953125E2,7.928113E2,1.6510781E3,0E0,0E0,3.2089844E0,0E0,1.4121484E2,0E0,5.551406E2,1.1271855E3,0E0,4.012793E2,7.122168E2,4.479541E2,5.8804395E2,8.714929E1,3.7249902E2,1.034156E3,7.841406E1,5.700816E2,4.5344922E2,0E0,4.018051E1,8.949744E1,2.8326538E1,8.833281E2,0E0,0E0,0E0,0E0,0E0,0E0,0E0,0E0,0E0,0E0,0E0,0E0,0E0,0E0,0E0,0E0,0E0,0E0,0E0,0E0,0E0,0E0,0E0,0E0,0E0,0E0,0E0,0E0,0E0,0E0,0E0,0E0,0E0,0E0,0E0,0E0],"parents":[2147483647,0,0,1,1,2,2,3,3,4,4,5,5,6,6,7,7,8,8,9,9,10,10,11,11,12,12,14,14,15,15,16,16,17,17,18,18,20,20,21,21,22,22,23,23,24,24,25,25,26,26,29,29,31,31,33,33,34,34,36,36,37,37,38,38,39,39,40,40,41,41,42,42,43,43,44,44,45,45,47,47,48,48,49,49,50,50],"right_children":[2,4,6,8,10,12,14,16,18,20,22,24,26,-1,28,30,32,34,36,-1,38,40,42,44,46,48,50,-1,-1,52,-1,54,-1,56,58,-1,60,62,64,66,68,70,72,74,76,78,-1,80,82,84,86,-1,-1,-1,-1,-1,-1,-1,-1,-1,-1,-1,-1,-1,-1,-1,-1,-1,-1,-1,-1,-1,-1,-1,-1,-1,-1,-1,-1,-1,-1,-1,-1,-1,-1,-1,-1],"split_conditions":[7.962631E1,5.8019524E1,1.1246273E2,4.5170433E1,6.411E1,9.4983475E1,7.839016E1,3.796091E1,5.177875E1,2.89436E-1,5.1065E-2,8.5658264E1,7.2023E-2,3.7263246E0,-2.755E1,-1.765E2,3.12036E-1,5.088095E1,3.02072E-1,-1.521991E0,1.047E3,2.17787E-1,1.22837E-1,8.4339134E1,6.37259E-1,-7.525E1,1.7365E-1,2.5607252E0,1.6027333E0,6.7618E2,-2.0263195E0,4.52459E-1,-1.9912716E0,1.10354E-1,8.511684E1,-1.6953186E0,8.25593E-1,4.1478E-1,4.46791E-1,1.1922E-1,7.832E1,6.4112E-2,2.87972E-1,5.59574E-1,1.58043E-1,9.388733E1,1.9534458E0,-1.1E0,9.45E1,-1.66E0,1.21984E-1,-2.8227055E0,-1.1749984E0,-1.4358662E0,-1.7124245E0,-9.9564356E-1,-1.3283733E0,-2.61423E0,-1.4246932E0,-7.3015076E-1,-9.94325E-1,-1.1458589E0,-5.395621E-1,-3.877209E-1,-7.9367983E-1,6.453954E-1,2.5829628E-1,-8.224745E-1,-2.2010314E-1,-3.4256032E-1,1.1382369E-1,-5.919336E-1,3.217083E-1,7.8526443E-1,1.091536E0,1.7139418E-1,9.09752E-1,1.2730577E0,9.234285E-1,-4.6916023E-1,-5.535698E-2,9.2104726E-2,1.2051E0,9.82975E-2,7.63606E-1,2.142651E0,1.7312416E0],"split_indices":[23,23,23,23,2,23,9,23,23,12,18,23,13,0,41,41,13,23,12,0,20,16,13,23,13,41,14,0,0,3,0,12,0,13,9,0,15,12,16,13,1,18,13,15,13,9,0,29,0,21,16,0,0,0,0,0,0,0,0,0,0,0,0,0,0,0,0,0,0,0,0,0,0,0,0,0,0,0,0,0,0,0,0,0,0,0,0],"split_type":[0,0,0,0,0,0,0,0,0,0,0,0,0,0,0,0,0,0,0,0,0,0,0,0,0,0,0,0,0,0,0,0,0,0,0,0,0,0,0,0,0,0,0,0,0,0,0,0,0,0,0,0,0,0,0,0,0,0,0,0,0,0,0,0,0,0,0,0,0,0,0,0,0,0,0,0,0,0,0,0,0,0,0,0,0,0,0],"sum_hessian":[2.798E3,1.848E3,9.5E2,9.84E2,8.64E2,8.79E2,7.1E1,3.19E2,6.65E2,3.79E2,4.85E2,4.39E2,4.4E2,4E1,3.1E1,8.7E1,2.32E2,3.76E2,2.89E2,1.5E1,3.64E2,2.52E2,2.33E2,1.16E2,3.23E2,1.6E1,4.24E2,2.2E1,9E0,3E1,5.7E1,2.02E2,3E1,3.21E2,5.5E1,1.5E1,2.74E2,8.7E1,2.77E2,2.35E2,1.7E1,1.4E2,9.3E1,6.9E1,4.7E1,3.08E2,1.5E1,9E0,7E0,1.6E1,4.08E2,2.8E1,2E0,1.12E2,9E1,8.7E1,2.34E2,1.2E1,4.3E1,1.25E2,1.49E2,3.3E1,5.4E1,2.46E2,3.1E1,5E1,1.85E2,1.3E1,4E0,2E1,1.2E2,7.9E1,1.4E1,3.8E1,3.1E1,3.2E1,1.5E1,2.48E2,6E1,4E0,5E0,1E0,6E0,1E0,1.5E1,9.2E1,3.16E2],"tree_param":{"num_deleted":"0","num_feature":"42","num_nodes":"87","size_leaf_vector":"1"}},{"base_weights":[-6.1784204E-2,-7.852123E0,1.295457E1,-1.2565792E1,-2.941595E0,9.650375E0,1.9321701E1,-1.6663233E1,-1.0671118E1,-5.206853E0,-3.2086563E-1,5.3271117E0,1.1795692E1,2.957034E1,1.632905E1,-1.9516212E1,-1.4802354E1,-1.4875621E1,-1.0176855E1,-4.2460175E0,-7.7606673E0,4.5902827E-1,-4.7965126E0,4.248715E0,1.0343279E1,1.0414825E1,1.4744014E1,2.4528313E0,3.5208077E0,1.4900834E1,1.9039042E1,-2.1761019E1,-1.6066335E0,-1.2975363E1,-1.58897295E1,-1.1932202E1,-2.1407745E1,-1.1074842E1,-7.256129E0,-3.9800897E0,-1.2490662E0,-8.055373E0,8.64415E-1,1.9631228E0,-2.0357146E0,-9.447771E0,-2.6889136E0,4.8592277E0,-4.219551E-1,1.1285133E1,1.4932702E0,8.955252E0,1.2632243E1,1.5959149E1,7.657468E0,1.6480661E1,1.2109838E1,1.9222342E0,7.1936953E-1,-1.4969252E0,-2.3091657E0,-1.6585625E0,-1.1504419E0,-1.5965862E0,-4.024031E-1,-7.9843634E-1,-1.312583E0,-2.4830644E0,-1.0423502E0,-8.6268705E-1,-1.2031654E0,-7.60676E-1,-3.46137E-1,6.988582E-2,-4.387928E-1,-8.328989E-1,-1.4685206E-1,1.536789E-2,1.2870127E-1,3.7664074E-1,-6.2066883E-2,-1.4050978E-1,-9.336481E-1,-3.9477453E-1,-1.0284593E0,-5.822152E-1,-1.5278344E-1,2.5455311E-2,5.732972E-1,-3.978925E-1,1.06750034E-1,2.5700188E-1,1.1460708E0,-1.2852879E-1,2.5092316E-1,1.3157781E0,7.066248E-1,1.3139614E0,3.696355E-1,1.8292731E0,1.4198277E0,9.058159E-1,3.898902E-1,1.6695296E0,-4.1010857E-1,1.1177613E0,1.540918E0],"categories":[],"categories_nodes":[],"categories_segments":[],"categories_sizes":[],"default_left":[0,0,0,0,0,0,0,0,0,0,1,0,0,0,0,0,0,0,0,1,0,0,0,0,0,0,0,0,0,0,0,0,0,0,1,0,0,0,0,0,0,0,0,0,0,0,0,0,0,0,0,0,0,0,0,0,0,0,0,0,0,0,0,0,0,0,0,0,0,0,0,0,0,0,0,0,0,0,0,0,0,0,0,0,0,0,0,0,0,0,0,0,0,0,0,0,0,0,0,0,0,0,0,0,0,0,0],"id":6,"left_children":[1,3,5,7,9,11,13,15,17,19,21,23,25,27,29,31,33,35,37,39,41,43,45,47,49,51,53,-1,-1,55,57,59,-1,61,63,65,67,69,71,73,-1,75,77,79,81,83,85,87,89,91,93,95,97,99,101,103,105,-1,-1,-1,-1,-1,-1,-1,-1,-1,-1,-1,-1,-1,-1,-1,-1,-1,-1,-1,-1,-1,-1,-1,-1,-1,-1,-1,-1,-1,-1,-1,-1,-1,-1,-1,-1,-1,-1,-1,-1,-1,-1,-1,-1,-1,-1,-1,-1,-1,-1],"loss_changes":[2.8220156E5,4.0261273E4,2.1735375E4,6.716E3,5.068209E3,6.318203E3,1.0405203E4,1.1923359E3,1.1162734E3,1.0908867E3,1.3879421E3,1.2002212E3,1.7151445E3,1.3820312E3,7.884219E2,4.7901953E2,1.3751562E2,9.3661816E2,1.3595469E3,6.847671E2,3.221543E2,1.2760359E3,5.5297205E2,5.4668774E2,3.1656543E2,9.096094E2,1.1177949E3,0E0,0E0,6.205508E2,6.1472656E1,2.1465234E2,0E0,1.8092578E2,2.9701172E1,1.0725E2,4.1794238E2,8.752617E2,1.4930469E2,6.251572E2,0E0,2.0404004E2,1.3039908E0,9.901117E2,5.761914E2,4.2244873E1,1.438981E2,6.7847925E2,1.2610031E2,2.5631348E1,1.7339626E1,1.4471094E3,5.0908984E2,2.4158594E2,8.5768555E1,5.8090234E2,4.613867E1,0E0,0E0,0E0,0E0,0E0,0E0,0E0,0E0,0E0,0E0,0E0,0E0,0E0,0E0,0E0,0E0,0E0,0E0,0E0,0E0,0E0,0E0,0E0,0E0,0E0,0E0,0E0,0E0,0E0,0E0,0E0,0E0,0E0,0E0,0E0,0E0,0E0,0E0,0E0,0E0,0E0,0E0,0E0,0E0,0E0,0E0,0E0,0E0,0E0,0E0],"parents":[2147483647,0,0,1,1,2,2,3,3,4,4,5,5,6,6,7,7,8,8,9,9,10,10,11,11,12,12,13,13,14,14,15,15,16,16,17,17,18,18,19,19,20,20,21,21,22,22,23,23,24,24,25,25,26,26,29,29,30,30,31,31,33,33,34,34,35,35,36,36,37,37,38,38,39,39,41,41,42,42,43,43,44,44,45,45,46,46,47,47,48,48,49,49,50,50,51,51,52,52,53,53,54,54,55,55,56,56],"right_children":[2,4,6,8,10,12,14,16,18,20,22,24,26,28,30,32,34,36,38,40,42,44,46,48,50,52,54,-1,-1,56,58,60,-1,62,64,66,68,70,72,74,-1,76,78,80,82,84,86,88,90,92,94,96,98,100,102,104,106,-1,-1,-1,-1,-1,-1,-1,-1,-1,-1,-1,-1,-1,-1,-1,-1,-1,-1,-1,-1,-1,-1,-1,-1,-1,-1,-1,-1,-1,-1,-1,-1,-1,-1,-1,-1,-1,-1,-1,-1,-1,-1,-1,-1,-1,-1,-1,-1,-1,-1],"split_conditions":[7.665E1,5.531E1,9.754E1,4.268E1,6.411E1,8.663E1,2.0080808E7,3.877E1,1.36568E-1,3.11796E-1,1.1075E2,2.21907E-1,1.91524E-1,9.9343E-2,2.20705E-1,4.075E1,4.45568E-1,2.016122E7,2.018122E7,1.8236675E5,6.22249E-1,2.348465E0,3.7549E-1,7.56274E-1,6.85466E-1,2.012113E7,2.0140812E7,2.4528313E0,3.5208077E0,3.08771E-1,3.22E0,1.005E3,-1.6066335E0,2.0090204E7,6.5204E2,8.35819E1,9.095256E1,2.0150428E7,2.0210116E7,-4.93E0,-1.2490662E0,6.344E1,6.378E1,5.425E1,2.0181016E7,6.644E1,2.009062E7,2.313E-1,8.303E1,-2.62E0,7.407E1,2.0080304E7,2.0140402E7,3.66863E-1,4.35E1,1.099E3,1.0617E2,1.9222342E0,7.1936953E-1,-1.4969252E0,-2.3091657E0,-1.6585625E0,-1.1504419E0,-1.5965862E0,-4.024031E-1,-7.9843634E-1,-1.312583E0,-2.4830644E0,-1.0423502E0,-8.6268705E-1,-1.2031654E0,-7.60676E-1,-3.46137E-1,6.988582E-2,-4.387928E-1,-8.328989E-1,-1.4685206E-1,1.536789E-2,1.2870127E-1,3.7664074E-1,-6.2066883E-2,-1.4050978E-1,-9.336481E-1,-3.9477453E-1,-1.0284593E0,-5.822152E-1,-1.5278344E-1,2.5455311E-2,5.732972E-1,-3.978925E-1,1.06750034E-1,2.5700188E-1,1.1460708E0,-1.2852879E-1,2.5092316E-1,1.3157781E0,7.066248E-1,1.3139614E0,3.696355E-1,1.8292731E0,1.4198277E0,9.058159E-1,3.898902E-1,1.6695296E0,-4.1010857E-1,1.1177613E0,1.540918E0],"split_indices":[1,2,2,2,2,1,4,1,14,16,41,16,16,16,16,41,12,4,4,41,14,17,12,15,12,4,4,0,0,14,29,19,0,4,3,9,9,4,4,21,0,2,1,41,4,1,4,14,1,21,2,4,4,14,41,5,24,0,0,0,0,0,0,0,0,0,0,0,0,0,0,0,0,0,0,0,0,0,0,0,0,0,0,0,0,0,0,0,0,0,0,0,0,0,0,0,0,0,0,0,0,0,0,0,0,0,0],"split_type":[0,0,0,0,0,0,0,0,0,0,0,0,0,0,0,0,0,0,0,0,0,0,0,0,0,0,0,0,0,0,0,0,0,0,0,0,0,0,0,0,0,0,0,0,0,0,0,0,0,0,0,0,0,0,0,0,0,0,0,0,0,0,0,0,0,0,0,0,0,0,0,0,0,0,0,0,0,0,0,0,0,0,0,0,0,0,0,0,0,0,0,0,0,0,0,0,0,0,0,0,0,0,0,0,0,0,0],"sum_hessian":[2.781E3,1.74E3,1.041E3,8.87E2,8.53E2,6.87E2,3.54E2,2.78E2,6.09E2,4.57E2,3.96E2,2.29E2,4.58E2,7.8E1,2.76E2,1.06E2,1.72E2,6.1E1,5.48E2,3.34E2,1.23E2,3.38E2,5.8E1,1.9E2,3.9E1,3.15E2,1.43E2,4.4E1,3.4E1,1.85E2,9.1E1,6.1E1,4.5E1,6.9E1,1.03E2,4.4E1,1.7E1,4.17E2,1.31E2,3.25E2,9E0,1.19E2,4E0,2.11E2,1.27E2,1.7E1,4.1E1,1.68E2,2.2E1,3.5E1,4E0,1.93E2,1.22E2,1.21E2,2.2E1,1.15E2,7E1,8.9E1,2E0,1.2E1,4.9E1,1.7E1,5.2E1,1.02E2,1E0,1.2E1,3.2E1,1.2E1,5E0,1.2E2,2.97E2,1.19E2,1.2E1,2.6E1,2.99E2,1.14E2,5E0,2E0,2E0,1.24E2,8.7E1,1.18E2,9E0,3E0,1.4E1,1E1,3.1E1,2.7E1,1.41E2,6E0,1.6E1,1E0,3.4E1,1E0,3E0,5.8E1,1.35E2,1.15E2,7E0,4.8E1,7.3E1,1.5E1,7E0,1.14E2,1E0,5.8E1,1.2E1],"tree_param":{"num_deleted":"0","num_feature":"42","num_nodes":"107","size_leaf_vector":"1"}},{"base_weights":[-2.549734E-1,-6.638642E0,1.240162E1,-1.1484201E1,-2.1686387E0,1.0590744E1,2.0271538E1,-1.48663845E1,-9.574077E0,-5.703945E0,-1.7973313E-1,8.660799E0,1.3060792E1,2.6116224E1,1.565135E1,-1.8147598E1,-1.3381923E1,-7.6094704E0,-1.0834469E1,-4.678942E0,-7.7670856E0,5.430707E-1,-3.9541802E0,6.0544095E0,9.8182955E0,1.3919027E1,4.1002965E0,2.2409094E1,3.1406183E0,1.577784E0,6.3866067E-1,-1.9538181E1,-1.4646457E0,-1.2780558E1,-1.6010818E1,-1.5762585E0,-7.272274E0,-1.3900993E1,-9.246723E0,-4.276192E0,-8.714147E0,-4.524585E0,-8.509423E0,-7.299954E-1,2.8751972E0,-2.5756354E0,-9.937956E0,7.4425116E0,3.2672915E0,8.819778E0,1.1996714E1,1.3251269E1,2.0395143E0,-2.5123987E0,7.5322638E0,2.2622032E0,6.306969E-1,-2.0723433E0,-1.4205779E0,-7.292578E-1,-1.3021125E0,-1.6233987E0,-3.9883748E-1,-5.999058E-1,-8.400983E-1,-1.0627874E0,-1.595887E0,-1.052617E0,-6.667703E-1,-5.9367555E-1,-3.2452056E-1,-2.4226621E-1,-9.2786086E-1,-4.8985478E-1,-2.6485988E-1,-6.418825E-1,-9.1312885E-1,-2.7878419E-2,-7.754952E-1,3.2424292E-1,-5.471501E-1,1.0891989E-2,-3.578502E-1,-1.196111E0,-6.5857905E-1,7.983624E-1,2.4234779E-1,1.5534842E-1,6.7055947E-1,1.0484408E0,7.0183796E-1,1.3770981E0,4.7351503E-1,1.5789382E0,1.1999574E0,-1.9800186E-2,-4.4080624E-1,3.4431362E-1,9.469245E-1],"categories":[],"categories_nodes":[],"categories_segments":[],"categories_sizes":[],"default_left":[1,0,0,0,1,0,0,0,0,0,1,0,0,0,0,0,0,0,0,0,0,0,0,0,0,0,0,0,0,0,0,0,0,0,0,0,0,0,0,0,0,0,0,0,0,0,0,0,0,0,0,0,0,0,0,0,0,0,0,0,0,0,0,0,0,0,0,0,0,0,0,0,0,0,0,0,0,0,0,0,0,0,0,0,0,0,0,0,0,0,0,0,0,0,0,0,0,0,0],"id":7,"left_children":[1,3,5,7,9,11,13,15,17,19,21,23,25,27,29,31,33,35,37,39,41,43,45,47,49,51,53,55,-1,-1,-1,57,-1,59,61,-1,63,65,67,69,71,73,75,77,79,81,83,85,87,89,91,93,-1,95,97,-1,-1,-1,-1,-1,-1,-1,-1,-1,-1,-1,-1,-1,-1,-1,-1,-1,-1,-1,-1,-1,-1,-1,-1,-1,-1,-1,-1,-1,-1,-1,-1,-1,-1,-1,-1,-1,-1,-1,-1,-1,-1,-1,-1],"loss_changes":[2.2170439E5,3.948232E4,1.2896641E4,5.5105156E3,6.6787954E3,3.4621797E3,4.2088516E3,1.2865938E3,1.3091641E3,6.8689453E2,1.6636119E3,1.2197168E3,2.457625E3,7.4740234E2,1.4078125E1,1.7635547E2,1.4317188E2,4.984414E2,1.526875E3,3.3815283E2,2.3108691E2,1.5222019E3,7.82796E2,4.9023438E2,5.293457E2,1.0184336E3,6.9976074E2,1.8476562E1,0E0,0E0,0E0,1.1642383E2,0E0,1.4796484E2,3.452539E1,0E0,2.6001465E2,5.9825586E2,6.788496E2,3.4368213E2,4.854712E1,3.1613464E0,5.839453E1,1.0501915E3,5.725377E2,2.184621E2,4.3301758E1,2.1964746E2,2.6064206E2,5.3814355E2,1.0814648E3,6.7783984E2,0E0,4.738771E1,1.25807495E2,0E0,0E0,0E0,0E0,0E0,0E0,0E0,0E0,0E0,0E0,0E0,0E0,0E0,0E0,0E0,0E0,0E0,0E0,0E0,0E0,0E0,0E0,0E0,0E0,0E0,0E0,0E0,0E0,0E0,0E0,0E0,0E0,0E0,0E0,0E0,0E0,0E0,0E0,0E0,0E0,0E0,0E0,0E0,0E0],"parents":[2147483647,0,0,1,1,2,2,3,3,4,4,5,5,6,6,7,7,8,8,9,9,10,10,11,11,12,12,13,13,14,14,15,15,16,16,17,17,18,18,19,19,20,20,21,21,22,22,23,23,24,24,25,25,26,26,27,27,31,31,33,33,34,34,36,36,37,37,38,38,39,39,40,40,41,41,42,42,43,43,44,44,45,45,46,46,47,47,48,48,49,49,50,50,51,51,53,53,54,54],"right_children":[2,4,6,8,10,12,14,16,18,20,22,24,26,28,30,32,34,36,38,40,42,44,46,48,50,52,54,56,-1,-1,-1,58,-1,60,62,-1,64,66,68,70,72,74,76,78,80,82,84,86,88,90,92,94,-1,96,98,-1,-1,-1,-1,-1,-1,-1,-1,-1,-1,-1,-1,-1,-1,-1,-1,-1,-1,-1,-1,-1,-1,-1,-1,-1,-1,-1,-1,-1,-1,-1,-1,-1,-1,-1,-1,-1,-1,-1,-1,-1,-1,-1,-1],"split_conditions":[7.840263E1,5.531E1,1.04555214E2,4.5170433E1,6.270524E1,9.475739E1,2.0080808E7,3.796091E1,1.2976E-1,3.11796E-1,1.03E2,8.5658264E1,1.03346E2,1.4268E-1,2.74E0,3.05E1,2.05862E-1,2.008122E7,2.043183E0,4.58603E-1,2.0150608E7,7.41175E1,7.2358696E1,8.4339134E1,1.91524E-1,3.08026E-1,-3.3E1,1.3725085E2,3.1406183E0,1.577784E0,6.3866067E-1,9.71375E-1,-1.4646457E0,-7.555475E4,2.015122E7,-1.5762585E0,9.32067E-1,6.59831E-1,5.177875E1,1.796709E0,6.192579E1,2.351371E1,6.31906E-1,5.31367E-1,2.0141108E7,1.02117E-1,7.393E1,9.564082E1,1.58043E-1,1.55882E-1,2.0140904E7,1.58202E-1,2.0395143E0,2.0080924E7,9.041747E1,2.2622032E0,6.306969E-1,-2.0723433E0,-1.4205779E0,-7.292578E-1,-1.3021125E0,-1.6233987E0,-3.9883748E-1,-5.999058E-1,-8.400983E-1,-1.0627874E0,-1.595887E0,-1.052617E0,-6.667703E-1,-5.9367555E-1,-3.2452056E-1,-2.4226621E-1,-9.2786086E-1,-4.8985478E-1,-2.6485988E-1,-6.418825E-1,-9.1312885E-1,-2.7878419E-2,-7.754952E-1,3.2424292E-1,-5.471501E-1,1.0891989E-2,-3.578502E-1,-1.196111E0,-6.5857905E-1,7.983624E-1,2.4234779E-1,1.5534842E-1,6.7055947E-1,1.0484408E0,7.0183796E-1,1.3770981E0,4.7351503E-1,1.5789382E0,1.1999574E0,-1.9800186E-2,-4.4080624E-1,3.4431362E-1,9.469245E-1],"split_indices":[23,2,23,23,23,23,4,23,13,16,41,23,23,13,25,41,13,4,17,14,4,23,23,23,16,16,41,6,0,0,0,15,0,41,4,0,15,15,23,17,23,22,15,16,4,16,1,9,13,16,4,13,0,4,8,0,0,0,0,0,0,0,0,0,0,0,0,0,0,0,0,0,0,0,0,0,0,0,0,0,0,0,0,0,0,0,0,0,0,0,0,0,0,0,0,0,0,0,0],"split_type":[0,0,0,0,0,0,0,0,0,0,0,0,0,0,0,0,0,0,0,0,0,0,0,0,0,0,0,0,0,0,0,0,0,0,0,0,0,0,0,0,0,0,0,0,0,0,0,0,0,0,0,0,0,0,0,0,0,0,0,0,0,0,0,0,0,0,0,0,0,0,0,0,0,0,0,0,0,0,0,0,0,0,0,0,0,0,0,0,0,0,0,0,0,0,0,0,0,0,0],"sum_hessian":[2.742E3,1.823E3,9.19E2,8.74E2,9.49E2,7.49E2,1.7E2,3.13E2,5.61E2,3.41E2,6.08E2,4.23E2,3.26E2,7.3E1,9.7E1,9.4E1,2.19E2,2.22E2,3.39E2,2.3E2,1.11E2,5.11E2,9.7E1,1.32E2,2.91E2,2.97E2,2.9E1,4.6E1,2.7E1,9.5E1,2E0,6.4E1,3E1,1.83E2,3.6E1,7E0,2.15E2,1.13E2,2.26E2,2.11E2,1.9E1,2.2E1,8.9E1,3.31E2,1.8E2,8E1,1.7E1,8.7E1,4.5E1,2.03E2,8.8E1,2.72E2,2.5E1,1E1,1.9E1,4.5E1,1E0,5E1,1.4E1,9E0,1.74E2,3.5E1,1E0,1.04E2,1.11E2,4.6E1,6.7E1,1.49E2,7.7E1,7.9E1,1.32E2,2E0,1.7E1,1.7E1,5E0,2.3E1,6.6E1,3.12E2,1.9E1,1.73E2,7E0,2.2E1,5.8E1,9E0,8E0,7.8E1,9E0,3.1E1,1.4E1,1.03E2,1E2,7E1,1.8E1,8.6E1,1.86E2,5E0,5E0,7E0,1.2E1],"tree_param":{"num_deleted":"0","num_feature":"42","num_nodes":"99","size_leaf_vector":"1"}},{"base_weights":[-1.3308512E-1,-6.181083E0,1.1399852E1,-1.1650735E1,-2.879212E0,9.787788E0,1.8587858E1,-1.6854305E1,-1.0805031E1,-5.5127726E0,-3.505668E-1,5.6304035E0,1.0836539E1,2.5769745E1,1.534781E1,-1.9480278E0,-1.501086E0,-6.2892957E0,-1.1151048E1,-2.5040922E0,-5.9382806E0,1.6336101E0,-1.9592683E0,5.9654226E0,-5.788464E-1,1.7873034E0,1.1074477E1,1.9304901E0,2.890693E1,1.4252825E1,1.8632097E0,-6.7314315E0,-1.8508053E-1,-1.2150399E1,-1.004889E1,-3.4832063E0,1.0181179E0,-3.7990665E0,-6.8840575E0,2.2714314E0,-3.9074335E0,-8.682008E-1,-6.192682E0,6.194897E0,-5.744502E-1,1.5654463E0,-3.6505738E-1,-2.9312673E0,5.3834295E0,9.366491E0,1.2679627E1,8.497402E-1,2.9279184E0,1.4683783E1,8.503254E0,-7.2192913E-1,-3.816598E-1,-1.4425291E-1,1.7936325E-1,-1.1804457E0,-1.4954805E0,-1.5817951E0,-9.1562635E-1,-2.262125E-1,-3.9261594E-1,1.4133939E-1,-1.1658758E-1,-4.611871E-1,-2.901972E-1,-9.908765E-1,-6.4491177E-1,6.937346E-2,3.3603913E-1,-7.175894E-1,-1.5626983E-1,4.3518867E-2,-2.8797725E-1,-4.133428E-1,-7.6393217E-1,7.0468026E-1,4.2686516E-1,9.411112E-3,-9.322586E-2,4.142685E-2,1.7128281E-1,-6.312771E-2,-4.1850063E-1,1.1452789E-2,8.876943E-1,9.674746E-1,4.085311E-1,7.793206E-1,1.3489155E0,1.3315412E0,1.6619562E0,9.300418E-1,1.0629692E-1],"categories":[],"categories_nodes":[],"categories_segments":[],"categories_sizes":[],"default_left":[1,1,0,0,0,0,0,0,0,0,0,0,0,0,0,0,0,0,0,0,0,1,0,0,0,0,0,0,0,0,0,0,0,0,0,0,0,0,0,0,0,0,0,0,0,0,0,0,0,0,0,0,0,0,0,0,0,0,0,0,0,0,0,0,0,0,0,0,0,0,0,0,0,0,0,0,0,0,0,0,0,0,0,0,0,0,0,0,0,0,0,0,0,0,0,0,0],"id":8,"left_children":[1,3,5,7,9,11,13,15,17,19,21,23,25,27,29,-1,-1,31,33,35,37,39,41,43,45,47,49,-1,51,53,-1,55,57,59,61,63,65,67,69,71,73,75,77,79,81,83,-1,85,87,89,91,-1,-1,93,95,-1,-1,-1,-1,-1,-1,-1,-1,-1,-1,-1,-1,-1,-1,-1,-1,-1,-1,-1,-1,-1,-1,-1,-1,-1,-1,-1,-1,-1,-1,-1,-1,-1,-1,-1,-1,-1,-1,-1,-1,-1,-1],"loss_changes":[1.916072E5,3.2510734E4,1.0768273E4,2.8015547E3,7.489825E3,3.3136719E3,3.606879E3,1.5778125E2,8.455E2,6.905293E2,1.838571E3,3.3212744E2,1.3086953E3,4.9658984E2,1.6958594E2,0E0,0E0,1.1750537E2,4.7598438E2,2.4495148E2,9.4903906E2,9.2069806E2,1.4634464E3,2.2866895E2,6.499491E1,3.0424606E2,1.5289297E3,0E0,1.921875E0,1.105332E2,0E0,3.0750122E1,1.25398855E1,9.5109375E1,1.214666E3,2.0867065E1,1.5460323E1,9.599072E1,3.7418066E2,3.9625598E2,1.957055E2,6.67206E2,1.6205835E2,2.0786133E2,1.5230372E0,3.0840492E-1,0E0,2.0426788E1,1.8305316E2,4.407207E2,1.1092695E3,0E0,0E0,9.154297E0,4.349414E1,0E0,0E0,0E0,0E0,0E0,0E0,0E0,0E0,0E0,0E0,0E0,0E0,0E0,0E0,0E0,0E0,0E0,0E0,0E0,0E0,0E0,0E0,0E0,0E0,0E0,0E0,0E0,0E0,0E0,0E0,0E0,0E0,0E0,0E0,0E0,0E0,0E0,0E0,0E0,0E0,0E0,0E0],"parents":[2147483647,0,0,1,1,2,2,3,3,4,4,5,5,6,6,7,7,8,8,9,9,10,10,11,11,12,12,13,13,14,14,17,17,18,18,19,19,20,20,21,21,22,22,23,23,24,24,25,25,26,26,28,28,29,29,31,31,32,32,33,33,34,34,35,35,36,36,37,37,38,38,39,39,40,40,41,41,42,42,43,43,44,44,45,45,47,47,48,48,49,49,50,50,53,53,54,54],"right_children":[2,4,6,8,10,12,14,16,18,20,22,24,26,28,30,-1,-1,32,34,36,38,40,42,44,46,48,50,-1,52,54,-1,56,58,60,62,64,66,68,70,72,74,76,78,80,82,84,-1,86,88,90,92,-1,-1,94,96,-1,-1,-1,-1,-1,-1,-1,-1,-1,-1,-1,-1,-1,-1,-1,-1,-1,-1,-1,-1,-1,-1,-1,-1,-1,-1,-1,-1,-1,-1,-1,-1,-1,-1,-1,-1,-1,-1,-1,-1,-1,-1],"split_conditions":[7.840263E1,5.177875E1,1.04555214E2,3.796091E1,6.270524E1,8.642809E1,2.0080624E7,-1.5725E2,8.3463E-2,4.70951E-1,5.1065E-2,2.0141016E7,5.3161E-2,1.1535E2,1.1418E2,-1.9480278E0,-1.501086E0,1.008E3,4.6855713E1,6E1,1.02617E-1,7.725E1,1.136E3,1.2234734E2,9.00462E1,-6.975E1,9.4983475E1,1.9304901E0,3.944397E1,3.79E0,1.8632097E0,9.034375E4,4.974E1,4.40087E-1,1.36568E-1,8.25E0,1.023E3,5.7783333E1,1.06736E-1,2.0070814E7,1.09569E-1,1.22837E-1,7.016105E1,3.82952E-1,1.2589765E2,8.073E1,-3.6505738E-1,1.0526E2,1.0028E2,2.0131212E7,1.1416E-2,8.497402E-1,2.9279184E0,4.82112E-1,1.0438214E2,-7.2192913E-1,-3.816598E-1,-1.4425291E-1,1.7936325E-1,-1.1804457E0,-1.4954805E0,-1.5817951E0,-9.1562635E-1,-2.262125E-1,-3.9261594E-1,1.4133939E-1,-1.1658758E-1,-4.611871E-1,-2.901972E-1,-9.908765E-1,-6.4491177E-1,6.937346E-2,3.3603913E-1,-7.175894E-1,-1.5626983E-1,4.3518867E-2,-2.8797725E-1,-4.133428E-1,-7.6393217E-1,7.0468026E-1,4.2686516E-1,9.411112E-3,-9.322586E-2,4.142685E-2,1.7128281E-1,-6.312771E-2,-4.1850063E-1,1.1452789E-2,8.876943E-1,9.674746E-1,4.085311E-1,7.793206E-1,1.3489155E0,1.3315412E0,1.6619562E0,9.300418E-1,1.0629692E-1],"split_indices":[23,23,23,23,23,23,4,41,13,15,18,4,13,1,2,0,0,5,23,41,13,41,20,10,10,41,23,0,8,27,0,41,0,13,14,41,5,23,13,4,13,13,23,14,10,0,0,0,2,4,18,0,0,13,10,0,0,0,0,0,0,0,0,0,0,0,0,0,0,0,0,0,0,0,0,0,0,0,0,0,0,0,0,0,0,0,0,0,0,0,0,0,0,0,0,0,0],"split_type":[0,0,0,0,0,0,0,0,0,0,0,0,0,0,0,0,0,0,0,0,0,0,0,0,0,0,0,0,0,0,0,0,0,0,0,0,0,0,0,0,0,0,0,0,0,0,0,0,0,0,0,0,0,0,0,0,0,0,0,0,0,0,0,0,0,0,0,0,0,0,0,0,0,0,0,0,0,0,0,0,0,0,0,0,0,0,0,0,0,0,0,0,0,0,0,0,0],"sum_hessian":[2.745E3,1.801E3,9.44E2,6.77E2,1.124E3,7.73E2,1.71E2,9.2E1,5.85E2,5.5E2,5.74E2,1.57E2,6.16E2,5.1E1,1.2E2,3.4E1,5.8E1,4.3E1,5.42E2,6.9E1,4.81E2,2.57E2,3.17E2,1.49E2,8E0,1.6E1,6E2,1.9E1,3.2E1,9.4E1,2.6E1,4E1,3E0,2.79E2,2.63E2,5.4E1,1.5E1,1.49E2,3.32E2,2.31E2,2.6E1,2.53E2,6.4E1,1.44E2,5E0,5E0,3E0,7E0,9E0,2.94E2,3.06E2,1E0,3.1E1,8.6E1,8E0,3.3E1,7E0,2E0,1E0,2.53E2,2.6E1,3.3E1,2.3E2,1.6E1,3.8E1,1.3E1,2E0,7.6E1,7.3E1,3.9E1,2.93E2,9.5E1,1.36E2,1E1,1.6E1,1.54E2,9.9E1,2.8E1,3.6E1,9.8E1,4.6E1,2E0,3E0,1E0,4E0,3E0,4E0,4E0,5E0,2.77E2,1.7E1,4.5E1,2.61E2,5.5E1,3.1E1,7E0,1E0],"tree_param":{"num_deleted":"0","num_feature":"42","num_nodes":"97","size_leaf_vector":"1"}},{"base_weights":[-2.0316621E-2,-5.5282135E0,1.01745825E1,-9.061053E0,-1.5611453E0,8.710914E0,1.6648893E1,-1.1533123E1,-7.3195367E0,-3.290243E0,6.53111E-1,4.75756E0,9.592199E0,2.154399E1,1.3016405E1,-1.5084137E1,-1.0541449E1,-1.4015015E1,-6.936846E0,-1.54977E0,-4.1450477E0,2.374955E0,-1.2828089E0,6.0500994E0,2.0514789E0,8.721361E0,1.2563555E1,2.438194E0,1.710721E1,1.3796605E0,1.0442193E0,-1.9348053E0,-1.3814997E1,-7.425225E-1,-1.0830456E1,-1.9667606E0,-9.707325E0,-4.7075086E0,-7.4593353E0,-9.7953886E-1,-1.1141912E0,-6.173726E0,-2.8527167E0,2.8683197E0,-5.0184503E0,-1.03580154E-1,-3.5815737E0,3.6920066E0,7.0902E0,3.6484134E-1,5.612781E0,7.567425E0,1.1434948E1,1.3547758E1,4.1824713E0,5.026375E-1,1.7327662E0,-1.1946441E0,-1.5288838E0,-1.0260254E0,-1.2584313E0,-9.928593E-1,-2.8622493E-1,-5.4362696E-1,-3.2603505E-1,-8.4594244E-1,-5.9594333E-1,-2.6425263E-1,1.7552612E-2,-2.822126E-1,-7.146657E-1,-2.1264334E-1,-7.4544513E-1,4.424025E-1,1.6202115E-1,-5.880675E-1,-1.6082774E-1,6.552743E-2,-2.3033647E-1,-5.157721E-1,-1.4057684E-1,2.956136E-1,6.0029364E-1,3.58929E-1,7.366647E-1,-8.6126775E-2,2.5060466E-1,6.916336E-1,-2.6966096E-3,1.0359813E0,6.708815E-1,1.2845896E0,7.794564E-1,1.2107476E0,1.7052191E0,5.021662E-1,1.1640809E-1],"categories":[],"categories_nodes":[],"categories_segments":[],"categories_sizes":[],"default_left":[1,1,0,1,0,0,0,0,0,0,0,0,0,0,0,0,0,0,0,0,0,0,0,0,0,0,0,0,0,0,0,0,0,0,0,0,0,0,0,0,0,0,0,0,0,1,0,0,0,0,0,0,0,0,0,0,0,0,0,0,0,0,0,0,0,0,0,0,0,0,0,0,0,0,0,0,0,0,0,0,0,0,0,0,0,0,0,0,0,0,0,0,0,0,0,0,0],"id":9,"left_children":[1,3,5,7,9,11,13,15,17,19,21,23,25,27,29,31,33,35,37,39,41,43,45,47,49,51,53,-1,55,-1,-1,-1,57,-1,59,-1,61,63,65,-1,67,69,71,73,75,77,79,81,83,85,87,89,91,93,95,-1,-1,-1,-1,-1,-1,-1,-1,-1,-1,-1,-1,-1,-1,-1,-1,-1,-1,-1,-1,-1,-1,-1,-1,-1,-1,-1,-1,-1,-1,-1,-1,-1,-1,-1,-1,-1,-1,-1,-1,-1,-1],"loss_changes":[1.5896769E5,2.5745465E4,9.264883E3,4.1001875E3,3.3216018E3,2.7834023E3,2.9557852E3,1.2495781E3,1.3709766E3,7.181172E2,1.2730537E3,5.122456E2,1.6059883E3,5.3983594E2,7.083203E1,1.926836E2,2.0417578E2,5.3956836E2,5.9853906E2,5.70928E2,8.370703E2,7.512189E2,4.8756754E2,2.2154102E2,2.982835E2,1.5292188E3,1.1641426E3,0E0,7.919922E-1,0E0,0E0,0E0,7.375E0,0E0,1.5789453E2,0E0,3.5925293E-1,9.406714E1,6.081035E2,0E0,3.0598746E2,3.9070166E2,6.5592334E2,3.6175305E2,2.8766602E1,2.0182732E2,2.0194226E2,3.837256E1,4.0338135E1,9.404568E1,1.17814026E2,8.056113E2,6.8060156E2,4.5979492E2,3.7215485E1,0E0,0E0,0E0,0E0,0E0,0E0,0E0,0E0,0E0,0E0,0E0,0E0,0E0,0E0,0E0,0E0,0E0,0E0,0E0,0E0,0E0,0E0,0E0,0E0,0E0,0E0,0E0,0E0,0E0,0E0,0E0,0E0,0E0,0E0,0E0,0E0,0E0,0E0,0E0,0E0,0E0,0E0],"parents":[2147483647,0,0,1,1,2,2,3,3,4,4,5,5,6,6,7,7,8,8,9,9,10,10,11,11,12,12,13,13,14,14,15,15,16,16,17,17,18,18,19,19,20,20,21,21,22,22,23,23,24,24,25,25,26,26,28,28,32,32,34,34,36,36,37,37,38,38,40,40,41,41,42,42,43,43,44,44,45,45,46,46,47,47,48,48,49,49,50,50,51,51,52,52,53,53,54,54],"right_children":[2,4,6,8,10,12,14,16,18,20,22,24,26,28,30,32,34,36,38,40,42,44,46,48,50,52,54,-1,56,-1,-1,-1,58,-1,60,-1,62,64,66,-1,68,70,72,74,76,78,80,82,84,86,88,90,92,94,96,-1,-1,-1,-1,-1,-1,-1,-1,-1,-1,-1,-1,-1,-1,-1,-1,-1,-1,-1,-1,-1,-1,-1,-1,-1,-1,-1,-1,-1,-1,-1,-1,-1,-1,-1,-1,-1,-1,-1,-1,-1,-1],"split_conditions":[7.840263E1,5.8019524E1,1.04555214E2,4.6855713E1,6.697E1,8.5658264E1,2.0080808E7,3.796091E1,1.36568E-1,1.27435E-1,5.1065E-2,8.4339134E1,2.20705E-1,8.0556015E1,9.5851494E1,-4.0675E2,8.8581E-2,8.0556015E1,1.02617E-1,7.0119545E1,2.0150722E7,2.17787E-1,1.06E3,4.24044E-1,1.58043E-1,2.0130532E7,2.0140608E7,2.438194E0,1.0246E2,1.3796605E0,1.0442193E0,-1.9348053E0,3.1595715E1,-7.425225E-1,5.3996E-2,-1.9667606E0,8.4E-1,1.02E2,1.06E3,-9.7953886E-1,2.0070516E7,4.54274E-1,5.31367E-1,1.33069E-1,1.04E0,6.725E1,2.0081104E7,7.55E1,7.825E1,8.385E1,9.014739E1,2.0080328E7,1.63127E-1,7.04486E-1,2.0140924E7,5.026375E-1,1.7327662E0,-1.1946441E0,-1.5288838E0,-1.0260254E0,-1.2584313E0,-9.928593E-1,-2.8622493E-1,-5.4362696E-1,-3.2603505E-1,-8.4594244E-1,-5.9594333E-1,-2.6425263E-1,1.7552612E-2,-2.822126E-1,-7.146657E-1,-2.1264334E-1,-7.4544513E-1,4.424025E-1,1.6202115E-1,-5.880675E-1,-1.6082774E-1,6.552743E-2,-2.3033647E-1,-5.157721E-1,-1.4057684E-1,2.956136E-1,6.0029364E-1,3.58929E-1,7.366647E-1,-8.6126775E-2,2.5060466E-1,6.916336E-1,-2.6966096E-3,1.0359813E0,6.708815E-1,1.2845896E0,7.794564E-1,1.2107476E0,1.7052191E0,5.021662E-1,1.1640809E-1],"split_indices":[23,23,23,23,2,23,4,23,14,16,18,23,16,9,9,41,13,9,13,9,4,16,19,15,13,4,4,0,0,0,0,0,23,0,18,0,21,41,19,0,4,15,16,13,26,41,4,41,0,2,8,4,13,15,4,0,0,0,0,0,0,0,0,0,0,0,0,0,0,0,0,0,0,0,0,0,0,0,0,0,0,0,0,0,0,0,0,0,0,0,0,0,0,0,0,0,0],"split_type":[0,0,0,0,0,0,0,0,0,0,0,0,0,0,0,0,0,0,0,0,0,0,0,0,0,0,0,0,0,0,0,0,0,0,0,0,0,0,0,0,0,0,0,0,0,0,0,0,0,0,0,0,0,0,0,0,0,0,0,0,0,0,0,0,0,0,0,0,0,0,0,0,0,0,0,0,0,0,0,0,0,0,0,0,0,0,0,0,0,0,0,0,0,0,0,0,0],"sum_hessian":[2.829E3,1.837E3,9.92E2,9.71E2,8.66E2,8.11E2,1.81E2,3.99E2,5.72E2,4.86E2,3.8E2,1.49E2,6.62E2,7.5E1,1.06E2,8.4E1,3.15E2,2.9E1,5.43E2,1.61E2,3.25E2,2.01E2,1.79E2,1E2,4.9E1,5.15E2,1.47E2,4.3E1,3.2E1,7.8E1,2.8E1,1.6E1,6.8E1,2.9E1,2.86E2,1.1E1,1.8E1,1.05E2,4.38E2,7E0,1.54E2,1.25E2,2E2,1.89E2,1.2E1,1.19E2,6E1,3.2E1,6.8E1,3.4E1,1.5E1,3.64E2,1.51E2,1.31E2,1.6E1,1E0,3.1E1,3.4E1,3.4E1,2.21E2,6.5E1,1.7E1,1E0,6.8E1,3.7E1,2.6E2,1.78E2,7E1,8.4E1,2.9E1,9.6E1,1.74E2,2.6E1,8.3E1,1.06E2,9E0,3E0,8.9E1,3E1,3.4E1,2.6E1,2.6E1,6E0,6E0,6.2E1,2.2E1,1.2E1,1.2E1,3E0,8.3E1,2.81E2,1.07E2,4.4E1,9.6E1,3.5E1,1.2E1,4E0],"tree_param":{"num_deleted":"0","num_feature":"42","num_nodes":"97","size_leaf_vector":"1"}},{"base_weights":[-1.0607731E-1,-4.9058905E0,9.442272E0,-8.35388E0,-1.6298567E0,8.631887E0,1.8743608E1,-1.1163297E1,-6.9492936E0,-3.6983917E0,1.9349962E-1,6.868451E0,1.0537021E1,2.2166891E1,1.3818715E1,-1.3619884E1,-9.885575E0,-9.363309E0,-6.4069705E0,-5.2230835E0,-2.838499E0,1.6597898E0,-1.3144541E0,6.302012E0,9.904844E0,1.6453817E0,1.0822599E1,1.7512903E1,2.525006E0,3.1998824E-2,1.4230551E1,-1.8209368E0,-1.2528918E1,-8.591474E0,-1.0878046E1,-1.0366593E1,-6.8452816E0,-7.1917877E0,-4.1764026E0,-8.918864E-1,-4.3715625E0,-2.2577307E0,-5.9244766E0,2.1184492E0,-4.9669976E0,-4.0889192E-1,-5.4508295E0,4.7687774E0,6.977625E0,1.0792524E1,4.2432146E0,-2.7700284E0,7.994267E-1,1.0080092E1,1.3528045E0,4.5706138E-1,1.7953519E0,9.860391E0,1.5768788E0,-1.3172631E0,-9.810403E-1,-7.016379E-1,-1.0223178E0,-1.1141369E0,-6.685047E-1,-1.1359192E0,-8.4659684E-1,-7.2347194E-1,-3.822119E-1,-7.7389413E-1,-5.164321E-1,-2.7182055E-1,-5.683265E-1,-3.5875005E-1,-5.807695E-1,-2.6910993E-1,-6.451934E-2,-2.2998615E-1,-6.531646E-1,3.0910894E-1,1.1038395E-1,-6.173123E-1,-2.3620872E-1,-1.9059736E-1,5.110952E-2,-6.4998764E-1,-2.6636633E-1,6.0633975E-1,2.1263778E-1,8.382193E-1,5.4536384E-1,7.8474027E-1,1.1894104E0,5.6961936E-1,2.7645303E-2,-6.5195085E-3,-4.1115794E-1,1.126309E0,8.8183224E-1,1.0314894E0,2.6576766E-1],"categories":[],"categories_nodes":[],"categories_segments":[],"categories_sizes":[],"default_left":[0,0,0,0,0,0,0,0,0,0,0,0,0,0,0,0,0,0,0,0,0,0,0,0,0,0,0,0,0,0,0,0,0,0,0,0,0,0,0,0,0,0,0,0,0,0,0,0,0,0,0,0,0,0,0,0,0,0,0,0,0,0,0,0,0,0,0,0,0,0,0,0,0,0,0,0,0,0,0,0,0,0,0,0,0,0,0,0,0,0,0,0,0,0,0,0,0,0,0,0,0],"id":10,"left_children":[1,3,5,7,9,11,13,15,17,19,21,23,25,27,29,31,33,35,37,39,41,43,45,47,49,51,53,55,-1,-1,57,-1,59,61,63,65,67,69,71,-1,73,75,77,79,81,83,85,87,89,91,93,95,-1,97,-1,-1,-1,99,-1,-1,-1,-1,-1,-1,-1,-1,-1,-1,-1,-1,-1,-1,-1,-1,-1,-1,-1,-1,-1,-1,-1,-1,-1,-1,-1,-1,-1,-1,-1,-1,-1,-1,-1,-1,-1,-1,-1,-1,-1,-1,-1],"loss_changes":[1.2795867E5,2.0973852E4,6.878383E3,3.4936094E3,3.598895E3,2.8202227E3,9.4126953E2,8.070078E2,7.3336914E2,5.7122314E2,1.1254193E3,7.115488E2,1.0283672E3,1.6045703E2,1.7890137E2,2.7255273E2,1.6469727E2,2.0440332E2,8.417578E2,4.6453564E2,5.0278882E2,7.946975E2,9.3795325E2,3.6242773E2,3.00979E2,4.146054E2,6.6515234E2,3.1992676E1,0E0,0E0,5.9628418E1,0E0,1.7766602E1,1.6471875E2,4.6972656E1,4.7211914E1,1.2377319E1,3.6716016E2,2.7459546E2,0E0,1.2779907E2,1.6877649E2,8.401221E1,2.3540588E2,3.8829987E1,2.8607434E2,1.1426062E2,3.9761548E2,5.17249E2,9.8075195E1,6.182509E1,3.2389984E1,0E0,3.7385547E2,0E0,0E0,0E0,8.59668E0,0E0,0E0,0E0,0E0,0E0,0E0,0E0,0E0,0E0,0E0,0E0,0E0,0E0,0E0,0E0,0E0,0E0,0E0,0E0,0E0,0E0,0E0,0E0,0E0,0E0,0E0,0E0,0E0,0E0,0E0,0E0,0E0,0E0,0E0,0E0,0E0,0E0,0E0,0E0,0E0,0E0,0E0,0E0],"parents":[2147483647,0,0,1,1,2,2,3,3,4,4,5,5,6,6,7,7,8,8,9,9,10,10,11,11,12,12,13,13,14,14,15,15,16,16,17,17,18,18,19,19,20,20,21,21,22,22,23,23,24,24,25,25,26,26,27,27,30,30,32,32,33,33,34,34,35,35,36,36,37,37,38,38,40,40,41,41,42,42,43,43,44,44,45,45,46,46,47,47,48,48,49,49,50,50,51,51,53,53,57,57],"right_children":[2,4,6,8,10,12,14,16,18,20,22,24,26,28,30,32,34,36,38,40,42,44,46,48,50,52,54,56,-1,-1,58,-1,60,62,64,66,68,70,72,-1,74,76,78,80,82,84,86,88,90,92,94,96,-1,98,-1,-1,-1,100,-1,-1,-1,-1,-1,-1,-1,-1,-1,-1,-1,-1,-1,-1,-1,-1,-1,-1,-1,-1,-1,-1,-1,-1,-1,-1,-1,-1,-1,-1,-1,-1,-1,-1,-1,-1,-1,-1,-1,-1,-1,-1,-1],"split_conditions":[7.962631E1,5.531E1,1.1246273E2,4.479913E1,6.429318E1,9.4983475E1,2.0080624E7,3.796091E1,3.02691E-1,1.107E3,5.1065E-2,2.45823E-1,5.9985E-2,2.0080508E7,1.1535E2,-4.0675E2,4.45568E-1,1.07E3,1.124E3,3.23846E-1,1.07702E0,2.17787E-1,1.136E3,8.5658264E1,2.0140904E7,8.813494E1,1.07E3,1.0517E2,2.525006E0,3.1998824E-2,1.2273E2,-1.8209368E0,7.15252E-1,7.800351E1,2.0201016E7,2.016072E7,1.2234734E2,1.23674E-1,8.25593E-1,-8.918864E-1,6.061E1,3.16696E-1,-5.975E1,1.825E1,7.799E1,4.92563E-1,7.099E1,8.4339134E1,1.55426E-1,3.05148E-1,2.0140924E7,2.0080924E7,7.994267E-1,3.21058E-1,1.3528045E0,4.5706138E-1,1.7953519E0,1.023E3,1.5768788E0,-1.3172631E0,-9.810403E-1,-7.016379E-1,-1.0223178E0,-1.1141369E0,-6.685047E-1,-1.1359192E0,-8.4659684E-1,-7.2347194E-1,-3.822119E-1,-7.7389413E-1,-5.164321E-1,-2.7182055E-1,-5.683265E-1,-3.5875005E-1,-5.807695E-1,-2.6910993E-1,-6.451934E-2,-2.2998615E-1,-6.531646E-1,3.0910894E-1,1.1038395E-1,-6.173123E-1,-2.3620872E-1,-1.9059736E-1,5.110952E-2,-6.4998764E-1,-2.6636633E-1,6.0633975E-1,2.1263778E-1,8.382193E-1,5.4536384E-1,7.8474027E-1,1.1894104E0,5.6961936E-1,2.7645303E-2,-6.5195085E-3,-4.1115794E-1,1.126309E0,8.8183224E-1,1.0314894E0,2.6576766E-1],"split_indices":[23,2,23,23,23,23,4,23,12,20,18,16,16,4,1,41,12,19,20,12,12,16,20,23,4,10,19,1,0,0,1,0,12,10,4,4,10,18,15,0,1,14,41,41,1,12,2,23,16,12,4,4,0,14,0,0,0,5,0,0,0,0,0,0,0,0,0,0,0,0,0,0,0,0,0,0,0,0,0,0,0,0,0,0,0,0,0,0,0,0,0,0,0,0,0,0,0,0,0,0,0],"split_type":[0,0,0,0,0,0,0,0,0,0,0,0,0,0,0,0,0,0,0,0,0,0,0,0,0,0,0,0,0,0,0,0,0,0,0,0,0,0,0,0,0,0,0,0,0,0,0,0,0,0,0,0,0,0,0,0,0,0,0,0,0,0,0,0,0,0,0,0,0,0,0,0,0,0,0,0,0,0,0,0,0,0,0,0,0,0,0,0,0,0,0,0,0,0,0,0,0,0,0,0,0],"sum_hessian":[2.79E3,1.857E3,9.33E2,9.04E2,9.53E2,8.6E2,7.3E1,2.99E2,6.05E2,4.46E2,5.07E2,4.49E2,4.11E2,4.1E1,3.2E1,9.9E1,2E2,1.08E2,4.97E2,1.59E2,2.87E2,2.57E2,2.5E2,3.81E2,6.8E1,1.3E1,3.98E2,1.9E1,2.2E1,1E0,3.1E1,1.6E1,8.3E1,9.1E1,1.09E2,7.5E1,3.3E1,3.66E2,1.31E2,2.8E1,1.31E2,2.43E2,4.4E1,2.41E2,1.6E1,2.06E2,4.4E1,1.19E2,2.62E2,5.8E1,1E1,8E0,5E0,3.16E2,8.2E1,1E0,1.8E1,1E1,2.1E1,6.4E1,1.9E1,4.9E1,4.2E1,1.01E2,8E0,4.6E1,2.9E1,2.8E1,5E0,2.86E2,8E1,6.8E1,6.3E1,8.7E1,4.4E1,1.91E2,5.2E1,7E0,3.7E1,1.22E2,1.19E2,1E1,6E0,7.8E1,1.28E2,3.1E1,1.3E1,7.9E1,4E1,1.34E2,1.28E2,1.8E1,4E1,7E0,3E0,3E0,5E0,1.59E2,1.57E2,9E0,1E0],"tree_param":{"num_deleted":"0","num_feature":"42","num_nodes":"101","size_leaf_vector":"1"}},{"base_weights":[-4.1642025E-2,-5.0298705E0,7.1224327E0,-7.8331504E0,-1.9708612E0,2.9217806E0,8.902633E0,-1.0185107E1,-6.853179E0,-3.2070704E0,-4.574827E-1,2.0500798E0,5.4145303E0,8.257572E0,1.769694E1,-1.3471269E1,-9.398042E0,-5.49007E0,-7.703189E0,-2.523277E0,-4.8717504E0,5.160508E-2,-4.7057047E0,2.6110902E0,-1.8031147E0,3.2579405E0,7.9209895E0,7.059495E0,9.8806925E0,2.1001923E1,1.4352891E0,-1.7937268E0,-1.1367468E0,-7.5835032E0,-1.0149678E1,-1.05743265E1,-4.9984407E0,-8.72076E0,-5.382336E0,-8.7783414E-1,-2.3492248E0,-5.704228E0,-3.50895E0,3.5849723E-1,-5.4032793E0,3.3337328E-1,-5.749572E0,-1.146499E0,3.2011118E0,-4.8389688E0,-4.6304575E-1,-1.0005442E-1,3.4029627E0,8.311566E0,2.3279095E-1,-2.9347057E0,7.3257E0,2.7641463E0,1.0201446E1,5.955761E-1,2.138069E0,-3.2733485E-1,-7.89329E-1,-1.1792701E0,-9.265877E-1,-1.1916068E0,-5.4575866E-1,-5.662508E-1,-2.9274324E-1,-8.1942904E-1,-1.308308E0,-1.3621451E-1,-5.790526E-1,-3.3451352E-1,-1.4679125E-1,-6.120399E-1,-7.276268E-2,-2.6629668E-1,-6.6265863E-1,9.433862E-2,-1.7886114E-1,-5.762454E-1,-1.8063127E-1,-6.9759315E-1,-3.7311214E-1,-3.9594177E-2,-3.663275E-1,2.6759693E-1,5.666167E-1,-5.1239556E-1,-1.137043E-1,1.427093E-1,-2.1721701E-1,-3.000412E-2,1.4995957E-2,3.538419E-1,2.3679607E-2,2.3424797E-1,8.412305E-1,-4.8105022E-1,-2.5715891E-2,9.517277E-1,6.518089E-1,-2.0365973E-1,7.219372E-1,9.7980034E-1,1.4466405E0],"categories":[],"categories_nodes":[],"categories_segments":[],"categories_sizes":[],"default_left":[0,0,0,0,0,0,0,0,0,0,0,0,1,0,0,0,0,0,0,0,0,0,0,0,0,0,0,0,0,0,0,0,0,0,0,0,0,0,0,0,0,0,0,1,0,0,0,0,0,0,0,0,0,0,0,0,0,0,0,0,0,0,0,0,0,0,0,0,0,0,0,0,0,0,0,0,0,0,0,0,0,0,0,0,0,0,0,0,0,0,0,0,0,0,0,0,0,0,0,0,0,0,0,0,0,0,0],"id":11,"left_children":[1,3,5,7,9,11,13,15,17,19,21,23,25,27,29,31,33,35,37,39,41,43,45,47,49,51,53,55,57,59,-1,-1,-1,61,63,65,67,69,71,-1,73,75,77,79,81,-1,83,85,87,89,91,93,95,97,-1,99,101,103,105,-1,-1,-1,-1,-1,-1,-1,-1,-1,-1,-1,-1,-1,-1,-1,-1,-1,-1,-1,-1,-1,-1,-1,-1,-1,-1,-1,-1,-1,-1,-1,-1,-1,-1,-1,-1,-1,-1,-1,-1,-1,-1,-1,-1,-1,-1,-1,-1],"loss_changes":[9.959644E4,1.4073711E4,8.528824E3,1.9054609E3,1.4708936E3,7.320425E2,4.409176E3,5.2000195E2,6.621719E2,4.8058984E2,7.680077E2,5.5593713E2,4.4986963E2,1.3887148E3,2.9537305E2,2.282959E2,2.0262305E2,5.395425E2,8.3158984E2,3.1578845E2,1.2179663E2,5.342885E2,3.3806757E2,4.9807434E2,1.320117E2,2.4202698E1,6.803247E1,1.1788184E3,6.9311914E2,1.5136719E1,0E0,0E0,0E0,5.9617188E1,9.692969E1,7.2273926E1,2.8323584E2,4.8302734E2,1.82469E2,0E0,2.6015747E2,1.5295166E2,1.1422705E2,3.80945E2,1.1554199E1,0E0,5.813379E1,5.7108086E1,2.34677E2,4.7238617E0,8.063146E1,1.9499253E-1,1.9319397E1,2.543213E0,0E0,5.903334E1,6.884199E2,3.3552887E2,3.7789844E2,0E0,0E0,0E0,0E0,0E0,0E0,0E0,0E0,0E0,0E0,0E0,0E0,0E0,0E0,0E0,0E0,0E0,0E0,0E0,0E0,0E0,0E0,0E0,0E0,0E0,0E0,0E0,0E0,0E0,0E0,0E0,0E0,0E0,0E0,0E0,0E0,0E0,0E0,0E0,0E0,0E0,0E0,0E0,0E0,0E0,0E0,0E0,0E0],"parents":[2147483647,0,0,1,1,2,2,3,3,4,4,5,5,6,6,7,7,8,8,9,9,10,10,11,11,12,12,13,13,14,14,15,15,16,16,17,17,18,18,19,19,20,20,21,21,22,22,23,23,24,24,25,25,26,26,27,27,28,28,29,29,33,33,34,34,35,35,36,36,37,37,38,38,40,40,41,41,42,42,43,43,44,44,46,46,47,47,48,48,49,49,50,50,51,51,52,52,53,53,55,55,56,56,57,57,58,58],"right_children":[2,4,6,8,10,12,14,16,18,20,22,24,26,28,30,32,34,36,38,40,42,44,46,48,50,52,54,56,58,60,-1,-1,-1,62,64,66,68,70,72,-1,74,76,78,80,82,-1,84,86,88,90,92,94,96,98,-1,100,102,104,106,-1,-1,-1,-1,-1,-1,-1,-1,-1,-1,-1,-1,-1,-1,-1,-1,-1,-1,-1,-1,-1,-1,-1,-1,-1,-1,-1,-1,-1,-1,-1,-1,-1,-1,-1,-1,-1,-1,-1,-1,-1,-1,-1,-1,-1,-1,-1,-1],"split_conditions":[7.208E1,5.474E1,8.747E1,4.37E1,6.318E1,2.36875E-1,1.1418E2,2.955E1,1.2976E-1,3.11796E-1,1.136E3,6.86254E-1,-4.65E1,9.754E1,2.0080624E7,-4.0675E2,4.45568E-1,5.12275E-1,1.07E3,2.65044E-1,1.74797E-1,1.3185857E2,8.1862E-2,2.0070814E7,3.7549E-1,7.281E1,9.053891E1,7.2023E-2,5.9985E-2,3.944397E1,1.4352891E0,-1.7937268E0,-1.1367468E0,6.846531E1,2.0160316E7,2.0200904E7,7.58E2,2.0171108E7,2.0070214E7,-8.7783414E-1,2.0081126E7,9.79437E-1,2.019043E7,1.0725E2,1.7023E2,3.3337328E-1,1.063E3,1.4619266E2,5.6311E-1,9.19E2,8.6829926E1,7.375E1,1.8585364E2,6.1971558E1,2.3279095E-1,8.747959E0,1.017E3,9.00462E1,3.08026E-1,5.955761E-1,2.138069E0,-3.2733485E-1,-7.89329E-1,-1.1792701E0,-9.265877E-1,-1.1916068E0,-5.4575866E-1,-5.662508E-1,-2.9274324E-1,-8.1942904E-1,-1.308308E0,-1.3621451E-1,-5.790526E-1,-3.3451352E-1,-1.4679125E-1,-6.120399E-1,-7.276268E-2,-2.6629668E-1,-6.6265863E-1,9.433862E-2,-1.7886114E-1,-5.762454E-1,-1.8063127E-1,-6.9759315E-1,-3.7311214E-1,-3.9594177E-2,-3.663275E-1,2.6759693E-1,5.666167E-1,-5.1239556E-1,-1.137043E-1,1.427093E-1,-2.1721701E-1,-3.000412E-2,1.4995957E-2,3.538419E-1,2.3679607E-2,2.3424797E-1,8.412305E-1,-4.8105022E-1,-2.5715891E-2,9.517277E-1,6.518089E-1,-2.0365973E-1,7.219372E-1,9.7980034E-1,1.4466405E0],"split_indices":[2,2,1,1,2,13,2,2,13,16,20,15,41,2,4,41,12,15,19,12,13,9,16,4,12,2,9,13,16,8,0,0,0,9,4,4,5,4,4,0,4,15,4,41,3,0,19,9,15,5,9,0,6,10,0,22,19,10,16,0,0,0,0,0,0,0,0,0,0,0,0,0,0,0,0,0,0,0,0,0,0,0,0,0,0,0,0,0,0,0,0,0,0,0,0,0,0,0,0,0,0,0,0,0,0,0,0],"split_type":[0,0,0,0,0,0,0,0,0,0,0,0,0,0,0,0,0,0,0,0,0,0,0,0,0,0,0,0,0,0,0,0,0,0,0,0,0,0,0,0,0,0,0,0,0,0,0,0,0,0,0,0,0,0,0,0,0,0,0,0,0,0,0,0,0,0,0,0,0,0,0,0,0,0,0,0,0,0,0,0,0,0,0,0,0,0,0,0,0,0,0,0,0,0,0,0,0,0,0,0,0,0,0,0,0,0,0],"sum_hessian":[2.785E3,1.642E3,1.143E3,8.56E2,7.86E2,3.41E2,8.02E2,2.49E2,6.07E2,4.32E2,3.54E2,2.54E2,8.7E1,7.49E2,5.3E1,4.5E1,2.04E2,2.36E2,3.71E2,3.08E2,1.24E2,3.17E2,3.7E1,2.22E2,3.2E1,4.8E1,3.9E1,4.34E2,3.15E2,2.4E1,2.9E1,1.2E1,3.3E1,6.3E1,1.41E2,1.9E1,2.17E2,2.56E2,1.15E2,7E0,3.01E2,7.5E1,4.9E1,3.01E2,1.6E1,4E0,3.3E1,3E1,1.92E2,9E0,2.3E1,2E0,4.6E1,3.6E1,3E0,1.1E1,4.23E2,1.4E1,3.01E2,1E0,2.3E1,5E0,5.8E1,4.5E1,9.6E1,1.4E1,5E0,1.63E2,5.4E1,2.31E2,2.5E1,1.1E1,1.04E2,1.4E2,1.61E2,6.9E1,6E0,4E1,9E0,2.37E2,6.4E1,1.4E1,2E0,1.9E1,1.4E1,2.4E1,6E0,1.6E2,3.2E1,8E0,1E0,1.1E1,1.2E1,1E0,1E0,4.4E1,2E0,1E0,3.5E1,6E0,5E0,1.11E2,3.12E2,7E0,7E0,2.78E2,2.3E1],"tree_param":{"num_deleted":"0","num_feature":"42","num_nodes":"107","size_leaf_vector":"1"}},{"base_weights":[5.4733742E-2,-3.9067686E0,7.4809413E0,-6.7694674E0,-1.407162E0,6.7203517E0,1.4311549E1,-8.780868E0,-5.735261E0,-2.773845E0,3.4592435E-1,6.0664573E0,9.668034E0,1.7759289E0,1.0853399E1,-7.5818644E0,-1.0313576E1,-7.774993E0,-5.2532535E0,-2.0206497E0,-4.216039E0,1.7816412E0,-1.1328706E0,5.1647644E0,7.85178E0,1.0227775E1,2.7671862E0,7.45325E-1,1.1621306E1,-6.7323523E0,-9.776275E0,-1.2973039E1,-8.449146E0,-8.504429E0,-6.0230827E0,-6.0295653E0,-3.2840083E0,-8.0105466E-1,-1.842207E0,-3.6669834E0,-5.614169E0,-4.5699573E0,2.2151773E0,-7.9312056E-1,-6.389754E-1,8.233982E0,4.383868E0,8.863639E0,3.2349508E0,7.896347E0,1.1595185E1,6.751785E-1,5.979363E-1,1.1847577E1,4.9568635E-1,-6.796666E-1,4.604702E-2,-1.0484658E0,-6.3901395E-1,-1.5391012E0,-1.1407565E0,-8.912038E-1,-5.5915725E-1,-6.6492933E-1,-9.699667E-1,-6.2440753E-1,-1.6581331E-1,-6.158474E-1,3.4007174E-1,-2.5289986E-1,-5.426644E-1,-1.6657452E-1,-7.6223916E-1,-3.9630052E-1,4.2958755E-2,-2.1001677E-1,-6.1373746E-1,-5.425355E-1,-2.5252026E-1,3.2715496E-1,1.1368724E-1,3.7569728E-2,-1.9842653E-1,6.232599E-1,1.1641387E0,-6.953006E-2,4.9174306E-1,1.0788519E0,7.1820056E-1,6.6999435E-2,5.157518E-1,8.77378E-1,5.3673095E-1,1.2392125E0,8.6410886E-1,-1.4105662E-3,2.0584488E-1,6.6411924E-1,1.2277406E0],"categories":[],"categories_nodes":[],"categories_segments":[],"categories_sizes":[],"default_left":[0,0,0,0,0,0,0,0,0,0,0,0,0,0,0,0,0,0,0,0,0,0,0,0,0,0,0,0,0,0,0,0,0,0,0,0,0,0,1,0,0,0,0,0,0,0,0,0,0,0,0,0,0,0,0,0,0,0,0,0,0,0,0,0,0,0,0,0,0,0,0,0,0,0,0,0,0,0,0,0,0,0,0,0,0,0,0,0,0,0,0,0,0,0,0,0,0,0,0],"id":12,"left_children":[1,3,5,7,9,11,13,15,17,19,21,23,25,-1,27,29,31,33,35,37,39,41,43,45,47,49,51,-1,53,55,57,59,61,63,65,67,69,-1,71,73,75,77,79,-1,81,83,85,87,89,91,93,95,-1,97,-1,-1,-1,-1,-1,-1,-1,-1,-1,-1,-1,-1,-1,-1,-1,-1,-1,-1,-1,-1,-1,-1,-1,-1,-1,-1,-1,-1,-1,-1,-1,-1,-1,-1,-1,-1,-1,-1,-1,-1,-1,-1,-1,-1,-1],"loss_changes":[8.09313E4,1.2827658E4,4.875711E3,1.6886875E3,2.2986406E3,1.6047578E3,9.39916E2,4.4004102E2,5.048125E2,5.769717E2,8.958564E2,1.1008047E3,5.7041406E2,0E0,4.3933594E1,2.3617969E2,4.9035254E2,8.167969E1,6.7119336E2,3.6575464E2,1.20660645E2,5.9940375E2,6.933265E2,1.099958E3,1.0738203E3,3.6432715E2,8.332154E1,0E0,8.3984375E-2,5.8641113E1,3.614502E1,6.1191406E0,4.805127E1,9.293408E1,2.2443604E1,4.1359668E2,1.9657849E2,0E0,3.4123657E2,1.6541345E2,7.903772E1,1.0786987E1,2.2523804E2,0E0,2.6692612E2,5.752988E2,1.0332388E3,5.472471E2,2.1352167E2,7.717554E1,1.000918E2,8.610233E0,0E0,1.2641602E0,0E0,0E0,0E0,0E0,0E0,0E0,0E0,0E0,0E0,0E0,0E0,0E0,0E0,0E0,0E0,0E0,0E0,0E0,0E0,0E0,0E0,0E0,0E0,0E0,0E0,0E0,0E0,0E0,0E0,0E0,0E0,0E0,0E0,0E0,0E0,0E0,0E0,0E0,0E0,0E0,0E0,0E0,0E0,0E0,0E0],"parents":[2147483647,0,0,1,1,2,2,3,3,4,4,5,5,6,6,7,7,8,8,9,9,10,10,11,11,12,12,14,14,15,15,16,16,17,17,18,18,19,19,20,20,21,21,22,22,23,23,24,24,25,25,26,26,28,28,29,29,30,30,31,31,32,32,33,33,34,34,35,35,36,36,38,38,39,39,40,40,41,41,42,42,44,44,45,45,46,46,47,47,48,48,49,49,50,50,51,51,53,53],"right_children":[2,4,6,8,10,12,14,16,18,20,22,24,26,-1,28,30,32,34,36,38,40,42,44,46,48,50,52,-1,54,56,58,60,62,64,66,68,70,-1,72,74,76,78,80,-1,82,84,86,88,90,92,94,96,-1,98,-1,-1,-1,-1,-1,-1,-1,-1,-1,-1,-1,-1,-1,-1,-1,-1,-1,-1,-1,-1,-1,-1,-1,-1,-1,-1,-1,-1,-1,-1,-1,-1,-1,-1,-1,-1,-1,-1,-1,-1,-1,-1,-1,-1,-1],"split_conditions":[7.936E1,5.481E1,1.0822E2,4.397E1,6.648E1,2.45823E-1,1.861276E0,4.878E-2,3.02691E-1,2.75361E-1,5.1919E-2,2.0130326E7,2.0140904E7,1.7759289E0,2.7419E-1,1.136E3,2.0200428E7,9.448186E1,1.124E3,2.65044E-1,6.48497E-1,1.006E3,3.51882E-1,2.0080418E7,2.0140718E7,1.757734E0,1.313327E2,7.45325E-1,1.6308006E2,5.50097E-1,2.0201016E7,-1.765E2,2.0201016E7,2.67044E-1,9.01E2,6.742E3,1.079414E0,-8.0105466E-1,1.1344175E5,1.079414E0,2.0150518E7,7.647E1,1.34433E-1,-7.9312056E-1,1.22837E-1,2.0080118E7,2.0100202E7,3.08771E-1,9.15E1,9.55E1,2.0130824E7,3.0707E2,5.979363E-1,5.023411E1,4.9568635E-1,-6.796666E-1,4.604702E-2,-1.0484658E0,-6.3901395E-1,-1.5391012E0,-1.1407565E0,-8.912038E-1,-5.5915725E-1,-6.6492933E-1,-9.699667E-1,-6.2440753E-1,-1.6581331E-1,-6.158474E-1,3.4007174E-1,-2.5289986E-1,-5.426644E-1,-1.6657452E-1,-7.6223916E-1,-3.9630052E-1,4.2958755E-2,-2.1001677E-1,-6.1373746E-1,-5.425355E-1,-2.5252026E-1,3.2715496E-1,1.1368724E-1,3.7569728E-2,-1.9842653E-1,6.232599E-1,1.1641387E0,-6.953006E-2,4.9174306E-1,1.0788519E0,7.1820056E-1,6.6999435E-2,5.157518E-1,8.77378E-1,5.3673095E-1,1.2392125E0,8.6410886E-1,-1.4105662E-3,2.0584488E-1,6.6411924E-1,1.2277406E0],"split_indices":[24,24,0,0,0,16,17,18,12,16,18,4,4,0,12,20,4,10,20,12,16,20,12,4,4,17,10,0,7,14,4,41,4,12,5,41,15,0,41,15,4,0,13,0,13,4,4,14,0,0,4,3,0,8,0,0,0,0,0,0,0,0,0,0,0,0,0,0,0,0,0,0,0,0,0,0,0,0,0,0,0,0,0,0,0,0,0,0,0,0,0,0,0,0,0,0,0,0,0],"split_type":[0,0,0,0,0,0,0,0,0,0,0,0,0,0,0,0,0,0,0,0,0,0,0,0,0,0,0,0,0,0,0,0,0,0,0,0,0,0,0,0,0,0,0,0,0,0,0,0,0,0,0,0,0,0,0,0,0,0,0,0,0,0,0,0,0,0,0,0,0,0,0,0,0,0,0,0,0,0,0,0,0,0,0,0,0,0,0,0,0,0,0,0,0,0,0,0,0,0,0],"sum_hessian":[2.749E3,1.793E3,9.56E2,8.35E2,9.58E2,8.62E2,9.4E1,2.81E2,5.54E2,5.38E2,4.2E2,7.08E2,1.54E2,4.5E1,4.9E1,1.61E2,1.2E2,1.03E2,4.51E2,3.55E2,1.83E2,2.13E2,2.07E2,4.73E2,2.35E2,1.42E2,1.2E1,1.1E1,3.8E1,1.19E2,4.2E1,4.7E1,7.3E1,7E1,3.3E1,3.22E2,1.29E2,9E0,3.46E2,1.34E2,4.9E1,1.3E1,2E2,1.3E1,1.94E2,9.4E1,3.79E2,1.92E2,4.3E1,5.5E1,8.7E1,8E0,4E0,3.6E1,2E0,1.18E2,1E0,3.3E1,9E0,1.5E1,3.2E1,6.1E1,1.2E1,3E1,4E1,3.1E1,2E0,3.18E2,4E0,9.7E1,3.2E1,3.37E2,9E0,1.25E2,9E0,7E0,4.2E1,8E0,5E0,1E2,1E2,1.11E2,8.3E1,6.1E1,3.3E1,3.6E1,3.43E2,8.7E1,1.05E2,1.9E1,2.4E1,3.9E1,1.6E1,6.6E1,2.1E1,6E0,2E0,4E0,3.2E1],"tree_param":{"num_deleted":"0","num_feature":"42","num_nodes":"99","size_leaf_vector":"1"}},{"base_weights":[2.6767775E-2,-3.6346023E0,6.8979745E0,-6.105188E0,-9.5537674E-1,5.908456E0,1.1122615E1,-7.77494E0,-4.853163E0,-2.3850892E0,1.3255708E-1,5.3010507E0,8.399106E0,1.5422918E1,9.187933E0,-1.0248445E1,-7.018228E0,-9.143132E0,-4.5654964E0,5.73241E-1,-2.840579E0,4.5790094E-1,-2.7088268E0,4.340811E0,6.436266E0,9.294893E0,2.368491E0,1.6220165E1,7.638919E-1,9.743065E0,6.3764005E0,-1.2740545E1,-8.567893E0,-4.5779743E0,-7.2720494E0,-1.5121675E0,-6.2711086E0,-5.463639E0,-3.5754018E0,-1.5060316E0,1.9632888E0,-4.235384E0,-2.204668E0,1.3947295E0,-6.556795E-1,-5.6545076E0,-9.3074304E-1,4.5206976E0,3.480997E-1,6.959581E0,1.5225356E0,7.4197307E0,1.1113603E1,1.1131796E0,4.7200885E-1,3.270115E-1,1.642183E0,1.094909E1,8.303287E0,7.0294124E-1,4.1917E-1,-9.927956E-1,-1.4845327E0,-7.374924E-1,-9.950644E-1,-4.746234E-1,-1.3693874E-1,-6.964405E-1,-9.3636763E-1,-6.7848843E-1,-2.0060082E-1,-7.4041283E-1,-3.9265692E-1,-2.741913E-1,-5.464384E-1,-3.173004E-1,-4.4590216E-2,4.5482043E-2,2.4681988E-1,-6.6287106E-1,-2.62299E-1,-2.3681651E-1,6.5633275E-2,-3.0551815E-1,1.619856E-1,4.1756105E-2,-3.0643222E-1,-6.341801E-1,-2.4617265E-1,-4.709719E-1,2.6781669E-2,3.1210437E-1,5.166219E-1,1.637631E-1,-5.8938216E-2,9.060551E-1,5.794006E-1,-1.9946216E-1,3.7827215E-1,8.314516E-1,5.3075635E-1,1.1280166E0,3.9112473E-1,8.453369E-3,2.0026779E-1,4.5793724E-1,1.1233988E0,6.146157E-1,8.7967724E-1],"categories":[],"categories_nodes":[],"categories_segments":[],"categories_sizes":[],"default_left":[1,1,0,1,0,0,0,1,0,1,1,0,0,0,0,0,0,0,0,0,0,0,0,0,0,0,0,0,0,0,0,0,0,0,0,0,0,0,0,0,0,0,0,0,0,0,0,0,0,0,0,0,0,0,0,0,0,0,0,0,0,0,0,0,0,0,0,0,0,0,0,0,0,0,0,0,0,0,0,0,0,0,0,0,0,0,0,0,0,0,0,0,0,0,0,0,0,0,0,0,0,0,0,0,0,0,0,0,0],"id":13,"left_children":[1,3,5,7,9,11,13,15,17,19,21,23,25,27,29,31,33,35,37,39,41,43,45,47,49,51,53,55,-1,57,59,61,63,65,67,-1,69,71,73,75,77,79,81,83,85,87,89,91,93,95,97,99,101,103,-1,-1,-1,105,107,-1,-1,-1,-1,-1,-1,-1,-1,-1,-1,-1,-1,-1,-1,-1,-1,-1,-1,-1,-1,-1,-1,-1,-1,-1,-1,-1,-1,-1,-1,-1,-1,-1,-1,-1,-1,-1,-1,-1,-1,-1,-1,-1,-1,-1,-1,-1,-1,-1,-1],"loss_changes":[6.98386E4,1.1981637E4,3.968332E3,1.9315859E3,1.3535422E3,1.1415371E3,1.3724863E3,6.8050977E2,6.2589453E2,5.0828442E2,4.5883163E2,6.620801E2,7.9911035E2,2.1741211E2,1.3765332E2,2.7614648E2,1.5933887E2,4.7179736E2,4.330918E2,1.5036148E2,2.7981543E2,4.6515363E2,2.6185815E2,2.4693604E2,7.299756E2,3.6770996E2,5.6737427E1,7.42666E1,0E0,9.141016E1,4.774109E0,5.98125E1,2.2290527E1,1.0776611E1,1.1496094E2,0E0,3.8980835E1,7.613345E2,3.707566E2,3.5696487E1,2.2488281E1,3.7237048E2,1.07269165E2,2.4738272E2,5.2863043E2,2.608142E1,1.5072919E2,2.8293652E2,2.0307787E1,5.842002E2,2.3807855E2,8.438599E1,3.385742E1,1.35553875E1,0E0,0E0,0E0,4.6550293E1,1.2880859E0,0E0,0E0,0E0,0E0,0E0,0E0,0E0,0E0,0E0,0E0,0E0,0E0,0E0,0E0,0E0,0E0,0E0,0E0,0E0,0E0,0E0,0E0,0E0,0E0,0E0,0E0,0E0,0E0,0E0,0E0,0E0,0E0,0E0,0E0,0E0,0E0,0E0,0E0,0E0,0E0,0E0,0E0,0E0,0E0,0E0,0E0,0E0,0E0,0E0,0E0],"parents":[2147483647,0,0,1,1,2,2,3,3,4,4,5,5,6,6,7,7,8,8,9,9,10,10,11,11,12,12,13,13,14,14,15,15,16,16,17,17,18,18,19,19,20,20,21,21,22,22,23,23,24,24,25,25,26,26,27,27,29,29,30,30,31,31,32,32,33,33,34,34,36,36,37,37,38,38,39,39,40,40,41,41,42,42,43,43,44,44,45,45,46,46,47,47,48,48,49,49,50,50,51,51,52,52,53,53,57,57,58,58],"right_children":[2,4,6,8,10,12,14,16,18,20,22,24,26,28,30,32,34,36,38,40,42,44,46,48,50,52,54,56,-1,58,60,62,64,66,68,-1,70,72,74,76,78,80,82,84,86,88,90,92,94,96,98,100,102,104,-1,-1,-1,106,108,-1,-1,-1,-1,-1,-1,-1,-1,-1,-1,-1,-1,-1,-1,-1,-1,-1,-1,-1,-1,-1,-1,-1,-1,-1,-1,-1,-1,-1,-1,-1,-1,-1,-1,-1,-1,-1,-1,-1,-1,-1,-1,-1,-1,-1,-1,-1,-1,-1,-1],"split_conditions":[7.962631E1,5.8019524E1,1.04555214E2,4.6855713E1,6.429318E1,2.45823E-1,2.0080624E7,3.796091E1,1.36568E-1,-3.91E0,1.365E2,9.475739E1,2.0140608E7,8.315198E1,9.702479E1,-1.5725E2,8.8581E-2,8.279301E1,1.115E3,2.0060314E7,1.047E3,5.4222E-2,2.009062E7,9.471591E1,1.0298131E2,1.757734E0,1.313327E2,1.0088E2,7.638919E-1,6.09706E-1,1.1652248E2,2.0200316E7,1.02359024E2,8.8021866E1,4.40087E-1,-1.5121675E0,1.10969376E2,7.1537E-2,1.079414E0,2.006022E7,7.230875E4,4.1478E-1,1.235819E0,1.006E3,1.22837E-1,8.742608E1,3.7549E-1,8.561E1,-2.16E0,1.58202E-1,8.813494E1,9.45E1,1.0475E2,2.6224E2,4.7200885E-1,3.270115E-1,1.642183E0,2.69174E-1,8.575622E1,7.0294124E-1,4.1917E-1,-9.927956E-1,-1.4845327E0,-7.374924E-1,-9.950644E-1,-4.746234E-1,-1.3693874E-1,-6.964405E-1,-9.3636763E-1,-6.7848843E-1,-2.0060082E-1,-7.4041283E-1,-3.9265692E-1,-2.741913E-1,-5.464384E-1,-3.173004E-1,-4.4590216E-2,4.5482043E-2,2.4681988E-1,-6.6287106E-1,-2.62299E-1,-2.3681651E-1,6.5633275E-2,-3.0551815E-1,1.619856E-1,4.1756105E-2,-3.0643222E-1,-6.341801E-1,-2.4617265E-1,-4.709719E-1,2.6781669E-2,3.1210437E-1,5.166219E-1,1.637631E-1,-5.8938216E-2,9.060551E-1,5.794006E-1,-1.9946216E-1,3.7827215E-1,8.314516E-1,5.3075635E-1,1.1280166E0,3.9112473E-1,8.453369E-3,2.0026779E-1,4.5793724E-1,1.1233988E0,6.146157E-1,8.7967724E-1],"split_indices":[23,23,23,23,23,16,4,23,14,21,41,23,4,9,9,41,13,9,20,4,20,18,4,23,23,17,10,0,0,15,6,4,9,10,13,0,9,18,15,4,41,12,15,20,13,10,12,23,28,13,10,0,41,3,0,0,0,15,9,0,0,0,0,0,0,0,0,0,0,0,0,0,0,0,0,0,0,0,0,0,0,0,0,0,0,0,0,0,0,0,0,0,0,0,0,0,0,0,0,0,0,0,0,0,0,0,0,0,0],"split_type":[0,0,0,0,0,0,0,0,0,0,0,0,0,0,0,0,0,0,0,0,0,0,0,0,0,0,0,0,0,0,0,0,0,0,0,0,0,0,0,0,0,0,0,0,0,0,0,0,0,0,0,0,0,0,0,0,0,0,0,0,0,0,0,0,0,0,0,0,0,0,0,0,0,0,0,0,0,0,0,0,0,0,0,0,0,0,0,0,0,0,0,0,0,0,0,0,0,0,0,0,0,0,0,0,0,0,0,0,0],"sum_hessian":[2.774E3,1.81E3,9.64E2,9.41E2,8.69E2,7.83E2,1.81E2,4.01E2,5.4E2,3.75E2,4.94E2,6.32E2,1.51E2,5.4E1,1.27E2,9.1E1,3.1E2,3.2E1,5.08E2,5E1,3.25E2,4.44E2,5E1,3.45E2,2.87E2,1.31E2,2E1,4.8E1,6E0,1.04E2,2.3E1,3.4E1,5.7E1,3.1E1,2.79E2,9E0,2.3E1,2.64E2,2.44E2,2E1,3E1,1E2,2.25E2,2.41E2,2.03E2,1.8E1,3.2E1,3.3E2,1.5E1,2.59E2,2.8E1,6.7E1,6.4E1,1.4E1,6E0,1E0,4.7E1,5.3E1,5.1E1,1.6E1,7E0,1.7E1,1.7E1,3.4E1,2.3E1,2.9E1,2E0,2.47E2,3.2E1,2E1,3E0,1.15E2,1.49E2,1.71E2,7.3E1,7E0,1.3E1,8E0,2.2E1,3.9E1,6.1E1,2.13E2,1.2E1,1.1E1,2.3E2,1.41E2,6.2E1,1.4E1,4E0,7E0,2.5E1,1.06E2,2.24E2,6E0,9E0,9E1,1.69E2,1.1E1,1.7E1,4.5E1,2.2E1,6.2E1,2E0,7E0,7E0,3E0,5E1,1.2E1,3.9E1],"tree_param":{"num_deleted":"0","num_feature":"42","num_nodes":"109","size_leaf_vector":"1"}},{"base_weights":[1.4288439E-2,-3.2958038E0,6.201678E0,-5.39459E0,-8.9614147E-1,5.592687E0,1.3164598E1,-7.365872E0,-4.426242E0,-2.247634E0,1.543861E-1,4.3656354E0,6.8768773E0,8.432423E0,1.5368525E1,-9.28967E0,-6.4999156E0,-2.6404274E0,-4.849181E0,-7.1806827E0,-1.9633843E0,3.6488315E-1,-5.292032E0,4.5935855E0,3.488837E-1,6.1450334E0,8.6864395E0,4.587743E0,1.0099888E1,1.1575655E0,1.720152E1,-1.0242131E1,-7.3912725E0,-9.752579E-1,-6.595931E0,-4.976353E0,-2.3782773E0,-6.794337E0,-4.3057833E0,-7.764152E-1,-2.9057676E-1,-2.3651152E0,-6.385137E-2,5.2189404E-1,-4.730389E0,-6.265882E0,1.6658477E-1,3.9881272E0,6.1340938E0,-3.7616882E-1,1.048597E0,1.0283427E0,6.3966017E0,9.232964E0,4.420347E-1,1.8349858E-1,5.505355E-1,3.5098445E-1,1.0704279E1,1.9325236E0,1.2447712E0,-1.1681558E0,-8.317358E-1,-4.339562E-1,-7.8569627E-1,-1.3895163E-1,-2.359136E-2,-6.195427E-1,-8.1933635E-1,-5.4421145E-1,7.3509216E-3,5.3836443E-2,-2.5687763E-1,-1.0125117E0,-5.371043E-1,-3.6138543E-1,-5.5924696E-1,2.7502605E-3,-2.6080784E-1,1.2903492E-1,-1.1840788E-1,-3.1830186E-1,7.370832E-2,-6.329841E-1,8.507013E-2,-6.9840795E-1,-2.3652697E-1,3.3409265E-1,5.871789E-1,6.76493E-1,3.4158534E-1,1.611865E-1,-4.691391E-2,-2.6088962E-1,4.9916935E-1,8.878072E-1,5.329712E-1,8.4482354E-1,1.0589542E0,1.1047698E0,2.776493E-1],"categories":[],"categories_nodes":[],"categories_segments":[],"categories_sizes":[],"default_left":[0,0,0,0,0,0,0,0,0,0,1,0,0,0,0,0,0,0,0,0,0,0,0,0,0,0,0,0,0,0,0,0,1,0,0,0,0,0,0,0,0,0,0,0,0,0,0,0,0,0,0,0,0,0,0,0,0,0,0,0,0,0,0,0,0,0,0,0,0,0,0,0,0,0,0,0,0,0,0,0,0,0,0,0,0,0,0,0,0,0,0,0,0,0,0,0,0,0,0,0,0],"id":14,"left_children":[1,3,5,7,9,11,13,15,17,19,21,23,25,27,29,31,33,35,37,39,41,43,45,47,49,51,53,55,57,-1,59,61,63,65,67,69,71,73,75,-1,-1,77,79,81,83,85,-1,87,89,-1,91,93,95,97,-1,-1,-1,-1,99,-1,-1,-1,-1,-1,-1,-1,-1,-1,-1,-1,-1,-1,-1,-1,-1,-1,-1,-1,-1,-1,-1,-1,-1,-1,-1,-1,-1,-1,-1,-1,-1,-1,-1,-1,-1,-1,-1,-1,-1,-1,-1],"loss_changes":[5.7530605E4,9.21174E3,4.0776797E3,1.8304727E3,1.214259E3,1.3913203E3,6.838965E2,4.7271484E2,4.8342188E2,5.1033093E2,5.545222E2,4.2324414E2,5.279961E2,1.2675781E2,1.6240039E2,9.96875E1,1.12387695E2,6.654736E1,5.309512E2,2.7324707E1,2.7075E2,3.7447495E2,1.3240479E2,3.8499707E2,7.872625E1,4.0017578E2,2.4829492E2,1.5157394E1,3.4122925E1,0E0,9.260449E1,7.461572E1,1.7065796E1,1.2035918E0,8.9990234E1,2.862442E1,6.6390015E1,4.8605518E2,3.5104248E2,0E0,0E0,1.7039795E2,9.709967E1,3.6270618E2,1.3035846E2,2.8303345E1,0E0,3.680586E2,1.8609277E2,0E0,2.0418709E1,2.4367326E2,7.495664E2,2.6572266E1,0E0,0E0,0E0,0E0,1.2887085E1,0E0,0E0,0E0,0E0,0E0,0E0,0E0,0E0,0E0,0E0,0E0,0E0,0E0,0E0,0E0,0E0,0E0,0E0,0E0,0E0,0E0,0E0,0E0,0E0,0E0,0E0,0E0,0E0,0E0,0E0,0E0,0E0,0E0,0E0,0E0,0E0,0E0,0E0,0E0,0E0,0E0,0E0],"parents":[2147483647,0,0,1,1,2,2,3,3,4,4,5,5,6,6,7,7,8,8,9,9,10,10,11,11,12,12,13,13,14,14,15,15,16,16,17,17,18,18,19,19,20,20,21,21,22,22,23,23,24,24,25,25,26,26,27,27,28,28,30,30,31,31,32,32,33,33,34,34,35,35,36,36,37,37,38,38,41,41,42,42,43,43,44,44,45,45,47,47,48,48,50,50,51,51,52,52,53,53,58,58],"right_children":[2,4,6,8,10,12,14,16,18,20,22,24,26,28,30,32,34,36,38,40,42,44,46,48,50,52,54,56,58,-1,60,62,64,66,68,70,72,74,76,-1,-1,78,80,82,84,86,-1,88,90,-1,92,94,96,98,-1,-1,-1,-1,100,-1,-1,-1,-1,-1,-1,-1,-1,-1,-1,-1,-1,-1,-1,-1,-1,-1,-1,-1,-1,-1,-1,-1,-1,-1,-1,-1,-1,-1,-1,-1,-1,-1,-1,-1,-1,-1,-1,-1,-1,-1,-1],"split_conditions":[7.962631E1,5.8019524E1,1.1246273E2,4.5170433E1,6.429318E1,9.4983475E1,9.0705E-2,3.796091E1,1.02617E-1,2.89436E-1,7.230875E4,2.0140924E7,1.063E3,1.21E2,1.21E2,-2.175E1,-1.177935E5,7.75286E1,1.017E3,6.71E1,1.755E2,5.31367E-1,2.009062E7,1.91524E-1,8.032723E1,5.3161E-2,2.0140402E7,2.7283E2,-1.5725E2,1.1575655E0,7.571304E1,4.7585E2,1.3775E2,3.528E1,2.05862E-1,5.354E1,2.0090506E7,8.575622E1,3.44674E-1,-7.764152E-1,-2.9057676E-1,5.9075714E1,1.12E3,2.0060428E7,7.218E1,7.251E1,1.6658477E-1,2.012113E7,7.56274E-1,-3.7616882E-1,9.19E1,-6.975E1,1.58202E-1,3.125E-1,4.420347E-1,1.8349858E-1,5.505355E-1,3.5098445E-1,1.4394952E2,1.9325236E0,1.2447712E0,-1.1681558E0,-8.317358E-1,-4.339562E-1,-7.8569627E-1,-1.3895163E-1,-2.359136E-2,-6.195427E-1,-8.1933635E-1,-5.4421145E-1,7.3509216E-3,5.3836443E-2,-2.5687763E-1,-1.0125117E0,-5.371043E-1,-3.6138543E-1,-5.5924696E-1,2.7502605E-3,-2.6080784E-1,1.2903492E-1,-1.1840788E-1,-3.1830186E-1,7.370832E-2,-6.329841E-1,8.507013E-2,-6.9840795E-1,-2.3652697E-1,3.3409265E-1,5.871789E-1,6.76493E-1,3.4158534E-1,1.611865E-1,-4.691391E-2,-2.6088962E-1,4.9916935E-1,8.878072E-1,5.329712E-1,8.4482354E-1,1.0589542E0,1.1047698E0,2.776493E-1],"split_indices":[23,23,23,23,23,23,13,23,13,12,41,4,19,0,0,41,41,9,19,0,41,16,4,16,9,13,4,3,41,0,9,3,3,0,13,0,4,9,16,0,0,23,20,4,0,0,0,4,15,0,1,41,13,13,0,0,0,0,7,0,0,0,0,0,0,0,0,0,0,0,0,0,0,0,0,0,0,0,0,0,0,0,0,0,0,0,0,0,0,0,0,0,0,0,0,0,0,0,0,0,0],"split_type":[0,0,0,0,0,0,0,0,0,0,0,0,0,0,0,0,0,0,0,0,0,0,0,0,0,0,0,0,0,0,0,0,0,0,0,0,0,0,0,0,0,0,0,0,0,0,0,0,0,0,0,0,0,0,0,0,0,0,0,0,0,0,0,0,0,0,0,0,0,0,0,0,0,0,0,0,0,0,0,0,0,0,0,0,0,0,0,0,0,0,0,0,0,0,0,0,0,0,0,0,0],"sum_hessian":[2.807E3,1.829E3,9.78E2,9.75E2,8.54E2,9.01E2,7.7E1,3.19E2,6.56E2,3.73E2,4.81E2,4.63E2,4.38E2,2.6E1,5.1E1,9.6E1,2.23E2,1.27E2,5.29E2,1.9E1,3.54E2,4.64E2,1.7E1,4.38E2,2.5E1,3.15E2,1.23E2,9E0,1.7E1,1.9E1,3.2E1,6.1E1,3.5E1,4E0,2.19E2,1.1E1,1.16E2,1.13E2,4.16E2,1.6E1,3E0,2.92E2,6.2E1,4.51E2,1.3E1,1.5E1,2E0,3.17E2,1.21E2,3E0,2.2E1,1.5E1,3E2,1.08E2,1.5E1,3E0,6E0,2E0,1.5E1,2E1,1.2E1,3.2E1,2.9E1,6E0,2.9E1,2E0,2E0,1.79E2,4E1,1E1,1E0,7E0,1.09E2,3.2E1,8.1E1,2.73E2,1.43E2,2.7E1,2.65E2,2.8E1,3.4E1,2.4E1,4.27E2,1E1,3E0,1.2E1,3E0,2.38E2,7.9E1,9.7E1,2.4E1,1.6E1,6E0,8E0,7E0,8.8E1,2.12E2,7.3E1,3.5E1,1.4E1,1E0],"tree_param":{"num_deleted":"0","num_feature":"42","num_nodes":"101","size_leaf_vector":"1"}},{"base_weights":[1.806154E-2,-3.1585155E0,5.125482E0,-5.766901E0,-1.5439836E0,4.2371497E0,9.5285845E0,-8.445249E0,-5.338586E0,-2.6463947E0,-2.787602E-1,1.9783707E0,5.0595803E0,1.34013605E1,7.609326E0,-1.0558569E1,-7.3021083E0,-5.1160774E0,-8.014021E0,-4.7873864E0,-2.3413632E0,1.7624691E-1,-1.9791319E0,2.2777097E0,-4.4603877E0,3.2894979E0,5.724824E0,1.0337626E1,1.6536106E1,8.091573E0,5.612843E0,-2.828295E-1,-1.073364E0,-5.416297E-1,-7.7485996E-1,-5.810873E0,-3.971672E0,-1.0244943E1,-3.7484648E0,-1.5006233E0,-6.8162694E0,-1.58508E0,-3.3446898E0,-1.9916769E0,5.274551E-1,-2.3900979E0,1.1130958E0,3.314181E0,1.3805603E0,-1.01332285E-1,-4.703762E0,5.842302E0,2.5001602E0,6.039461E0,6.885135E-1,1.1044092E1,5.4355913E-1,6.058482E-1,1.7131977E0,8.683677E0,6.1634607E0,1.321373E-1,5.727078E-1,-4.3251297E-1,-6.162966E-1,-4.2323533E-1,-6.6043854E-2,-1.38339E0,-8.560769E-1,-1.6032021E-1,-4.3299523E-1,-2.1743253E-1,4.554224E-2,-9.171773E-1,-5.824548E-1,-1.21003985E-1,-3.3385703E-1,3.62403E-2,-3.5667074E-1,-5.0775446E-2,-3.404468E-1,1.3825798E-1,-7.12887E-2,-2.5246078E-1,4.8219528E-2,1.4363614E-1,-1.3830452E-1,1.7721757E-1,3.818763E-1,2.6405576E-1,5.0535467E-2,-4.9401623E-1,-1.2880802E-1,6.76012E-1,3.92834E-1,3.176294E-1,2.9879356E-2,4.7946817E-1,7.013944E-1,-2.8781268E-1,2.1842873E-1,4.314158E-1,1.140992E0,6.7926896E-1,9.2920506E-1,6.350009E-1,7.498779E-2],"categories":[],"categories_nodes":[],"categories_segments":[],"categories_sizes":[],"default_left":[0,0,0,0,0,0,0,0,0,0,0,0,0,0,0,0,0,0,0,0,0,0,0,0,0,0,0,0,0,0,0,0,0,0,0,0,0,0,0,0,0,0,0,0,0,0,0,0,0,0,0,0,0,0,0,0,0,0,0,0,0,0,0,0,0,0,0,0,0,0,0,0,0,0,0,0,0,0,0,0,0,0,0,0,0,0,0,0,0,0,0,0,0,0,0,0,0,0,0,0,0,0,0,0,0,0,0],"id":15,"left_children":[1,3,5,7,9,11,13,15,17,19,21,23,25,27,29,31,33,35,37,39,41,43,45,47,49,51,53,55,57,59,61,-1,-1,-1,-1,63,65,67,69,71,73,75,77,79,81,83,85,87,89,-1,91,93,95,97,99,101,-1,-1,-1,103,105,-1,-1,-1,-1,-1,-1,-1,-1,-1,-1,-1,-1,-1,-1,-1,-1,-1,-1,-1,-1,-1,-1,-1,-1,-1,-1,-1,-1,-1,-1,-1,-1,-1,-1,-1,-1,-1,-1,-1,-1,-1,-1,-1,-1,-1,-1],"loss_changes":[4.5313914E4,7.242994E3,4.148756E3,7.097578E2,1.4847207E3,1.6489072E3,1.2285059E3,1.3790869E2,2.983252E2,3.6038843E2,3.848684E2,4.727287E2,7.5127734E2,3.8608984E2,7.204443E1,8.88916E0,9.393066E0,3.9754395E2,3.612744E2,4.5656348E2,3.740979E2,3.0027777E2,1.3609442E2,2.0929456E2,4.4617767E0,3.5011267E2,7.4694727E2,5.0788574E1,6.47749E1,5.607617E1,5.6688232E0,0E0,0E0,0E0,0E0,1.4440332E2,1.724292E2,4.4770508E1,1.3017319E1,3.788842E1,4.702661E1,1.8469983E2,1.774231E2,1.1357738E2,3.6054498E2,3.714801E1,1.2476465E1,7.570764E1,1.3651018E2,0E0,1.7113495E0,4.722412E1,2.0742944E2,5.07375E2,1.6099838E2,1.725E1,0E0,0E0,0E0,1.85625E1,2.1495483E1,0E0,0E0,0E0,0E0,0E0,0E0,0E0,0E0,0E0,0E0,0E0,0E0,0E0,0E0,0E0,0E0,0E0,0E0,0E0,0E0,0E0,0E0,0E0,0E0,0E0,0E0,0E0,0E0,0E0,0E0,0E0,0E0,0E0,0E0,0E0,0E0,0E0,0E0,0E0,0E0,0E0,0E0,0E0,0E0,0E0,0E0],"parents":[2147483647,0,0,1,1,2,2,3,3,4,4,5,5,6,6,7,7,8,8,9,9,10,10,11,11,12,12,13,13,14,14,15,15,16,16,17,17,18,18,19,19,20,20,21,21,22,22,23,23,24,24,25,25,26,26,27,27,28,28,29,29,30,30,35,35,36,36,37,37,38,38,39,39,40,40,41,41,42,42,43,43,44,44,45,45,46,46,47,47,48,48,50,50,51,51,52,52,53,53,54,54,55,55,59,59,60,60],"right_children":[2,4,6,8,10,12,14,16,18,20,22,24,26,28,30,32,34,36,38,40,42,44,46,48,50,52,54,56,58,60,62,-1,-1,-1,-1,64,66,68,70,72,74,76,78,80,82,84,86,88,90,-1,92,94,96,98,100,102,-1,-1,-1,104,106,-1,-1,-1,-1,-1,-1,-1,-1,-1,-1,-1,-1,-1,-1,-1,-1,-1,-1,-1,-1,-1,-1,-1,-1,-1,-1,-1,-1,-1,-1,-1,-1,-1,-1,-1,-1,-1,-1,-1,-1,-1,-1,-1,-1,-1,-1],"split_conditions":[7.554857E1,5.1168423E1,1.04555214E2,3.796091E1,6.270524E1,8.5658264E1,2.0080624E7,-1.765E2,5.088095E1,3.23846E-1,1.12E3,1.215E2,1.651901E0,1.21E2,2.0130916E7,4.99905E-1,5.923664E1,4.7035652E1,1.1234516E2,1.692542E0,2.75361E-1,1.796709E0,9.873239E1,1.044E3,-6.3220734E1,7.653E-3,1.03346E2,8.641619E1,-5.65E1,1.2049701E2,5.12044E-1,-2.828295E-1,-1.073364E0,-5.416297E-1,-7.7485996E-1,1.61499E-1,5.16871E-1,7.903394E1,-3.125E1,2.018022E7,5.662E1,1.51227E-1,5.60921E-1,1.03065E-1,2.348465E0,7.545E1,2.0180428E7,2.0091124E7,1.25482E-1,-1.01332285E-1,6.6994484E1,9.414E1,1.87937E-1,1.111E3,-6.975E1,-4.006388E1,5.4355913E-1,6.058482E-1,1.7131977E0,-9.701492E-3,1.065E3,1.321373E-1,5.727078E-1,-4.3251297E-1,-6.162966E-1,-4.2323533E-1,-6.6043854E-2,-1.38339E0,-8.560769E-1,-1.6032021E-1,-4.3299523E-1,-2.1743253E-1,4.554224E-2,-9.171773E-1,-5.824548E-1,-1.21003985E-1,-3.3385703E-1,3.62403E-2,-3.5667074E-1,-5.0775446E-2,-3.404468E-1,1.3825798E-1,-7.12887E-2,-2.5246078E-1,4.8219528E-2,1.4363614E-1,-1.3830452E-1,1.7721757E-1,3.818763E-1,2.6405576E-1,5.0535467E-2,-4.9401623E-1,-1.2880802E-1,6.76012E-1,3.92834E-1,3.176294E-1,2.9879356E-2,4.7946817E-1,7.013944E-1,-2.8781268E-1,2.1842873E-1,4.314158E-1,1.140992E0,6.7926896E-1,9.2920506E-1,6.350009E-1,7.498779E-2],"split_indices":[23,23,23,23,23,23,4,41,23,12,20,41,17,0,4,12,8,23,9,17,16,17,9,19,22,18,23,9,41,7,15,0,0,0,0,14,14,9,41,4,1,13,12,16,17,1,4,4,13,0,8,1,16,20,41,22,0,0,0,34,5,0,0,0,0,0,0,0,0,0,0,0,0,0,0,0,0,0,0,0,0,0,0,0,0,0,0,0,0,0,0,0,0,0,0,0,0,0,0,0,0,0,0,0,0,0,0],"split_type":[0,0,0,0,0,0,0,0,0,0,0,0,0,0,0,0,0,0,0,0,0,0,0,0,0,0,0,0,0,0,0,0,0,0,0,0,0,0,0,0,0,0,0,0,0,0,0,0,0,0,0,0,0,0,0,0,0,0,0,0,0,0,0,0,0,0,0,0,0,0,0,0,0,0,0,0,0,0,0,0,0,0,0,0,0,0,0,0,0,0,0,0,0,0,0,0,0,0,0,0,0,0,0,0,0,0,0],"sum_hessian":[2.791E3,1.721E3,1.07E3,6.57E2,1.064E3,8.92E2,1.78E2,8.8E1,5.69E2,5.68E2,4.96E2,2.39E2,6.53E2,5.7E1,1.21E2,2.8E1,6E1,5.28E2,4.1E1,6.9E1,4.99E2,3.92E2,1.04E2,2.29E2,1E1,1.8E2,4.73E2,3.1E1,2.6E1,9.5E1,2.6E1,1E0,2.7E1,1.4E1,4.6E1,3.26E2,2.02E2,2.6E1,1.5E1,2.7E1,4.2E1,2.86E2,2.13E2,5.4E1,3.38E2,9.2E1,1.2E1,1.05E2,1.24E2,1E0,9E0,4.1E1,1.39E2,4.45E2,2.8E1,2.6E1,5E0,2E0,2.4E1,7E1,2.5E1,1E0,2.5E1,6.5E1,2.61E2,1.87E2,1.5E1,6E0,2E1,4E0,1.1E1,2E1,7E0,1E1,3.2E1,2.37E2,4.9E1,1.2E1,2.01E2,2.7E1,2.7E1,2E2,1.38E2,8.8E1,4E0,1.1E1,1E0,2.7E1,7.8E1,5E1,7.4E1,8E0,1E0,2.6E1,1.5E1,1.06E2,3.3E1,1.98E2,2.47E2,8E0,2E1,2E0,2.4E1,2E1,5E1,2.4E1,1E0],"tree_param":{"num_deleted":"0","num_feature":"42","num_nodes":"107","size_leaf_vector":"1"}},{"base_weights":[3.2647923E-2,-2.6526222E0,5.067142E0,-5.06363E0,-1.2981961E0,4.287181E0,8.501215E0,-7.3544993E0,-4.661431E0,-2.3103733E0,8.4727794E-2,4.0899334E0,9.0623045E0,1.0609721E1,6.7753944E0,-9.152955E0,-6.0804067E0,-4.380171E0,-7.7079554E0,-4.520933E0,-2.0446382E0,1.1876105E0,-8.543088E-1,3.3668392E0,5.057115E0,9.9400714E-2,9.306245E-1,2.754453E-1,1.0782469E1,7.926853E-1,5.928144E0,-4.1269618E-1,-9.637107E0,-6.37373E-1,-4.0350828E-1,-5.0423837E0,-3.4517844E0,-1.1095287E1,-5.82028E0,-6.846024E0,-2.9017823E0,-1.4229286E0,-2.8987648E0,3.7538762E0,7.221335E-1,-6.309986E-2,-2.2445066E0,3.5489218E0,-3.5710326E-1,5.498686E0,6.347479E-1,1.1061302E1,5.732342E-1,1.366869E-1,6.1405053E0,-3.911981E-1,-9.880277E-1,-4.7985435E-1,-7.565325E-1,-3.7528092E-1,-1.8064661E-2,-4.821086E-1,-1.2262081E0,-8.19798E-1,-3.6476088E-1,-6.9568634E-1,-1.9266815E-1,-1.6506307E-1,-4.909936E-1,-1.17913775E-1,-4.030343E-1,-4.3170443E-1,-2.3389868E-1,8.359394E-2,4.0092912E-1,1.10034905E-1,-1.5054122E-1,-9.4020724E-2,1.3768904E-1,-6.380892E-2,-3.2138786E-1,5.9212095E-1,3.3865032E-1,1.4803483E-1,-1.8585543E-1,7.33491E-1,4.7729874E-1,-2.4202402E-1,3.8510856E-1,4.589735E-1,1.128257E0,5.799004E-1,1.0468369E0],"categories":[],"categories_nodes":[],"categories_segments":[],"categories_sizes":[],"default_left":[1,1,0,1,0,0,0,1,0,0,0,0,0,0,0,0,0,0,0,0,0,0,0,0,0,0,0,0,0,0,0,0,0,0,0,0,0,0,0,0,0,0,0,0,0,0,0,0,0,0,0,0,0,0,0,0,0,0,0,0,0,0,0,0,0,0,0,0,0,0,0,0,0,0,0,0,0,0,0,0,0,0,0,0,0,0,0,0,0,0,0,0,0],"id":16,"left_children":[1,3,5,7,9,11,13,15,17,19,21,23,25,27,29,31,33,35,37,39,41,43,45,47,49,-1,-1,-1,51,-1,53,-1,55,-1,-1,57,59,61,63,65,67,69,71,73,75,77,79,81,83,85,87,89,-1,-1,91,-1,-1,-1,-1,-1,-1,-1,-1,-1,-1,-1,-1,-1,-1,-1,-1,-1,-1,-1,-1,-1,-1,-1,-1,-1,-1,-1,-1,-1,-1,-1,-1,-1,-1,-1,-1,-1,-1],"loss_changes":[3.6960805E4,5.815869E3,2.5107559E3,5.563262E2,1.6001265E3,6.9477734E2,5.6492285E2,1.597378E2,4.3580176E2,3.784558E2,5.0226788E2,5.0609766E2,4.9795166E1,7.478711E1,4.9590332E1,5.0261963E1,9.077881E0,2.9244824E2,2.2316064E2,2.4366138E2,3.0970703E2,2.6367117E2,2.8804187E2,2.9351318E2,6.174961E2,0E0,0E0,0E0,4.2203125E1,0E0,5.0693848E1,0E0,7.290283E0,0E0,0E0,1.4333447E2,2.0906201E2,5.069397E1,1.3024182E2,1.8634033E0,9.993323E1,2.1391608E2,1.8679492E2,2.198816E1,1.6173004E2,2.1348294E2,1.4588474E2,1.383081E2,6.068701E1,3.500957E2,3.0409674E2,4.845215E1,0E0,0E0,2.5016357E1,0E0,0E0,0E0,0E0,0E0,0E0,0E0,0E0,0E0,0E0,0E0,0E0,0E0,0E0,0E0,0E0,0E0,0E0,0E0,0E0,0E0,0E0,0E0,0E0,0E0,0E0,0E0,0E0,0E0,0E0,0E0,0E0,0E0,0E0,0E0,0E0,0E0,0E0],"parents":[2147483647,0,0,1,1,2,2,3,3,4,4,5,5,6,6,7,7,8,8,9,9,10,10,11,11,12,12,13,13,14,14,15,15,16,16,17,17,18,18,19,19,20,20,21,21,22,22,23,23,24,24,28,28,30,30,32,32,35,35,36,36,37,37,38,38,39,39,40,40,41,41,42,42,43,43,44,44,45,45,46,46,47,47,48,48,49,49,50,50,51,51,54,54],"right_children":[2,4,6,8,10,12,14,16,18,20,22,24,26,28,30,32,34,36,38,40,42,44,46,48,50,-1,-1,-1,52,-1,54,-1,56,-1,-1,58,60,62,64,66,68,70,72,74,76,78,80,82,84,86,88,90,-1,-1,92,-1,-1,-1,-1,-1,-1,-1,-1,-1,-1,-1,-1,-1,-1,-1,-1,-1,-1,-1,-1,-1,-1,-1,-1,-1,-1,-1,-1,-1,-1,-1,-1,-1,-1,-1,-1,-1,-1],"split_conditions":[7.840263E1,5.1168423E1,1.04555214E2,3.796091E1,6.429318E1,6.70376E-1,2.0080808E7,-1.765E2,5.088095E1,3.23846E-1,5.1065E-2,9.4828575E1,8.788E1,-1.5725E2,9.191491E1,4.99905E-1,2.020052E7,4.6855713E1,8.392849E1,2.0150112E7,2.75361E-1,1.04744E-1,1.06E3,2.0140924E7,1.03346E2,9.9400714E-2,9.306245E-1,2.754453E-1,9.9756714E1,7.926853E-1,-1.04E0,-4.1269618E-1,-4.96E0,-6.37373E-1,-4.0350828E-1,4.40087E-1,5.16871E-1,2.0150722E7,1.4232E-2,3.2E-1,2.99771E-1,4.58603E-1,5.5721E-2,2.0070814E7,1.46358E-1,3.72314E-1,8.1E2,4.014E-3,9.294338E1,1.58202E-1,8.813494E1,4.5883E-2,5.732342E-1,1.366869E-1,1.052E3,-3.911981E-1,-9.880277E-1,-4.7985435E-1,-7.565325E-1,-3.7528092E-1,-1.8064661E-2,-4.821086E-1,-1.2262081E0,-8.19798E-1,-3.6476088E-1,-6.9568634E-1,-1.9266815E-1,-1.6506307E-1,-4.909936E-1,-1.17913775E-1,-4.030343E-1,-4.3170443E-1,-2.3389868E-1,8.359394E-2,4.0092912E-1,1.10034905E-1,-1.5054122E-1,-9.4020724E-2,1.3768904E-1,-6.380892E-2,-3.2138786E-1,5.9212095E-1,3.3865032E-1,1.4803483E-1,-1.8585543E-1,7.33491E-1,4.7729874E-1,-2.4202402E-1,3.8510856E-1,4.589735E-1,1.128257E0,5.799004E-1,1.0468369E0],"split_indices":[23,23,23,23,23,13,4,41,23,12,18,23,1,41,7,12,4,23,10,4,16,13,19,4,23,0,0,0,10,0,21,0,21,0,0,13,14,4,18,21,12,14,18,4,16,14,5,18,8,13,10,13,0,0,5,0,0,0,0,0,0,0,0,0,0,0,0,0,0,0,0,0,0,0,0,0,0,0,0,0,0,0,0,0,0,0,0,0,0,0,0,0,0],"split_type":[0,0,0,0,0,0,0,0,0,0,0,0,0,0,0,0,0,0,0,0,0,0,0,0,0,0,0,0,0,0,0,0,0,0,0,0,0,0,0,0,0,0,0,0,0,0,0,0,0,0,0,0,0,0,0,0,0,0,0,0,0,0,0,0,0,0,0,0,0,0,0,0,0,0,0,0,0,0,0,0,0,0,0,0,0,0,0,0,0,0,0,0,0],"sum_hessian":[2.732E3,1.782E3,9.5E2,6.4E2,1.142E3,7.76E2,1.74E2,9.3E1,5.47E2,6.59E2,4.83E2,7.47E2,2.9E1,7.6E1,9.8E1,3.6E1,5.7E1,5.03E2,4.4E1,6.9E1,5.9E2,2.22E2,2.61E2,4.3E2,3.17E2,1E0,2.8E1,2E0,7.4E1,3.8E1,6E1,4E0,3.2E1,4.8E1,9E0,2.91E2,2.12E2,1.4E1,3E1,2.7E1,4.2E1,3.43E2,2.47E2,3.3E1,1.89E2,1.67E2,9.4E1,4.1E2,2E1,2.88E2,2.9E1,6.9E1,5E0,3E0,5.7E1,2E0,3E1,2.68E2,2.3E1,1.94E2,1.8E1,3E0,1.1E1,1.3E1,1.7E1,2.6E1,1E0,2.7E1,1.5E1,3.15E2,2.8E1,6.8E1,1.79E2,3E0,3E1,1.62E2,2.7E1,1.04E2,6.3E1,3.6E1,5.8E1,2.4E1,3.86E2,9E0,1.1E1,7.9E1,2.09E2,1.5E1,1.4E1,3E0,6.6E1,5.5E1,2E0],"tree_param":{"num_deleted":"0","num_feature":"42","num_nodes":"93","size_leaf_vector":"1"}},{"base_weights":[-4.0609486E-2,-2.7515304E0,3.994398E0,-4.6838803E0,-1.5030652E0,3.2515802E0,7.8382664E0,-6.2142715E0,-4.304005E0,-2.2983372E0,-4.4834948E-1,1.2717843E0,4.0701265E0,1.0014352E1,5.8930683E0,-7.7310762E0,-5.536706E0,-4.0168085E0,-7.4499016E0,-2.0802164E0,-4.338612E0,5.261092E-1,-1.0625117E0,1.5723982E0,-4.4877763E0,3.4669423E0,6.036321E0,1.155207E1,7.8489017E0,7.675218E0,5.2113547E0,-1.0750644E1,-6.52738E0,-4.804242E0,-6.8230313E-1,-2.270756E0,-4.2527485E0,-8.828029E0,-3.154069E0,-3.8569999E0,-1.7708789E0,-9.0313065E-1,-4.740852E0,1.5576789E0,-3.8654676E-1,-4.809759E0,-8.992598E-1,1.8742965E0,-1.8336788E0,-5.4852357E0,-2.706712E0,2.6852357E0,4.8111634E0,5.017773E0,8.074917E0,8.639164E0,1.2914744E1,8.063363E0,2.6590654E-1,7.8391254E-1,1.87072E-1,4.422301E0,6.0576854E0,-1.1351657E0,-2.9712677E-1,-2.2349644E-1,-6.936699E-1,-4.992275E-1,-2.2172216E-1,-2.4930052E-1,1.4639845E-1,-4.8366484E-1,-3.5059577E-1,-9.461846E-1,-3.5130525E-1,-1.03265636E-1,-4.5218417E-1,-1.38306E-1,-5.2424544E-1,-8.2959495E-2,-2.2216968E-1,-1.2627402E-1,-3.1773854E-2,-4.8428392E-1,-1.5627657E-1,1.0965148E-1,6.210317E-1,-1.6318503E-1,6.6723906E-2,-6.9336236E-1,-8.743973E-2,-7.249177E-2,-3.686897E-1,2.1426633E-1,-1.5993233E-1,-3.1823233E-1,9.2423916E-2,-1.368805E-1,-5.877754E-1,-8.0196194E-2,-2.89051E-1,4.7871876E-1,2.1230042E-1,5.834585E-1,2.800518E-1,5.551805E-1,1.4078593E-1,4.1831622E-1,8.510539E-1,1.3932037E-1,8.9834446E-1,1.3313106E0,4.8917824E-1,8.388672E-1,4.3687183E-1,4.9588495E-1,2.667691E-1,6.2324816E-1,2.2322312E-1],"categories":[],"categories_nodes":[],"categories_segments":[],"categories_sizes":[],"default_left":[0,0,0,0,0,0,0,0,0,0,0,1,0,0,0,0,0,0,0,0,0,0,0,0,0,0,0,0,0,0,0,0,0,0,0,0,0,0,0,0,0,0,0,0,0,0,0,0,0,0,0,0,0,0,0,0,0,0,0,0,0,0,0,0,0,0,0,0,0,0,0,0,0,0,0,0,0,0,0,0,0,0,0,0,0,0,0,0,0,0,0,0,0,0,0,0,0,0,0,0,0,0,0,0,0,0,0,0,0,0,0,0,0,0,0,0,0,0,0],"id":17,"left_children":[1,3,5,7,9,11,13,15,17,19,21,23,25,27,29,31,33,35,37,39,41,43,45,47,49,51,53,55,57,59,61,63,65,67,-1,69,71,73,75,77,79,81,83,85,87,89,91,93,95,97,99,101,103,105,107,109,111,113,-1,-1,-1,115,117,-1,-1,-1,-1,-1,-1,-1,-1,-1,-1,-1,-1,-1,-1,-1,-1,-1,-1,-1,-1,-1,-1,-1,-1,-1,-1,-1,-1,-1,-1,-1,-1,-1,-1,-1,-1,-1,-1,-1,-1,-1,-1,-1,-1,-1,-1,-1,-1,-1,-1,-1,-1,-1,-1,-1,-1],"loss_changes":[3.0540588E4,4.021787E3,3.1781523E3,3.54042E2,8.51176E2,1.5213857E3,7.0714355E2,8.874512E1,4.4711816E2,2.4864502E2,2.626913E2,4.8665543E2,7.689336E2,1.8903516E2,7.906323E1,6.4308105E1,5.390161E1,1.9055713E2,2.2672485E2,2.817234E2,7.172217E1,1.6065173E2,1.6023422E2,2.7490527E2,1.0024597E1,5.250835E2,2.813252E2,7.4987305E1,2.085376E1,9.120117E0,2.2628296E1,8.350708E0,3.544861E1,1.9090698E1,0E0,5.34523E1,1.692373E2,7.4559326E1,3.014981E1,2.566692E2,1.8868921E2,1.0723667E0,8.313843E0,1.648407E2,1.2050659E2,8.58772E1,1.2320195E2,2.2995227E2,8.476915E1,4.880707E0,1.3254547E-1,3.7509814E2,3.6845752E2,1.965315E2,4.916577E1,3.2387817E1,3.0756348E1,6.6203613E0,0E0,0E0,0E0,2.6311523E1,8.153809E0,0E0,0E0,0E0,0E0,0E0,0E0,0E0,0E0,0E0,0E0,0E0,0E0,0E0,0E0,0E0,0E0,0E0,0E0,0E0,0E0,0E0,0E0,0E0,0E0,0E0,0E0,0E0,0E0,0E0,0E0,0E0,0E0,0E0,0E0,0E0,0E0,0E0,0E0,0E0,0E0,0E0,0E0,0E0,0E0,0E0,0E0,0E0,0E0,0E0,0E0,0E0,0E0,0E0,0E0,0E0,0E0],"parents":[2147483647,0,0,1,1,2,2,3,3,4,4,5,5,6,6,7,7,8,8,9,9,10,10,11,11,12,12,13,13,14,14,15,15,16,